tree
version=v4
num_class=1
num_tree_per_iteration=1
label_index=0
max_feature_idx=59
objective=regression
feature_names=Column_0 Column_1 Column_2 Column_3 Column_4 Column_5 Column_6 Column_7 Column_8 Column_9 Column_10 Column_11 Column_12 Column_13 Column_14 Column_15 Column_16 Column_17 Column_18 Column_19 Column_20 Column_21 Column_22 Column_23 Column_24 Column_25 Column_26 Column_27 Column_28 Column_29 Column_30 Column_31 Column_32 Column_33 Column_34 Column_35 Column_36 Column_37 Column_38 Column_39 Column_40 Column_41 Column_42 Column_43 Column_44 Column_45 Column_46 Column_47 Column_48 Column_49 Column_50 Column_51 Column_52 Column_53 Column_54 Column_55 Column_56 Column_57 Column_58 Column_59
feature_infos=[-0.12934362888336182:11.530960083007812] [-3.3586874008178711:0.78402227163314819] [-3.194098949432373:0.82759249210357666] [-0.15760420262813568:9.9389553070068359] none [-0.90633219480514526:2.6618049144744873] [-2.9815382957458496:0.88004320859909058] none [-0.15753756463527679:10.216580390930176] [-3.0471069812774658:0.91468006372451782] [-3.2308847904205322:0.79387599229812622] [-0.64628815650939941:12.197320938110352] [-0.58769351243972778:2.878382682800293] [-3.1112504005432129:0.83315163850784302] none [-0.55808615684509277:3.052631139755249] [-0.89467006921768188:2.7335147857666016] [-3.0932819843292236:0.8930213451385498] [-0.15285339951515198:9.6904067993164062] [-0.56093353033065796:2.9823663234710693] [-0.13176007568836212:10.601140022277832] [-0.16312748193740845:9.7121429443359375] none [-2.9227349758148193:1.0409246683120728] [-3.4110832214355469:0.75208413600921631] none [-0.15522538125514984:9.92376708984375] none none [-0.18593384325504303:10.12990665435791] [-2.2810885906219482:1.3583050966262817] [-1.5941907167434692:1.6167721748352051] [-2.1178750991821289:1.3921903371810913] [-1.9041005373001099:1.4490787982940674] [-1.2315825223922729:1.5587316751480103] [-0.73276722431182861:2.8631839752197266] [-1.618363618850708:1.5134233236312866] [-2.5046558380126953:3.9439539909362793] [-1.8034244775772095:1.5003002882003784] [-0.74516165256500244:3.0611245632171631] [-1.6370750665664673:1.9449766874313354] [-1.9560014009475708:1.4316788911819458] [-2.207794189453125:2.4343400001525879] [-0.68910771608352661:2.965458869934082] [-1.0205440521240234:1.8655523061752319] [-1.9695252180099487:1.4760550260543823] [-0.99358600378036499:1.9591584205627441] [-0.71391797065734863:2.9540872573852539] [-1.0366982221603394:3.0968499183654785] [-2.2028281688690186:1.3676408529281616] [-1.2193194627761841:1.5863873958587646] [-1.767941951751709:1.4791704416275024] [-0.77274179458618164:2.6326158046722412] [-3.2744944095611572:2.9527204036712646] [-1.0177978277206421:1.9367707967758179] [-0.46917155385017395:4.4768013954162598] [-1.6175791025161743:1.5622831583023071] [-2.1676440238952637:1.3844804763793945] [-0.7523655891418457:2.8815679550170898] [-0.65528023242950439:3.837968111038208]
tree_sizes=706 714 719 713 717 717 717 711 725 719 724 718 718 726 717 725 716 708 721 711 718 706 707 715 707 716 706 706 709 711 716 706 708 709 707 707 709 706 712 710 710 711 711 710 718 708 708 709 707 711 715 709 709 708 708 706 713 707 708 708 704 707 712 708 707 707 713 708 704 709 712 712 710 715 712 711 713 712 710 710 711 710 713 712 709 712 706 709 707 707 708 707 706 706 706 712 709 706 707 714

Tree=0
num_leaves=7
num_cat=0
split_feature=52 52 5 34 40 11
split_gain=1.36298e+06 1.43986e+06 751402 721013 685393 406775
threshold=-0.53100100159645069 -0.7154199182987212 -0.86001691222190846 -1.1752635240554807 -0.7315227985382079 -0.13764125108718869
decision_type=2 2 2 2 2 2
left_child=1 2 -1 -4 5 -2
right_child=4 -3 3 -5 -6 -7
leaf_value=444.07431044267025 446.29099879597345 448.58742739340101 445.39755159121182 447.41092492786083 443.84942194269303 444.69345052131098
leaf_weight=22 28 21 46 29 53 37
leaf_count=22 28 21 46 29 53 37
internal_value=445.453 446.213 445.699 446.176 444.693 445.382
internal_weight=0 118 97 75 118 65
internal_count=236 118 97 75 118 65
is_linear=0
shrinkage=1


Tree=1
num_leaves=7
num_cat=0
split_feature=52 52 5 44 40 11
split_gain=1.33586e+06 1.41121e+06 736449 712162 671754 398680
threshold=-0.53100100159645069 -0.7154199182987212 -0.86001691222190846 -1.0195482969284055 -0.7315227985382079 -0.13764125108718869
decision_type=2 2 2 2 2 2
left_child=1 2 -1 -4 5 -2
right_child=4 -3 3 -5 -6 -7
leaf_value=-1.3652885575727984 0.82923288072858536 3.1026972086089 0.026400412940979005 2.0935175846099852 -1.5879282070555778 -0.75233990643475512
leaf_weight=22 28 21 50 25 53 37
leaf_count=22 28 21 50 25 53 37
internal_value=0 0.752358 0.243522 0.715439 -0.752358 -0.071047
internal_weight=0 118 97 75 118 65
internal_count=236 118 97 75 118 65
is_linear=0
shrinkage=0.01


Tree=2
num_leaves=7
num_cat=0
split_feature=52 52 5 34 40 11
split_gain=1.30928e+06 1.38312e+06 721794 698175 658386 390747
threshold=-0.53100100159645069 -0.7154199182987212 -0.86001691222190846 -1.1752635240554807 -0.7315227985382079 -0.13764125108718869
decision_type=2 2 2 2 2 2
left_child=1 2 -1 -4 5 -2
right_child=4 -3 3 -5 -6 -7
leaf_value=-1.3516356381503019 0.82094048363821848 3.0716701253255208 -0.057790726267773172 1.9234397766507905 -1.5720489386792453 -0.74481650068953231
leaf_weight=22 28 21 46 29 53 37
leaf_count=22 28 21 46 29 53 37
internal_value=0 0.744834 0.241087 0.708285 -0.744834 -0.0703366
internal_weight=0 118 97 75 118 65
internal_count=236 118 97 75 118 65
is_linear=0
shrinkage=0.01


Tree=3
num_leaves=7
num_cat=0
split_feature=52 52 5 44 40 31
split_gain=1.28322e+06 1.3556e+06 707430 689636 645284 388454
threshold=-0.53100100159645069 -0.7154199182987212 -0.86001691222190846 -1.0195482969284055 -0.7315227985382079 0.87401762604713451
decision_type=2 2 2 2 2 2
left_child=1 2 -1 -4 -2 -6
right_child=4 -3 3 -5 5 -7
leaf_value=-1.3381193412433969 -0.069633161031282864 3.0409535075937 0.023148109817504887 2.0573104120254517 -2.2775396357813191 -0.54007628896019677
leaf_weight=22 65 21 50 25 31 22
leaf_count=22 65 21 50 25 31 22
internal_value=0 0.737386 0.238676 0.701202 -0.737386 -1.55633
internal_weight=0 118 97 75 118 53
internal_count=236 118 97 75 118 53
is_linear=0
shrinkage=0.01


Tree=4
num_leaves=7
num_cat=0
split_feature=52 52 5 34 40 11
split_gain=1.25769e+06 1.32862e+06 693352 676061 632443 382971
threshold=-0.53100100159645069 -0.7154199182987212 -0.86001691222190846 -1.1752635240554807 -0.7315227985382079 -0.13764125108718869
decision_type=2 2 2 2 2 2
left_child=1 2 -1 -4 5 -2
right_child=4 -3 3 -5 -6 -7
leaf_value=-1.324738083752719 0.81342746462140769 3.0105440214702059 -0.059655362108479375 1.8899450834866227 -1.5407651181490918 -0.73667198993064265
leaf_weight=22 28 21 46 29 53 37
leaf_count=22 28 21 46 29 53 37
internal_value=0 0.730012 0.236289 0.69419 -0.730012 -0.0689368
internal_weight=0 118 97 75 118 65
internal_count=236 118 97 75 118 65
is_linear=0
shrinkage=0.01


Tree=5
num_leaves=7
num_cat=0
split_feature=52 52 5 44 40 31
split_gain=1.23266e+06 1.30218e+06 679555 667823 619858 380724
threshold=-0.53100100159645069 -0.7154199182987212 -0.86001691222190846 -1.0195482969284055 -0.7315227985382079 0.87401762604713451
decision_type=2 2 2 2 2 2
left_child=1 2 -1 -4 -2 -6
right_child=4 -3 3 -5 5 -7
leaf_value=-1.3114907082644376 -0.068247465720543507 2.9804385537192934 0.020003901147842406 2.0217370290756227 -2.2393566356166716 -0.51926785035566847
leaf_weight=22 65 21 50 25 31 22
leaf_count=22 65 21 50 25 31 22
internal_value=0 0.722712 0.233926 0.687248 -0.722712 -1.52536
internal_weight=0 118 97 75 118 53
internal_count=236 118 97 75 118 53
is_linear=0
shrinkage=0.01


Tree=6
num_leaves=7
num_cat=0
split_feature=52 52 5 34 40 11
split_gain=1.20813e+06 1.27627e+06 666032 654647 607522 375350
threshold=-0.53100100159645069 -0.7154199182987212 -0.86001691222190846 -1.1752635240554807 -0.7315227985382079 -0.13764125108718869
decision_type=2 2 2 2 2 2
left_child=1 2 -1 -4 5 -2
right_child=4 -3 3 -5 -6 -7
leaf_value=-1.2983757955377753 0.8059756687709263 2.9506342002323698 -0.061434659128603734 1.8570406048873376 -1.5101038779852525 -0.72862283874202416
leaf_weight=22 28 21 46 29 53 37
leaf_count=22 28 21 46 29 53 37
internal_value=0 0.715485 0.231587 0.680376 -0.715485 -0.067565
internal_weight=0 118 97 75 118 65
internal_count=236 118 97 75 118 65
is_linear=0
shrinkage=0.01


Tree=7
num_leaves=7
num_cat=0
split_feature=52 52 5 44 40 31
split_gain=1.18409e+06 1.25087e+06 652777 646699 595433 373148
threshold=-0.53100100159645069 -0.7154199182987212 -0.86001691222190846 -1.0195482969284055 -0.7315227985382079 0.87401762604713451
decision_type=2 2 2 2 2 2
left_child=1 2 -1 -4 -2 -6
right_child=4 -3 3 -5 5 -7
leaf_value=-1.285392044240778 -0.066889353825495795 2.9211277471269881 0.016964925956726076 1.9867862422943117 -2.2018619131272841 -0.4989741138978438
leaf_weight=22 65 21 50 25 31 22
leaf_count=22 65 21 50 25 31 22
internal_value=0 0.70833 0.229271 0.673572 -0.70833 -1.495
internal_weight=0 118 97 75 118 53
internal_count=236 118 97 75 118 53
is_linear=0
shrinkage=0.01


Tree=8
num_leaves=7
num_cat=0
split_feature=35 15 54 40 31 11
split_gain=1.16085e+06 1.21218e+06 1.86557e+06 517015 418539 396932
threshold=-0.55100753903388966 -0.55807766318321217 -1.0084555149078367 -0.7315227985382079 0.87401762604713451 -0.13764125108718869
decision_type=2 2 2 2 2 2
left_child=1 -1 -3 5 -5 -2
right_child=3 2 -4 4 -6 -7
leaf_value=-0.88302749774035294 0.76633513483507887 0.014195917170980704 3.0304284470790139 -2.1528824427723885 -0.30880260288715361 -0.78714102079993797
leaf_weight=34 29 46 37 32 20 38
leaf_count=34 29 46 37 32 20 38
internal_value=0 0.707316 1.35878 -0.695428 -1.44362 -0.114741
internal_weight=0 117 83 119 52 67
internal_count=236 117 83 119 52 67
is_linear=0
shrinkage=0.01


Tree=9
num_leaves=7
num_cat=0
split_feature=52 52 5 34 40 11
split_gain=1.14222e+06 1.20991e+06 631717 625847 575572 360395
threshold=-0.53100100159645069 -0.7154199182987212 -0.86001691222190846 -1.1752635240554807 -0.7315227985382079 -0.13764125108718869
decision_type=2 2 2 2 2 2
left_child=1 2 -1 -4 5 -2
right_child=4 -3 3 -5 -6 -7
leaf_value=-1.2654866782101717 0.79092147009713321 2.8719624272982283 -0.063691874587017555 1.8121092684515592 -1.4691355581328553 -0.71279626124614004
leaf_weight=22 28 21 46 29 53 37
leaf_count=22 28 21 46 29 53 37
internal_value=0 0.695694 0.224543 0.661618 -0.695694 -0.0650409
internal_weight=0 118 97 75 118 65
internal_count=236 118 97 75 118 65
is_linear=0
shrinkage=0.01


Tree=10
num_leaves=7
num_cat=0
split_feature=35 15 54 40 31 11
split_gain=1.1195e+06 1.17162e+06 1.81461e+06 496604 411461 381576
threshold=-0.55100753903388966 -0.55807766318321217 -1.0084555149078367 -0.7315227985382079 0.87401762604713451 -0.13764125108718869
decision_type=2 2 2 2 2 2
left_child=1 -1 -3 5 -5 -2
right_child=3 2 -4 4 -6 -7
leaf_value=-0.86890280379968532 0.75004500421984444 0.0089818750257077435 2.9837334975278056 -2.1194443972408772 -0.29102315466105938 -0.77308506011962896
leaf_weight=34 29 46 37 32 20 38
leaf_count=34 29 46 37 32 20 38
internal_value=0 0.694604 1.33508 -0.68293 -1.41621 -0.11382
internal_weight=0 117 83 119 52 67
internal_count=236 117 83 119 52 67
is_linear=0
shrinkage=0.01


Tree=11
num_leaves=7
num_cat=0
split_feature=52 52 5 20 34 40
split_gain=1.10184e+06 1.17026e+06 611352 609930 778883 556411
threshold=-0.53100100159645069 -0.7154199182987212 -0.86001691222190846 -0.13172912597656247 -1.1788941025733946 -0.7315227985382079
decision_type=2 2 2 2 2 2
left_child=1 2 -1 4 -4 -2
right_child=5 -3 3 -5 -6 -7
leaf_value=-1.2458940644697709 -0.063220858023716853 2.8235964264188493 0.098024940967559829 -0.31416933407102315 2.8888729000091553 -1.4437458552878772
leaf_weight=22 65 21 20 35 20 53
leaf_count=22 65 21 20 35 20 53
internal_value=0 0.683287 0.219921 0.649894 1.49345 -0.683287
internal_weight=0 118 97 75 40 118
internal_count=236 118 97 75 40 118
is_linear=0
shrinkage=0.01


Tree=12
num_leaves=7
num_cat=0
split_feature=52 52 5 20 34 40
split_gain=1.07991e+06 1.14697e+06 599186 597793 763384 545338
threshold=-0.53100100159645069 -0.7154199182987212 -0.86001691222190846 -0.13172912597656247 -1.1788941025733946 -0.7315227985382079
decision_type=2 2 2 2 2 2
left_child=1 2 -1 4 -4 -2
right_child=5 -3 3 -5 -6 -7
leaf_value=-1.2334350481900302 -0.062588653527773347 2.7953605315798802 0.097044699668884293 -0.31102763802664624 2.8599842462539677 -1.4293084275947427
leaf_weight=22 65 21 20 35 20 53
leaf_count=22 65 21 20 35 20 53
internal_value=0 0.676454 0.217722 0.643395 1.47851 -0.676454
internal_weight=0 118 97 75 40 118
internal_count=236 118 97 75 40 118
is_linear=0
shrinkage=0.01


Tree=13
num_leaves=7
num_cat=0
split_feature=35 15 54 40 31 11
split_gain=1.06068e+06 1.11419e+06 1.74947e+06 466532 404840 373750
threshold=-0.55100753903388966 -0.55807766318321217 -1.0084555149078367 -0.7315227985382079 0.87401762604713451 -0.13764125108718869
decision_type=2 2 2 2 2 2
left_child=1 -1 -3 5 -5 -2
right_child=3 2 -4 4 -6 -7
leaf_value=-0.848596234181348 0.74182171459855706 -0.0013873685961184295 2.9194871711730959 -2.0730316830426454 -0.25938243937492372 -0.76560788455762363
leaf_weight=34 29 46 37 32 20 38
leaf_count=34 29 46 37 32 20 38
internal_value=0 0.676111 1.30069 -0.664747 -1.37547 -0.113138
internal_weight=0 117 83 119 52 67
internal_count=236 117 83 119 52 67
is_linear=0
shrinkage=0.01


Tree=14
num_leaves=7
num_cat=0
split_feature=52 52 5 20 34 16
split_gain=1.04175e+06 1.10927e+06 579884 581404 741122 534827
threshold=-0.53100100159645069 -0.7154199182987212 -0.86001691222190846 -0.13172912597656247 -1.1788941025733946 -0.69561719894409169
decision_type=2 2 2 2 2 2
left_child=1 2 -1 4 -4 -2
right_child=5 -3 3 -5 -6 -7
leaf_value=-1.2143275070190429 -1.7922246163122117 2.748181058792841 0.094438049793243412 -0.30922502340589253 2.8167938470840457 -0.26252177633088208
leaf_weight=22 31 21 20 35 20 87
leaf_count=22 31 21 20 35 20 87
internal_value=0 0.664393 0.213263 0.632023 1.45562 -0.664393
internal_weight=0 118 97 75 40 118
internal_count=236 118 97 75 40 118
is_linear=0
shrinkage=0.01


Tree=15
num_leaves=7
num_cat=0
split_feature=35 15 54 40 31 11
split_gain=1.02153e+06 1.0749e+06 1.69958e+06 455120 395569 363824
threshold=-0.55100753903388966 -0.55807766318321217 -1.0084555149078367 -0.7315227985382079 0.87401762604713451 -0.13764125108718869
decision_type=2 2 2 2 2 2
left_child=1 -1 -3 5 -5 -2
right_child=3 2 -4 4 -6 -7
leaf_value=-0.83407225791145778 0.73599048548731305 -0.0063932372176128882 2.872529437864149 -2.043866801299155 -0.25110395380854605 -0.75128825291206969
leaf_weight=34 29 46 37 32 20 38
leaf_count=34 29 46 37 32 20 38
internal_value=0 0.663513 1.27698 -0.652362 -1.35434 -0.107541
internal_weight=0 117 83 119 52 67
internal_count=236 117 83 119 52 67
is_linear=0
shrinkage=0.01


Tree=16
num_leaves=7
num_cat=0
split_feature=52 52 5 20 34 11
split_gain=1.00496e+06 1.07277e+06 561227 565471 719514 520331
threshold=-0.53100100159645069 -0.7154199182987212 -0.86001691222190846 -0.13172912597656247 -1.1788941025733946 -0.24630272388458249
decision_type=2 2 2 2 2 2
left_child=1 2 -1 4 -4 -2
right_child=5 -3 3 -5 -6 -7
leaf_value=-1.1955283286354759 0.56653986895525899 2.7017771938868931 0.091920211791992196 -0.30738401586668834 2.7742951440811159 -1.0142653144781406
leaf_weight=22 27 21 20 35 20 91
leaf_count=22 27 21 20 35 20 91
internal_value=0 0.652556 0.20891 0.620878 1.43311 -0.652556
internal_weight=0 118 97 75 40 118
internal_count=236 118 97 75 40 118
is_linear=0
shrinkage=0.01


Tree=17
num_leaves=7
num_cat=0
split_feature=52 52 5 20 34 40
split_gain=984958 1.05142e+06 550058 554219 705195 516315
threshold=-0.53100100159645069 -0.7154199182987212 -0.86001691222190846 -0.13172912597656247 -1.1788941025733946 -0.7315227985382079
decision_type=2 2 2 2 2 2
left_child=1 2 -1 4 -4 -2
right_child=5 -3 3 -5 -6 -7
leaf_value=-1.1835730535333806 -0.04872296832158015 2.6747594470069522 0.091000991106033324 -0.3043101843084608 2.7465522232055664 -1.378576582625227
leaf_weight=22 65 21 20 35 20 53
leaf_count=22 65 21 20 35 20 53
internal_value=0 0.64603 0.206821 0.614669 1.41878 -0.64603
internal_weight=0 118 97 75 40 118
internal_count=236 118 97 75 40 118
is_linear=0
shrinkage=0.01


Tree=18
num_leaves=7
num_cat=0
split_feature=35 15 54 40 31 11
split_gain=967312 1.02238e+06 1.63848e+06 434889 387273 351332
threshold=-0.55100753903388966 -0.55807766318321217 -1.0084555149078367 -0.7315227985382079 0.87401762604713451 -0.13764125108718869
decision_type=2 2 2 2 2 2
left_child=1 -1 -3 5 -5 -2
right_child=3 2 -4 4 -6 -7
leaf_value=-0.81487280312706445 0.72668296945506128 -0.01613509178161621 2.8105624822668127 -2.0032707549259068 -0.22940693596005438 -0.73484007615792124
leaf_weight=34 29 46 37 32 20 38
leaf_count=34 29 46 37 32 20 38
internal_value=0 0.645666 1.24396 -0.634814 -1.32102 -0.102241
internal_weight=0 117 83 119 52 67
internal_count=236 117 83 119 52 67
is_linear=0
shrinkage=0.01


Tree=19
num_leaves=7
num_cat=0
split_feature=52 52 5 20 34 16
split_gain=950187 1.01672e+06 532374 539021 684602 506319
threshold=-0.53100100159645069 -0.7154199182987212 -0.86001691222190846 -0.13172912597656247 -1.1788941025733946 -0.69561719894409169
decision_type=2 2 2 2 2 2
left_child=1 2 -1 4 -4 -2
right_child=5 -3 3 -5 -6 -7
leaf_value=-1.165236518166282 -1.7318869017401051 2.6294924717857726 0.088623756885528565 -0.30242809786115371 2.705114607810974 -0.24351064456605365
leaf_weight=22 31 21 20 35 20 87
leaf_count=22 31 21 20 35 20 87
internal_value=0 0.634525 0.202625 0.603864 1.39687 -0.634525
internal_weight=0 118 97 75 40 118
internal_count=236 118 97 75 40 118
is_linear=0
shrinkage=0.01


Tree=20
num_leaves=7
num_cat=0
split_feature=35 15 54 40 31 11
split_gain=931604 986307 1.59187e+06 424239 378401 341996
threshold=-0.55100753903388966 -0.55807766318321217 -1.0084555149078367 -0.7315227985382079 0.87401762604713451 -0.13764125108718869
decision_type=2 2 2 2 2 2
left_child=1 -1 -3 5 -5 -2
right_child=3 2 -4 4 -6 -7
leaf_value=-0.80090378130183493 0.72086056150239086 -0.020762763748998228 2.7654404903102567 -1.9751295067742467 -0.22170099949836733 -0.72111248806903239
leaf_weight=34 29 46 37 32 20 38
leaf_count=34 29 46 37 32 20 38
internal_value=0 0.633637 1.22128 -0.622987 -1.30073 -0.0969749
internal_weight=0 117 83 119 52 67
internal_count=236 117 83 119 52 67
is_linear=0
shrinkage=0.01


Tree=21
num_leaves=7
num_cat=0
split_feature=52 52 5 20 34 40
split_gain=916670 983130 515282 524246 664614 492658
threshold=-0.53100100159645069 -0.7154199182987212 -0.86001691222190846 -0.13172912597656247 -1.1788941025733946 -0.51576066017150868
decision_type=2 2 2 2 2 2
left_child=1 2 -1 4 -4 -2
right_child=5 -3 3 -5 -6 -7
leaf_value=-1.1471962391246449 -0.2967406124352141 2.5849700273786271 0.08632914590835572 -0.30051190389905658 2.6643401966094973 -1.9019960620005927
leaf_weight=22 94 21 20 35 20 24
leaf_count=22 94 21 20 35 20 24
internal_value=0 0.623233 0.198527 0.593273 1.37533 -0.623233
internal_weight=0 118 97 75 40 118
internal_count=236 118 97 75 40 118
is_linear=0
shrinkage=0.01


Tree=22
num_leaves=7
num_cat=0
split_feature=52 52 5 20 34 11
split_gain=898429 963566 505028 513814 651388 489199
threshold=-0.53100100159645069 -0.7154199182987212 -0.86001691222190846 -0.13172912597656247 -1.1788941025733946 -0.24630272388458249
decision_type=2 2 2 2 2 2
left_child=1 2 -1 4 -4 -2
right_child=5 -3 3 -5 -6 -7
leaf_value=-1.1357242064042525 0.56506207218876592 2.5591203526088173 0.085465888023376471 -0.29750680392129081 2.6376966094970702 -0.96772288400618423
leaf_weight=22 27 21 20 35 20 91
leaf_count=22 27 21 20 35 20 91
internal_value=0 0.617001 0.196542 0.58734 1.36158 -0.617001
internal_weight=0 118 97 75 40 118
internal_count=236 118 97 75 40 118
is_linear=0
shrinkage=0.01


Tree=23
num_leaves=7
num_cat=0
split_feature=35 15 54 40 31 11
split_gain=882611 938256 1.53539e+06 409452 366814 330247
threshold=-0.55100753903388966 -0.55807766318321217 -1.0084555149078367 -0.7315227985382079 0.87401762604713451 -0.13764125108718869
decision_type=2 2 2 2 2 2
left_child=1 -1 -3 5 -5 -2
right_child=3 2 -4 4 -6 -7
leaf_value=-0.78241014915354112 0.71404436571844698 -0.02991145196168319 2.7064224897848597 -1.9362049602344633 -0.20983243599534035 -0.70294317433708597
leaf_weight=34 29 46 37 32 20 38
leaf_count=34 29 46 37 32 20 38
internal_value=0 0.61675 1.1899 -0.606385 -1.27222 -0.0896202
internal_weight=0 117 83 119 52 67
internal_count=236 117 83 119 52 67
is_linear=0
shrinkage=0.01


Tree=24
num_leaves=7
num_cat=0
split_feature=52 52 5 20 34 16
split_gain=866746 931624 488826 499720 632339 478173
threshold=-0.53100100159645069 -0.7154199182987212 -0.86001691222190846 -0.13172912597656247 -1.1788941025733946 -0.69561719894409169
decision_type=2 2 2 2 2 2
left_child=1 2 -1 4 -4 -2
right_child=5 -3 3 -5 -6 -7
leaf_value=-1.118128744472157 -1.6724494909471082 2.5156825873965309 0.083302729129791267 -0.29555517346518384 2.5979370899200438 -0.22603371725685295
leaf_weight=22 31 21 20 35 20 87
leaf_count=22 31 21 20 35 20 87
internal_value=0 0.606024 0.192593 0.577072 1.34062 -0.606024
internal_weight=0 118 97 75 40 118
internal_count=236 118 97 75 40 118
is_linear=0
shrinkage=0.01


Tree=25
num_leaves=7
num_cat=0
split_feature=35 15 54 40 31 11
split_gain=850034 905129 1.49183e+06 399425 358404 321468
threshold=-0.55100753903388966 -0.55807766318321217 -1.0084555149078367 -0.7315227985382079 0.87401762604713451 -0.13764125108718869
decision_type=2 2 2 2 2 2
left_child=1 -1 -3 5 -5 -2
right_child=3 2 -4 4 -6 -7
leaf_value=-0.76897657955394072 0.70821879682869748 -0.034182388575180717 2.6630578221501531 -1.909049872905016 -0.20258098340034486 -0.68980729730505685
leaf_weight=34 29 46 37 32 20 38
leaf_count=34 29 46 37 32 20 38
internal_value=0 0.605261 1.1682 -0.595089 -1.25272 -0.0846915
internal_weight=0 117 83 119 52 67
internal_count=236 117 83 119 52 67
is_linear=0
shrinkage=0.01


Tree=26
num_leaves=7
num_cat=0
split_feature=52 52 5 20 34 40
split_gain=836206 900712 473165 486018 613849 468779
threshold=-0.53100100159645069 -0.7154199182987212 -0.86001691222190846 -0.13172912597656247 -1.1788941025733946 -0.7315227985382079
decision_type=2 2 2 2 2 2
left_child=1 2 -1 4 -4 -2
right_child=5 -3 3 -5 -6 -7
leaf_value=-1.100817664753307 -0.026104595551123988 2.4729598127092633 0.08121650409698486 -0.29357343850817003 2.5588133621215823 -1.2932622202387396
leaf_weight=22 65 21 20 35 20 53
leaf_count=22 65 21 20 35 20 53
internal_value=0 0.595252 0.188738 0.567007 1.32001 -0.595252
internal_weight=0 118 97 75 40 118
internal_count=236 118 97 75 40 118
is_linear=0
shrinkage=0.01


Tree=27
num_leaves=7
num_cat=0
split_feature=52 52 5 20 34 40
split_gain=819565 882787 463749 476346 601633 462831
threshold=-0.53100100159645069 -0.7154199182987212 -0.86001691222190846 -0.13172912597656247 -1.1788941025733946 -0.51576066017150868
decision_type=2 2 2 2 2 2
left_child=1 2 -1 4 -4 -2
right_child=5 -3 3 -5 -6 -7
leaf_value=-1.0898095547069202 -0.2728441314747993 2.4482301784697036 0.080404289722442623 -0.29063768781934468 2.5332252388000489 -1.8287479273478189
leaf_weight=22 94 21 20 35 20 24
leaf_count=22 94 21 20 35 20 24
internal_value=0 0.589299 0.18685 0.561337 1.30681 -0.589299
internal_weight=0 118 97 75 40 118
internal_count=236 118 97 75 40 118
is_linear=0
shrinkage=0.01


Tree=28
num_leaves=7
num_cat=0
split_feature=35 15 24 15 40 31
split_gain=805852 864912 703603 866501 378737 349123
threshold=-0.55100753903388966 -0.20333615690469739 0.51601573824882518 -0.55807766318321217 -0.7315227985382079 0.87401762604713451
decision_type=2 2 2 2 2 2
left_child=1 2 -1 -4 -2 -6
right_child=4 -3 3 -5 5 -7
leaf_value=-0.99569129019072566 -0.082413354774019607 2.427632765997024 -0.50440522091729301 1.8557561776978628 -1.8675668129324914 -0.1833381869792938
leaf_weight=33 67 21 28 35 32 20
leaf_count=33 67 21 28 35 32 20
internal_value=0 0.589321 0.187191 0.806796 -0.579417 -1.21979
internal_weight=0 117 96 63 119 52
internal_count=236 117 96 63 119 52
is_linear=0
shrinkage=0.01


Tree=29
num_leaves=7
num_cat=0
split_feature=35 15 24 15 40 31
split_gain=789815 847701 689601 849257 371200 342176
threshold=-0.55100753903388966 -0.20333615690469739 0.51601573824882518 -0.55807766318321217 -0.7315227985382079 0.87401762604713451
decision_type=2 2 2 2 2 2
left_child=1 2 -1 -4 -2 -6
right_child=4 -3 3 -5 5 -7
leaf_value=-0.98573438817804515 -0.081589221384987906 2.4033564286004929 -0.49936110837118969 1.8371985999516078 -1.8488911220431328 -0.18150482630729678
leaf_weight=33 67 21 28 35 32 20
leaf_count=33 67 21 28 35 32 20
internal_value=0 0.583428 0.185319 0.798728 -0.573623 -1.20759
internal_weight=0 117 96 63 119 52
internal_count=236 117 96 63 119 52
is_linear=0
shrinkage=0.01


Tree=30
num_leaves=7
num_cat=0
split_feature=35 15 54 40 31 11
split_gain=774098 830931 1.42277e+06 363813 335366 314876
threshold=-0.55100753903388966 -0.55807766318321217 -1.0084555149078367 -0.7315227985382079 0.87401762604713451 -0.13764125108718869
decision_type=2 2 2 2 2 2
left_child=1 -1 -3 5 -5 -2
right_child=3 2 -4 4 -6 -7
leaf_value=-0.73911317488726458 0.7039660868151435 -0.057255070624144179 2.5768125049487964 -1.830402210354805 -0.17968973290920257 -0.67965342446377408
leaf_weight=34 29 46 37 32 20 38
leaf_count=34 29 46 37 32 20 38
internal_value=0 0.577594 1.11697 -0.567886 -1.19551 -0.0807733
internal_weight=0 117 83 119 52 67
internal_count=236 117 83 119 52 67
is_linear=0
shrinkage=0.01


Tree=31
num_leaves=7
num_cat=0
split_feature=52 52 11 5 20 34
split_gain=761756 841898 448959 436416 469014 578275
threshold=-0.53100100159645069 -0.7154199182987212 -0.24630272388458249 -0.86001691222190846 -0.13172912597656247 -1.1788941025733946
decision_type=2 2 2 2 2 2
left_child=1 3 -2 -1 5 -5
right_child=2 -3 -4 4 -6 -7
leaf_value=-1.0633471540971235 0.56426750748245802 2.3835045778183708 -0.90412307702578032 0.075750574111938487 -0.30699191052573066 2.4804863433837894
leaf_weight=22 27 21 91 20 35 20
leaf_count=22 27 21 91 20 35 20
internal_value=0 0.568135 -0.568135 0.175117 0.5384 1.27812
internal_weight=0 118 118 97 75 40
internal_count=236 118 118 97 75 40
is_linear=0
shrinkage=0.01


Tree=32
num_leaves=7
num_cat=0
split_feature=52 52 16 5 20 34
split_gain=746597 825144 444990 427731 459681 566768
threshold=-0.53100100159645069 -0.7154199182987212 -0.69561719894409169 -0.86001691222190846 -0.13172912597656247 -1.1788941025733946
decision_type=2 2 2 2 2 2
left_child=1 3 -2 -1 5 -5
right_child=2 -3 -4 4 -6 -7
leaf_value=-1.0527136646617543 -1.5912107084643454 2.3596695273263113 -0.19588560564764612 0.074993039131164549 -0.30392201042175293 2.4556814231872561
leaf_weight=22 31 21 87 20 35 20
leaf_count=22 31 21 87 20 35 20
internal_value=0 0.562454 -0.562454 0.173366 0.533016 1.26534
internal_weight=0 118 118 97 75 40
internal_count=236 118 118 97 75 40
is_linear=0
shrinkage=0.01


Tree=33
num_leaves=7
num_cat=0
split_feature=35 15 24 15 40 31
split_gain=732570 814668 679454 797766 353366 326618
threshold=-0.55100753903388966 -0.20333615690469739 0.51601573824882518 -0.55807766318321217 -0.7315227985382079 0.87401762604713451
decision_type=2 2 2 2 2 2
left_child=1 2 -1 -4 -2 -6
right_child=4 -3 3 -5 5 -7
leaf_value=-0.99079449855920043 -0.07237473840144143 2.3460045078822547 -0.47763054711478098 1.7869873091833932 -1.7975475969910621 -0.16850727081298827
leaf_weight=33 67 21 28 35 32 20
leaf_count=33 67 21 28 35 32 20
internal_value=0 0.561887 0.171611 0.78049 -0.552443 -1.17099
internal_weight=0 117 96 63 119 52
internal_count=236 117 96 63 119 52
is_linear=0
shrinkage=0.01


Tree=34
num_leaves=7
num_cat=0
split_feature=52 52 11 5 20 34
split_gain=718213 803196 434842 413346 453317 552731
threshold=-0.53100100159645069 -0.7154199182987212 -0.24630272388458249 -0.86001691222190846 -0.13172912597656247 -1.1788941025733946
decision_type=2 2 2 2 2 2
left_child=1 3 -2 -1 5 -5
right_child=2 -3 -4 4 -6 -7
leaf_value=-1.0375066193667326 0.56279891826488349 2.3248115049089706 -0.88232219876823847 0.073054217338562016 -0.30979396874564036 2.4240777359008789
leaf_weight=22 27 21 91 20 35 20
leaf_count=22 27 21 91 20 35 20
internal_value=0 0.551659 -0.551659 0.16778 0.521331 1.24857
internal_weight=0 118 118 97 75 40
internal_count=236 118 118 97 75 40
is_linear=0
shrinkage=0.01


Tree=35
num_leaves=7
num_cat=0
split_feature=35 15 24 15 40 31
split_gain=705535 794520 667385 772546 344883 319112
threshold=-0.55100753903388966 -0.20333615690469739 0.51601573824882518 -0.55807766318321217 -0.7315227985382079 0.87401762604713451
decision_type=2 2 2 2 2 2
left_child=1 2 -1 -4 -2 -6
right_child=4 -3 3 -5 5 -7
leaf_value=-0.98603262814608483 -0.067883246887975673 2.3133383033389139 -0.46862507581710816 1.75990942301069 -1.7725466817617417 -0.1623343496322632
leaf_weight=33 67 21 28 35 32 20
leaf_count=33 67 21 28 35 32 20
internal_value=0 0.551422 0.166003 0.76945 -0.542154 -1.15323
internal_weight=0 117 96 63 119 52
internal_count=236 117 96 63 119 52
is_linear=0
shrinkage=0.01


Tree=36
num_leaves=7
num_cat=0
split_feature=35 15 24 15 40 31
split_gain=691495 778709 654104 757172 338020 312762
threshold=-0.55100753903388966 -0.20333615690469739 0.51601573824882518 -0.55807766318321217 -0.7315227985382079 0.87401762604713451
decision_type=2 2 2 2 2 2
left_child=1 2 -1 -4 -2 -6
right_child=4 -3 3 -5 5 -7
leaf_value=-0.97617226571747751 -0.067204402222562201 2.2902049582345145 -0.46393881389072966 1.7423103561401367 -1.754821194410324 -0.16071099591255186
leaf_weight=33 67 21 28 35 32 20
leaf_count=33 67 21 28 35 32 20
internal_value=0 0.545908 0.164343 0.761755 -0.536733 -1.1417
internal_weight=0 117 96 63 119 52
internal_count=236 117 96 63 119 52
is_linear=0
shrinkage=0.01


Tree=37
num_leaves=7
num_cat=0
split_feature=52 52 16 5 20 34
split_gain=678129 776502 426381 393870 449769 536385
threshold=-0.53100100159645069 -0.7154199182987212 -0.69561719894409169 -0.86001691222190846 -0.13172912597656247 -1.1788941025733946
decision_type=2 2 2 2 2 2
left_child=1 3 -2 -1 5 -5
right_child=2 -3 -4 4 -6 -7
leaf_value=-1.0179496513713491 -1.5430607190055232 2.279481300172352 -0.17722137355256354 0.070102805614471436 -0.32414693532671246 2.3861007099151612
leaf_weight=22 31 21 87 20 35 20
leaf_count=22 31 21 87 20 35 20
internal_value=0 0.536044 -0.536044 0.158598 0.503719 1.2281
internal_weight=0 118 118 97 75 40
internal_count=236 118 118 97 75 40
is_linear=0
shrinkage=0.01


Tree=38
num_leaves=7
num_cat=0
split_feature=35 15 24 15 11 42
split_gain=665963 759453 643227 732721 331849 349958
threshold=-0.55100753903388966 -0.20333615690469739 0.51601573824882518 -0.55807766318321217 -0.24630272388458249 -0.75118461251258839
decision_type=2 2 2 2 2 2
left_child=1 2 -1 -4 -2 -6
right_child=4 -3 3 -5 5 -7
leaf_value=-0.97207588195800787 0.32575876524954134 2.2583304087320961 -0.45439991303852628 1.7159344286237446 -0.32539419922101148 -1.6238821558271135
leaf_weight=33 33 21 28 35 51 35
leaf_count=33 33 21 28 35 51 35
internal_value=0 0.535735 0.158917 0.751341 -0.526731 -0.853849
internal_weight=0 117 96 63 119 86
internal_count=236 117 96 63 119 86
is_linear=0
shrinkage=0.01


Tree=39
num_leaves=7
num_cat=0
split_feature=35 15 24 11 40 31
split_gain=652710 744340 630427 730462 326792 302209
threshold=-0.55100753903388966 -0.20333615690469739 0.51601573824882518 0.045070767402648933 -0.7315227985382079 0.87401762604713451
decision_type=2 2 2 2 2 2
left_child=1 2 -1 -4 -2 -6
right_child=4 -3 3 -5 5 -7
leaf_value=-0.96235512935754031 -0.059798950143714454 2.2357471284412203 1.9871909897415727 -0.18869430594974096 -1.7189868819713592 -0.15200103664398193
leaf_weight=33 67 21 27 36 32 20
leaf_count=33 67 21 27 36 32 20
internal_value=0 0.530377 0.157328 0.743828 -0.521463 -1.1163
internal_weight=0 117 96 63 119 52
internal_count=236 117 96 63 119 52
is_linear=0
shrinkage=0.01


Tree=40
num_leaves=7
num_cat=0
split_feature=35 15 24 15 11 42
split_gain=639722 729527 617881 716271 324529 337631
threshold=-0.55100753903388966 -0.20333615690469739 0.51601573824882518 -0.55807766318321217 -0.24630272388458249 -0.75118461251258839
decision_type=2 2 2 2 2 2
left_child=1 2 -1 -4 -2 -6
right_child=4 -3 3 -5 5 -7
leaf_value=-0.9527315781333231 0.32678632216020065 2.2133895601545062 -0.45573996441704884 1.6900933742523194 -0.32067466183035981 -1.5960894222259521
leaf_weight=33 33 21 28 35 51 35
leaf_count=33 33 21 28 35 51 35
internal_value=0 0.525073 0.155754 0.73639 -0.516249 -0.839739
internal_weight=0 117 96 63 119 86
internal_count=236 117 96 63 119 86
is_linear=0
shrinkage=0.01


Tree=41
num_leaves=7
num_cat=0
split_feature=35 15 24 11 11 42
split_gain=626991 715010 605585 714078 318071 330912
threshold=-0.55100753903388966 -0.20333615690469739 0.51601573824882518 0.045070767402648933 -0.24630272388458249 -0.75118461251258839
decision_type=2 2 2 2 2 2
left_child=1 2 -1 -4 -2 -6
right_child=4 -3 3 -5 5 -7
leaf_value=-0.94320428732669714 0.32351842822450577 2.1912556857154484 1.9583656964478671 -0.19297912359237671 -0.31746792623809739 -1.580128517150879
leaf_weight=33 33 21 27 36 51 35
leaf_count=33 33 21 27 36 51 35
internal_value=0 0.519823 0.154197 0.729026 -0.511086 -0.831341
internal_weight=0 117 96 63 119 86
internal_count=236 117 96 63 119 86
is_linear=0
shrinkage=0.01


Tree=42
num_leaves=7
num_cat=0
split_feature=35 15 24 15 40 31
split_gain=614514 700781 593534 700190 314777 289832
threshold=-0.55100753903388966 -0.20333615690469739 0.51601573824882518 -0.55807766318321217 -0.7315227985382079 0.87401762604713451
decision_type=2 2 2 2 2 2
left_child=1 2 -1 -4 -2 -6
right_child=4 -3 3 -5 5 -7
leaf_value=-0.93377222234552559 -0.052877474685213456 2.1693431472778322 -0.45693611417497904 1.6646729038783483 -1.6799916619062425 -0.14542688536643983
leaf_weight=33 67 21 28 35 32 20
leaf_count=33 67 21 28 35 32 20
internal_value=0 0.514624 0.152655 0.721736 -0.505975 -1.08977
internal_weight=0 117 96 63 119 52
internal_count=236 117 96 63 119 52
is_linear=0
shrinkage=0.01


Tree=43
num_leaves=7
num_cat=0
split_feature=35 15 24 11 11 42
split_gain=602285 686835 581723 698062 311054 319216
threshold=-0.55100753903388966 -0.20333615690469739 0.51601573824882518 0.045070767402648933 -0.24630272388458249 -0.75118461251258839
decision_type=2 2 2 2 2 2
left_child=1 2 -1 -4 -2 -6
right_child=4 -3 3 -5 5 -7
leaf_value=-0.9244344890478885 0.3244317644292658 2.1476497123354958 1.9299931317788583 -0.19708801799350315 -0.31290863553682963 -1.5530531311035156
leaf_weight=33 33 21 27 36 51 35
leaf_count=33 33 21 27 36 51 35
internal_value=0 0.509478 0.151128 0.714518 -0.500916 -0.817619
internal_weight=0 117 96 63 119 86
internal_count=236 117 96 63 119 86
is_linear=0
shrinkage=0.01


Tree=44
num_leaves=7
num_cat=0
split_feature=35 15 54 20 40 11
split_gain=590300 681276 1.28651e+06 307485 305861 286223
threshold=-0.55100753903388966 -0.55807766318321217 -1.0084555149078367 -0.13160488754510877 -0.7315227985382079 -0.13764125108718869
decision_type=2 2 2 2 2 2
left_child=1 -1 3 -3 5 -2
right_child=4 2 -4 -5 -6 -7
leaf_value=-0.68786847072489121 0.69891111571213305 0.59326652306776784 2.3809548723375475 -1.0559933583736421 -1.0713787099948295 -0.62025238281802131
leaf_weight=34 29 26 37 20 52 38
leaf_count=34 29 26 37 20 52 38
internal_value=0 0.504383 0.992776 -0.123803 -0.495906 -0.0492712
internal_weight=0 117 83 46 119 67
internal_count=236 117 83 46 119 67
is_linear=0
shrinkage=0.01


Tree=45
num_leaves=7
num_cat=0
split_feature=52 52 16 5 20 34
split_gain=580513 737608 403968 358010 447018 507747
threshold=-0.53100100159645069 -0.7154199182987212 -0.69561719894409169 -0.86001691222190846 -0.13172912597656247 -1.1788941025733946
decision_type=2 2 2 2 2 2
left_child=1 3 -2 -1 5 -5
right_child=2 -3 -4 4 -6 -7
leaf_value=-0.99361818140203295 -1.4761565301495214 2.1951782453627815 -0.14669980280700773 0.05262950229644775 -0.36820244394029894 2.3059544277191164
leaf_weight=22 31 21 87 20 35 20
leaf_count=22 31 21 87 20 35 20
internal_value=0 0.495964 -0.495964 0.128093 0.457128 1.17929
internal_weight=0 118 118 97 75 40
internal_count=236 118 118 97 75 40
is_linear=0
shrinkage=0.01


Tree=46
num_leaves=7
num_cat=0
split_feature=52 52 16 5 20 34
split_gain=568961 722930 395929 350886 438122 497643
threshold=-0.53100100159645069 -0.7154199182987212 -0.69561719894409169 -0.86001691222190846 -0.13172912597656247 -1.1788941025733946
decision_type=2 2 2 2 2 2
left_child=1 3 -2 -1 5 -5
right_child=2 -3 -4 4 -6 -7
leaf_value=-0.98368198308077726 -1.4613949891828721 2.1732264518737794 -0.14523281933247359 0.052103163719177246 -0.36452038574218748 2.2828948879241944
leaf_weight=22 31 21 87 20 35 20
leaf_count=22 31 21 87 20 35 20
internal_value=0 0.491004 -0.491004 0.126812 0.452557 1.1675
internal_weight=0 118 118 97 75 40
internal_count=236 118 118 97 75 40
is_linear=0
shrinkage=0.01


Tree=47
num_leaves=7
num_cat=0
split_feature=35 15 24 11 40 31
split_gain=558586 659926 576413 680031 296691 279035
threshold=-0.55100753903388966 -0.20333615690469739 0.51601573824882518 0.045070767402648933 -0.7315227985382079 0.87401762604713451
decision_type=2 2 2 2 2 2
left_child=1 2 -1 -4 -2 -6
right_child=4 -3 3 -5 5 -7
leaf_value=-0.93125581741333008 -0.042511873752323556 2.0964068984985351 1.8998753425810071 -0.19955582751168144 -1.6283003890514374 -0.12259105014801026
leaf_weight=33 67 21 27 36 32 20
leaf_count=33 67 21 27 36 32 20
internal_value=0 0.490647 0.139387 0.7002 -0.482401 -1.04918
internal_weight=0 117 96 63 119 52
internal_count=236 117 96 63 119 52
is_linear=0
shrinkage=0.01


Tree=48
num_leaves=7
num_cat=0
split_feature=52 52 16 5 20 34
split_gain=548273 707706 386948 342378 429374 485779
threshold=-0.53100100159645069 -0.7154199182987212 -0.69561719894409169 -0.86001691222190846 -0.13172912597656247 -1.1788941025733946
decision_type=2 2 2 2 2 2
left_child=1 3 -2 -1 5 -5
right_child=2 -3 -4 4 -6 -7
leaf_value=-0.97529067126187419 -1.4413165104773737 2.146409778594971 -0.14016751493530713 0.049177124977111818 -0.36544913932255335 2.2532176342010497
leaf_weight=22 31 21 87 20 35 20
leaf_count=22 31 21 87 20 35 20
internal_value=0 0.481995 -0.481995 0.121658 0.443429 1.1512
internal_weight=0 118 118 97 75 40
internal_count=236 118 118 97 75 40
is_linear=0
shrinkage=0.01


Tree=49
num_leaves=7
num_cat=0
split_feature=35 15 24 11 11 42
split_gain=537943 643574 566909 665162 293511 307168
threshold=-0.55100753903388966 -0.20333615690469739 0.51601573824882518 0.045070767402648933 -0.24630272388458249 -0.75118461251258839
decision_type=2 2 2 2 2 2
left_child=1 2 -1 -4 -2 -6
right_child=4 -3 3 -5 5 -7
leaf_value=-0.92716507651589142 0.3283318230600068 2.0672373381115143 1.8772723669475979 -0.19907986508475412 -0.28595215616272945 -1.5024687088557653
leaf_weight=33 33 21 27 36 51 35
leaf_count=33 33 21 27 36 51 35
internal_value=0 0.481496 0.134615 0.690785 -0.473403 -0.781046
internal_weight=0 117 96 63 119 86
internal_count=236 117 96 63 119 86
is_linear=0
shrinkage=0.01


Tree=50
num_leaves=7
num_cat=0
split_feature=35 15 54 20 11 42
split_gain=527238 631774 1.21855e+06 291360 287670 301055
threshold=-0.55100753903388966 -0.55807766318321217 -1.0084555149078367 -0.13160488754510877 -0.24630272388458249 -0.75118461251258839
decision_type=2 2 2 2 2 2
left_child=1 -1 3 -3 -2 -6
right_child=4 2 -4 -5 5 -7
leaf_value=-0.6714400808951434 0.32504845705899327 0.55832436121427098 2.2980105961980049 -1.047109817504883 -0.28309264047473087 -1.4874440397535051
leaf_weight=34 33 26 37 20 51 35
leaf_count=34 33 26 37 20 51 35
internal_value=0 0.476681 0.946996 -0.13969 -0.468669 -0.773236
internal_weight=0 117 83 46 119 86
internal_count=236 117 83 46 119 86
is_linear=0
shrinkage=0.01


Tree=51
num_leaves=7
num_cat=0
split_feature=52 52 16 5 20 34
split_gain=517061 685257 375334 328860 415723 470369
threshold=-0.53100100159645069 -0.7154199182987212 -0.69561719894409169 -0.86001691222190846 -0.13172912597656247 -1.1788941025733946
decision_type=2 2 2 2 2 2
left_child=1 3 -2 -1 5 -5
right_child=2 -3 -4 4 -6 -7
leaf_value=-0.96157755938443279 -1.4128896421001804 2.1058781923566547 -0.13141629006499531 0.040881044149398804 -0.36706236580439977 2.2096811351776124
leaf_weight=22 31 21 87 20 35 20
leaf_count=22 31 21 87 20 35 20
internal_value=0 0.468075 -0.468075 0.113498 0.428854 1.12528
internal_weight=0 118 118 97 75 40
internal_count=236 118 118 97 75 40
is_linear=0
shrinkage=0.01


Tree=52
num_leaves=7
num_cat=0
split_feature=35 15 24 11 40 11
split_gain=507759 621497 559673 649321 282828 268776
threshold=-0.55100753903388966 -0.20333615690469739 0.51601573824882518 0.045070767402648933 -0.7315227985382079 -0.13764125108718869
decision_type=2 2 2 2 2 2
left_child=1 2 -1 -4 5 -2
right_child=4 -3 3 -5 -6 -7
leaf_value=-0.92806826331398717 0.69457957826811689 2.0260972577049619 1.8517960892783272 -0.19968247916963364 -1.0133108408634479 -0.583746307561125
leaf_weight=33 29 21 27 36 52 38
leaf_count=33 29 21 27 36 52 38
internal_value=0 0.467792 0.126913 0.679523 -0.45993 -0.0304411
internal_weight=0 117 96 63 119 67
internal_count=236 117 96 63 119 67
is_linear=0
shrinkage=0.01


Tree=53
num_leaves=7
num_cat=0
split_feature=37 11 11 37 37 33
split_gain=502643 489991 563781 739860 385556 341177
threshold=0.054147947579622276 0.045070767402648933 -0.078956462442874895 0.31604774296283727 0.79147428274154674 -1.0277644395828245
decision_type=2 2 2 2 2 2
left_child=5 2 3 -2 -3 -1
right_child=1 4 -4 -5 -6 -7
leaf_value=0.072014714945917546 1.8319225609870184 -1.1466942643297129 2.0815917767011203 -0.49621440398387423 0.56677888274192811 -1.1156987306183461
leaf_weight=46 21 29 26 39 24 51
leaf_count=46 21 29 26 39 24 51
internal_value=0 0.385525 0.851621 0.318634 -0.370782 -0.552453
internal_weight=0 139 86 60 53 97
internal_count=236 139 86 60 53 97
is_linear=0
shrinkage=0.01


Tree=54
num_leaves=7
num_cat=0
split_feature=52 52 16 5 20 34
split_gain=494569 667454 366787 319403 405228 455751
threshold=-0.53100100159645069 -0.7154199182987212 -0.69561719894409169 -0.86001691222190846 -0.13172912597656247 -1.1788941025733946
decision_type=2 2 2 2 2 2
left_child=1 3 -2 -1 5 -5
right_child=2 -3 -4 4 -6 -7
leaf_value=-0.9516635313901034 -1.3917761787291496 2.0741693760099866 -0.12497747577469925 0.038791762173175807 -0.36717709299496243 2.1736253089904785
leaf_weight=22 31 21 87 20 35 20
leaf_count=22 31 21 87 20 35 20
internal_value=0 0.457781 -0.457781 0.107841 0.418629 1.10621
internal_weight=0 118 118 97 75 40
internal_count=236 118 118 97 75 40
is_linear=0
shrinkage=0.01


Tree=55
num_leaves=7
num_cat=0
split_feature=37 11 11 37 37 33
split_gain=489060 476100 553745 725159 373220 332380
threshold=0.054147947579622276 0.045070767402648933 -0.078956462442874895 0.31604774296283727 0.79147428274154674 -1.0277644395828245
decision_type=2 2 2 2 2 2
left_child=5 2 3 -2 -3 -1
right_child=1 4 -4 -5 -6 -7
leaf_value=0.071427543059639304 1.8096782291503182 -1.128627460372859 2.0586960146977349 -0.49521284519097741 0.55721083978811903 -1.1008738934760001
leaf_weight=46 21 29 26 39 24 51
leaf_count=46 21 29 26 39 24 51
internal_value=0 0.38028 0.839721 0.311499 -0.365229 -0.544937
internal_weight=0 139 86 60 53 97
internal_count=236 139 86 60 53 97
is_linear=0
shrinkage=0.01


Tree=56
num_leaves=7
num_cat=0
split_feature=35 15 24 11 40 31
split_gain=482596 605860 542694 619670 275928 261557
threshold=-0.55100753903388966 -0.20333615690469739 0.51601573824882518 0.045070767402648933 -0.7315227985382079 0.87401762604713451
decision_type=2 2 2 2 2 2
left_child=1 2 -1 -4 -2 -6
right_child=4 -3 3 -5 5 -7
leaf_value=-0.91936464656483041 -0.024171565290707263 1.9946303340366909 1.8088472525830621 -0.19524276336034138 -1.5556657844781876 -0.097876971721649164
leaf_weight=33 67 21 27 36 32 20
leaf_count=33 67 21 27 36 32 20
internal_value=0 0.456054 0.119491 0.663653 -0.448389 -0.994978
internal_weight=0 117 96 63 119 52
internal_count=236 117 96 63 119 52
is_linear=0
shrinkage=0.01


Tree=57
num_leaves=7
num_cat=0
split_feature=37 11 11 37 37 33
split_gain=478612 463683 537485 768665 365512 321632
threshold=0.054147947579622276 0.045070767402648933 -0.080511096864938722 0.31604774296283727 0.79147428274154674 -1.0277644395828245
decision_type=2 2 2 2 2 2
left_child=5 2 3 -2 -3 -1
right_child=1 4 -4 -5 -6 -7
leaf_value=0.067232149372930108 1.8671538059711459 -1.1150005042964015 1.9674145858628409 -0.55485541017431961 0.55333675980567931 -1.0859593239952536
leaf_weight=46 20 29 28 38 24 51
leaf_count=46 20 29 28 38 24 51
internal_value=0 0.376196 0.829607 0.28032 -0.359527 -0.539085
internal_weight=0 139 86 58 53 97
internal_count=236 139 86 58 53 97
is_linear=0
shrinkage=0.01


Tree=58
num_leaves=7
num_cat=0
split_feature=52 52 16 5 20 34
split_gain=470873 646611 359489 309146 391931 438593
threshold=-0.53100100159645069 -0.7154199182987212 -0.69561719894409169 -0.86001691222190846 -0.13172912597656247 -1.1788941025733946
decision_type=2 2 2 2 2 2
left_child=1 3 -2 -1 5 -5
right_child=2 -3 -4 4 -6 -7
leaf_value=-0.94010721770199868 -1.3713359028293242 2.037629864556449 -0.11720395871962624 0.037078044891357423 -0.36480117974962506 2.1313385524749755
leaf_weight=22 31 21 87 20 35 20
leaf_count=22 31 21 87 20 35 20
internal_value=0 0.446679 -0.446679 0.102247 0.408004 1.08421
internal_weight=0 118 118 97 75 40
internal_count=236 118 118 97 75 40
is_linear=0
shrinkage=0.01


Tree=59
num_leaves=7
num_cat=0
split_feature=37 11 11 37 37 33
split_gain=465691 450489 528291 693532 353775 313306
threshold=0.054147947579622276 0.045070767402648933 -0.078956462442874895 0.31604774296283727 0.79147428274154674 -1.0277644395828245
decision_type=2 2 2 2 2 2
left_child=5 2 3 -2 -3 -1
right_child=1 4 -4 -5 -6 -7
leaf_value=0.066659251917963444 1.7672010678336734 -1.0973421542397861 2.0086252663685724 -0.48686597139407428 0.54399143874645239 -1.0715078871857886
leaf_weight=46 21 29 26 39 24 51
leaf_count=46 21 29 26 39 24 51
internal_value=0 0.371083 0.817997 0.302057 -0.354097 -0.531759
internal_weight=0 139 86 60 53 97
internal_count=236 139 86 60 53 97
is_linear=0
shrinkage=0.01


Tree=60
num_leaves=7
num_cat=0
split_feature=52 52 16 5 20 34
split_gain=458585 630495 352969 301766 381626 426718
threshold=-0.53100100159645069 -0.7154199182987212 -0.69561719894409169 -0.86001691222190846 -0.13172912597656247 -1.1788941025733946
decision_type=2 2 2 2 2 2
left_child=1 3 -2 -1 5 -5
right_child=2 -3 -4 4 -6 -7
leaf_value=-0.9291384961388327 -1.357045657557826 2.011811367670695 -0.1143385741902494 0.037183420181274414 -0.35979353523254398 2.102899242401123
leaf_weight=22 31 21 87 20 35 20
leaf_count=22 31 21 87 20 35 20
internal_value=0 0.440812 -0.440812 0.100699 0.402785 1.07004
internal_weight=0 118 118 97 75 40
internal_count=236 118 118 97 75 40
is_linear=0
shrinkage=0.01


Tree=61
num_leaves=7
num_cat=0
split_feature=37 11 11 37 37 33
split_gain=453126 437661 519330 739242 342398 305191
threshold=0.054147947579622276 0.045070767402648933 -0.080511096864938722 0.31604774296283727 0.79147428274154674 -1.0277644395828245
decision_type=2 2 2 2 2 2
left_child=5 2 3 -2 -3 -1
right_child=1 4 -4 -5 -6 -7
leaf_value=0.06608179009479026 1.8227841017246247 -1.0799352527486867 1.9249738868645259 -0.55241776842820023 0.53479204833507543 -1.0572495107089772
leaf_weight=46 20 29 28 38 24 51
leaf_count=46 20 29 28 38 24 51
internal_value=0 0.366043 0.806547 0.266617 -0.348738 -0.524536
internal_weight=0 139 86 58 53 97
internal_count=236 139 86 58 53 97
is_linear=0
shrinkage=0.01


Tree=62
num_leaves=7
num_cat=0
split_feature=35 15 24 15 40 31
split_gain=447387 587941 525395 587506 267676 249851
threshold=-0.55100753903388966 -0.20333615690469739 0.51601573824882518 -0.55807766318321217 -0.7315227985382079 0.87401762604713451
decision_type=2 2 2 2 2 2
left_child=1 2 -1 -4 -2 -6
right_child=4 -3 3 -5 5 -7
leaf_value=-0.9146104257757014 -0.013897160985576574 1.9547562117803665 -0.43669644219534742 1.5067081726619176 -1.5180727481842042 -0.093279148578643806
leaf_weight=33 67 21 28 35 32 20
leaf_count=33 67 21 28 35 32 20
internal_value=0 0.439103 0.107554 0.642973 -0.431723 -0.970075
internal_weight=0 117 96 63 119 52
internal_count=236 117 96 63 119 52
is_linear=0
shrinkage=0.01


Tree=63
num_leaves=7
num_cat=0
split_feature=37 11 11 37 37 33
split_gain=442461 431379 505910 663292 334259 294581
threshold=0.054147947579622276 0.045070767402648933 -0.078956462442874895 0.31604774296283727 0.79147428274154674 -1.0277644395828245
decision_type=2 2 2 2 2 2
left_child=5 2 3 -2 -3 -1
right_child=1 4 -4 -5 -6 -7
leaf_value=0.061934270858764649 1.7269944036574592 -1.0703768881436053 1.9641757605626031 -0.47738267433949005 0.52504198819398884 -1.0416976872612449
leaf_weight=46 21 29 26 39 24 51
leaf_count=46 21 29 26 39 24 51
internal_value=0 0.361709 0.799041 0.294149 -0.347923 -0.518326
internal_weight=0 139 86 60 53 97
internal_count=236 139 86 60 53 97
is_linear=0
shrinkage=0.01


Tree=64
num_leaves=7
num_cat=0
split_feature=52 52 16 5 20 34
split_gain=435840 607445 345109 289215 371394 410343
threshold=-0.53100100159645069 -0.7154199182987212 -0.69561719894409169 -0.86001691222190846 -0.13172912597656247 -1.1788941025733946
decision_type=2 2 2 2 2 2
left_child=1 3 -2 -1 5 -5
right_child=2 -3 -4 4 -6 -7
leaf_value=-0.912290542342446 -1.3357164309101719 1.9717567843482606 -0.10692305323721348 0.037044119358062746 -0.36064588764735633 2.0627369337081909
leaf_weight=22 31 21 87 20 35 20
leaf_count=22 31 21 87 20 35 20
internal_value=0 0.429742 -0.429742 0.0959033 0.39164 1.04989
internal_weight=0 118 118 97 75 40
internal_count=236 118 118 97 75 40
is_linear=0
shrinkage=0.01


Tree=65
num_leaves=7
num_cat=0
split_feature=37 11 11 37 37 33
split_gain=430533 419073 497581 607378 323466 286926
threshold=0.054147947579622276 0.045070767402648933 -0.070802599191665636 0.31604774296283727 0.79147428274154674 -1.0277644395828245
decision_type=2 2 2 2 2 2
left_child=5 2 3 -2 -3 -1
right_child=1 4 -4 -5 -6 -7
leaf_value=0.061379217894180958 1.6492009158567951 -1.0533312008298676 2.0104170628388722 -0.41943474054336549 0.5161196660995484 -1.0278186216541365
leaf_weight=46 22 29 24 40 24 51
leaf_count=46 22 29 24 40 24 51
internal_value=0 0.356801 0.787849 0.314597 -0.342636 -0.511292
internal_weight=0 139 86 62 53 97
internal_count=236 139 86 62 53 97
is_linear=0
shrinkage=0.01


Tree=66
num_leaves=7
num_cat=0
split_feature=35 15 24 11 40 11
split_gain=425394 573142 509924 567167 261251 244706
threshold=-0.55100753903388966 -0.20333615690469739 0.51601573824882518 0.045070767402648933 -0.7315227985382079 -0.13764125108718869
decision_type=2 2 2 2 2 2
left_child=1 2 -1 -4 5 -2
right_child=4 -3 3 -5 -6 -7
leaf_value=-0.90617837385697797 0.68359774753965186 1.9246306437537783 1.723908153816506 -0.19340286135673523 -0.95283004467303944 -0.53614599748661651
leaf_weight=33 29 21 27 36 52 38
leaf_count=33 29 21 27 36 52 38
internal_value=0 0.428174 0.100824 0.628302 -0.420978 -0.00819721
internal_weight=0 117 96 63 119 67
internal_count=236 117 96 63 119 67
is_linear=0
shrinkage=0.01


Tree=67
num_leaves=7
num_cat=0
split_feature=37 11 11 37 37 33
split_gain=423663 407645 483007 592615 316552 276648
threshold=0.054147947579622276 0.045070767402648933 -0.070802599191665636 0.31604774296283727 0.79147428274154674 -1.0277644395828245
decision_type=2 2 2 2 2 2
left_child=5 2 3 -2 -3 -1
right_child=1 4 -4 -5 -6 -7
leaf_value=0.055124969067780867 1.6310878914052791 -1.0389498898078655 1.9836029263337454 -0.41225308370590213 0.51363731622695918 -1.0143877942889343
leaf_weight=46 22 29 24 40 24 51
leaf_count=46 22 29 24 40 24 51
internal_value=0 0.353943 0.779073 0.312803 -0.335892 -0.507196
internal_weight=0 139 86 62 53 97
internal_count=236 139 86 62 53 97
is_linear=0
shrinkage=0.01


Tree=68
num_leaves=7
num_cat=0
split_feature=37 11 11 37 37 33
split_gain=415232 399532 473395 580822 310253 271143
threshold=0.054147947579622276 0.045070767402648933 -0.070802599191665636 0.31604774296283727 0.79147428274154674 -1.0277644395828245
decision_type=2 2 2 2 2 2
left_child=5 2 3 -2 -3 -1
right_child=1 4 -4 -5 -6 -7
leaf_value=0.054573718050251838 1.614776981093667 -1.028560398036036 1.9637669539451599 -0.40813057470321651 0.508500947256883 -1.0042438994201959
leaf_weight=46 22 29 24 40 24 51
leaf_count=46 22 29 24 40 24 51
internal_value=0 0.350403 0.771282 0.309675 -0.332533 -0.502124
internal_weight=0 139 86 62 53 97
internal_count=236 139 86 62 53 97
is_linear=0
shrinkage=0.01


Tree=69
num_leaves=7
num_cat=0
split_feature=52 52 40 5 20 34
split_gain=412136 585312 341433 278798 358564 392757
threshold=-0.53100100159645069 -0.7154199182987212 -0.51576066017150868 -0.86001691222190846 -0.13172912597656247 -1.1788941025733946
decision_type=2 2 2 2 2 2
left_child=1 3 -2 -1 5 -5
right_child=2 -3 -4 4 -6 -7
leaf_value=-0.89967828111215076 -0.14608961501020068 1.9315543479011172 -1.482451454003652 0.036429458618164066 -0.35862316826411655 2.0182380542755127
leaf_weight=22 94 21 24 20 35 20
leaf_count=22 94 21 24 20 35 20
internal_value=0 0.417892 -0.417892 0.0901919 0.380554 1.02733
internal_weight=0 118 118 97 75 40
internal_count=236 118 118 97 75 40
is_linear=0
shrinkage=0.01


Tree=70
num_leaves=7
num_cat=0
split_feature=35 15 24 15 40 11
split_gain=405192 558435 494333 551192 253303 236785
threshold=-0.55100753903388966 -0.20333615690469739 0.51601573824882518 -0.55807766318321217 -0.7315227985382079 -0.13764125108718869
decision_type=2 2 2 2 2 2
left_child=1 2 -1 -4 5 -2
right_child=4 -3 3 -5 -6 -7
leaf_value=-0.8967277919884884 0.67610055068443564 1.8950154349917459 -0.43165798872709277 1.450727144241333 -0.93455946390445421 -0.52374102617564955
leaf_weight=33 29 21 28 35 52 38
leaf_count=33 29 21 28 35 52 38
internal_value=0 0.417883 0.0947605 0.614112 -0.41086 -0.00440661
internal_weight=0 117 96 63 119 67
internal_count=236 117 96 63 119 67
is_linear=0
shrinkage=0.01


Tree=71
num_leaves=7
num_cat=0
split_feature=37 20 15 57 52 33
split_gain=404036 392812 602022 756915 1.43088e+06 258542
threshold=0.054147947579622276 -0.12690110504627225 -0.55807766318321217 1.1790215373039248 -0.53100100159645069 -1.0277644395828245
decision_type=2 2 2 2 2 2
left_child=5 2 -2 4 -4 -1
right_child=1 -3 3 -5 -6 -7
leaf_value=0.048299580035002336 -0.67851712281505272 -0.46223258966491337 3.7231243462996049 -0.51045572209358214 0.38849773591564551 -0.98562061300464709
leaf_weight=46 24 42 22 20 31 51
leaf_count=46 24 42 22 20 31 51
internal_value=0 0.345647 0.69545 1.14717 1.77268 -0.495308
internal_weight=0 139 97 73 53 97
internal_count=236 139 97 73 53 97
is_linear=0
shrinkage=0.01


Tree=72
num_leaves=7
num_cat=0
split_feature=37 20 15 57 52 33
split_gain=395995 384995 590042 741853 1.4024e+06 253397
threshold=0.054147947579622276 -0.12690110504627225 -0.55807766318321217 1.1790215373039248 -0.53100100159645069 -1.0277644395828245
decision_type=2 2 2 2 2 2
left_child=5 2 -2 4 -4 -1
right_child=1 -3 3 -5 -6 -7
leaf_value=0.047816601628842562 -0.6717319568494956 -0.45761027012552535 3.6858931060270828 -0.50535117316246025 0.38461274362379505 -0.97576441470314479
leaf_weight=46 24 42 22 20 31 51
leaf_count=46 24 42 22 20 31 51
internal_value=0 0.34219 0.688495 1.13569 1.75496 -0.490355
internal_weight=0 139 97 73 53 97
internal_count=236 139 97 73 53 97
is_linear=0
shrinkage=0.01


Tree=73
num_leaves=7
num_cat=0
split_feature=35 15 24 11 40 31
split_gain=389052 539444 485384 530531 248775 232595
threshold=-0.55100753903388966 -0.20333615690469739 0.51601573824882518 0.045070767402648933 -0.7315227985382079 0.87401762604713451
decision_type=2 2 2 2 2 2
left_child=1 2 -1 -4 -2 -6
right_child=4 -3 3 -5 5 -7
leaf_value=-0.89057761914802314 0.00021033706949717963 1.8612739481244769 1.6661541260613337 -0.18819890740741457 -1.4503272330760957 -0.075615769386291498
leaf_weight=33 67 21 27 36 32 20
leaf_count=33 67 21 27 36 32 20
internal_value=0 0.409476 0.0918952 0.606524 -0.402594 -0.921592
internal_weight=0 117 96 63 119 52
internal_count=236 117 96 63 119 52
is_linear=0
shrinkage=0.01


Tree=74
num_leaves=7
num_cat=0
split_feature=37 20 15 57 52 33
split_gain=387625 375213 578275 728187 1.36545e+06 244895
threshold=0.054147947579622276 -0.12690110504627225 -0.55807766318321217 1.1790215373039248 -0.53100100159645069 -1.0277644395828245
decision_type=2 2 2 2 2 2
left_child=5 2 -2 4 -4 -1
right_child=1 -3 3 -5 -6 -7
leaf_value=0.043921207863351575 -0.66616403113429745 -0.4510190019721077 3.6420044649731027 -0.50271143412590025 0.38451362425281155 -0.96234179080701343
leaf_weight=46 24 42 22 20 31 51
leaf_count=46 24 42 22 20 31 51
internal_value=0 0.338554 0.680431 1.12315 1.73668 -0.485145
internal_weight=0 139 97 73 53 97
internal_count=236 139 97 73 53 97
is_linear=0
shrinkage=0.01


Tree=75
num_leaves=7
num_cat=0
split_feature=37 15 20 11 16 33
split_gain=380279 423017 737465 807042 672266 381676
threshold=-0.15645347535610196 -0.55807766318321217 -0.13107478618621823 -0.097985681146383272 0.46159021556377416 -1.0277644395828245
decision_type=2 2 2 2 2 2
left_child=5 -2 3 4 -3 -1
right_child=1 2 -4 -5 -6 -7
leaf_value=0.043481978022533917 -0.67713583976881853 -0.61987665176391604 -0.25184509494848423 2.9775636999607089 1.8869586029052736 -1.3422437019688744
leaf_weight=46 35 23 57 20 20 35
leaf_count=46 35 23 57 20 20 35
internal_value=0 0.290183 0.572318 1.31799 0.546093 -0.555288
internal_weight=0 155 120 63 43 81
internal_count=236 155 120 63 43 81
is_linear=0
shrinkage=0.01


Tree=76
num_leaves=7
num_cat=0
split_feature=35 15 24 11 40 11
split_gain=375151 518784 472671 509508 245263 226502
threshold=-0.55100753903388966 -0.20333615690469739 0.51601573824882518 0.045070767402648933 -0.7315227985382079 -0.13764125108718869
decision_type=2 2 2 2 2 2
left_child=1 2 -1 -4 5 -2
right_child=4 -3 3 -5 -6 -7
leaf_value=-0.87886656558874876 0.67018155854323813 1.8258192834399996 1.6369216913647122 -0.1803194085094664 -0.91065758567589983 -0.50331751468542374
leaf_weight=33 29 21 27 36 52 38
leaf_count=33 29 21 27 36 52 38
internal_value=0 0.402094 0.0906541 0.598498 -0.395336 0.00461492
internal_weight=0 117 96 63 119 67
internal_count=236 117 96 63 119 67
is_linear=0
shrinkage=0.01


Tree=77
num_leaves=7
num_cat=0
split_feature=37 20 15 57 52 33
split_gain=374710 359688 557262 715687 1.32131e+06 231664
threshold=0.054147947579622276 -0.12690110504627225 -0.55807766318321217 1.1790215373039248 -0.53100100159645069 -1.0277644395828245
decision_type=2 2 2 2 2 2
left_child=5 2 -2 4 -4 -1
right_child=1 -3 3 -5 -6 -7
leaf_value=0.03758169630299444 -0.65430745248993238 -0.44019964355797997 3.5847121272303846 -0.50964912092685699 0.38030770517164664 -0.94112192021865471
leaf_weight=46 24 42 22 20 31 51
leaf_count=46 24 42 22 20 31 51
internal_value=0 0.332867 0.667596 1.10219 1.71044 -0.476994
internal_weight=0 139 97 73 53 97
internal_count=236 139 97 73 53 97
is_linear=0
shrinkage=0.01


Tree=78
num_leaves=7
num_cat=0
split_feature=37 15 20 11 16 33
split_gain=369270 408123 710258 780265 652108 363573
threshold=-0.15645347535610196 -0.55807766318321217 -0.13107478618621823 -0.097985681146383272 0.46159021556377416 -1.0277644395828245
decision_type=2 2 2 2 2 2
left_child=5 -2 3 4 -3 -1
right_child=1 2 -4 -5 -6 -7
leaf_value=0.037205881035846211 -0.66418595845358708 -0.61247644673223078 -0.24574167072772982 2.9266732870340348 1.8564894752502443 -1.3152566008227211
leaf_weight=46 35 23 57 20 20 35
leaf_count=46 35 23 57 20 20 35
internal_value=0 0.285952 0.563075 1.29486 0.53588 -0.547191
internal_weight=0 155 120 63 43 81
internal_count=236 155 120 63 43 81
is_linear=0
shrinkage=0.01


Tree=79
num_leaves=7
num_cat=0
split_feature=37 15 20 11 16 33
split_gain=361921 400002 696124 764738 639131 356338
threshold=-0.15645347535610196 -0.55807766318321217 -0.13107478618621823 -0.097985681146383272 0.46159021556377416 -1.0277644395828245
decision_type=2 2 2 2 2 2
left_child=5 -2 3 4 -3 -1
right_child=1 2 -4 -5 -6 -7
leaf_value=0.036833834751792575 -0.65754411016191749 -0.60635169485340945 -0.24328428083867359 2.8974064571019262 1.8379245376586915 -1.3021040318352834
leaf_weight=46 35 23 57 20 20 35
leaf_count=46 35 23 57 20 20 35
internal_value=0 0.283092 0.557444 1.28191 0.530521 -0.54172
internal_weight=0 155 120 63 43 81
internal_count=236 155 120 63 43 81
is_linear=0
shrinkage=0.01


Tree=80
num_leaves=7
num_cat=0
split_feature=35 15 24 11 40 11
split_gain=359571 493141 456930 484188 242973 216911
threshold=-0.55100753903388966 -0.20333615690469739 0.51601573824882518 0.045070767402648933 -0.7315227985382079 -0.13764125108718869
decision_type=2 2 2 2 2 2
left_child=1 2 -1 -4 5 -2
right_child=4 -3 3 -5 -6 -7
leaf_value=-0.86323035673661663 0.66236146992650535 1.7817493120829264 1.6016202398582742 -0.16989217446910013 -0.8999500591938312 -0.48602221198281959
leaf_weight=33 29 21 27 36 52 38
leaf_count=33 29 21 27 36 52 38
internal_value=0 0.393656 0.0900107 0.589327 -0.38704 0.0110394
internal_weight=0 117 96 63 119 67
internal_count=236 117 96 63 119 67
is_linear=0
shrinkage=0.01


Tree=81
num_leaves=7
num_cat=0
split_feature=37 15 20 11 16 33
split_gain=356433 392733 679002 744999 619778 344279
threshold=-0.15645347535610196 -0.55807766318321217 -0.13107478618621823 -0.097985681146383272 0.46159021556377416 -1.0277644395828245
decision_type=2 2 2 2 2 2
left_child=5 -2 3 4 -3 -1
right_child=1 2 -4 -5 -6 -7
leaf_value=0.031083486287490181 -0.6511131685120719 -0.59287073715873384 -0.23803444212988806 2.8627981038093568 1.8141153144836426 -1.2850044911248344
leaf_weight=46 35 23 57 20 20 35
leaf_count=46 35 23 57 20 20 35
internal_value=0 0.280938 0.552786 1.26829 0.526658 -0.537597
internal_weight=0 155 120 63 43 81
internal_count=236 155 120 63 43 81
is_linear=0
shrinkage=0.01


Tree=82
num_leaves=7
num_cat=0
split_feature=35 15 24 15 40 11
split_gain=350288 477720 444595 472324 239284 210671
threshold=-0.55100753903388966 -0.20333615690469739 0.51601573824882518 -0.55807766318321217 -0.7315227985382079 -0.13764125108718869
decision_type=2 2 2 2 2 2
left_child=1 2 -1 -4 5 -2
right_child=4 -3 3 -5 -6 -7
leaf_value=-0.85060495838974459 0.65492047803155307 1.7547591858818419 -0.38585327880723136 1.3566644236700875 -0.89101263137964093 -0.47682571310746041
leaf_weight=33 29 21 28 35 52 38
leaf_count=33 29 21 28 35 52 38
internal_value=0 0.388541 0.0896812 0.582212 -0.382011 0.0130346
internal_weight=0 117 96 63 119 67
internal_count=236 117 96 63 119 67
is_linear=0
shrinkage=0.01


Tree=83
num_leaves=7
num_cat=0
split_feature=37 20 15 57 52 20
split_gain=350084 335291 513879 705628 1.25708e+06 210458
threshold=0.054147947579622276 -0.12690110504627225 -0.55807766318321217 1.1790215373039248 -0.53100100159645069 -0.12887962162494657
decision_type=2 2 2 2 2 2
left_child=5 2 -2 4 -4 -1
right_child=1 -3 3 -5 -6 -7
leaf_value=-0.70590355647237668 -0.62448411623636879 -0.42464570352009368 3.4943659834428269 -0.53821677160263071 0.36881489907541587 0.4250681495666504
leaf_weight=76 24 42 22 20 31 21
leaf_count=76 24 42 22 20 31 21
internal_value=0 0.321743 0.644921 1.06226 1.66621 -0.461054
internal_weight=0 139 97 73 53 97
internal_count=236 139 97 73 53 97
is_linear=0
shrinkage=0.01


Tree=84
num_leaves=7
num_cat=0
split_feature=1 24 35 46 45 13
split_gain=344745 507720 414325 772486 432117 370431
threshold=0.65669220685958873 0.58286949992179882 -0.58160108327865589 -0.98772120475769032 1.3176012039184573 0.73615735769271862
decision_type=2 2 2 2 2 2
left_child=1 2 3 4 -1 -2
right_child=5 -3 -4 -5 -6 -7
leaf_value=-1.0972625467051631 1.7159385212984952 -1.5435033198197683 -0.38807602814599579 2.1080226607944654 0.91255118465423579 -0.11915083744309164
leaf_weight=23 22 24 102 23 20 22
leaf_count=23 22 24 102 23 20 22
internal_value=0 -0.182965 0.0113973 0.628765 -0.162465 0.798394
internal_weight=0 192 168 66 43 44
internal_count=236 192 168 66 43 44
is_linear=0
shrinkage=0.01


Tree=85
num_leaves=7
num_cat=0
split_feature=37 20 15 57 52 33
split_gain=339127 324739 503844 691214 1.22035e+06 205842
threshold=0.054147947579622276 -0.12690110504627225 -0.55807766318321217 1.1790215373039248 -0.53100100159645069 -1.0277644395828245
decision_type=2 2 2 2 2 2
left_child=5 2 -2 4 -4 -1
right_child=1 -3 3 -5 -6 -7
leaf_value=0.031268928465635878 -0.62222985247770946 -0.41788135869162424 3.4469664556329902 -0.53608218955993647 0.36741080007245464 -0.89127824502832753
leaf_weight=46 24 42 22 20 31 51
leaf_count=46 24 42 22 20 31 51
internal_value=0 0.316668 0.63472 1.04796 1.64572 -0.453782
internal_weight=0 139 97 73 53 97
internal_count=236 139 97 73 53 97
is_linear=0
shrinkage=0.01


Tree=86
num_leaves=7
num_cat=0
split_feature=1 24 35 46 45 13
split_gain=338872 497245 401580 743913 424182 359859
threshold=0.65669220685958873 0.58286949992179882 -0.58160108327865589 -0.98772120475769032 1.3176012039184573 0.73615735769271862
decision_type=2 2 2 2 2 2
left_child=1 2 3 4 -1 -2
right_child=5 -3 -4 -5 -6 -7
leaf_value=-1.0838897406536601 1.6959211158752441 -1.5278297797838847 -0.38233423763630436 2.0703871610890263 0.90738713169097907 -0.11279284314675765
leaf_weight=23 22 24 102 23 20 22
leaf_count=23 22 24 102 23 20 22
internal_value=0 -0.1814 0.010947 0.618745 -0.157714 0.791564
internal_weight=0 192 168 66 43 44
internal_count=236 192 168 66 43 44
is_linear=0
shrinkage=0.01


Tree=87
num_leaves=7
num_cat=0
split_feature=1 24 35 46 45 13
split_gain=332128 487350 393588 729110 415741 352698
threshold=0.65669220685958873 0.58286949992179882 -0.58160108327865589 -0.98772120475769032 1.3176012039184573 0.73615735769271862
decision_type=2 2 2 2 2 2
left_child=1 2 3 4 -1 -2
right_child=5 -3 -4 -5 -6 -7
leaf_value=-1.0730508787735649 1.6789619463140315 -1.5125514761606851 -0.37851089395728765 2.0496833552484928 0.89831327486038204 -0.11166491345925765
leaf_weight=23 22 24 102 23 20 22
leaf_count=23 22 24 102 23 20 22
internal_value=0 -0.179586 0.0108375 0.612558 -0.156137 0.783649
internal_weight=0 192 168 66 43 44
internal_count=236 192 168 66 43 44
is_linear=0
shrinkage=0.01


Tree=88
num_leaves=7
num_cat=0
split_feature=1 24 35 46 45 13
split_gain=325519 477652 385756 714600 407468 345679
threshold=0.65669220685958873 0.58286949992179882 -0.58160108327865589 -0.98772120475769032 1.3176012039184573 0.73615735769271862
decision_type=2 2 2 2 2 2
left_child=1 2 3 4 -1 -2
right_child=5 -3 -4 -5 -6 -7
leaf_value=-1.062320382491402 1.6621723261746493 -1.4974259599049888 -0.37472578616703262 2.0291864992224653 0.88933013486862178 -0.11054825826124712
leaf_weight=23 22 24 102 23 20 22
leaf_count=23 22 24 102 23 20 22
internal_value=0 -0.17779 0.0107291 0.606432 -0.154576 0.775812
internal_weight=0 192 168 66 43 44
internal_count=236 192 168 66 43 44
is_linear=0
shrinkage=0.01


Tree=89
num_leaves=7
num_cat=0
split_feature=37 11 11 37 37 31
split_gain=320937 310343 409068 552618 286454 235297
threshold=0.054147947579622276 0.045070767402648933 -0.070802599191665636 0.31604774296283727 0.79147428274154674 0.10258304327726366
decision_type=2 2 2 2 2 2
left_child=-1 2 3 -2 -3 -5
right_child=1 4 -4 5 -6 -7
leaf_value=-0.44144405074955262 1.522917526852001 -0.96264310845013334 1.7875046356519064 0.31670536041259767 0.51429065813620889 -1.2172328443527223
leaf_weight=97 22 29 24 20 24 20
leaf_count=97 22 29 24 20 24 20
internal_value=0 0.308058 0.678997 0.249897 -0.293843 -0.450264
internal_weight=0 139 86 62 53 40
internal_count=236 139 86 62 53 40
is_linear=0
shrinkage=0.01


Tree=90
num_leaves=7
num_cat=0
split_feature=1 24 35 46 45 13
split_gain=317058 468886 375305 700644 398383 338181
threshold=0.65669220685958873 0.58286949992179882 -0.58160108327865589 -0.98772120475769032 1.3176012039184573 0.73615735769271862
decision_type=2 2 2 2 2 2
left_child=1 2 3 4 -1 -2
right_child=5 -3 -4 -5 -6 -7
leaf_value=-1.0522123071421747 1.6423582441156561 -1.4829353082180023 -0.36888047711814154 2.0076872618302057 0.87755728054046633 -0.11103151722387834
leaf_weight=23 22 24 102 23 20 22
leaf_count=23 22 24 102 23 20 22
internal_value=0 -0.175465 0.011317 0.598895 -0.154645 0.765663
internal_weight=0 192 168 66 43 44
internal_count=236 192 168 66 43 44
is_linear=0
shrinkage=0.01


Tree=91
num_leaves=7
num_cat=0
split_feature=37 11 11 37 37 31
split_gain=310907 302067 399871 544543 279645 230335
threshold=0.054147947579622276 0.045070767402648933 -0.070802599191665636 0.31604774296283727 0.79147428274154674 0.10258304327726366
decision_type=2 2 2 2 2 2
left_child=-1 2 3 -2 -3 -5
right_child=1 4 -4 5 -6 -7
leaf_value=-0.4344906647672358 1.5086019650372593 -0.95141852890398226 1.7651407210032144 0.30872855567932128 0.50785587022701895 -1.2089499740600587
leaf_weight=97 22 29 24 20 24 20
leaf_count=97 22 29 24 20 24 20
internal_value=0 0.303206 0.669165 0.244916 -0.290615 -0.450111
internal_weight=0 139 86 62 53 40
internal_count=236 139 86 62 53 40
is_linear=0
shrinkage=0.01


Tree=92
num_leaves=7
num_cat=0
split_feature=1 24 35 46 45 13
split_gain=308817 460277 365137 686975 389510 330847
threshold=0.65669220685958873 0.58286949992179882 -0.58160108327865589 -0.98772120475769032 1.3176012039184573 0.73615735769271862
decision_type=2 2 2 2 2 2
left_child=1 2 3 4 -1 -2
right_child=5 -3 -4 -5 -6 -7
leaf_value=-1.0422156972470491 1.622782524282282 -1.4685812469323478 -0.36312182171087642 1.9864363645470662 0.86594309949874881 -0.11148985981941223
leaf_weight=23 22 24 102 23 20 22
leaf_count=23 22 24 102 23 20 22
internal_value=0 -0.173169 0.0118899 0.591454 -0.1547 0.755646
internal_weight=0 192 168 66 43 44
internal_count=236 192 168 66 43 44
is_linear=0
shrinkage=0.01


Tree=93
num_leaves=7
num_cat=0
split_feature=1 24 35 46 45 13
split_gain=302671 451117 357870 673304 381759 324263
threshold=0.65669220685958873 0.58286949992179882 -0.58160108327865589 -0.98772120475769032 1.3176012039184573 0.73615735769271862
decision_type=2 2 2 2 2 2
left_child=1 2 3 4 -1 -2
right_child=5 -3 -4 -5 -6 -7
leaf_value=-1.0317935412863026 1.6065546998110685 -1.4538954397042594 -0.35949061264010035 1.9665719886448074 0.85728369522094727 -0.1103749362447045
leaf_weight=23 22 24 102 23 20 22
leaf_count=23 22 24 102 23 20 22
internal_value=0 -0.171437 0.011771 0.585539 -0.153153 0.74809
internal_weight=0 192 168 66 43 44
internal_count=236 192 168 66 43 44
is_linear=0
shrinkage=0.01


Tree=94
num_leaves=7
num_cat=0
split_feature=37 11 11 37 37 31
split_gain=297699 291968 389862 539431 271930 225216
threshold=0.054147947579622276 0.045070767402648933 -0.070802599191665636 0.31604774296283727 0.79147428274154674 0.10258304327726366
decision_type=2 2 2 2 2 2
left_child=-1 2 3 -2 -3 -5
right_child=1 4 -4 5 -6 -7
leaf_value=-0.42516178040160346 1.495319497802041 -0.93873934051086172 1.7386586336294809 0.29618413162231444 0.50026507034897805 -1.2045372991561889
leaf_weight=97 22 29 24 20 24 20
leaf_count=97 22 29 24 20 24 20
internal_value=0 0.296696 0.656486 0.23758 -0.287115 -0.454177
internal_weight=0 139 86 62 53 40
internal_count=236 139 86 62 53 40
is_linear=0
shrinkage=0.01


Tree=95
num_leaves=7
num_cat=0
split_feature=15 17 10 23 21 15
split_gain=297557 557939 378031 282131 335792 858918
threshold=-0.55807766318321217 0.66566559672355663 0.6684761941432954 0.48579317331314092 -0.12293127924203871 -0.20333615690469739
decision_type=2 2 2 2 2 2
left_child=2 3 -1 4 5 -2
right_child=1 -3 -4 -5 -6 -7
leaf_value=-1.7118640649886359 -0.079473263887258686 1.3718492007255554 0.18558038529895601 -0.80194669580459588 -0.66131870705740792 2.2064803723855451
leaf_weight=21 65 32 21 40 35 22
leaf_count=21 65 32 21 40 35 22
internal_value=0 0.165216 -0.763142 -0.073131 0.165825 0.498584
internal_weight=0 194 42 162 122 87
internal_count=236 194 42 162 122 87
is_linear=0
shrinkage=0.01


Tree=96
num_leaves=7
num_cat=0
split_feature=15 17 10 23 21 15
split_gain=291636 546836 370508 276516 329110 841825
threshold=-0.55807766318321217 0.66566559672355663 0.6684761941432954 0.48579317331314092 -0.12293127924203871 -0.20333615690469739
decision_type=2 2 2 2 2 2
left_child=2 3 -1 4 5 -2
right_child=1 -3 -4 -5 -6 -7
leaf_value=-1.694745450473967 -0.078678516828096831 1.358130712453276 0.18372459139142716 -0.79392722868919385 -0.65470554242815293 2.184415529424494
leaf_weight=21 65 32 21 40 35 22
leaf_count=21 65 32 21 40 35 22
internal_value=0 0.163564 -0.75551 -0.0723997 0.164167 0.493598
internal_weight=0 194 42 162 122 87
internal_count=236 194 42 162 122 87
is_linear=0
shrinkage=0.01


Tree=97
num_leaves=7
num_cat=0
split_feature=37 11 11 37 24 31
split_gain=289083 287596 377613 524000 262404 218096
threshold=0.054147947579622276 0.045070767402648933 -0.070802599191665636 0.31604774296283727 0.64998832345008861 0.10258304327726366
decision_type=2 2 2 2 2 2
left_child=-1 2 3 -2 -3 -5
right_child=1 4 -4 5 -6 -7
leaf_value=-0.41896377339805524 1.4768034984848717 -0.92716162525374313 1.7144925912221274 0.2937969264984131 0.48641351064046229 -1.1830094356536867
leaf_weight=97 22 29 24 20 24 20
leaf_count=97 22 29 24 20 24 20
internal_value=0 0.29237 0.649456 0.237184 -0.287052 -0.444606
internal_weight=0 139 86 62 53 40
internal_count=236 139 86 62 53 40
is_linear=0
shrinkage=0.01


Tree=98
num_leaves=7
num_cat=0
split_feature=15 17 10 23 35 12
split_gain=286523 530663 362735 271317 326778 239877
threshold=-0.55807766318321217 0.66566559672355663 0.6684761941432954 0.48579317331314092 1.0016937851905825 -0.48910214006900782
decision_type=2 2 2 2 2 2
left_child=2 3 -1 4 5 -2
right_child=1 -3 -4 -5 -6 -7
leaf_value=-1.6781886514027915 1.4729079422950744 1.3388922873884439 0.18047215915861586 -0.7850358967781067 -0.5910028383670709 0.21587114322753181
leaf_weight=21 20 32 21 40 39 63
leaf_count=21 20 32 21 40 39 63
internal_value=0 0.162124 -0.748858 -0.0703241 0.164008 0.518772
internal_weight=0 194 42 162 122 83
internal_count=236 194 42 162 122 83
is_linear=0
shrinkage=0.01


Tree=99
num_leaves=7
num_cat=0
split_feature=35 15 24 11 40 11
split_gain=281982 427865 410721 429799 228163 237599
threshold=-0.55100753903388966 -0.20333615690469739 0.51601573824882518 0.045070767402648933 -0.70934921503067005 -0.14466012269258496
decision_type=2 2 2 2 2 2
left_child=1 2 -1 -4 5 -2
right_child=4 -3 3 -5 -6 -7
leaf_value=-0.83798573580655189 0.69633749008178714 1.6415693610055107 1.4929103079548589 -0.17614169531398349 -0.86610633713858465 -0.48094553664326667
leaf_weight=33 30 21 27 36 49 40
leaf_count=33 30 21 27 36 49 40
internal_value=0 0.348606 0.0657703 0.539166 -0.342747 0.0236043
internal_weight=0 117 96 63 119 70
internal_count=236 117 96 63 119 70
is_linear=0
shrinkage=0.01


end of trees

feature_importances:
Column_11=75
Column_52=72
Column_15=60
Column_37=48
Column_40=44
Column_35=42
Column_20=37
Column_5=33
Column_24=31
Column_34=29
Column_31=27
Column_33=18
Column_16=17
Column_54=11
Column_1=7
Column_13=7
Column_45=7
Column_46=7
Column_42=6
Column_57=6
Column_44=4
Column_10=3
Column_17=3
Column_23=3
Column_21=2
Column_12=1

parameters:
[boosting: gbdt]
[objective: regression]
[metric: l2]
[tree_learner: serial]
[device_type: cpu]
[data_sample_strategy: bagging]
[data: ]
[valid: ]
[num_iterations: 100]
[learning_rate: 0.01]
[num_leaves: 7]
[num_threads: 12]
[seed: 42]
[deterministic: 0]
[force_col_wise: 0]
[force_row_wise: 0]
[histogram_pool_size: -1]
[max_depth: 7]
[min_data_in_leaf: 20]
[min_sum_hessian_in_leaf: 0.001]
[bagging_fraction: 0.6]
[pos_bagging_fraction: 1]
[neg_bagging_fraction: 1]
[bagging_freq: 0]
[bagging_seed: 400]
[feature_fraction: 1]
[feature_fraction_bynode: 1]
[feature_fraction_seed: 30056]
[extra_trees: 0]
[extra_seed: 12879]
[early_stopping_round: 0]
[early_stopping_min_delta: 0]
[first_metric_only: 0]
[max_delta_step: 0]
[lambda_l1: 0]
[lambda_l2: 0]
[linear_lambda: 0]
[min_gain_to_split: 0]
[drop_rate: 0.1]
[max_drop: 50]
[skip_drop: 0.5]
[xgboost_dart_mode: 0]
[uniform_drop: 0]
[drop_seed: 17869]
[top_rate: 0.2]
[other_rate: 0.1]
[min_data_per_group: 100]
[max_cat_threshold: 32]
[cat_l2: 10]
[cat_smooth: 10]
[max_cat_to_onehot: 4]
[top_k: 20]
[monotone_constraints: ]
[monotone_constraints_method: basic]
[monotone_penalty: 0]
[feature_contri: ]
[forcedsplits_filename: ]
[refit_decay_rate: 0.9]
[cegb_tradeoff: 1]
[cegb_penalty_split: 0]
[cegb_penalty_feature_lazy: ]
[cegb_penalty_feature_coupled: ]
[path_smooth: 0]
[interaction_constraints: ]
[verbosity: -1]
[saved_feature_importance_type: 0]
[use_quantized_grad: 0]
[num_grad_quant_bins: 4]
[quant_train_renew_leaf: 0]
[stochastic_rounding: 1]
[linear_tree: 0]
[max_bin: 255]
[max_bin_by_feature: ]
[min_data_in_bin: 3]
[bin_construct_sample_cnt: 200000]
[data_random_seed: 175]
[is_enable_sparse: 1]
[enable_bundle: 1]
[use_missing: 1]
[zero_as_missing: 0]
[feature_pre_filter: 1]
[pre_partition: 0]
[two_round: 0]
[header: 0]
[label_column: ]
[weight_column: ]
[group_column: ]
[ignore_column: ]
[categorical_feature: ]
[forcedbins_filename: ]
[precise_float_parser: 0]
[parser_config_file: ]
[objective_seed: 16083]
[num_class: 1]
[is_unbalance: 0]
[scale_pos_weight: 1]
[sigmoid: 1]
[boost_from_average: 1]
[reg_sqrt: 0]
[alpha: 0.9]
[fair_c: 1]
[poisson_max_delta_step: 0.7]
[tweedie_variance_power: 1.5]
[lambdarank_truncation_level: 30]
[lambdarank_norm: 1]
[label_gain: ]
[lambdarank_position_bias_regularization: 0]
[eval_at: ]
[multi_error_top_k: 1]
[auc_mu_weights: ]
[num_machines: 1]
[local_listen_port: 12400]
[time_out: 120]
[machine_list_filename: ]
[machines: ]
[gpu_platform_id: -1]
[gpu_device_id: -1]
[gpu_use_dp: 0]
[num_gpu: 1]

end of parameters

pandas_categorical:null
