{"learner":{"attributes":{"best_iteration":"7","best_score":"406.014403404036","scikit_learn":"{\"_estimator_type\": \"regressor\"}"},"feature_names":[],"feature_types":[],"gradient_booster":{"model":{"gbtree_model_param":{"num_parallel_tree":"1","num_trees":"18"},"iteration_indptr":[0,1,2,3,4,5,6,7,8,9,10,11,12,13,14,15,16,17,18],"tree_info":[0,0,0,0,0,0,0,0,0,0,0,0,0,0,0,0,0,0],"trees":[{"base_weights":[6.5113354E0,8.342473E1,-7.903842E1,1.0252895E1,1.6818515E2,-1.503127E1,-2.0642642E2,-3.6631734E0,1.1323738E1,1.9070278E1,1.7908763E0,-3.210764E0,2.4684212E1,-1.5538034E1,-3.7107995E0],"categories":[],"categories_nodes":[],"categories_segments":[],"categories_sizes":[],"default_left":[0,0,0,0,0,0,0,0,0,0,0,0,0,0,0],"id":0,"left_children":[1,3,5,7,9,11,13,-1,-1,-1,-1,-1,-1,-1,-1],"loss_changes":[1.000162E6,4.944417E5,5.839666E5,4.6983025E5,6.126456E5,6.4786156E5,8.572869E4,0E0,0E0,0E0,0E0,0E0,0E0,0E0,0E0],"parents":[2147483647,0,0,1,1,2,2,3,3,4,4,5,5,6,6],"right_children":[2,4,6,8,10,12,14,-1,-1,-1,-1,-1,-1,-1,-1],"split_conditions":[1.237479E-1,-9.737526E-1,-7.5119203E-1,1.3533678E0,7.6178936E-3,-7.621764E-1,1.3768127E0,-3.6631734E0,1.1323738E1,1.9070278E1,1.7908763E0,-3.210764E0,2.4684212E1,-1.5538034E1,-3.7107995E0],"split_indices":[54,46,42,45,11,42,46,0,0,0,0,0,0,0,0],"split_type":[0,0,0,0,0,0,0,0,0,0,0,0,0,0,0],"sum_hessian":[1.5E2,7.9E1,7.1E1,4.3E1,3.6E1,4.8E1,2.3E1,3.1E1,1.2E1,1.9E1,1.7E1,4.5E1,3E0,1.9E1,4E0],"tree_param":{"num_deleted":"0","num_feature":"60","num_nodes":"15","size_leaf_vector":"1"}},{"base_weights":[-9.389785E0,6.9251595E1,-1.0845445E2,-3.9871554E0,2.821826E2,-4.438337E1,-1.915347E2,-6.594992E0,7.165441E0,1.2470307E1,5.2320816E1,-5.8835125E0,2.3453615E1,-1.6135206E1,2.4376214E0],"categories":[],"categories_nodes":[],"categories_segments":[],"categories_sizes":[],"default_left":[0,0,0,0,0,0,0,0,0,0,0,0,0,0,0],"id":1,"left_children":[1,3,5,7,9,11,13,-1,-1,-1,-1,-1,-1,-1,-1],"loss_changes":[1.1449358E6,1.2798988E6,3.3749662E5,6.7068925E5,8.552091E5,6.973258E5,3.360873E5,0E0,0E0,0E0,0E0,0E0,0E0,0E0,0E0],"parents":[2147483647,0,0,1,1,2,2,3,3,4,4,5,5,6,6],"right_children":[2,4,6,8,10,12,14,-1,-1,-1,-1,-1,-1,-1,-1],"split_conditions":[2.7393132E-1,-6.640506E-1,-7.5119203E-1,1.1009105E0,7.073352E-1,-7.621764E-1,2.9981797E0,-6.594992E0,7.165441E0,1.2470307E1,5.2320816E1,-5.8835125E0,2.3453615E1,-1.6135206E1,2.4376214E0],"split_indices":[44,58,42,30,6,42,59,0,0,0,0,0,0,0,0],"split_type":[0,0,0,0,0,0,0,0,0,0,0,0,0,0,0],"sum_hessian":[1.45E2,8.1E1,6.4E1,6.1E1,2E1,3.7E1,2.7E1,3.3E1,2.8E1,1.8E1,2E0,3.4E1,3E0,2.2E1,5E0],"tree_param":{"num_deleted":"0","num_feature":"60","num_nodes":"15","size_leaf_vector":"1"}},{"base_weights":[1.5907225E1,8.3984E1,-6.49823E1,-3.1724361E1,2.2374045E2,-1.785777E1,-2.2087355E2,-8.158212E0,7.623234E0,2.2295513E1,-1.2133907E0,8.048219E0,-4.8989687E0,-1.5887815E1,1.1014736E0],"categories":[],"categories_nodes":[],"categories_segments":[],"categories_sizes":[],"default_left":[0,0,0,0,0,0,0,0,0,0,0,0,0,0,0],"id":2,"left_children":[1,3,5,7,9,11,13,-1,-1,-1,-1,-1,-1,-1,-1],"loss_changes":[7.819019E5,1.2522642E6,4.7356525E5,5.870261E5,9.519886E5,4.0460928E5,6.858325E4,0E0,0E0,0E0,0E0,0E0,0E0,0E0,0E0],"parents":[2147483647,0,0,1,1,2,2,3,3,4,4,5,5,6,6],"right_children":[2,4,6,8,10,12,14,-1,-1,-1,-1,-1,-1,-1,-1],"split_conditions":[-5.1202536E-1,-9.737526E-1,-5.331563E-1,1.3309733E0,1.7227101E-1,2.674354E-1,3.7013572E-1,-8.158212E0,7.623234E0,2.2295513E1,-1.2133907E0,8.048219E0,-4.8989687E0,-1.5887815E1,1.1014736E0],"split_indices":[52,46,40,33,11,48,5,0,0,0,0,0,0,0,0],"split_type":[0,0,0,0,0,0,0,0,0,0,0,0,0,0,0],"sum_hessian":[1.4E2,7.6E1,6.4E1,4.2E1,3.4E1,5E1,1.4E1,2.6E1,1.6E1,2.3E1,1.1E1,1.4E1,3.6E1,1.3E1,1E0],"tree_param":{"num_deleted":"0","num_feature":"60","num_nodes":"15","size_leaf_vector":"1"}},{"base_weights":[5.87306E0,7.5357285E1,-6.0210365E1,-6.3455463E1,1.40645E2,-1.855401E2,-2.5978868E1,1.4247736E1,-8.4137125E0,2.8740984E1,4.0473843E0,-1.5230127E1,8.897589E-1,2.7421005E0,-6.8830657E0],"categories":[],"categories_nodes":[],"categories_segments":[],"categories_sizes":[],"default_left":[0,0,0,0,0,0,0,0,0,0,0,0,0,0,0],"id":3,"left_children":[1,3,5,7,9,11,13,-1,-1,-1,-1,-1,-1,-1,-1],"loss_changes":[7.1625944E5,6.97695E5,3.383978E5,4.6550562E5,1.1835926E6,1.5045338E5,3.3804175E5,0E0,0E0,0E0,0E0,0E0,0E0,0E0,0E0],"parents":[2147483647,0,0,1,1,2,2,3,3,4,4,5,5,6,6],"right_children":[2,4,6,8,10,12,14,-1,-1,-1,-1,-1,-1,-1,-1],"split_conditions":[-5.490038E-1,-5.8577454E-1,-7.117406E-1,6.8810385E-1,-7.432576E-1,6.6402745E-1,1.0147865E0,1.4247736E1,-8.4137125E0,2.8740984E1,4.0473843E0,-1.5230127E1,8.897589E-1,2.7421005E0,-6.8830657E0],"split_indices":[35,12,16,9,16,1,35,0,0,0,0,0,0,0,0],"split_type":[0,0,0,0,0,0,0,0,0,0,0,0,0,0,0],"sum_hessian":[1.54E2,7.5E1,7.9E1,2.4E1,5.1E1,1.6E1,6.3E1,4E0,2E1,1E1,4.1E1,1.3E1,3E0,3.4E1,2.9E1],"tree_param":{"num_deleted":"0","num_feature":"60","num_nodes":"15","size_leaf_vector":"1"}},{"base_weights":[3.4078605E0,6.580635E1,-6.746891E1,-2.200242E1,1.8349588E2,-3.388256E1,-2.2246002E2,-1.177468E1,2.5883753E0,-6.167933E0,1.6842876E1,-1.1526521E1,-8.622813E-1,-1.6181778E1,9.7372997E-1],"categories":[],"categories_nodes":[],"categories_segments":[],"categories_sizes":[],"default_left":[0,0,0,0,0,0,0,0,0,0,0,0,0,0,0],"id":4,"left_children":[1,3,5,7,9,11,13,-1,-1,-1,-1,-1,-1,-1,-1],"loss_changes":[6.9878856E5,8.7210794E5,3.776758E5,4.7016153E5,7.186561E5,1.7863422E5,6.8234625E4,0E0,0E0,0E0,0E0,0E0,0E0,0E0,0E0],"parents":[2147483647,0,0,1,1,2,2,3,3,4,4,5,5,6,6],"right_children":[2,4,6,8,10,12,14,-1,-1,-1,-1,-1,-1,-1,-1],"split_conditions":[1.237479E-1,-7.662381E-1,-5.3208447E-1,1.0710922E0,-5.8498806E-1,-1.1790304E0,1.494123E0,-1.177468E1,2.5883753E0,-6.167933E0,1.6842876E1,-1.1526521E1,-8.622813E-1,-1.6181778E1,9.7372997E-1],"split_indices":[54,52,40,30,12,51,5,0,0,0,0,0,0,0,0],"split_type":[0,0,0,0,0,0,0,0,0,0,0,0,0,0,0],"sum_hessian":[1.56E2,8.3E1,7.3E1,4.8E1,3.5E1,6.1E1,1.2E1,1.3E1,3.5E1,7E0,2.8E1,7E0,5.4E1,1.1E1,1E0],"tree_param":{"num_deleted":"0","num_feature":"60","num_nodes":"15","size_leaf_vector":"1"}},{"base_weights":[4.77884E0,7.789105E1,-5.9984596E1,-2.7536905E1,2.1203632E2,7.245701E1,-1.0060085E2,-3.6418173E0,1.7194056E1,-2.3925211E0,2.4414425E1,-4.812916E0,1.5889762E1,-2.9408507E0,-1.2128118E1],"categories":[],"categories_nodes":[],"categories_segments":[],"categories_sizes":[],"default_left":[0,0,0,0,0,0,0,0,0,0,0,0,0,0,0],"id":5,"left_children":[1,3,5,7,9,11,13,-1,-1,-1,-1,-1,-1,-1,-1],"loss_changes":[7.7647694E5,1.0948236E6,4.7528678E5,3.573432E5,1.3224958E6,5.2409438E5,3.010153E5,0E0,0E0,0E0,0E0,0E0,0E0,0E0,0E0],"parents":[2147483647,0,0,1,1,2,2,3,3,4,4,5,5,6,6],"right_children":[2,4,6,8,10,12,14,-1,-1,-1,-1,-1,-1,-1,-1],"split_conditions":[-5.5234045E-1,-1.0117421E0,-2.4856031E-1,1.5288101E0,-5.8577454E-1,-4.175834E-1,-7.5119203E-1,-3.6418173E0,1.7194056E1,-2.3925211E0,2.4414425E1,-4.812916E0,1.5889762E1,-2.9408507E0,-1.2128118E1],"split_indices":[39,44,11,56,12,11,42,0,0,0,0,0,0,0,0],"split_type":[0,0,0,0,0,0,0,0,0,0,0,0,0,0,0],"sum_hessian":[1.62E2,7.6E1,8.6E1,4.3E1,3.3E1,2E1,6.6E1,4E1,3E0,1.3E1,2E1,1.1E1,9E0,4E1,2.6E1],"tree_param":{"num_deleted":"0","num_feature":"60","num_nodes":"15","size_leaf_vector":"1"}},{"base_weights":[9.526844E-1,8.544662E1,-7.510376E1,6.1301903E1,4.805813E2,-1.4887044E2,-1.3044724E0,7.168693E0,-2.860665E0,2.5237634E0,4.091068E1,7.226351E0,-1.0519937E1,-2.4714892E0,1.7577997E1],"categories":[],"categories_nodes":[],"categories_segments":[],"categories_sizes":[],"default_left":[0,0,0,0,0,0,0,0,0,0,0,0,0,0,0],"id":6,"left_children":[1,3,5,7,9,11,13,-1,-1,-1,-1,-1,-1,-1,-1],"loss_changes":[9.767899E5,6.574493E5,4.3532012E5,3.3972956E5,2.1543469E5,1.1397719E5,4.0073566E5,0E0,0E0,0E0,0E0,0E0,0E0,0E0,0E0],"parents":[2147483647,0,0,1,1,2,2,3,3,4,4,5,5,6,6],"right_children":[2,4,6,8,10,12,14,-1,-1,-1,-1,-1,-1,-1,-1],"split_conditions":[-5.1202536E-1,-4.5333006E-3,4.049011E-1,1.1194497E0,-8.9308393E-1,-8.698099E-1,-8.13658E-2,7.168693E0,-2.860665E0,2.5237634E0,4.091068E1,7.226351E0,-1.0519937E1,-2.4714892E0,1.7577997E1],"split_indices":[52,44,47,42,5,5,37,0,0,0,0,0,0,0,0],"split_type":[0,0,0,0,0,0,0,0,0,0,0,0,0,0,0],"sum_hessian":[1.5E2,7.1E1,7.9E1,6.8E1,3E0,3.9E1,4E1,4.7E1,2.1E1,1E0,2E0,1E0,3.8E1,3.6E1,4E0],"tree_param":{"num_deleted":"0","num_feature":"60","num_nodes":"15","size_leaf_vector":"1"}},{"base_weights":[-1.9030025E1,-4.3307423E1,1.7345241E2,-8.8086525E1,6.802851E1,3.849012E1,8.076976E1,1.4113025E1,-6.4302263E0,2.1229952E1,-4.746324E-1,9.201693E0,-7.4717956E0],"categories":[],"categories_nodes":[],"categories_segments":[],"categories_sizes":[],"default_left":[0,0,0,0,0,0,0,0,0,0,0,0,0],"id":7,"left_children":[1,3,5,7,9,-1,11,-1,-1,-1,-1,-1,-1],"loss_changes":[7.084577E5,6.740525E5,5.922891E5,2.70002E5,7.3915406E5,0E0,1.8264184E5,0E0,0E0,0E0,0E0,0E0,0E0],"parents":[2147483647,0,0,1,1,2,2,3,3,4,4,6,6],"right_children":[2,4,6,8,10,-1,12,-1,-1,-1,-1,-1,-1],"split_conditions":[6.546046E-1,-2.6022327E-1,6.5929556E-1,-1.0060152E0,-7.1507007E-1,3.849012E1,8.415195E-1,1.4113025E1,-6.4302263E0,2.1229952E1,-4.746324E-1,9.201693E0,-7.4717956E0],"split_indices":[24,19,24,48,48,0,40,0,0,0,0,0,0],"split_type":[0,0,0,0,0,0,0,0,0,0,0,0,0],"sum_hessian":[1.49E2,1.33E2,1.6E1,9.5E1,3.8E1,2E0,1.4E1,2E0,9.3E1,8E0,3E1,1.1E1,3E0],"tree_param":{"num_deleted":"0","num_feature":"60","num_nodes":"13","size_leaf_vector":"1"}},{"base_weights":[-1.1081299E1,-3.1059368E1,1.2724545E2,-1.656011E2,7.1228633E0,4.9815543E2,2.6565117E1,-1.5152247E1,4.1825027E0,-2.6306313E-1,3.779974E1,6.6803536E0,3.969719E1,-9.577157E0,5.120134E0],"categories":[],"categories_nodes":[],"categories_segments":[],"categories_sizes":[],"default_left":[0,0,0,0,0,0,0,0,0,0,0,0,0,0,0],"id":8,"left_children":[1,3,5,7,9,11,13,-1,-1,-1,-1,-1,-1,-1,-1],"loss_changes":[4.1571384E5,6.741402E5,6.9628994E5,4.275498E5,6.431249E5,9.753519E4,1.4887667E5,0E0,0E0,0E0,0E0,0E0,0E0,0E0,0E0],"parents":[2147483647,0,0,1,1,2,2,3,3,4,4,5,5,6,6],"right_children":[2,4,6,8,10,12,14,-1,-1,-1,-1,-1,-1,-1,-1],"split_conditions":[7.19667E-1,-5.537633E-1,7.4584657E-1,1.2666535E0,8.4306926E-1,-8.698099E-1,8.0802107E-1,-1.5152247E1,4.1825027E0,-2.6306313E-1,3.779974E1,6.6803536E0,3.969719E1,-9.577157E0,5.120134E0],"split_indices":[2,19,2,33,23,5,17,0,0,0,0,0,0,0,0],"split_type":[0,0,0,0,0,0,0,0,0,0,0,0,0,0,0],"sum_hessian":[1.48E2,1.3E2,1.8E1,2.8E1,1.02E2,3E0,1.5E1,2.2E1,6E0,1.01E2,1E0,1E0,2E0,3E0,1.2E1],"tree_param":{"num_deleted":"0","num_feature":"60","num_nodes":"15","size_leaf_vector":"1"}},{"base_weights":[9.224146E0,7.0215065E1,-5.1119686E1,-8.288673E1,1.1041372E2,-1.5103473E2,-1.2996793E1,-1.4289319E1,3.882309E0,4.5543966E0,2.896835E1,-1.3379871E1,1.0981954E0,-1.729822E0,2.4679363E1],"categories":[],"categories_nodes":[],"categories_segments":[],"categories_sizes":[],"default_left":[0,0,0,0,0,0,0,0,0,0,0,0,0,0,0],"id":9,"left_children":[1,3,5,7,9,11,13,-1,-1,-1,-1,-1,-1,-1,-1],"loss_changes":[5.8509656E5,4.9535622E5,3.027611E5,3.298147E5,8.29007E5,1.8856997E5,3.0500794E5,0E0,0E0,0E0,0E0,0E0,0E0,0E0,0E0],"parents":[2147483647,0,0,1,1,2,2,3,3,4,4,5,5,6,6],"right_children":[2,4,6,8,10,12,14,-1,-1,-1,-1,-1,-1,-1,-1],"split_conditions":[-5.1202536E-1,-8.414665E-1,-7.011879E-1,6.4996344E-1,8.4306926E-1,6.124466E-1,6.7095584E-1,-1.4289319E1,3.882309E0,4.5543966E0,2.896835E1,-1.3379871E1,1.0981954E0,-1.729822E0,2.4679363E1],"split_indices":[52,16,16,24,23,24,9,0,0,0,0,0,0,0,0],"split_type":[0,0,0,0,0,0,0,0,0,0,0,0,0,0,0],"sum_hessian":[1.57E2,7.8E1,7.9E1,1.6E1,6.2E1,2.1E1,5.8E1,8E0,8E0,5.6E1,6E0,1.6E1,5E0,5.7E1,1E0],"tree_param":{"num_deleted":"0","num_feature":"60","num_nodes":"15","size_leaf_vector":"1"}},{"base_weights":[-3.4102123E0,4.1391327E1,-5.533453E1,2.7028622E1,3.3266034E2,-2.8484076E1,-1.9392574E2,2.8799794E0,-1.0531646E1,3.155927E1,-3.114133E0,-3.4179313E0,5.7629337E0,-8.8946626E-2,-1.40462E1],"categories":[],"categories_nodes":[],"categories_segments":[],"categories_sizes":[],"default_left":[0,0,0,0,0,0,0,0,0,0,0,0,0,0,0],"id":10,"left_children":[1,3,5,7,9,11,13,-1,-1,-1,-1,-1,-1,-1,-1],"loss_changes":[3.7682297E5,3.549655E5,2.7356903E5,2.6077545E5,2.379861E5,1.7353077E5,3.9897875E4,0E0,0E0,0E0,0E0,0E0,0E0,0E0,0E0],"parents":[2147483647,0,0,1,1,2,2,3,3,4,4,5,5,6,6],"right_children":[2,4,6,8,10,12,14,-1,-1,-1,-1,-1,-1,-1,-1],"split_conditions":[1.237479E-1,1.667758E-1,-5.3208447E-1,1.2611907E0,5.260987E-1,1.1944436E0,-2.997818E-1,2.8799794E0,-1.0531646E1,3.155927E1,-3.114133E0,-3.4179313E0,5.7629337E0,-8.8946626E-2,-1.40462E1],"split_indices":[54,44,40,30,1,31,11,0,0,0,0,0,0,0,0],"split_type":[0,0,0,0,0,0,0,0,0,0,0,0,0,0,0],"sum_hessian":[1.6E2,8.6E1,7.4E1,8.3E1,3E0,6.3E1,1.1E1,7.7E1,6E0,2E0,1E0,5.3E1,1E1,1E0,1E1],"tree_param":{"num_deleted":"0","num_feature":"60","num_nodes":"15","size_leaf_vector":"1"}},{"base_weights":[-8.523888E0,-4.2288666E1,7.6091E1,-5.337774E1,2.3433311E1,3.0592846E1,4.3696243E1,-5.803445E0,6.1017995E0,-6.985583E0,9.003583E0],"categories":[],"categories_nodes":[],"categories_segments":[],"categories_sizes":[],"default_left":[0,0,0,0,0,0,0,0,0,0,0],"id":11,"left_children":[1,3,5,7,-1,9,-1,-1,-1,-1,-1],"loss_changes":[4.2034025E5,4.785284E5,1.0906674E6,5.1536153E5,0E0,5.8333725E5,0E0,0E0,0E0,0E0,0E0],"parents":[2147483647,0,0,1,1,2,2,3,3,5,5],"right_children":[2,4,6,8,-1,10,-1,-1,-1,-1,-1],"split_conditions":[-2.6022327E-1,1.5305316E0,1.036031E0,6.528114E-1,2.3433311E1,-3.9875072E-1,4.3696243E1,-5.803445E0,6.1017995E0,-6.985583E0,9.003583E0],"split_indices":[19,56,30,24,0,11,0,0,0,0,0],"split_type":[0,0,0,0,0,0,0,0,0,0,0],"sum_hessian":[1.45E2,1.04E2,4.1E1,1.02E2,2E0,3.9E1,2E0,8.3E1,1.9E1,1.7E1,2.2E1],"tree_param":{"num_deleted":"0","num_feature":"60","num_nodes":"11","size_leaf_vector":"1"}},{"base_weights":[1.1824485E0,5.001098E1,-4.177737E1,-1.05872E0,2.3201294E2,-1.06603615E2,5.379687E0,-1.1368955E1,2.2368944E0,-8.923851E0,2.4281227E1,-1.053836E1,2.5984292E0,6.407468E0,-2.4999216E0],"categories":[],"categories_nodes":[],"categories_segments":[],"categories_sizes":[],"default_left":[0,0,0,0,0,0,0,0,0,0,0,0,0,0,0],"id":12,"left_children":[1,3,5,7,9,11,13,-1,-1,-1,-1,-1,-1,-1,-1],"loss_changes":[3.272274E5,6.78765E5,2.5430573E5,3.4795644E5,8.3006525E5,2.7103644E5,1.9534289E5,0E0,0E0,0E0,0E0,0E0,0E0,0E0,0E0],"parents":[2147483647,0,0,1,1,2,2,3,3,4,4,5,5,6,6],"right_children":[2,4,6,8,10,12,14,-1,-1,-1,-1,-1,-1,-1,-1],"split_conditions":[-5.490038E-1,-6.640506E-1,8.3064264E-1,-1.3158059E0,-5.5955577E-1,8.804171E-1,-1.4578803E-1,-1.1368955E1,2.2368944E0,-8.923851E0,2.4281227E1,-1.053836E1,2.5984292E0,6.407468E0,-2.4999216E0],"split_indices":[35,58,31,31,19,42,11,0,0,0,0,0,0,0,0],"split_type":[0,0,0,0,0,0,0,0,0,0,0,0,0,0,0],"sum_hessian":[1.54E2,7.2E1,8.2E1,5.7E1,1.5E1,3.4E1,4.8E1,9E0,4.8E1,4E0,1.1E1,2.5E1,9E0,1.5E1,3.3E1],"tree_param":{"num_deleted":"0","num_feature":"60","num_nodes":"15","size_leaf_vector":"1"}},{"base_weights":[-4.622474E0,-1.3444472E2,1.3819654E1,-1.9665102E2,-2.43297E1,8.347507E1,-5.1057793E1,-1.7152848E0,-1.5171408E1,2.5693407E0,-9.45129E0,9.097029E0,-2.3190827E0,-8.895846E0,5.945859E-2],"categories":[],"categories_nodes":[],"categories_segments":[],"categories_sizes":[],"default_left":[0,0,0,0,0,0,0,0,0,0,0,0,0,0,0],"id":13,"left_children":[1,3,5,7,9,11,13,-1,-1,-1,-1,-1,-1,-1,-1],"loss_changes":[3.6577616E5,1.2536266E5,6.098168E5,5.8872062E4,6.4879508E4,4.154707E5,3.0113325E5,0E0,0E0,0E0,0E0,0E0,0E0,0E0,0E0],"parents":[2147483647,0,0,1,1,2,2,3,3,4,4,5,5,6,6],"right_children":[2,4,6,8,10,12,14,-1,-1,-1,-1,-1,-1,-1,-1],"split_conditions":[-1.2093772E0,1.3816679E0,-4.5051195E-2,-4.1787732E-1,6.536401E-1,7.844051E-2,-5.423044E-1,-1.7152848E0,-1.5171408E1,2.5693407E0,-9.45129E0,9.097029E0,-2.3190827E0,-8.895846E0,5.945859E-2],"split_indices":[50,36,46,11,24,11,5,0,0,0,0,0,0,0,0],"split_type":[0,0,0,0,0,0,0,0,0,0,0,0,0,0,0],"sum_hessian":[1.51E2,1.8E1,1.33E2,1.1E1,7E0,6.4E1,6.9E1,2E0,9E0,5E0,2E0,4.4E1,2E1,2.6E1,4.3E1],"tree_param":{"num_deleted":"0","num_feature":"60","num_nodes":"15","size_leaf_vector":"1"}},{"base_weights":[7.2643294E0,3.297587E2,-1.8072917E0,3.1282726E1,-3.085072E0,1.8308338E1,-1.1327545E2,2.1156074E-1,2.4701483E1,-3.9210904E0,-1.3354282E1],"categories":[],"categories_nodes":[],"categories_segments":[],"categories_sizes":[],"default_left":[0,0,0,0,0,0,0,0,0,0,0],"id":14,"left_children":[1,3,5,-1,-1,7,9,-1,-1,-1,-1],"loss_changes":[4.2772578E5,2.3379344E5,3.2271594E5,0E0,0E0,6.507748E5,9.2802125E4,0E0,0E0,0E0,0E0],"parents":[2147483647,0,0,1,1,2,2,5,5,6,6],"right_children":[2,4,6,-1,-1,8,10,-1,-1,-1,-1],"split_conditions":[-9.643836E-1,-1.5750179E-1,1.4529921E0,3.1282726E1,-3.085072E0,1.2874938E0,7.207784E-1,2.1156074E-1,2.4701483E1,-3.9210904E0,-1.3354282E1],"split_indices":[48,3,56,0,0,32,23,0,0,0,0],"split_type":[0,0,0,0,0,0,0,0,0,0,0],"sum_hessian":[1.45E2,3E0,1.42E2,2E0,1E0,1.21E2,2.1E1,1.17E2,4E0,1.4E1,7E0],"tree_param":{"num_deleted":"0","num_feature":"60","num_nodes":"11","size_leaf_vector":"1"}},{"base_weights":[-1.5386227E1,3.865233E1,-7.521537E1,-9.430801E1,7.6027466E1,-1.5755185E2,-4.8877235E1,-1.3477192E1,-1.5414766E0,2.698749E1,3.1091943E0,-1.381575E1,3.1382036E-1,-4.200274E0,2.4537323E1],"categories":[],"categories_nodes":[],"categories_segments":[],"categories_sizes":[],"default_left":[0,0,0,0,0,0,0,0,0,0,0,0,0,0,0],"id":15,"left_children":[1,3,5,7,9,11,13,-1,-1,-1,-1,-1,-1,-1,-1],"loss_changes":[4.9110244E5,4.0472288E5,1.4843772E5,1.341196E5,5.891219E5,1.3972244E5,3.5835578E5,0E0,0E0,0E0,0E0,0E0,0E0,0E0,0E0],"parents":[2147483647,0,0,1,1,2,2,3,3,4,4,5,5,6,6],"right_children":[2,4,6,8,10,12,14,-1,-1,-1,-1,-1,-1,-1,-1],"split_conditions":[-4.5051195E-2,-8.5789615E-1,-7.278032E-1,6.71317E-1,-8.31091E-1,6.6402745E-1,6.7095584E-1,-1.3477192E1,-1.5414766E0,2.698749E1,3.1091943E0,-1.381575E1,3.1382036E-1,-4.200274E0,2.4537323E1],"split_indices":[46,5,5,1,16,1,9,0,0,0,0,0,0,0,0],"split_type":[0,0,0,0,0,0,0,0,0,0,0,0,0,0,0],"sum_hessian":[1.5E2,7.9E1,7.1E1,1.7E1,6.2E1,1.6E1,5.5E1,6E0,1.1E1,4E0,5.8E1,1.2E1,4E0,5.4E1,1E0],"tree_param":{"num_deleted":"0","num_feature":"60","num_nodes":"15","size_leaf_vector":"1"}},{"base_weights":[-6.154138E0,4.209708E1,-6.3085064E1,-1.4451535E1,1.3305658E2,-1.6221095E2,-3.327788E1,1.1250427E0,-1.3635269E1,-1.475652E0,1.68231E1,7.2234E-1,-1.3718759E1,-5.8135734E0,1.6131203E0],"categories":[],"categories_nodes":[],"categories_segments":[],"categories_sizes":[],"default_left":[0,0,0,0,0,0,0,0,0,0,0,0,0,0,0],"id":16,"left_children":[1,3,5,7,9,11,13,-1,-1,-1,-1,-1,-1,-1,-1],"loss_changes":[3.9547475E5,4.0312638E5,1.8960975E5,2.966326E5,5.6468756E5,1.1692866E5,1.6425547E5,0E0,0E0,0E0,0E0,0E0,0E0,0E0,0E0],"parents":[2147483647,0,0,1,1,2,2,3,3,4,4,5,5,6,6],"right_children":[2,4,6,8,10,12,14,-1,-1,-1,-1,-1,-1,-1,-1],"split_conditions":[-6.637549E-2,-1.0212687E0,-5.537633E-1,6.2300736E-1,-5.6090814E-1,-9.645542E-1,8.936429E-1,1.1250427E0,-1.3635269E1,-1.475652E0,1.68231E1,7.2234E-1,-1.3718759E1,-5.8135734E0,1.6131203E0],"split_indices":[54,50,19,37,19,53,31,0,0,0,0,0,0,0,0],"split_type":[0,0,0,0,0,0,0,0,0,0,0,0,0,0,0],"sum_hessian":[1.42E2,7.7E1,6.5E1,4.8E1,2.9E1,1.4E1,5.1E1,4.2E1,6E0,1.3E1,1.6E1,3E0,1.1E1,2.6E1,2.5E1],"tree_param":{"num_deleted":"0","num_feature":"60","num_nodes":"15","size_leaf_vector":"1"}},{"base_weights":[1.6312145E1,1.00119E1,2.124337E1,2.8199102E1,-1.13996574E2,7.1665835E0,-6.72667E-1,-1.1854276E1,-1.5084006E0],"categories":[],"categories_nodes":[],"categories_segments":[],"categories_sizes":[],"default_left":[0,0,0,0,0,0,0,0,0],"id":17,"left_children":[1,3,-1,5,7,-1,-1,-1,-1],"loss_changes":[2.8149538E5,3.347536E5,0E0,3.9463997E5,1.0756875E5,0E0,0E0,0E0,0E0],"parents":[2147483647,0,0,1,1,3,3,4,4],"right_children":[2,4,-1,6,8,-1,-1,-1,-1],"split_conditions":[1.5305316E0,1.5188261E0,2.124337E1,-6.2383443E-1,1.3997647E0,7.1665835E0,-6.72667E-1,-1.1854276E1,-1.5084006E0],"split_indices":[56,40,0,59,38,0,0,0,0],"split_type":[0,0,0,0,0,0,0,0,0],"sum_hessian":[1.48E2,1.46E2,2E0,1.28E2,1.8E1,4.1E1,8.7E1,1E1,8E0],"tree_param":{"num_deleted":"0","num_feature":"60","num_nodes":"9","size_leaf_vector":"1"}}]},"name":"gbtree"},"learner_model_param":{"base_score":"4.4653192E2","boost_from_average":"1","num_class":"0","num_feature":"60","num_target":"1"},"objective":{"name":"reg:squarederror","reg_loss_param":{"scale_pos_weight":"1"}}},"version":[2,0,3]}