{"learner":{"attributes":{"best_iteration":"6","best_score":"398.4952964211966","scikit_learn":"{\"_estimator_type\": \"regressor\"}"},"feature_names":[],"feature_types":[],"gradient_booster":{"model":{"gbtree_model_param":{"num_parallel_tree":"1","num_trees":"17"},"iteration_indptr":[0,1,2,3,4,5,6,7,8,9,10,11,12,13,14,15,16,17],"tree_info":[0,0,0,0,0,0,0,0,0,0,0,0,0,0,0,0,0],"trees":[{"base_weights":[6.5113354E0,8.009193E1,-7.752443E1,-1.3162367E2,1.3020341E2,-1.145834E1,-2.0642642E2,1.3181126E0,-1.4921407E1,3.2994686E1,6.55231E0,-3.0065804E0,2.4684212E1,-1.6084581E1,-3.9512749E0],"categories":[],"categories_nodes":[],"categories_segments":[],"categories_sizes":[],"default_left":[0,0,0,0,0,0,0,0,0,0,0,0,0,0,0],"id":0,"left_children":[1,3,5,7,9,11,13,-1,-1,-1,-1,-1,-1,-1,-1],"loss_changes":[9.3990275E5,8.7649794E5,6.0227425E5,2.2946284E5,7.154815E5,6.373682E5,1.1102631E5,0E0,0E0,0E0,0E0,0E0,0E0,0E0,0E0],"parents":[2147483647,0,0,1,1,2,2,3,3,4,4,5,5,6,6],"right_children":[2,4,6,8,10,12,14,-1,-1,-1,-1,-1,-1,-1,-1],"split_conditions":[1.2845409E-1,-8.5789615E-1,-7.5119203E-1,-9.010308E-1,-8.31091E-1,-7.621764E-1,-2.3344178E-1,1.3181126E0,-1.4921407E1,3.2994686E1,6.55231E0,-3.0065804E0,2.4684212E1,-1.6084581E1,-3.9512749E0],"split_indices":[66,5,62,5,16,62,30,0,0,0,0,0,0,0,0],"split_type":[0,0,0,0,0,0,0,0,0,0,0,0,0,0,0],"sum_hessian":[1.5E2,8E1,7E1,1.5E1,6.5E1,4.7E1,2.3E1,6E0,9E0,4E0,6.1E1,4.4E1,3E0,1.8E1,5E0],"tree_param":{"num_deleted":"0","num_feature":"80","num_nodes":"15","size_leaf_vector":"1"}},{"base_weights":[-8.949937E0,7.4965706E1,-1.11801704E2,-4.196415E0,3.1662E2,-2.766974E1,-1.9017091E2,1.6543938E1,-4.647311E0,1.4699655E1,5.2109814E1,-8.282043E0,7.496126E0,-1.4566239E1,5.4405375E0],"categories":[],"categories_nodes":[],"categories_segments":[],"categories_sizes":[],"default_left":[0,0,0,0,0,0,0,0,0,0,0,0,0,0,0],"id":1,"left_children":[1,3,5,7,9,11,13,-1,-1,-1,-1,-1,-1,-1,-1],"loss_changes":[1.2684886E6,1.5508478E6,4.298995E5,1.0485995E6,7.1901325E5,4.6326247E5,2.8581938E5,0E0,0E0,0E0,0E0,0E0,0E0,0E0,0E0],"parents":[2147483647,0,0,1,1,2,2,3,3,4,4,5,5,6,6],"right_children":[2,4,6,8,10,12,14,-1,-1,-1,-1,-1,-1,-1,-1],"split_conditions":[1.2845409E-1,-6.640506E-1,-1.8909873E-1,-4.271936E-1,7.043696E-1,-2.9464802E-1,2.710557E0,1.6543938E1,-4.647311E0,1.4699655E1,5.2109814E1,-8.282043E0,7.496126E0,-1.4566239E1,5.4405375E0],"split_indices":[66,78,49,42,9,49,59,0,0,0,0,0,0,0,0],"split_type":[0,0,0,0,0,0,0,0,0,0,0,0,0,0,0],"sum_hessian":[1.45E2,8E1,6.5E1,6.1E1,1.9E1,3.2E1,3.3E1,1.2E1,4.9E1,1.7E1,2E0,1.9E1,1.3E1,3E1,3E0],"tree_param":{"num_deleted":"0","num_feature":"80","num_nodes":"15","size_leaf_vector":"1"}},{"base_weights":[1.5008407E1,8.961445E1,-6.414014E1,-2.4271843E1,2.209626E2,-1.6986336E1,-2.073761E2,-1.230627E1,3.9908323E0,3.5776146E1,1.5587001E0,7.954347E0,-4.5937886E0,-1.5538642E1,-4.193631E-1],"categories":[],"categories_nodes":[],"categories_segments":[],"categories_sizes":[],"default_left":[0,0,0,0,0,0,0,0,0,0,0,0,0,0,0],"id":2,"left_children":[1,3,5,7,9,11,13,-1,-1,-1,-1,-1,-1,-1,-1],"loss_changes":[8.383472E5,1.0973522E6,4.6251178E5,5.536163E5,2.1179E6,3.8577375E5,8.872431E4,0E0,0E0,0E0,0E0,0E0,0E0,0E0,0E0],"parents":[2147483647,0,0,1,1,2,2,3,3,4,4,5,5,6,6],"right_children":[2,4,6,8,10,12,14,-1,-1,-1,-1,-1,-1,-1,-1],"split_conditions":[-5.490038E-1,-9.737526E-1,-5.331563E-1,1.0710922E0,6.922579E-1,2.674354E-1,1.3744404E0,-1.230627E1,3.9908323E0,3.5776146E1,1.5587001E0,7.954347E0,-4.5937886E0,-1.5538642E1,-4.193631E-1],"split_indices":[55,66,60,50,31,68,16,0,0,0,0,0,0,0,0],"split_type":[0,0,0,0,0,0,0,0,0,0,0,0,0,0,0],"sum_hessian":[1.4E2,7.2E1,6.8E1,3.9E1,3.3E1,5.2E1,1.6E1,1.3E1,2.6E1,1.2E1,2.1E1,1.4E1,3.8E1,1.4E1,2E0],"tree_param":{"num_deleted":"0","num_feature":"80","num_nodes":"15","size_leaf_vector":"1"}},{"base_weights":[5.1310506E0,7.256169E1,-5.89922E1,1.4161847E2,-6.568666E1,1.0617949E0,-1.9115346E2,-9.056114E0,1.3586984E1,-8.023781E0,1.7755909E1,4.8151436E0,-5.203773E0,-1.4766745E1,7.326449E0],"categories":[],"categories_nodes":[],"categories_segments":[],"categories_sizes":[],"default_left":[0,0,0,0,0,0,0,0,0,0,0,0,0,0,0],"id":3,"left_children":[1,3,5,7,9,11,13,-1,-1,-1,-1,-1,-1,-1,-1],"loss_changes":[6.744807E5,7.348735E5,6.351479E5,9.175648E5,5.0836444E5,3.228353E5,2.580385E5,0E0,0E0,0E0,0E0,0E0,0E0,0E0,0E0],"parents":[2147483647,0,0,1,1,2,2,3,3,4,4,5,5,6,6],"right_children":[2,4,6,8,10,12,14,-1,-1,-1,-1,-1,-1,-1,-1],"split_conditions":[-5.490038E-1,1.1571863E-1,4.3039376E-1,-4.8483035E-1,3.565403E0,1.0147865E0,1.2105075E0,-9.056114E0,1.3586984E1,-8.023781E0,1.7755909E1,4.8151436E0,-5.203773E0,-1.4766745E1,7.326449E0],"split_indices":[55,49,31,40,30,55,70,0,0,0,0,0,0,0,0],"split_type":[0,0,0,0,0,0,0,0,0,0,0,0,0,0,0],"sum_hessian":[1.54E2,7.5E1,7.9E1,5E1,2.5E1,5.5E1,2.4E1,9E0,4.1E1,2.2E1,3E0,2.9E1,2.6E1,2.2E1,2E0],"tree_param":{"num_deleted":"0","num_feature":"80","num_nodes":"15","size_leaf_vector":"1"}},{"base_weights":[2.9398174E0,6.990314E1,-6.238617E1,-2.4426964E1,2.301308E2,-1.8340088E2,-7.247708E0,-1.0538129E1,2.8812802E0,-3.4387188E0,2.1414812E1,-1.3972876E1,5.5344977E0,1.9974932E1,-1.6093266E0],"categories":[],"categories_nodes":[],"categories_segments":[],"categories_sizes":[],"default_left":[0,0,0,0,0,0,0,0,0,0,0,0,0,0,0],"id":4,"left_children":[1,3,5,7,9,11,13,-1,-1,-1,-1,-1,-1,-1,-1],"loss_changes":[6.911489E5,1.1845361E6,5.32476E5,4.613228E5,7.68965E5,1.9621988E5,2.996198E5,0E0,0E0,0E0,0E0,0E0,0E0,0E0,0E0],"parents":[2147483647,0,0,1,1,2,2,3,3,4,4,5,5,6,6],"right_children":[2,4,6,8,10,12,14,-1,-1,-1,-1,-1,-1,-1,-1],"split_conditions":[-5.1202536E-1,-7.662381E-1,-4.4233513E-1,1.143535E0,-5.8577454E-1,1.1944436E0,-3.014084E-1,-1.0538129E1,2.8812802E0,-3.4387188E0,2.1414812E1,-1.3972876E1,5.5344977E0,1.9974932E1,-1.6093266E0],"split_indices":[72,72,43,77,12,51,37,0,0,0,0,0,0,0,0],"split_type":[0,0,0,0,0,0,0,0,0,0,0,0,0,0,0],"sum_hessian":[1.56E2,7.7E1,7.9E1,4.9E1,2.8E1,2.4E1,5.5E1,1.6E1,3.3E1,7E0,2.1E1,2.2E1,2E0,2E0,5.3E1],"tree_param":{"num_deleted":"0","num_feature":"80","num_nodes":"15","size_leaf_vector":"1"}},{"base_weights":[2.9476163E0,7.3234695E1,-5.929437E1,-3.141437E1,2.0650893E2,-1.4474281E2,1.6507343E1,-3.820612E0,2.286228E1,1.04593E0,2.6346405E1,-2.1241195E0,-1.4843214E1,5.4532475E0,-4.5555334E0],"categories":[],"categories_nodes":[],"categories_segments":[],"categories_sizes":[],"default_left":[0,0,0,0,0,0,0,0,0,0,0,0,0,0,0],"id":5,"left_children":[1,3,5,7,9,11,13,-1,-1,-1,-1,-1,-1,-1,-1],"loss_changes":[7.1743594E5,1.0804082E6,5.659003E5,4.502201E5,1.2251786E6,3.5614606E5,2.6754828E5,0E0,0E0,0E0,0E0,0E0,0E0,0E0,0E0],"parents":[2147483647,0,0,1,1,2,2,3,3,4,4,5,5,6,6],"right_children":[2,4,6,8,10,12,14,-1,-1,-1,-1,-1,-1,-1,-1],"split_conditions":[-5.5234045E-1,-9.925407E-1,5.4209594E-2,1.0967187E0,-1.0405502E0,-7.6801276E-1,1.2020715E0,-3.820612E0,2.286228E1,1.04593E0,2.6346405E1,-2.1241195E0,-1.4843214E1,5.4532475E0,-4.5555334E0],"split_indices":[59,66,43,43,43,73,43,0,0,0,0,0,0,0,0],"split_type":[0,0,0,0,0,0,0,0,0,0,0,0,0,0,0],"sum_hessian":[1.62E2,7.6E1,8.6E1,4.3E1,3.3E1,4E1,4.6E1,4.1E1,2E0,1.7E1,1.6E1,1.7E1,2.3E1,2.6E1,2E1],"tree_param":{"num_deleted":"0","num_feature":"80","num_nodes":"15","size_leaf_vector":"1"}},{"base_weights":[4.104998E-1,-5.6444016E1,9.0021675E1,1.7474154E1,-1.9137021E2,4.0276627E1,6.128957E1,-3.7042997E0,4.20412E0,-1.310407E1,-2.2542003E-1,9.372488E0,-2.6039052E0],"categories":[],"categories_nodes":[],"categories_segments":[],"categories_sizes":[],"default_left":[0,0,0,0,0,0,0,0,0,0,0,0,0],"id":6,"left_children":[1,3,5,7,9,-1,11,-1,-1,-1,-1,-1,-1],"loss_changes":[7.7439606E5,9.3087925E5,8.374186E5,2.079153E5,3.5114375E4,0E0,4.6197838E5,0E0,0E0,0E0,0E0,0E0,0E0],"parents":[2147483647,0,0,1,1,2,2,3,3,4,4,6,6],"right_children":[2,4,6,8,10,-1,12,-1,-1,-1,-1,-1,-1],"split_conditions":[2.3455046E-1,1.9937745E-1,2.3091772E-1,1.2498232E-1,9.4988877E-1,4.0276627E1,-2.3428616E-1,-3.7042997E0,4.20412E0,-1.310407E1,-2.2542003E-1,9.372488E0,-2.6039052E0],"split_indices":[69,31,52,79,31,0,44,0,0,0,0,0,0],"split_type":[0,0,0,0,0,0,0,0,0,0,0,0,0],"sum_hessian":[1.5E2,9.2E1,5.8E1,6E1,3.2E1,2E0,5.6E1,2.3E1,3.7E1,3.1E1,1E0,3.1E1,2.5E1],"tree_param":{"num_deleted":"0","num_feature":"80","num_nodes":"13","size_leaf_vector":"1"}},{"base_weights":[-1.9699108E1,-4.2688168E1,1.6266754E2,8.788951E0,-1.5565683E2,3.875641E2,4.763594E0,3.2154684E0,-5.333572E0,-1.2121715E1,5.212569E0,1.4647256E0,4.361862E1,-3.9168794E0,1.2911661E1],"categories":[],"categories_nodes":[],"categories_segments":[],"categories_sizes":[],"default_left":[0,0,0,0,0,0,0,0,0,0,0,0,0,0,0],"id":7,"left_children":[1,3,5,7,9,11,13,-1,-1,-1,-1,-1,-1,-1,-1],"loss_changes":[6.358096E5,7.806185E5,6.0185875E5,3.3162634E5,2.7682275E5,6.729035E5,1.4419281E5,0E0,0E0,0E0,0E0,0E0,0E0,0E0,0E0],"parents":[2147483647,0,0,1,1,2,2,3,3,4,4,5,5,6,6],"right_children":[2,4,6,8,10,12,14,-1,-1,-1,-1,-1,-1,-1,-1],"split_conditions":[7.212603E-1,4.2844373E-1,9.2901415E-1,9.136514E-1,-3.7881005E-1,4.0521133E-1,8.954148E-1,3.2154684E0,-5.333572E0,-1.2121715E1,5.212569E0,1.4647256E0,4.361862E1,-3.9168794E0,1.2911661E1],"split_indices":[13,33,23,55,19,33,9,0,0,0,0,0,0,0,0],"split_type":[0,0,0,0,0,0,0,0,0,0,0,0,0,0,0],"sum_hessian":[1.49E2,1.33E2,1.6E1,9.2E1,4.1E1,6E0,1E1,6.4E1,2.8E1,3.7E1,4E0,3E0,3E0,8E0,2E0],"tree_param":{"num_deleted":"0","num_feature":"80","num_nodes":"15","size_leaf_vector":"1"}},{"base_weights":[-1.2184008E1,-3.2002262E1,1.250989E2,-1.5953452E2,4.2155814E0,4.8340344E2,2.770409E1,-1.4461069E1,3.5821097E0,2.1914146E0,-8.866637E0,6.4678187E0,3.8531433E1,2.0527988E1,-2.2942505E0],"categories":[],"categories_nodes":[],"categories_segments":[],"categories_sizes":[],"default_left":[0,0,0,0,0,0,0,0,0,0,0,0,0,0,0],"id":8,"left_children":[1,3,5,7,9,11,13,-1,-1,-1,-1,-1,-1,-1,-1],"loss_changes":[4.0938888E5,6.057541E5,6.4965075E5,3.7081975E5,4.1191456E5,9.227081E4,2.9051544E5,0E0,0E0,0E0,0E0,0E0,0E0,0E0,0E0],"parents":[2147483647,0,0,1,1,2,2,3,3,4,4,5,5,6,6],"right_children":[2,4,6,8,10,12,14,-1,-1,-1,-1,-1,-1,-1,-1],"split_conditions":[7.19667E-1,-5.537633E-1,7.4584657E-1,1.017881E0,1.218226E0,-5.5803066E-1,-2.8646484E-1,-1.4461069E1,3.5821097E0,2.1914146E0,-8.866637E0,6.4678187E0,3.8531433E1,2.0527988E1,-2.2942505E0],"split_indices":[2,19,2,50,52,15,49,0,0,0,0,0,0,0,0],"split_type":[0,0,0,0,0,0,0,0,0,0,0,0,0,0,0],"sum_hessian":[1.48E2,1.3E2,1.8E1,2.8E1,1.02E2,3E0,1.5E1,2.2E1,6E0,8.5E1,1.7E1,1E0,2E0,2E0,1.3E1],"tree_param":{"num_deleted":"0","num_feature":"80","num_nodes":"15","size_leaf_vector":"1"}},{"base_weights":[8.964927E0,6.129569E1,-5.280782E1,1.27162E2,-1.4098114E1,-1.2793621E1,-1.4498648E2,1.2550006E0,2.065712E1,-5.343979E0,1.0158117E1,-1.8124952E0,2.4107986E1,-1.290614E1,8.2982E0],"categories":[],"categories_nodes":[],"categories_segments":[],"categories_sizes":[],"default_left":[0,0,0,0,0,0,0,0,0,0,0,0,0,0,0],"id":9,"left_children":[1,3,5,7,9,11,13,-1,-1,-1,-1,-1,-1,-1,-1],"loss_changes":[5.1399006E5,4.288611E5,2.6740238E5,9.0866225E5,4.6599812E5,2.9248453E5,3.1614584E5,0E0,0E0,0E0,0E0,0E0,0E0,0E0,0E0],"parents":[2147483647,0,0,1,1,2,2,3,3,4,4,5,5,6,6],"right_children":[2,4,6,8,10,12,14,-1,-1,-1,-1,-1,-1,-1,-1],"split_conditions":[1.2845409E-1,1.5323664E-1,4.3039376E-1,-1.0064926E0,6.71317E-1,4.0933207E-1,1.1352892E0,1.2550006E0,2.065712E1,-5.343979E0,1.0158117E1,-1.8124952E0,2.4107986E1,-1.290614E1,8.2982E0],"split_indices":[66,42,31,64,1,31,51,0,0,0,0,0,0,0,0],"split_type":[0,0,0,0,0,0,0,0,0,0,0,0,0,0,0],"sum_hessian":[1.57E2,8.5E1,7.2E1,4.5E1,4E1,5.1E1,2.1E1,2.9E1,1.6E1,2.9E1,1.1E1,5E1,1E0,1.8E1,3E0],"tree_param":{"num_deleted":"0","num_feature":"80","num_nodes":"15","size_leaf_vector":"1"}},{"base_weights":[-4.551207E0,-2.5595675E1,1.5407564E2,1.8963657E1,-1.5376468E2,1.5316626E1,4.4575214E1,2.191742E1,4.5392418E-1,4.28722E0,-1.2621823E1,-4.9843254E0,9.44759E0],"categories":[],"categories_nodes":[],"categories_segments":[],"categories_sizes":[],"default_left":[0,0,0,0,0,0,0,0,0,0,0,0,0],"id":10,"left_children":[1,3,5,7,9,11,-1,-1,-1,-1,-1,-1,-1],"loss_changes":[5.413967E5,8.196068E5,1.3514856E6,4.0125078E5,3.0393262E5,1.9388028E5,0E0,0E0,0E0,0E0,0E0,0E0,0E0],"parents":[2147483647,0,0,1,1,2,2,3,3,4,4,5,5],"right_children":[2,4,6,8,10,12,-1,-1,-1,-1,-1,-1,-1],"split_conditions":[8.651309E-1,4.9921957E-1,-5.571404E-1,-9.643836E-1,-8.6934465E-1,1.0077256E0,4.4575214E1,2.191742E1,4.5392418E-1,4.28722E0,-1.2621823E1,-4.9843254E0,9.44759E0],"split_indices":[23,31,15,68,62,31,0,0,0,0,0,0,0],"split_type":[0,0,0,0,0,0,0,0,0,0,0,0,0],"sum_hessian":[1.6E2,1.42E2,1.8E1,1.06E2,3.6E1,1.5E1,3E0,3E0,1.03E2,5E0,3.1E1,9E0,6E0],"tree_param":{"num_deleted":"0","num_feature":"80","num_nodes":"13","size_leaf_vector":"1"}},{"base_weights":[-9.153184E0,-7.940567E1,3.41797E1,-1.3306163E2,6.305059E1,4.406252E1,5.214017E0,-1.114775E1,5.8216155E-1,1.2239222E1,-7.9050403E0,4.8776817E0,-4.091527E0],"categories":[],"categories_nodes":[],"categories_segments":[],"categories_sizes":[],"default_left":[0,0,0,0,0,0,0,0,0,0,0,0,0],"id":11,"left_children":[1,3,5,7,9,-1,11,-1,-1,-1,-1,-1,-1],"loss_changes":[4.4717347E5,4.364328E5,1.6537198E6,2.0292131E5,3.744247E5,0E0,4.0502844E5,0E0,0E0,0E0,0E0,0E0,0E0],"parents":[2147483647,0,0,1,1,2,2,3,3,4,4,6,6],"right_children":[2,4,6,8,10,-1,12,-1,-1,-1,-1,-1,-1],"split_conditions":[-5.6405765E-1,6.500132E-1,-7.460353E-1,1.2914001E0,6.797491E-1,4.406252E1,-2.1801451E-1,-1.114775E1,5.8216155E-1,1.2239222E1,-7.9050403E0,4.8776817E0,-4.091527E0],"split_indices":[12,24,5,53,24,0,23,0,0,0,0,0,0],"split_type":[0,0,0,0,0,0,0,0,0,0,0,0,0],"sum_hessian":[1.45E2,5.5E1,9E1,4E1,1.5E1,3E0,8.7E1,3.2E1,8E0,9E0,6E0,4.3E1,4.4E1],"tree_param":{"num_deleted":"0","num_feature":"80","num_nodes":"13","size_leaf_vector":"1"}},{"base_weights":[8.2996196E-1,5.3564514E1,-4.556103E1,2.294132E0,2.3607187E2,5.476135E1,-7.41851E1,3.802571E0,-7.5399046E0,3.0387924E1,-2.8023767E0,7.6134914E-1,2.7728441E1,-1.106028E1,-3.3347797E0],"categories":[],"categories_nodes":[],"categories_segments":[],"categories_sizes":[],"default_left":[0,0,0,0,0,0,0,0,0,0,0,0,0,0,0],"id":12,"left_children":[1,3,5,7,9,11,13,-1,-1,-1,-1,-1,-1,-1,-1],"loss_changes":[3.8163372E5,6.825356E5,2.424081E5,3.7506125E5,1.00348225E6,2.9341012E5,1.35593E5,0E0,0E0,0E0,0E0,0E0,0E0,0E0,0E0],"parents":[2147483647,0,0,1,1,2,2,3,3,4,4,5,5,6,6],"right_children":[2,4,6,8,10,12,14,-1,-1,-1,-1,-1,-1,-1,-1],"split_conditions":[-5.490038E-1,-6.640506E-1,-7.505219E-1,1.5191817E-1,1.5323664E-1,-7.531932E-1,-1.2073756E0,3.802571E0,-7.5399046E0,3.0387924E1,-2.8023767E0,7.6134914E-1,2.7728441E1,-1.106028E1,-3.3347797E0],"split_indices":[55,78,42,49,42,42,56,0,0,0,0,0,0,0,0],"split_type":[0,0,0,0,0,0,0,0,0,0,0,0,0,0,0],"sum_hessian":[1.54E2,7.2E1,8.2E1,5.7E1,1.5E1,1.8E1,6.4E1,3.9E1,1.8E1,8E0,7E0,1.7E1,1E0,1.2E1,5.2E1],"tree_param":{"num_deleted":"0","num_feature":"80","num_nodes":"15","size_leaf_vector":"1"}},{"base_weights":[-6.2147512E0,-6.0382774E1,3.4949665E1,-1.1949355E2,1.038845E2,2.078632E1,2.822338E1,3.7181327E0,-9.974932E0,2.8275737E-1,3.9924023E1,-1.588535E-3,1.3062933E1],"categories":[],"categories_nodes":[],"categories_segments":[],"categories_sizes":[],"default_left":[0,0,0,0,0,0,0,0,0,0,0,0,0],"id":13,"left_children":[1,3,5,7,9,11,-1,-1,-1,-1,-1,-1,-1],"loss_changes":[3.4103922E5,6.532713E5,4.7129906E5,2.711753E5,8.8826656E5,3.1085397E5,0E0,0E0,0E0,0E0,0E0,0E0,0E0],"parents":[2147483647,0,0,1,1,2,2,3,3,4,4,5,5],"right_children":[2,4,6,8,10,12,-1,-1,-1,-1,-1,-1,-1],"split_conditions":[-4.4233513E-1,8.651309E-1,4.2556018E-1,-8.6934465E-1,-5.600963E-1,1.28829E0,2.822338E1,3.7181327E0,-9.974932E0,2.8275737E-1,3.9924023E1,-1.588535E-3,1.3062933E1],"split_indices":[43,23,38,62,19,52,0,0,0,0,0,0,0],"split_type":[0,0,0,0,0,0,0,0,0,0,0,0,0],"sum_hessian":[1.51E2,6.5E1,8.6E1,4.8E1,1.7E1,8.4E1,2E0,7E0,4.1E1,1.5E1,2E0,7.6E1,8E0],"tree_param":{"num_deleted":"0","num_feature":"80","num_nodes":"13","size_leaf_vector":"1"}},{"base_weights":[3.8132126E0,3.4422217E2,-5.735382E0,3.1479532E1,-1.4574659E0,-1.3110561E1,2.2787037E1,1.252221E0,-8.447574E0],"categories":[],"categories_nodes":[],"categories_segments":[],"categories_sizes":[],"default_left":[0,0,0,0,0,0,0,0,0],"id":14,"left_children":[1,3,5,-1,-1,7,-1,-1,-1],"loss_changes":[4.7653662E5,1.99841E5,3.7208784E5,0E0,0E0,5.1583234E5,0E0,0E0,0E0],"parents":[2147483647,0,0,1,1,2,2,5,5],"right_children":[2,4,6,-1,-1,8,-1,-1,-1],"split_conditions":[-9.643836E-1,-1.5750179E-1,2.547877E0,3.1479532E1,-1.4574659E0,1.4874756E-1,2.2787037E1,1.252221E0,-8.447574E0],"split_indices":[68,3,49,0,0,49,0,0,0],"split_type":[0,0,0,0,0,0,0,0,0],"sum_hessian":[1.45E2,3E0,1.42E2,2E0,1E0,1.4E2,2E0,1.1E2,3E1],"tree_param":{"num_deleted":"0","num_feature":"80","num_nodes":"9","size_leaf_vector":"1"}},{"base_weights":[-1.3970986E1,4.4826683E1,-7.740996E1,9.803969E1,-5.0300556E1,-4.166288E1,-1.5330957E2,3.1607471E1,4.290178E0,-4.9355917E0,7.840634E0,-3.7271295E0,2.2558834E1,-1.1698274E1,3.7592475E0],"categories":[],"categories_nodes":[],"categories_segments":[],"categories_sizes":[],"default_left":[0,0,0,0,0,0,0,0,0,0,0,0,0,0,0],"id":15,"left_children":[1,3,5,7,9,11,13,-1,-1,-1,-1,-1,-1,-1,-1],"loss_changes":[5.667097E5,4.0482997E5,1.9167547E5,6.141702E5,1.2562439E5,2.9902656E5,1.1942694E5,0E0,0E0,0E0,0E0,0E0,0E0,0E0,0E0],"parents":[2147483647,0,0,1,1,2,2,3,3,4,4,5,5,6,6],"right_children":[2,4,6,8,10,12,14,-1,-1,-1,-1,-1,-1,-1,-1],"split_conditions":[-6.637549E-2,9.188369E-1,4.3039376E-1,-8.867531E-1,1.6739795E0,4.0933207E-1,-1.61495E-1,3.1607471E1,4.290178E0,-4.9355917E0,7.840634E0,-3.7271295E0,2.2558834E1,-1.1698274E1,3.7592475E0],"split_indices":[74,73,31,68,12,31,21,0,0,0,0,0,0,0,0],"split_type":[0,0,0,0,0,0,0,0,0,0,0,0,0,0,0],"sum_hessian":[1.5E2,7.8E1,7.2E1,5E1,2.8E1,5E1,2.2E1,3E0,4.7E1,2.5E1,3E0,4.9E1,1E0,2E1,2E0],"tree_param":{"num_deleted":"0","num_feature":"80","num_nodes":"15","size_leaf_vector":"1"}},{"base_weights":[-4.97348E0,4.3425446E1,-6.3720272E1,-2.6860828E1,1.4221422E2,5.695497E1,-9.4984375E1,1.3342618E1,-3.5030339E0,-8.312578E-1,1.6179615E1,-7.780543E0,1.3433256E1,-7.162196E0,9.931771E0],"categories":[],"categories_nodes":[],"categories_segments":[],"categories_sizes":[],"default_left":[0,0,0,0,0,0,0,0,0,0,0,0,0,0,0],"id":16,"left_children":[1,3,5,7,9,11,13,-1,-1,-1,-1,-1,-1,-1,-1],"loss_changes":[4.093563E5,5.52356E5,2.5064203E5,2.869696E5,5.1971056E5,3.7721828E5,1.7831631E5,0E0,0E0,0E0,0E0,0E0,0E0,0E0,0E0],"parents":[2147483647,0,0,1,1,2,2,3,3,4,4,5,5,6,6],"right_children":[2,4,6,8,10,12,14,-1,-1,-1,-1,-1,-1,-1,-1],"split_conditions":[-4.5051195E-2,-9.737526E-1,-2.4856031E-1,-9.643836E-1,-5.8498806E-1,-4.2769384E-1,-1.1333488E-1,1.3342618E1,-3.5030339E0,-8.312578E-1,1.6179615E1,-7.780543E0,1.3433256E1,-7.162196E0,9.931771E0],"split_indices":[66,66,11,68,12,11,20,0,0,0,0,0,0,0,0],"split_type":[0,0,0,0,0,0,0,0,0,0,0,0,0,0,0],"sum_hessian":[1.42E2,7.8E1,6.4E1,4.6E1,3.2E1,1.3E1,5.1E1,4E0,4.2E1,1.3E1,1.9E1,6E0,7E0,4.9E1,2E0],"tree_param":{"num_deleted":"0","num_feature":"80","num_nodes":"15","size_leaf_vector":"1"}}]},"name":"gbtree"},"learner_model_param":{"base_score":"4.4653192E2","boost_from_average":"1","num_class":"0","num_feature":"80","num_target":"1"},"objective":{"name":"reg:squarederror","reg_loss_param":{"scale_pos_weight":"1"}}},"version":[2,0,3]}