{"learner":{"attributes":{"best_iteration":"0","best_score":"406.6158591807667","scikit_learn":"{\"_estimator_type\": \"regressor\"}"},"feature_names":[],"feature_types":[],"gradient_booster":{"model":{"gbtree_model_param":{"num_parallel_tree":"1","num_trees":"11"},"iteration_indptr":[0,1,2,3,4,5,6,7,8,9,10,11],"tree_info":[0,0,0,0,0,0,0,0,0,0,0],"trees":[{"base_weights":[-4.5100946E0,4.497441E1,-1.3033398E2,1.7398863E1,4.0055673E2,-2.0203053E2,3.1425526E1,6.458904E1,-8.128069E1,1.0680871E0,2.8312052E1,-2.4061829E2,-7.945593E1,3.3473557E-1,-2.2139486E1,2.2025531E2,-3.3457455E1,-5.1943577E1,-4.2319638E-1,1.7181142E-1,-9.355136E-2,-1.6354614E1,-4.965044E-1,2.3645386E1,-2.311338E-1,2.6348075E-1,-8.9741646E1,5.530354E1,5.4225836E2,-6.654655E1,6.0931236E-1,-6.7935165E1,7.731205E1,-1.1474353E-1,6.953618E-2,-2.0760879E-2,8.612135E-2,1.6075464E-1,-1.337766E2,9.363215E0,6.4356744E-1,1.5614763E-1,6.043901E2,5.8544067E1,-9.7665306E1,-1.0249646E2,1.5829782E1,1.6904722E-1,4.4658415E-2,-1.053139E-1,-3.5262772E-1,3.3657837E-1,-6.401434E-2,2.6487267E-1,1.2305728E0,1.8533832E-1,-5.7165924E-2,5.9688315E-2,-2.398829E-1,-2.1046256E-1,5.6636598E-2,2.1763629E-1,-1.665869E-1],"categories":[],"categories_nodes":[],"categories_segments":[],"categories_sizes":[],"default_left":[0,0,0,0,0,0,0,0,0,0,0,0,0,0,0,0,0,0,0,0,0,0,0,0,0,0,0,0,0,0,0,0,0,0,0,0,0,0,0,0,0,0,0,0,0,0,0,0,0,0,0,0,0,0,0,0,0,0,0,0,0,0,0],"id":0,"left_children":[1,3,5,7,9,11,13,15,17,-1,19,21,23,-1,25,27,29,31,-1,-1,-1,33,-1,35,-1,-1,37,39,41,43,-1,45,47,-1,-1,-1,-1,-1,49,51,-1,-1,53,55,57,59,61,-1,-1,-1,-1,-1,-1,-1,-1,-1,-1,-1,-1,-1,-1,-1,-1],"loss_changes":[7.281163E5,8.166825E5,3.890697E5,3.731296E5,3.8348006E5,8.9668625E4,9.253334E4,8.3154594E5,1.0124133E5,0E0,2.013482E4,1.05437E5,3.614242E4,0E0,1.1329227E5,1.0854255E6,4.3162962E5,5.2793266E4,0E0,0E0,0E0,9.799395E3,0E0,2.9446714E3,0E0,0E0,6.622169E4,1.9927897E5,1.4777512E5,1.30283E5,0E0,6.2418023E4,7.3384766E1,0E0,0E0,0E0,0E0,0E0,1.5536695E4,1.1333104E5,0E0,0E0,7.920825E4,2.9471219E4,1.14139984E5,2.6915516E4,8.672524E4,0E0,0E0,0E0,0E0,0E0,0E0,0E0,0E0,0E0,0E0,0E0,0E0,0E0,0E0,0E0,0E0],"parents":[2147483647,0,0,1,1,2,2,3,3,4,4,5,5,6,6,7,7,8,8,10,10,11,11,12,12,14,14,15,15,16,16,17,17,21,21,23,23,26,26,27,27,28,28,29,29,31,31,32,32,38,38,39,39,42,42,43,43,44,44,45,45,46,46],"right_children":[2,4,6,8,10,12,14,16,18,-1,20,22,24,-1,26,28,30,32,-1,-1,-1,34,-1,36,-1,-1,38,40,42,44,-1,46,48,-1,-1,-1,-1,-1,50,52,-1,-1,54,56,58,60,62,-1,-1,-1,-1,-1,-1,-1,-1,-1,-1,-1,-1,-1,-1,-1,-1],"split_conditions":[4.9307793E-1,4.088156E-1,9.741772E-1,4.6384054E-1,-9.098794E-2,-4.252246E-1,-2.342923E-1,-8.951184E-2,3.0193143E0,1.0680871E0,-2.3345086E-1,-2.334494E-1,-4.2026156E-1,3.3473557E-1,-2.8896973E-1,9.3524456E-2,-3.2471144E-1,2.788874E0,-4.2319638E-1,1.7181142E-1,-9.355136E-2,-2.3345001E-1,-4.965044E-1,5.062269E-1,-2.311338E-1,2.6348075E-1,-2.3344578E-1,-2.6085034E-1,-2.0239599E0,-4.8227683E-1,6.0931236E-1,-1.3121939E-1,-1.0882821E0,-1.1474353E-1,6.953618E-2,-2.0760879E-2,8.612135E-2,1.6075464E-1,1.0077256E0,8.5761833E-1,6.4356744E-1,1.5614763E-1,-2.6550788E-1,-3.9986327E-1,-2.334448E-1,-6.0992914E-1,2.7538137E0,1.6904722E-1,4.4658415E-2,-1.053139E-1,-3.5262772E-1,3.3657837E-1,-6.401434E-2,2.6487267E-1,1.2305728E0,1.8533832E-1,-5.7165924E-2,5.9688315E-2,-2.398829E-1,-2.1046256E-1,5.6636598E-2,2.1763629E-1,-1.665869E-1],"split_indices":[1,3,1,10,19,10,14,1,10,0,0,0,10,0,19,19,10,10,0,0,0,0,0,1,0,0,0,3,1,10,0,0,1,0,0,0,0,0,1,7,0,0,15,12,0,1,0,0,0,0,0,0,0,0,0,0,0,0,0,0,0,0,0],"split_type":[0,0,0,0,0,0,0,0,0,0,0,0,0,0,0,0,0,0,0,0,0,0,0,0,0,0,0,0,0,0,0,0,0,0,0,0,0,0,0,0,0,0,0,0,0,0,0,0,0,0,0,0,0,0,0,0,0,0,0,0,0,0,0],"sum_hessian":[1.15E2,8.3E1,3.2E1,7.8E1,5E0,2.2E1,1E1,5.3E1,2.5E1,3E0,2E0,1.6E1,6E0,2E0,8E0,2E1,3.3E1,2.2E1,3E0,1E0,1E0,2E0,1.4E1,2E0,4E0,2E0,6E0,1.4E1,6E0,3.1E1,2E0,2E1,2E0,1E0,1E0,1E0,1E0,1E0,5E0,1.3E1,1E0,1E0,5E0,6E0,2.5E1,1.4E1,6E0,1E0,1E0,3E0,2E0,2E0,1.1E1,1E0,4E0,4E0,2E0,5E0,2E1,1.3E1,1E0,3E0,3E0],"tree_param":{"num_deleted":"0","num_feature":"20","num_nodes":"63","size_leaf_vector":"1"}},{"base_weights":[-4.660703E0,2.2320491E2,-3.1162903E1,3.8516632E1,3.496227E2,-8.643867E1,1.4962074E1,-9.077771E1,3.650032E-1,-8.629197E-3,4.0945407E2,-2.86345E0,-2.2092854E2,-4.218505E1,5.0774347E2,-4.834384E-2,-1.908173E-1,4.790626E2,5.6584407E-2,-4.7271313E1,1.1839645E0,-2.70136E2,-3.8962006E1,-1.19100075E2,4.5647175E1,2.9834655E-1,1.1797423E0,9.7120464E-1,2.6462862E-1,9.445338E1,-8.073285E1,-3.0185852E2,-9.803776E-2,-1.1599237E-1,5.2487068E-2,-7.122459E1,-4.6540132E-1,2.5963864E2,-5.19961E1,2.5274172E-1,-1.0967907E-1,-1.13692245E2,1.1248718E2,-5.8002317E-1,-1.4745641E-1,4.7272682E1,-9.242272E1,2.9410547E1,1.1675016E0,-1.1015236E2,8.267515E1,-3.931644E-1,-8.9602225E-2,3.3792475E-1,-9.230505E-2,1.840128E-1,-1.01791285E-1,1.7309278E-1,-1.9901086E-1,-8.625573E-2,2.2340298E-1,-2.9413294E-2,-2.3187363E-1,3.3110172E-1,-1.3676192E-1],"categories":[],"categories_nodes":[],"categories_segments":[],"categories_sizes":[],"default_left":[0,0,0,0,0,0,0,0,0,0,0,0,0,0,0,0,0,0,0,0,0,0,0,0,0,0,0,0,0,0,0,0,0,0,0,0,0,0,0,0,0,0,0,0,0,0,0,0,0,0,0,0,0,0,0,0,0,0,0,0,0,0,0,0,0],"id":1,"left_children":[1,3,5,7,9,11,13,15,-1,-1,17,19,21,23,25,-1,-1,27,-1,29,-1,31,33,35,37,-1,-1,-1,-1,39,41,43,-1,-1,-1,45,-1,47,49,-1,-1,51,53,-1,-1,55,57,59,-1,61,63,-1,-1,-1,-1,-1,-1,-1,-1,-1,-1,-1,-1,-1,-1],"loss_changes":[6.9539494E5,2.6670838E5,2.639014E5,1.4175661E5,1.5030731E5,5.276484E5,1.6265985E6,5.8041406E2,0E0,0E0,1.4347456E5,8.9012375E5,1.5064894E5,3.5672872E5,1.7119188E5,0E0,0E0,4.76975E3,0E0,1.4515294E5,0E0,8.028531E4,9.879904E3,1.6090562E5,5.358709E5,0E0,0E0,0E0,0E0,4.7608246E4,1.6563088E5,9.136625E3,0E0,0E0,0E0,5.963132E4,0E0,6.700437E5,1.5008244E5,0E0,0E0,1.2580678E5,5.528476E4,0E0,0E0,2.7076674E4,6.527658E4,4.7664094E4,0E0,1.7185E4,1.0464242E5,0E0,0E0,0E0,0E0,0E0,0E0,0E0,0E0,0E0,0E0,0E0,0E0,0E0,0E0],"parents":[2147483647,0,0,1,1,2,2,3,3,4,4,5,5,6,6,7,7,10,10,11,11,12,12,13,13,14,14,17,17,19,19,21,21,22,22,23,23,24,24,29,29,30,30,31,31,35,35,37,37,38,38,41,41,42,42,45,45,46,46,47,47,49,49,50,50],"right_children":[2,4,6,8,10,12,14,16,-1,-1,18,20,22,24,26,-1,-1,28,-1,30,-1,32,34,36,38,-1,-1,-1,-1,40,42,44,-1,-1,-1,46,-1,48,50,-1,-1,52,54,-1,-1,56,58,60,-1,62,64,-1,-1,-1,-1,-1,-1,-1,-1,-1,-1,-1,-1,-1,-1],"split_conditions":[-8.176433E-1,9.3524456E-2,-3.388083E-1,-8.8443536E-1,-2.3579412E0,-7.339329E-1,4.088156E-1,-2.3347187E-1,3.650032E-1,-8.629197E-3,1.8372043E0,-7.4012274E-1,1.1307271E-1,-2.3428985E-1,4.1236013E-1,-4.834384E-2,-1.908173E-1,-4.882968E-1,5.6584407E-2,-2.8896973E-1,1.1839645E0,-4.036627E-1,5.765505E-1,3.729995E-2,-3.776423E-1,2.9834655E-1,1.1797423E0,9.7120464E-1,2.6462862E-1,-2.3425522E-1,1.3240631E0,-2.3426163E-1,-9.803776E-2,-1.1599237E-1,5.2487068E-2,-4.8227683E-1,-4.6540132E-1,-4.3585226E-1,1.7197688E-1,2.5274172E-1,-1.0967907E-1,-1.1344842E0,1.6142246E0,-5.8002317E-1,-1.4745641E-1,2.076863E-1,-7.3011714E-1,-8.7379545E-2,1.1675016E0,-3.4449378E-1,-1.906782E0,-3.931644E-1,-8.9602225E-2,3.3792475E-1,-9.230505E-2,1.840128E-1,-1.01791285E-1,1.7309278E-1,-1.9901086E-1,-8.625573E-2,2.2340298E-1,-2.9413294E-2,-2.3187363E-1,3.3110172E-1,-1.3676192E-1],"split_indices":[12,19,7,12,1,7,3,0,0,0,7,7,19,14,1,0,0,1,0,19,0,10,1,19,12,0,0,0,0,14,8,14,0,0,0,10,0,12,2,0,0,7,1,0,0,1,19,1,0,12,3,0,0,0,0,0,0,0,0,0,0,0,0,0,0],"split_type":[0,0,0,0,0,0,0,0,0,0,0,0,0,0,0,0,0,0,0,0,0,0,0,0,0,0,0,0,0,0,0,0,0,0,0,0,0,0,0,0,0,0,0,0,0,0,0,0,0,0,0,0,0,0,0,0,0,0,0,0,0,0,0,0,0],"sum_hessian":[1.13E2,1.1E1,1.02E2,5E0,6E0,4.6E1,5.6E1,3E0,2E0,1E0,5E0,2.9E1,1.7E1,5.1E1,5E0,1E0,2E0,4E0,1E0,2.8E1,1E0,1.3E1,4E0,2.7E1,2.4E1,2E0,3E0,3E0,1E0,5E0,2.3E1,1.1E1,2E0,3E0,1E0,2.1E1,6E0,7E0,1.7E1,4E0,1E0,2E1,3E0,1E1,1E0,3E0,1.8E1,5E0,2E0,1.2E1,5E0,7E0,1.3E1,2E0,1E0,2E0,1E0,1E0,1.7E1,3E0,2E0,2E0,1E1,3E0,2E0],"tree_param":{"num_deleted":"0","num_feature":"20","num_nodes":"65","size_leaf_vector":"1"}},{"base_weights":[5.1507202E1,1.04550064E2,-6.059669E1,8.0512535E1,1.1767886E0,-1.2435342E2,1.7012642E2,-7.651658E1,1.3136461E2,-1.4512202E2,1.7892154E-1,8.647321E-1,-7.7896676E0,-3.9236996E1,-3.6337352E-1,2.424492E2,3.441528E1,-2.031119E2,-8.905533E1,-3.0017886E-1,5.5809624E1,2.3579996E1,-8.373499E1,1.622284E2,1.431225E0,9.2133835E1,-2.1181459E2,-2.6046118E2,-2.3298035E1,5.4788826E1,-1.295821E2,2.1924447E-1,-2.5957703E1,-1.7146268E-1,5.852493E1,1.5978172E-2,-9.636952E1,2.944019E2,3.7910183E1,2.3945631E1,8.1845164E-1,-4.796817E-2,-4.492103E-1,-1.5843354E-1,-5.492133E-1,-9.220387E-2,5.2438706E-2,-1.0957801E-1,2.076716E-1,7.22022E-2,-1.6725276E2,2.0467823E-2,-9.221999E-2,1.6158625E-1,-8.041696E-2,-4.82993E-2,-1.8915959E-1,1.3134961E-1,6.802942E-1,-1.5323E-1,3.5567167E-1,-2.504788E-1,1.7025901E-1,-1.944134E-1,-3.831297E-1],"categories":[],"categories_nodes":[],"categories_segments":[],"categories_sizes":[],"default_left":[0,0,0,0,0,0,0,0,0,0,0,0,0,0,0,0,0,0,0,0,0,0,0,0,0,0,0,0,0,0,0,0,0,0,0,0,0,0,0,0,0,0,0,0,0,0,0,0,0,0,0,0,0,0,0,0,0,0,0,0,0,0,0,0,0],"id":2,"left_children":[1,3,5,7,-1,9,11,13,15,17,-1,-1,19,21,-1,23,25,27,29,-1,31,33,35,37,-1,39,41,43,45,47,49,-1,51,-1,53,-1,55,57,59,61,-1,-1,-1,-1,-1,-1,-1,-1,-1,-1,63,-1,-1,-1,-1,-1,-1,-1,-1,-1,-1,-1,-1,-1,-1],"loss_changes":[6.4259075E5,8.856837E5,5.3601106E5,5.770047E5,0E0,1.4286566E5,4.294062E5,7.3236016E4,5.732132E5,6.6445625E4,0E0,0E0,6.8277805E4,4.3902918E4,0E0,9.453724E5,4.4587628E5,1.1767816E5,9.454276E4,0E0,2.8912088E4,3.397356E4,1.1343094E4,3.6676538E5,0E0,5.89424E5,2.9270625E4,3.3378E4,6.9587246E3,3.3164004E4,8.2841984E4,0E0,3.2340225E3,0E0,2.1701229E4,0E0,8.336406E2,1.5718081E5,2.601379E5,2.532905E5,0E0,0E0,0E0,0E0,0E0,0E0,0E0,0E0,0E0,0E0,3.1712812E3,0E0,0E0,0E0,0E0,0E0,0E0,0E0,0E0,0E0,0E0,0E0,0E0,0E0,0E0],"parents":[2147483647,0,0,1,1,2,2,3,3,5,5,6,6,7,7,8,8,9,9,12,12,13,13,15,15,16,16,17,17,18,18,20,20,21,21,22,22,23,23,25,25,26,26,27,27,28,28,29,29,30,30,32,32,34,34,36,36,37,37,38,38,39,39,50,50],"right_children":[2,4,6,8,-1,10,12,14,16,18,-1,-1,20,22,-1,24,26,28,30,-1,32,34,36,38,-1,40,42,44,46,48,50,-1,52,-1,54,-1,56,58,60,62,-1,-1,-1,-1,-1,-1,-1,-1,-1,-1,64,-1,-1,-1,-1,-1,-1,-1,-1,-1,-1,-1,-1,-1,-1],"split_conditions":[4.9671763E-1,4.8314247E-1,1.0696151E0,-4.597363E-1,1.1767886E0,1.9198222E-1,1.1922348E0,3.2802224E0,-7.55538E-2,7.174192E-1,1.7892154E-1,8.647321E-1,-2.3428586E-1,-7.3011714E-1,-3.6337352E-1,-2.2771426E-1,1.4874756E-1,3.060615E-2,-2.8896973E-1,-3.0017886E-1,-2.3408978E-1,-2.1865382E0,-5.173198E-1,-7.505219E-1,1.431225E0,4.0259135E-1,2.8411663E-1,5.678684E-1,5.765505E-1,9.3491477E-1,7.3083425E-1,2.1924447E-1,1.2531275E0,-1.7146268E-1,1.0845639E0,1.5978172E-2,-2.3347187E-1,-3.022159E-1,-5.2787733E-1,-3.5358794E-2,8.1845164E-1,-4.796817E-2,-4.492103E-1,-1.5843354E-1,-5.492133E-1,-9.220387E-2,5.2438706E-2,-1.0957801E-1,2.076716E-1,7.22022E-2,1.0070142E0,2.0467823E-2,-9.221999E-2,1.6158625E-1,-8.041696E-2,-4.82993E-2,-1.8915959E-1,1.3134961E-1,6.802942E-1,-1.5323E-1,3.5567167E-1,-2.504788E-1,1.7025901E-1,-1.944134E-1,-3.831297E-1],"split_indices":[1,1,1,19,0,19,1,12,1,1,0,0,14,19,0,3,19,19,19,0,14,3,10,12,0,3,1,1,1,3,1,0,1,0,7,0,0,10,12,16,0,0,0,0,0,0,0,0,0,0,3,0,0,0,0,0,0,0,0,0,0,0,0,0,0],"split_type":[0,0,0,0,0,0,0,0,0,0,0,0,0,0,0,0,0,0,0,0,0,0,0,0,0,0,0,0,0,0,0,0,0,0,0,0,0,0,0,0,0,0,0,0,0,0,0,0,0,0,0,0,0,0,0,0,0,0,0,0,0,0,0,0,0],"sum_hessian":[1.06E2,7.2E1,3.4E1,7E1,2E0,2.7E1,7E0,1.7E1,5.3E1,2.5E1,2E0,2E0,5E0,1.4E1,3E0,2.4E1,2.9E1,1.1E1,1.4E1,1E0,4E0,6E0,8E0,2.2E1,2E0,2.4E1,5E0,8E0,3E0,3E0,1.1E1,2E0,2E0,1E0,5E0,1E0,7E0,1E1,1.2E1,2.1E1,3E0,1E0,4E0,2E0,6E0,2E0,1E0,1E0,2E0,2E0,9E0,1E0,1E0,4E0,1E0,1E0,6E0,3E0,7E0,7E0,5E0,6E0,1.5E1,5E0,4E0],"tree_param":{"num_deleted":"0","num_feature":"20","num_nodes":"65","size_leaf_vector":"1"}},{"base_weights":[4.2584858E1,9.824525E1,-4.1831482E1,7.261956E1,1.1753429E0,5.8404224E1,-2.0099838E2,1.12845795E2,-7.435444E1,1.9661351E2,-1.2682362E2,-2.2037785E2,-5.6466382E-2,3.0425577E1,2.2760039E2,-1.3227323E1,-3.574348E-1,1.12895874E2,1.012919E0,-2.1773692E2,1.5531383E1,-5.33222E-1,-1.6271977E2,7.629254E1,-1.8104669E2,8.7775215E1,3.176505E2,-3.2349956E-1,4.2349316E1,-4.27632E1,2.9690097E2,-1.09477036E-1,-4.2728654E-1,-1.2344936E-1,7.3539734E1,6.0715012E-2,-2.0986212E2,4.6433903E1,2.3637123E2,-1.6407885E-2,-3.937956E-1,6.083748E-1,-1.4082222E1,4.907792E2,1.4809767E2,2.3791273E-1,-8.8122994E-1,-2.520008E-1,3.625497E0,-1.1098114E1,5.306748E2,1.670591E-1,2.0448957E-2,-8.204527E-2,-4.1456366E-1,-9.3511075E-2,2.4429008E-1,6.4329904E-1,1.5191293E-1,2.1750252E-1,-1.4335217E-1,1.557493E-1,1.022988E0,-1.0252652E-1,5.1868355E-1,1.4160085E-1,-8.7234E-2,3.572949E-2,-8.380478E-2,-2.2818515E-1,1.2485468E-1,2.2550692E-1,1.1535634E0],"categories":[],"categories_nodes":[],"categories_segments":[],"categories_sizes":[],"default_left":[0,0,0,0,0,0,0,0,0,0,0,0,0,0,0,0,0,0,0,0,0,0,0,0,0,0,0,0,0,0,0,0,0,0,0,0,0,0,0,0,0,0,0,0,0,0,0,0,0,0,0,0,0,0,0,0,0,0,0,0,0,0,0,0,0,0,0,0,0,0,0,0,0],"id":3,"left_children":[1,3,5,7,-1,9,11,13,15,17,19,21,-1,23,25,27,-1,29,-1,31,33,-1,35,37,39,41,43,-1,45,47,49,-1,-1,-1,51,-1,53,55,57,-1,-1,-1,59,61,63,-1,65,-1,67,69,71,-1,-1,-1,-1,-1,-1,-1,-1,-1,-1,-1,-1,-1,-1,-1,-1,-1,-1,-1,-1,-1,-1],"loss_changes":[5.3975544E5,9.077153E5,7.456326E5,4.045087E5,0E0,7.6734125E5,5.2672938E4,4.943543E5,1.0710445E5,4.4040644E5,1.716273E5,1.6549438E4,0E0,3.241994E5,2.4912625E5,1.0666803E5,0E0,4.4232744E5,0E0,4.1245625E3,3.3648094E4,0E0,1.08380625E5,1.1807711E5,3.1817844E4,2.5151219E5,3.0892475E5,0E0,3.38679E4,3.9734727E4,5.0990438E5,0E0,0E0,0E0,3.2689902E3,0E0,1.2457125E4,2.0760766E5,4.0627062E4,0E0,0E0,0E0,7.651389E4,1.09935875E5,2.3303198E5,0E0,2.8912146E4,0E0,6.2998315E3,4.3944137E4,7.9058625E4,0E0,0E0,0E0,0E0,0E0,0E0,0E0,0E0,0E0,0E0,0E0,0E0,0E0,0E0,0E0,0E0,0E0,0E0,0E0,0E0,0E0,0E0],"parents":[2147483647,0,0,1,1,2,2,3,3,5,5,6,6,7,7,8,8,9,9,10,10,11,11,13,13,14,14,15,15,17,17,19,19,20,20,22,22,23,23,24,24,25,25,26,26,28,28,29,29,30,30,34,34,36,36,37,37,38,38,42,42,43,43,44,44,46,46,48,48,49,49,50,50],"right_children":[2,4,6,8,-1,10,12,14,16,18,20,22,-1,24,26,28,-1,30,-1,32,34,-1,36,38,40,42,44,-1,46,48,50,-1,-1,-1,52,-1,54,56,58,-1,-1,-1,60,62,64,-1,66,-1,68,70,72,-1,-1,-1,-1,-1,-1,-1,-1,-1,-1,-1,-1,-1,-1,-1,-1,-1,-1,-1,-1,-1,-1],"split_conditions":[4.9671763E-1,4.8314247E-1,-8.247243E-1,1.2942997E0,1.1753429E0,-4.3609113E-1,-2.6542795E-1,-3.1695086E-1,1.6749753E-1,-4.4103894E-1,-4.252246E-1,-4.779814E-1,-5.6466382E-2,1.4874756E-1,-3.979181E-1,-8.1188416E-1,-3.574348E-1,1.0321769E0,1.012919E0,-2.9379615E-1,3.6659172E-1,-5.33222E-1,-4.6889403E-1,7.284428E-1,-2.7090383E-1,-3.0020967E-1,4.6384054E-1,-3.2349956E-1,1.6135547E0,-4.9684742E-1,-1.151942E0,-1.09477036E-1,-4.2728654E-1,-1.2344936E-1,9.9054325E-1,6.0715012E-2,4.9921957E-1,3.7384506E-2,-3.7881526E-1,-1.6407885E-2,-3.937956E-1,6.083748E-1,-7.3011714E-1,-2.3344569E-1,7.6831317E-1,2.3791273E-1,-2.642569E-1,-2.520008E-1,9.507123E-1,1.1154517E0,9.959986E-1,1.670591E-1,2.0448957E-2,-8.204527E-2,-4.1456366E-1,-9.3511075E-2,2.4429008E-1,6.4329904E-1,1.5191293E-1,2.1750252E-1,-1.4335217E-1,1.557493E-1,1.022988E0,-1.0252652E-1,5.1868355E-1,1.4160085E-1,-8.7234E-2,3.572949E-2,-8.380478E-2,-2.2818515E-1,1.2485468E-1,2.2550692E-1,1.1535634E0],"split_indices":[1,1,13,10,0,10,15,10,19,10,10,10,0,19,19,19,0,11,0,19,12,0,10,13,1,10,10,0,10,10,7,0,0,0,1,0,1,16,10,0,0,0,19,0,10,0,15,0,1,1,1,0,0,0,0,0,0,0,0,0,0,0,0,0,0,0,0,0,0,0,0,0,0],"split_type":[0,0,0,0,0,0,0,0,0,0,0,0,0,0,0,0,0,0,0,0,0,0,0,0,0,0,0,0,0,0,0,0,0,0,0,0,0,0,0,0,0,0,0,0,0,0,0,0,0,0,0,0,0,0,0,0,0,0,0,0,0,0,0,0,0,0,0,0,0,0,0,0,0],"sum_hessian":[1.13E2,6.8E1,4.5E1,6.6E1,2E0,2.8E1,1.7E1,5.2E1,1.4E1,1.6E1,1.2E1,1.5E1,2E0,3.1E1,2.1E1,1E1,4E0,1.4E1,2E0,7E0,5E0,5E0,1E1,2.6E1,5E0,9E0,1.2E1,2E0,8E0,8E0,6E0,1E0,6E0,2E0,3E0,2E0,8E0,2.3E1,3E0,1E0,4E0,2E0,7E0,5E0,7E0,2E0,6E0,2E0,6E0,3E0,3E0,2E0,1E0,1E0,7E0,1.1E1,1.2E1,1E0,2E0,2E0,5E0,1E0,4E0,3E0,4E0,2E0,4E0,5E0,1E0,1E0,2E0,1E0,2E0],"tree_param":{"num_deleted":"0","num_feature":"20","num_nodes":"73","size_leaf_vector":"1"}},{"base_weights":[1.3236672E1,1.1305555E2,-3.625124E1,1.8714342E1,3.2932648E2,7.845913E1,-8.1195816E1,-9.875669E0,2.888463E2,4.21215E2,-2.1629578E-1,-6.2961445E1,2.6417273E2,-3.866357E0,-1.2556359E2,-3.8957817E1,4.701999E-1,6.427063E-1,1.5572144E-1,-1.6392756E-2,4.651156E2,-1.459273E2,5.270345E1,1.0677632E0,7.3524864E1,1.1824462E0,-5.9830845E1,-6.3474697E1,-2.3633763E2,-6.1716595E1,1.0733431E2,2.1687672E-1,5.3726117E2,-2.1722911E2,6.908599E1,-6.2448566E1,1.1125397E2,-9.088057E1,6.962593E-1,-9.893877E1,1.00745415E2,-1.1286719E2,2.487489E2,-2.5878482E2,-1.15523415E2,-9.889648E1,1.1238373E1,1.9485372E0,3.9020458E-1,6.053303E2,5.599993E-2,-1.1949949E-2,-4.6304405E-1,1.8383177E-2,1.7258401E-1,-9.763737E-3,-1.6285631E-1,2.7455235E-1,-3.6558498E-2,1.5776058E-1,-2.0052783E2,2.2631063E1,-1.4397307E2,3.3654138E-1,-1.4716289E1,9.859464E1,-1.47771E2,9.927448E-1,-2.7478994E1,-2.858276E2,-9.1394905E1,-1.6252268E1,-3.8084796E-1,-1.1254831E-1,-3.6320257E-1,-8.493218E-2,1.7399585E-1,4.352368E-2,-3.813754E-2,2.6281542E-1,1.2138126E0,-6.412662E-2,-4.4995838E-1,-1.8738455E-1,3.33255E-1,6.945519E-2,-2.9640725E-1,5.157135E-2,-9.225005E-2,3.350957E-2,3.1311548E-1,1.2164485E-1,-2.9809204E-1,6.0123727E-3,-8.1969686E-2,-5.538298E-1,-1.549311E-1,-3.0496785E-1,5.233444E-2,3.8626164E-2,-8.355061E-2],"categories":[],"categories_nodes":[],"categories_segments":[],"categories_sizes":[],"default_left":[0,0,0,0,0,0,0,0,0,0,0,0,0,0,0,0,0,0,0,0,0,0,0,0,0,0,0,0,0,0,0,0,0,0,0,0,0,0,0,0,0,0,0,0,0,0,0,0,0,0,0,0,0,0,0,0,0,0,0,0,0,0,0,0,0,0,0,0,0,0,0,0,0,0,0,0,0,0,0,0,0,0,0,0,0,0,0,0,0,0,0,0,0,0,0,0,0,0,0,0,0],"id":4,"left_children":[1,3,5,7,9,11,13,15,17,19,-1,21,23,25,27,29,-1,-1,-1,-1,31,33,35,-1,37,-1,39,41,43,45,47,-1,49,51,53,55,57,59,-1,61,63,65,67,69,71,73,75,77,-1,79,-1,-1,-1,-1,-1,-1,-1,-1,-1,-1,81,83,85,-1,87,89,91,-1,93,95,97,99,-1,-1,-1,-1,-1,-1,-1,-1,-1,-1,-1,-1,-1,-1,-1,-1,-1,-1,-1,-1,-1,-1,-1,-1,-1,-1,-1,-1,-1],"loss_changes":[6.4133625E5,8.711769E5,4.549085E5,2.422679E5,5.8304575E5,6.732258E5,2.156635E5,2.3346294E5,7.2612812E3,2.1184088E5,0E0,1.5163445E5,6.185222E5,9.054262E5,2.60112E5,9.651894E4,0E0,0E0,0E0,0E0,1.8742325E5,1.5298503E5,5.414312E4,0E0,4.3456916E5,0E0,1.5440311E5,4.4445612E5,8.0715E3,6.62104E4,4.360136E4,0E0,2.57624E5,4.8591562E4,3.4222852E3,3.976787E3,2.7688125E4,1.3327683E5,0E0,1.072797E5,4.995754E4,1.9170922E5,3.3519175E5,2.3670312E4,3.283345E4,4.7386094E4,4.7268434E4,1.9608596E3,0E0,7.8858E4,0E0,0E0,0E0,0E0,0E0,0E0,0E0,0E0,0E0,0E0,2.0435297E4,1.3639766E5,4.8976E4,0E0,5.9286206E3,1.9849336E4,7.348344E4,0E0,1.713145E3,1.4428125E3,3.1329057E4,4.1975396E3,0E0,0E0,0E0,0E0,0E0,0E0,0E0,0E0,0E0,0E0,0E0,0E0,0E0,0E0,0E0,0E0,0E0,0E0,0E0,0E0,0E0,0E0,0E0,0E0,0E0,0E0,0E0,0E0,0E0],"parents":[2147483647,0,0,1,1,2,2,3,3,4,4,5,5,6,6,7,7,8,8,9,9,11,11,12,12,13,13,14,14,15,15,20,20,21,21,22,22,24,24,26,26,27,27,28,28,29,29,30,30,32,32,33,33,34,34,35,35,36,36,37,37,39,39,40,40,41,41,42,42,43,43,44,44,45,45,46,46,47,47,49,49,60,60,61,61,62,62,64,64,65,65,66,66,68,68,69,69,70,70,71,71],"right_children":[2,4,6,8,10,12,14,16,18,20,-1,22,24,26,28,30,-1,-1,-1,-1,32,34,36,-1,38,-1,40,42,44,46,48,-1,50,52,54,56,58,60,-1,62,64,66,68,70,72,74,76,78,-1,80,-1,-1,-1,-1,-1,-1,-1,-1,-1,-1,82,84,86,-1,88,90,92,-1,94,96,98,100,-1,-1,-1,-1,-1,-1,-1,-1,-1,-1,-1,-1,-1,-1,-1,-1,-1,-1,-1,-1,-1,-1,-1,-1,-1,-1,-1,-1,-1],"split_conditions":[-6.35944E-2,8.246967E-2,-2.231347E-1,-3.290539E-1,1.2942997E0,-1.8619522E-1,-8.247243E-1,3.2828822E0,-1.2185386E-1,-3.6838594E-1,-2.1629578E-1,-3.4980908E-1,-2.9282724E-2,6.922579E-1,-1.17338195E-1,1.7442393E0,4.701999E-1,6.427063E-1,1.5572144E-1,-1.6392756E-2,-1.9121149E0,-3.523632E-1,1.5558894E-1,1.0677632E0,-2.903463E-1,1.1824462E0,1.3240631E0,-1.5715611E-1,1.4803217E-1,-2.1822853E-1,-8.297049E-1,2.1687672E-1,1.8372043E0,-5.520526E-1,-2.334454E-1,1.285915E-1,2.886605E-1,-4.2136803E-1,6.962593E-1,-2.342923E-1,1.0407469E0,-2.3344526E-1,-1.4397182E-1,1.1307271E-1,7.3083425E-1,-2.4599178E-1,9.252067E-1,-2.3344178E-1,3.9020458E-1,-2.6550788E-1,5.599993E-2,-1.1949949E-2,-4.6304405E-1,1.8383177E-2,1.7258401E-1,-9.763737E-3,-1.6285631E-1,2.7455235E-1,-3.6558498E-2,1.5776058E-1,5.754765E-1,-4.3688583E-1,7.185582E-1,3.3654138E-1,1.4681834E0,-2.3344779E-1,-5.2676296E-1,9.927448E-1,4.0933207E-1,-4.3529645E-1,3.05572E-1,-2.3344481E-1,-3.8084796E-1,-1.1254831E-1,-3.6320257E-1,-8.493218E-2,1.7399585E-1,4.352368E-2,-3.813754E-2,2.6281542E-1,1.2138126E0,-6.412662E-2,-4.4995838E-1,-1.8738455E-1,3.33255E-1,6.945519E-2,-2.9640725E-1,5.157135E-2,-9.225005E-2,3.350957E-2,3.1311548E-1,1.2164485E-1,-2.9809204E-1,6.0123727E-3,-8.1969686E-2,-5.538298E-1,-1.549311E-1,-3.0496785E-1,5.233444E-2,3.8626164E-2,-8.355061E-2],"split_indices":[1,19,19,16,10,12,13,12,1,10,0,19,12,1,12,10,0,0,0,0,3,10,1,0,19,0,8,12,12,1,1,0,7,10,0,1,3,10,0,14,12,0,12,19,1,19,7,0,0,15,0,0,0,0,0,0,0,0,0,0,1,10,1,0,1,0,10,0,1,10,1,0,0,0,0,0,0,0,0,0,0,0,0,0,0,0,0,0,0,0,0,0,0,0,0,0,0,0,0,0,0],"split_type":[0,0,0,0,0,0,0,0,0,0,0,0,0,0,0,0,0,0,0,0,0,0,0,0,0,0,0,0,0,0,0,0,0,0,0,0,0,0,0,0,0,0,0,0,0,0,0,0,0,0,0,0,0,0,0,0,0,0,0,0,0,0,0,0,0,0,0,0,0,0,0,0,0,0,0,0,0,0,0,0,0,0,0,0,0,0,0,0,0,0,0,0,0,0,0,0,0,0,0,0,0],"sum_hessian":[1.28E2,4.2E1,8.6E1,3E1,1.2E1,2.4E1,6.2E1,2.8E1,2E0,1E1,2E0,1.4E1,1E1,2.3E1,3.9E1,2.6E1,2E0,1E0,1E0,1E0,9E0,8E0,6E0,3E0,7E0,1E0,2.2E1,2.6E1,1.3E1,2.3E1,3E0,2E0,7E0,6E0,2E0,2E0,4E0,5E0,2E0,1.8E1,4E0,2.3E1,3E0,1E1,3E0,1.5E1,8E0,2E0,1E0,6E0,1E0,1E0,5E0,1E0,1E0,1E0,1E0,3E0,1E0,2E0,3E0,5E0,1.3E1,2E0,2E0,3E0,2E1,1E0,2E0,8E0,2E0,2E0,1E0,1.2E1,3E0,5E0,3E0,1E0,1E0,1E0,5E0,1E0,2E0,3E0,2E0,1E0,1.2E1,1E0,1E0,2E0,1E0,1E0,1.9E1,1E0,1E0,7E0,1E0,1E0,1E0,1E0,1E0],"tree_param":{"num_deleted":"0","num_feature":"20","num_nodes":"101","size_leaf_vector":"1"}},{"base_weights":[1.7343748E1,1.1198263E2,-3.5325684E1,3.7834072E1,6.3828546E2,1.4034238E2,-9.856269E1,9.825898E1,-1.3513907E2,1.3924992E0,1.5557794E-1,3.780753E2,1.1451462E1,-2.6027655E2,-1.9367634E1,-1.9128033E1,1.6453665E2,-1.866244E2,4.720149E1,-4.3970592E1,5.5568774E2,1.02140945E2,-6.933327E1,-2.742977E2,-2.0194257E-2,-9.032155E1,4.669925E2,1.2968144E-1,-6.148708E1,2.5005823E2,5.1230824E1,-7.7623695E-2,-2.0124995E2,1.6857654E-1,-3.8102392E-2,-1.0440552E-1,-1.7137794E-2,1.4266483E0,1.5197078E2,-2.997442E-1,1.733835E2,-1.1495574E2,4.5022766E1,-1.4027402E2,-5.3993493E-1,6.5036726E-1,-1.1444789E2,2.963419E-1,1.1379454E0,1.5310866E-1,-9.40095E1,7.7103925E-1,6.809118E1,-8.186444E1,1.7407993E2,-3.980555E-1,-1.03853405E-1,8.53185E-2,3.3475843E-1,6.93912E-2,3.5565624E-1,2.3120444E-3,-2.5513294E-1,1.0374849E-1,2.0703236E-2,-3.703891E-1,3.8590565E-2,-1.657473E2,2.0115475E1,-2.0082712E-1,-3.8600997E-3,1.5712492E-1,-1.6377656E-2,-2.165486E-1,5.5948332E-2,4.0595537E-1,-9.925814E-3,1.8324156E-1,-3.5819328E-1,-1.2946662E-1,1.6967009E-1],"categories":[],"categories_nodes":[],"categories_segments":[],"categories_sizes":[],"default_left":[0,0,0,0,0,0,0,0,0,0,0,0,0,0,0,0,0,0,0,0,0,0,0,0,0,0,0,0,0,0,0,0,0,0,0,0,0,0,0,0,0,0,0,0,0,0,0,0,0,0,0,0,0,0,0,0,0,0,0,0,0,0,0,0,0,0,0,0,0,0,0,0,0,0,0,0,0,0,0,0,0],"id":5,"left_children":[1,3,5,7,9,11,13,15,17,-1,-1,19,21,23,25,27,29,31,33,35,37,39,41,43,-1,45,47,-1,49,51,53,-1,55,-1,-1,-1,-1,-1,57,-1,59,61,63,65,-1,-1,67,-1,-1,-1,69,-1,71,73,75,-1,-1,-1,-1,-1,-1,-1,-1,-1,-1,-1,-1,77,79,-1,-1,-1,-1,-1,-1,-1,-1,-1,-1,-1,-1],"loss_changes":[5.7219756E5,1.5758592E6,8.35878E5,3.9999844E5,2.6120738E5,6.0850275E5,6.993406E5,2.209911E5,1.0268758E5,0E0,0E0,5.491581E5,1.0965031E5,5.991725E4,1.3535272E6,4.6029504E4,1.61611E5,8.430125E3,1.0907762E4,7.9254297E2,3.2338412E5,1.6025634E5,4.691326E4,1.505625E3,0E0,4.0398388E5,1.31126E5,0E0,4.542542E4,2.7784956E5,1.6140666E5,0E0,2.7932188E3,0E0,0E0,0E0,0E0,0E0,1.00083594E3,0E0,8.706078E3,1.6554484E4,5.1054785E2,4.3364305E4,0E0,0E0,2.3113381E5,0E0,0E0,0E0,9.403484E3,0E0,8.689584E3,2.356977E4,4.2655047E4,0E0,0E0,0E0,0E0,0E0,0E0,0E0,0E0,0E0,0E0,0E0,0E0,2.0152506E5,7.149642E4,0E0,0E0,0E0,0E0,0E0,0E0,0E0,0E0,0E0,0E0,0E0,0E0],"parents":[2147483647,0,0,1,1,2,2,3,3,4,4,5,5,6,6,7,7,8,8,11,11,12,12,13,13,14,14,15,15,16,16,17,17,18,18,19,19,20,20,21,21,22,22,23,23,25,25,26,26,28,28,29,29,30,30,32,32,38,38,40,40,41,41,42,42,43,43,46,46,50,50,52,52,53,53,54,54,67,67,68,68],"right_children":[2,4,6,8,10,12,14,16,18,-1,-1,20,22,24,26,28,30,32,34,36,38,40,42,44,-1,46,48,-1,50,52,54,-1,56,-1,-1,-1,-1,-1,58,-1,60,62,64,66,-1,-1,68,-1,-1,-1,70,-1,72,74,76,-1,-1,-1,-1,-1,-1,-1,-1,-1,-1,-1,-1,78,80,-1,-1,-1,-1,-1,-1,-1,-1,-1,-1,-1,-1],"split_conditions":[-6.35944E-2,-2.6085034E-1,-8.247243E-1,1.6135547E0,-7.55538E-2,-2.3428616E-1,-4.4233513E-1,-3.979181E-1,2.6148472E0,1.3924992E0,1.5557794E-1,-4.8354426E-1,-4.7301665E-1,-2.3423815E-1,4.088156E-1,7.1503884E-1,4.6384054E-1,1.719253E0,-2.3344178E-1,7.9943615E-1,-4.383617E-1,-2.3428586E-1,1.01199895E-1,-2.3344481E-1,-2.0194257E-2,-8.640326E-1,4.1236013E-1,1.2968144E-1,-9.7492236E-1,-4.882968E-1,1.0493261E0,-7.7623695E-2,2.5782351E0,1.6857654E-1,-3.8102392E-2,-1.0440552E-1,-1.7137794E-2,1.4266483E0,8.374575E-1,-2.997442E-1,-2.334494E-1,-4.5850196E-1,9.677948E-1,-2.3344551E-1,-5.3993493E-1,6.5036726E-1,-2.3429142E-1,2.963419E-1,1.1379454E0,1.5310866E-1,1.0967187E0,7.7103925E-1,-2.3428749E-1,-1.3738592E0,2.7538137E0,-3.980555E-1,-1.03853405E-1,8.53185E-2,3.3475843E-1,6.93912E-2,3.5565624E-1,2.3120444E-3,-2.5513294E-1,1.0374849E-1,2.0703236E-2,-3.703891E-1,3.8590565E-2,-4.8227683E-1,-5.547105E-2,-2.0082712E-1,-3.8600997E-3,1.5712492E-1,-1.6377656E-2,-2.165486E-1,5.5948332E-2,4.0595537E-1,-9.925814E-3,1.8324156E-1,-3.5819328E-1,-1.2946662E-1,1.6967009E-1],"split_indices":[1,3,13,10,1,14,13,19,7,0,0,10,10,14,3,13,10,10,0,1,10,14,19,0,0,19,1,0,12,1,10,0,7,0,0,0,0,0,1,0,0,10,1,0,0,0,14,0,0,0,13,0,14,1,0,0,0,0,0,0,0,0,0,0,0,0,0,10,19,0,0,0,0,0,0,0,0,0,0,0,0],"split_type":[0,0,0,0,0,0,0,0,0,0,0,0,0,0,0,0,0,0,0,0,0,0,0,0,0,0,0,0,0,0,0,0,0,0,0,0,0,0,0,0,0,0,0,0,0,0,0,0,0,0,0,0,0,0,0,0,0,0,0,0,0,0,0,0,0,0,0,0,0,0,0,0,0,0,0,0,0,0,0,0,0],"sum_hessian":[1.13E2,4E1,7.3E1,3.6E1,4E0,1.9E1,5.4E1,2.7E1,9E0,3E0,1E0,6E0,1.3E1,1.7E1,3.7E1,1E1,1.7E1,7E0,2E0,2E0,4E0,6E0,7E0,1.6E1,1E0,3.3E1,4E0,3E0,7E0,9E0,8E0,1E0,6E0,1E0,1E0,1E0,1E0,2E0,2E0,1E0,5E0,5E0,2E0,3E0,1.3E1,1E0,3.2E1,2E0,2E0,1E0,6E0,4E0,5E0,4E0,4E0,5E0,1E0,1E0,1E0,1E0,4E0,1E0,4E0,1E0,1E0,2E0,1E0,2.3E1,9E0,5E0,1E0,4E0,1E0,3E0,1E0,3E0,1E0,2E0,2.1E1,4E0,5E0],"tree_param":{"num_deleted":"0","num_feature":"20","num_nodes":"81","size_leaf_vector":"1"}},{"base_weights":[-8.044735E0,7.038607E1,-7.4095024E1,-8.003543E1,1.5433018E2,-1.16203064E2,1.9614331E2,-1.2355554E2,2.302278E-1,1.0531788E0,1.1172798E2,-1.3113762E2,6.4976805E-1,3.9887656E2,2.8297256E1,6.9140725E0,-1.4141243E2,1.2144226E0,7.403133E1,-2.2125365E2,-5.945254E1,1.6778147E-1,8.682104E-1,5.3966316E1,-9.218411E-2,-4.8163936E-2,6.7275785E-2,-1.2538168E-2,-1.5054134E2,-2.2062464E1,2.161732E2,-2.386216E2,1.6420147E-1,2.3115314E2,-1.0922311E2,1.5883069E-1,4.4895865E-2,-1.5894339E2,-3.8067274E-2,5.6544426E1,-1.7612447E2,3.8518463E1,3.6294604E2,-6.97361E1,-2.705061E2,-3.1235558E1,1.1800424E0,3.630293E-1,-1.4035555E2,-2.1259788E-1,-4.2043164E-1,6.925502E-1,-5.157099E-2,-8.207356E-2,-4.0514216E-1,5.770356E-1,-1.0953321E-1,-1.6362557E-2,7.857627E-1,2.3929194E-1,-4.534744E-1,-1.4427713E-1,-5.101508E-1,5.2783724E-2,-1.11936875E-1,-6.732858E-2,-3.126758E-1],"categories":[],"categories_nodes":[],"categories_segments":[],"categories_sizes":[],"default_left":[0,0,0,0,0,0,0,0,0,0,0,0,0,0,0,0,0,0,0,0,0,0,0,0,0,0,0,0,0,0,0,0,0,0,0,0,0,0,0,0,0,0,0,0,0,0,0,0,0,0,0,0,0,0,0,0,0,0,0,0,0,0,0,0,0,0,0],"id":6,"left_children":[1,3,5,7,9,11,13,15,-1,-1,17,19,-1,21,23,25,27,-1,29,31,33,-1,-1,35,-1,-1,-1,-1,37,39,41,43,-1,45,47,-1,-1,49,-1,51,53,55,57,59,61,63,-1,-1,65,-1,-1,-1,-1,-1,-1,-1,-1,-1,-1,-1,-1,-1,-1,-1,-1,-1,-1],"loss_changes":[6.113194E5,6.942099E5,7.510616E5,1.9384203E5,5.58195E5,4.383145E5,2.949647E5,4.0584E4,0E0,0E0,6.320264E5,3.4214462E5,0E0,4.6080188E4,1.4762213E4,3.8883865E3,1.7408188E4,0E0,4.4185575E5,1.50629E5,4.8808278E5,0E0,0E0,2.6698193E3,0E0,0E0,0E0,0E0,1.1994719E4,2.5216555E5,3.249935E5,1.04987125E5,0E0,5.568501E5,2.945863E5,0E0,0E0,1.2883531E4,0E0,3.8834622E5,3.0485953E4,2.0691314E5,1.6893412E5,2.0793467E5,1.4395E3,8.80734E3,0E0,0E0,7.294178E4,0E0,0E0,0E0,0E0,0E0,0E0,0E0,0E0,0E0,0E0,0E0,0E0,0E0,0E0,0E0,0E0,0E0,0E0],"parents":[2147483647,0,0,1,1,2,2,3,3,4,4,5,5,6,6,7,7,10,10,11,11,13,13,14,14,15,15,16,16,18,18,19,19,20,20,23,23,28,28,29,29,30,30,31,31,33,33,34,34,37,37,39,39,40,40,41,41,42,42,43,43,44,44,45,45,48,48],"right_children":[2,4,6,8,10,12,14,16,-1,-1,18,20,-1,22,24,26,28,-1,30,32,34,-1,-1,36,-1,-1,-1,-1,38,40,42,44,-1,46,48,-1,-1,50,-1,52,54,56,58,60,62,64,-1,-1,66,-1,-1,-1,-1,-1,-1,-1,-1,-1,-1,-1,-1,-1,-1,-1,-1,-1,-1],"split_conditions":[2.1089016E-1,-2.9464802E-1,1.1154517E0,-1.3121939E-1,-2.3344481E-1,-3.523632E-1,1.5191817E-1,-8.8443536E-1,2.302278E-1,1.0531788E0,-2.5827926E-1,-2.3429142E-1,6.4976805E-1,-5.921027E-1,-2.3408282E-1,-2.3347187E-1,-5.520526E-1,1.2144226E0,-2.3427823E-1,2.7957138E-1,-2.3428616E-1,1.6778147E-1,8.682104E-1,-2.3344578E-1,-9.218411E-2,-4.8163936E-2,6.7275785E-2,-1.2538168E-2,3.0199904E0,-2.6543808E-1,-1.0252829E0,-2.3786218E-1,1.6420147E-1,-2.342896E-1,2.903582E-1,1.5883069E-1,4.4895865E-2,1.7442393E0,-3.8067274E-2,-7.505219E-1,-1.0519103E0,-2.3531394E0,-3.6838594E-1,-3.811011E-1,2.2292179E-1,-2.342914E-1,1.1800424E0,3.630293E-1,-1.0731642E0,-2.1259788E-1,-4.2043164E-1,6.925502E-1,-5.157099E-2,-8.207356E-2,-4.0514216E-1,5.770356E-1,-1.0953321E-1,-1.6362557E-2,7.857627E-1,2.3929194E-1,-4.534744E-1,-1.4427713E-1,-5.101508E-1,5.2783724E-2,-1.11936875E-1,-6.732858E-2,-3.126758E-1],"split_indices":[1,19,1,0,0,10,19,12,0,0,19,14,0,10,14,0,10,0,14,19,14,0,0,0,0,0,0,0,7,15,13,19,0,14,1,0,0,10,0,12,1,1,10,10,1,14,0,0,7,0,0,0,0,0,0,0,0,0,0,0,0,0,0,0,0,0,0],"split_type":[0,0,0,0,0,0,0,0,0,0,0,0,0,0,0,0,0,0,0,0,0,0,0,0,0,0,0,0,0,0,0,0,0,0,0,0,0,0,0,0,0,0,0,0,0,0,0,0,0,0,0,0,0,0,0,0,0,0,0,0,0,0,0,0,0,0,0],"sum_hessian":[1.16E2,5.3E1,6.3E1,1.9E1,3.4E1,5.5E1,8E0,1.6E1,3E0,2E0,3.2E1,5.4E1,1E0,3E0,5E0,2E0,1.4E1,1E0,3.1E1,2.3E1,3.1E1,1E0,2E0,4E0,1E0,1E0,1E0,1E0,1.3E1,1.9E1,1.2E1,2.2E1,1E0,4E0,2.7E1,1E0,3E0,1.2E1,1E0,1.3E1,6E0,6E0,6E0,4E0,1.8E1,3E0,1E0,2E0,2.5E1,9E0,3E0,2E0,1.1E1,2E0,4E0,1E0,5E0,1E0,5E0,2E0,2E0,1E0,1.7E1,1E0,2E0,6E0,1.9E1],"tree_param":{"num_deleted":"0","num_feature":"20","num_nodes":"67","size_leaf_vector":"1"}},{"base_weights":[-6.1376827E1,-9.363208E1,7.629864E1,-2.551219E1,-1.6736487E2,7.694319E-1,4.0166683E1,-8.0245834E1,6.513282E1,-2.3561078E2,-7.3689224E1,8.3791145E1,-1.16189835E2,1.8044348E1,-1.27909935E2,-3.3147812E-1,1.424608E2,-1.1433864E2,-2.966802E2,-1.9272307E2,2.172692E1,3.5449127E1,4.2760342E-1,-1.8608664E1,-3.2256514E-1,-5.566224E1,1.176247E2,-2.4215054E2,-5.3493168E1,3.618853E1,1.0236499E0,-1.979809E2,6.061998E1,-5.746137E-1,-6.416874E-2,-4.7634217E-1,4.6016555E-2,-7.067038E1,9.565012E-1,-1.8472567E-1,6.6417816E1,-4.7777303E-2,-3.6606807E-3,-9.260567E1,-4.803253E0,2.8787163E-1,-3.3847112E-2,-1.1654575E-1,-4.7668326E-1,-3.3453841E0,-3.280663E-1,8.181112E-1,-3.4787556E1,-1.01582386E-1,-3.9178425E-1,-1.810903E1,2.7347752E-1,-9.5541885E1,1.6405016E-1,1.3276912E2,-2.2061682E1,-1.2526611E-2,-2.1918686E-1,1.2276391E-2,-3.6117427E-2,-1.4686935E-1,9.521903E-2,-2.753093E-1,7.59087E-2,6.138598E-3,-5.6195498E-2,-3.2086888E-1,-2.604979E-2,-1.4621119E-1,3.341814E-1,-1.4810394E-1,1.16161525E-1],"categories":[],"categories_nodes":[],"categories_segments":[],"categories_sizes":[],"default_left":[0,0,0,0,0,0,0,0,0,0,0,0,0,0,0,0,0,0,0,0,0,0,0,0,0,0,0,0,0,0,0,0,0,0,0,0,0,0,0,0,0,0,0,0,0,0,0,0,0,0,0,0,0,0,0,0,0,0,0,0,0,0,0,0,0,0,0,0,0,0,0,0,0,0,0,0,0],"id":7,"left_children":[1,3,5,7,9,-1,11,13,15,17,19,21,23,25,27,-1,29,31,33,35,37,39,-1,41,-1,43,45,47,49,51,-1,53,55,-1,-1,-1,-1,57,-1,-1,59,-1,-1,61,63,-1,-1,-1,-1,65,-1,-1,67,-1,-1,69,-1,71,-1,73,75,-1,-1,-1,-1,-1,-1,-1,-1,-1,-1,-1,-1,-1,-1,-1,-1],"loss_changes":[5.089495E5,4.578157E5,2.5447862E5,2.4833188E5,2.6392912E5,0E0,1.5297605E5,1.4754039E5,3.8560272E5,1.512285E5,2.313423E5,1.13607766E5,2.545657E4,8.728426E4,1.6557634E5,0E0,6.382963E5,1.5834095E5,5.255725E4,1.3530578E5,5.880955E5,6.548833E4,0E0,3.1341333E2,0E0,1.2707527E4,2.9108742E4,7.289375E3,8.6835266E4,3.9168175E5,0E0,2.9025625E3,3.0331883E4,0E0,0E0,0E0,0E0,5.219516E4,0E0,0E0,7.3377875E4,0E0,0E0,8.231117E3,8.091154E2,0E0,0E0,0E0,0E0,5.0325848E4,0E0,0E0,1.1065031E5,0E0,0E0,8.982324E2,0E0,6.150629E4,0E0,8.651211E4,3.4836867E4,0E0,0E0,0E0,0E0,0E0,0E0,0E0,0E0,0E0,0E0,0E0,0E0,0E0,0E0,0E0,0E0],"parents":[2147483647,0,0,1,1,2,2,3,3,4,4,6,6,7,7,8,8,9,9,10,10,11,11,12,12,13,13,14,14,16,16,17,17,18,18,19,19,20,20,21,21,23,23,25,25,26,26,27,27,28,28,29,29,31,31,32,32,37,37,40,40,43,43,44,44,49,49,52,52,55,55,57,57,59,59,60,60],"right_children":[2,4,6,8,10,-1,12,14,16,18,20,22,24,26,28,-1,30,32,34,36,38,40,-1,42,-1,44,46,48,50,52,-1,54,56,-1,-1,-1,-1,58,-1,-1,60,-1,-1,62,64,-1,-1,-1,-1,66,-1,-1,68,-1,-1,70,-1,72,-1,74,76,-1,-1,-1,-1,-1,-1,-1,-1,-1,-1,-1,-1,-1,-1,-1,-1],"split_conditions":[-2.3421228E-1,2.77943E-1,-2.3420282E-1,-6.5174654E-2,7.174192E-1,7.694319E-1,2.4143273E-1,-4.0201908E-1,-6.1098987E-1,4.273512E-1,-1.1440603E0,-6.1050836E-2,-2.3322639E-1,-2.4518785E-1,-2.6550788E-1,-3.3147812E-1,-1.5221629E-1,4.0232354E-1,-3.528478E-1,1.4037968E0,1.0077256E0,-6.5978205E-1,4.2760342E-1,-2.3344178E-1,-3.2256514E-1,-5.1640266E-1,1.9937745E-1,-7.6410043E-1,-1.0545591E-1,-3.020218E-2,1.0236499E0,-4.8483035E-1,4.0521133E-1,-5.746137E-1,-6.416874E-2,-4.7634217E-1,4.6016555E-2,1.1648532E0,9.565012E-1,-1.8472567E-1,1.0407469E0,-4.7777303E-2,-3.6606807E-3,-5.520526E-1,2.3435384E-1,2.8787163E-1,-3.3847112E-2,-1.1654575E-1,-4.7668326E-1,-5.254923E-1,-3.280663E-1,8.181112E-1,-4.2385042E-1,-1.01582386E-1,-3.9178425E-1,4.0933207E-1,2.7347752E-1,-1.0315019E0,1.6405016E-1,-2.3418118E-1,-1.3121939E-1,-1.2526611E-2,-2.1918686E-1,1.2276391E-2,-3.6117427E-2,-1.4686935E-1,9.521903E-2,-2.753093E-1,7.59087E-2,6.138598E-3,-5.6195498E-2,-3.2086888E-1,-2.604979E-2,-1.4621119E-1,3.341814E-1,-1.4810394E-1,1.16161525E-1],"split_indices":[14,6,14,19,1,0,7,10,1,1,7,7,0,19,15,0,10,1,10,1,1,12,0,0,0,12,1,12,19,19,0,10,3,0,0,0,0,16,0,0,12,0,0,10,1,0,0,0,0,19,0,0,10,0,0,1,0,13,0,14,0,0,0,0,0,0,0,0,0,0,0,0,0,0,0,0,0],"split_type":[0,0,0,0,0,0,0,0,0,0,0,0,0,0,0,0,0,0,0,0,0,0,0,0,0,0,0,0,0,0,0,0,0,0,0,0,0,0,0,0,0,0,0,0,0,0,0,0,0,0,0,0,0,0,0,0,0,0,0,0,0,0,0,0,0,0,0,0,0,0,0,0,0,0,0,0,0],"sum_hessian":[1.12E2,9.1E1,2.1E1,4.8E1,4.3E1,1E0,2E1,3E1,1.8E1,2.4E1,1.9E1,1.6E1,4E0,1E1,2E1,4E0,1.4E1,9E0,1.5E1,8E0,1.1E1,1.3E1,3E0,2E0,2E0,6E0,4E0,7E0,1.3E1,1.2E1,2E0,6E0,3E0,1.4E1,1E0,6E0,2E0,1E1,1E0,2E0,1.1E1,1E0,1E0,3E0,3E0,3E0,1E0,1E0,6E0,1E1,3E0,1E0,1.1E1,1E0,5E0,2E0,1E0,9E0,1E0,6E0,5E0,1E0,2E0,2E0,1E0,4E0,6E0,4E0,7E0,1E0,1E0,4E0,5E0,1E0,5E0,3E0,2E0],"tree_param":{"num_deleted":"0","num_feature":"20","num_nodes":"77","size_leaf_vector":"1"}},{"base_weights":[-1.1356281E1,-7.467141E1,8.243553E1,-1.2882426E2,5.361373E1,1.1794845E0,5.4582813E1,-6.6774315E1,-1.87971E2,-2.2982143E1,4.9531775E2,2.4539128E2,2.3018768E1,-1.3616356E2,3.1421277E2,-2.046006E2,1.6389899E-1,5.9898987E1,-1.3407092E2,1.2137429E0,1.5541218E-1,2.8333792E1,6.391494E-1,-1.0448235E1,1.727224E2,1.2576796E1,-1.9649815E2,1.704868E-1,6.5838265E-1,-2.1574504E2,-1.0051443E2,3.4121918E2,-4.052985E1,-2.0122993E1,-1.984151E2,8.859828E-2,-1.0278143E-2,9.497921E1,-9.772398E1,3.1512714E2,-1.2862968E1,4.1973625E1,-4.0610188E1,-2.2397527E2,1.7339012E-1,-4.6898964E-1,-1.3064626E2,5.326453E-2,-2.8247994E-1,1.6838099E-1,7.748155E-1,1.693073E1,-2.1484849E-1,-7.88674E-2,4.413591E-2,-1.0337983E-1,-4.0535852E-1,-5.4824074E1,2.7401498E2,-1.26071884E2,1.5855338E-1,2.618052E-1,7.6872295E-1,1.0340702E-1,-1.00543134E-1,1.2114622E-1,3.6112983E-2,-1.0765724E-2,-1.0148878E-1,-4.619283E-1,-1.7429051E-1,-3.0697273E-2,-4.4313747E-1,1.0008119E-1,-7.104179E-2,6.3731305E-2,-2.4558465E-1,2.1185903E-1,8.2512754E-1,2.0574246E-2,-2.6992294E-1],"categories":[],"categories_nodes":[],"categories_segments":[],"categories_sizes":[],"default_left":[0,0,0,0,0,0,0,0,0,0,0,0,0,0,0,0,0,0,0,0,0,0,0,0,0,0,0,0,0,0,0,0,0,0,0,0,0,0,0,0,0,0,0,0,0,0,0,0,0,0,0,0,0,0,0,0,0,0,0,0,0,0,0,0,0,0,0,0,0,0,0,0,0,0,0,0,0,0,0,0,0],"id":8,"left_children":[1,3,5,7,9,-1,11,13,15,17,19,21,23,25,27,29,-1,31,33,-1,-1,35,-1,37,39,41,43,-1,-1,45,47,49,51,53,55,-1,-1,57,59,61,63,65,67,69,-1,-1,71,-1,-1,-1,-1,73,-1,-1,-1,-1,-1,75,77,79,-1,-1,-1,-1,-1,-1,-1,-1,-1,-1,-1,-1,-1,-1,-1,-1,-1,-1,-1,-1,-1],"loss_changes":[6.475071E5,4.5846216E5,6.484332E5,1.5627075E5,6.880376E5,0E0,2.533269E5,6.7725806E5,1.24110625E5,1.7375967E5,1.4582344E5,1.2228959E5,1.9218962E5,1.9092931E5,5.1325938E3,3.834125E3,0E0,3.246088E5,5.4662375E4,0E0,0E0,2.2768232E3,0E0,3.03722E5,1.8905116E5,1.2649258E4,1.4084212E5,0E0,0E0,2.941075E4,3.175057E4,2.0973219E4,4.1307164E4,5.0224316E3,2.9972656E3,0E0,0E0,4.173248E5,1.0461478E5,1.1359094E4,1.4566178E4,1.3708174E3,1.1868179E3,2.4645188E4,0E0,0E0,9.614325E4,0E0,0E0,0E0,0E0,1.4536698E4,0E0,0E0,0E0,0E0,0E0,6.773008E4,1.4195881E5,4.643528E4,0E0,0E0,0E0,0E0,0E0,0E0,0E0,0E0,0E0,0E0,0E0,0E0,0E0,0E0,0E0,0E0,0E0,0E0,0E0,0E0,0E0],"parents":[2147483647,0,0,1,1,2,2,3,3,4,4,6,6,7,7,8,8,9,9,10,10,11,11,12,12,13,13,14,14,15,15,17,17,18,18,21,21,23,23,24,24,25,25,26,26,29,29,30,30,31,31,32,32,33,33,34,34,37,37,38,38,39,39,40,40,41,41,42,42,43,43,46,46,51,51,57,57,58,58,59,59],"right_children":[2,4,6,8,10,-1,12,14,16,18,20,22,24,26,28,30,-1,32,34,-1,-1,36,-1,38,40,42,44,-1,-1,46,48,50,52,54,56,-1,-1,58,60,62,64,66,68,70,-1,-1,72,-1,-1,-1,-1,74,-1,-1,-1,-1,-1,76,78,80,-1,-1,-1,-1,-1,-1,-1,-1,-1,-1,-1,-1,-1,-1,-1,-1,-1,-1,-1,-1,-1],"split_conditions":[-2.3428701E-1,5.839422E-1,-2.3428616E-1,4.3039376E-1,-1.8011326E-1,1.1794845E0,-2.2546794E0,4.0093172E-1,2.8341615E-1,-2.6543808E-1,-7.55538E-2,-2.112209E0,9.507123E-1,-4.6126223E-1,-2.3345086E-1,-2.342923E-1,1.6389899E-1,-2.2887798E-1,-1.0545591E-1,1.2137429E0,1.5541218E-1,2.53919E0,6.391494E-1,-3.4114525E-1,-2.8646484E-1,-2.342923E-1,-3.4056643E-1,1.704868E-1,6.5838265E-1,1.9663718E-1,6.241918E-1,-1.0882821E0,-3.5091612E-1,2.788874E0,-1.0519103E0,8.859828E-2,-1.0278143E-2,-5.1640266E-1,-1.790454E-1,-4.8936132E-1,9.677948E-1,-5.2676296E-1,1.285915E-1,-2.0338082E-1,1.7339012E-1,-4.6898964E-1,8.374575E-1,5.326453E-2,-2.8247994E-1,1.6838099E-1,7.748155E-1,-9.64096E-2,-2.1484849E-1,-7.88674E-2,4.413591E-2,-1.0337983E-1,-4.0535852E-1,-1.5208133E0,6.999038E-2,-1.0840344E0,1.5855338E-1,2.618052E-1,7.6872295E-1,1.0340702E-1,-1.00543134E-1,1.2114622E-1,3.6112983E-2,-1.0765724E-2,-1.0148878E-1,-4.619283E-1,-1.7429051E-1,-3.0697273E-2,-4.4313747E-1,1.0008119E-1,-7.104179E-2,6.3731305E-2,-2.4558465E-1,2.1185903E-1,8.2512754E-1,2.0574246E-2,-2.6992294E-1],"split_indices":[14,13,14,1,6,0,1,1,19,15,1,16,1,10,0,14,0,1,19,0,0,0,0,12,19,14,10,0,0,12,1,1,10,10,1,0,0,12,18,10,1,10,1,12,0,0,1,0,0,0,0,1,0,0,0,0,0,3,19,7,0,0,0,0,0,0,0,0,0,0,0,0,0,0,0,0,0,0,0,0,0],"split_type":[0,0,0,0,0,0,0,0,0,0,0,0,0,0,0,0,0,0,0,0,0,0,0,0,0,0,0,0,0,0,0,0,0,0,0,0,0,0,0,0,0,0,0,0,0,0,0,0,0,0,0,0,0,0,0,0,0,0,0,0,0,0,0,0,0,0,0,0,0,0,0,0,0,0,0,0,0,0,0,0,0],"sum_hessian":[1.07E2,6.4E1,4.3E1,4.5E1,1.9E1,1E0,4.2E1,2.3E1,2.2E1,1.7E1,2E0,5E0,3.7E1,2E1,3E0,2.1E1,1E0,1E1,7E0,1E0,1E0,2E0,3E0,3.1E1,6E0,6E0,1.4E1,1E0,2E0,1.8E1,3E0,2E0,8E0,3E0,4E0,1E0,1E0,1.4E1,1.7E1,3E0,3E0,4E0,2E0,1.3E1,1E0,1.1E1,7E0,1E0,2E0,1E0,1E0,5E0,3E0,2E0,1E0,1E0,3E0,8E0,6E0,1.5E1,2E0,2E0,1E0,1E0,2E0,1E0,3E0,1E0,1E0,1E1,3E0,4E0,3E0,3E0,2E0,4E0,4E0,4E0,2E0,2E0,1.3E1],"tree_param":{"num_deleted":"0","num_feature":"20","num_nodes":"81","size_leaf_vector":"1"}},{"base_weights":[4.7028456E0,1.0185356E2,-4.812844E1,3.244631E1,6.3674084E2,2.5205215E2,-6.2905285E1,-8.069393E1,1.03558205E2,1.3890958E0,1.5526898E-1,5.81014E1,7.683583E-1,-9.715859E0,-1.24689735E2,-3.895203E1,-3.6152288E-1,6.38266E-1,5.4705738E1,1.7323035E-1,-1.2626714E-2,-8.1746155E1,2.3615872E2,1.3012253E-1,-1.3825484E2,-1.8480884E-1,2.7947649E1,-1.1506953E1,1.3531166E2,2.3085954E2,-1.4360435E2,4.5479474E2,-7.343621E1,-2.1585516E2,-9.6927414E1,1.6345708E-1,-3.9792145E1,2.5741112E-1,-3.57467E1,1.7321523E2,1.15663275E-1,8.17783E-1,9.9522385E1,-1.9784637E2,2.3511707E1,6.588951E2,3.1062674E1,-4.0006727E-1,1.7452055E-1,-4.4250906E-1,-7.1081825E1,-1.9605522E2,-1.2117885E1,3.1269568E-3,-9.985643E-2,1.5225402E-1,-9.9545E-2,4.0089968E-1,1.0386809E-1,-1.0755798E-2,2.3462734E-1,4.0459726E-2,-4.0711874E-1,2.7609023E-1,-1.5154849E-1,2.578088E-1,1.447074E0,-2.4863394E-1,3.3449724E-1,1.8644655E-2,-2.1512872E-1,-2.2029291E-1,-4.4207206E-1,6.4651534E-2,-1.9182932E-1],"categories":[],"categories_nodes":[],"categories_segments":[],"categories_sizes":[],"default_left":[0,0,0,0,0,0,0,0,0,0,0,0,0,0,0,0,0,0,0,0,0,0,0,0,0,0,0,0,0,0,0,0,0,0,0,0,0,0,0,0,0,0,0,0,0,0,0,0,0,0,0,0,0,0,0,0,0,0,0,0,0,0,0,0,0,0,0,0,0,0,0,0,0,0,0],"id":9,"left_children":[1,3,5,7,9,11,13,15,17,-1,-1,19,-1,21,23,25,-1,-1,27,-1,-1,29,31,-1,33,-1,35,37,39,41,43,45,47,49,51,-1,53,-1,55,57,-1,-1,59,61,63,65,67,-1,-1,-1,69,71,73,-1,-1,-1,-1,-1,-1,-1,-1,-1,-1,-1,-1,-1,-1,-1,-1,-1,-1,-1,-1,-1,-1],"loss_changes":[6.413441E5,1.6128426E6,3.751489E5,3.301812E5,2.5984638E5,1.0370444E5,2.5511834E5,6.948913E4,2.7758553E5,0E0,0E0,7.6400967E3,0E0,7.8085306E5,1.051365E5,5.614568E4,0E0,0E0,1.18974E5,0E0,0E0,6.906181E5,7.102843E5,0E0,8.81165E4,0E0,3.2337299E4,5.26364E4,1.6625875E4,1.23615125E5,2.675283E5,4.9843612E5,1.4133667E5,2.1587469E4,1.9939186E5,0E0,2.4809316E3,0E0,3.0416488E4,1.8821E4,0E0,0E0,1.5387477E4,1.1644744E5,1.1917894E5,1.5247125E5,9.94094E4,0E0,0E0,0E0,1.2303459E4,8.21725E3,6.4433367E4,0E0,0E0,0E0,0E0,0E0,0E0,0E0,0E0,0E0,0E0,0E0,0E0,0E0,0E0,0E0,0E0,0E0,0E0,0E0,0E0,0E0,0E0],"parents":[2147483647,0,0,1,1,2,2,3,3,4,4,5,5,6,6,7,7,8,8,11,11,13,13,14,14,15,15,18,18,21,21,22,22,24,24,26,26,27,27,28,28,29,29,30,30,31,31,32,32,33,33,34,34,36,36,38,38,39,39,42,42,43,43,44,44,45,45,46,46,50,50,51,51,52,52],"right_children":[2,4,6,8,10,12,14,16,18,-1,-1,20,-1,22,24,26,-1,-1,28,-1,-1,30,32,-1,34,-1,36,38,40,42,44,46,48,50,52,-1,54,-1,56,58,-1,-1,60,62,64,66,68,-1,-1,-1,70,72,74,-1,-1,-1,-1,-1,-1,-1,-1,-1,-1,-1,-1,-1,-1,-1,-1,-1,-1,-1,-1,-1,-1],"split_conditions":[-6.35944E-2,-2.6085034E-1,-7.3011714E-1,-5.179636E-1,-7.55538E-2,1.4530672E-1,-4.2872027E-1,3.2802224E0,-2.2546794E0,1.3890958E0,1.5526898E-1,1.01051055E-1,7.683583E-1,-4.3966812E-1,-2.3346028E-1,-2.6515022E-1,-3.6152288E-1,6.38266E-1,-8.297049E-1,1.7323035E-1,-1.2626714E-2,2.076863E-1,1.1571863E-1,1.3012253E-1,1.4117959E-1,-1.8480884E-1,-7.845759E-1,-1.0423139E0,-2.342923E-1,-2.334449E-1,8.897041E-1,6.922579E-1,-4.3688583E-1,-3.4056643E-1,-4.252246E-1,1.6345708E-1,-1.9394972E0,2.5741112E-1,3.7174714E-1,-3.127876E-1,1.15663275E-1,8.17783E-1,2.3428272E-2,-2.3344779E-1,-4.7301665E-1,1.8255627E-1,7.0557183E-1,-4.0006727E-1,1.7452055E-1,-4.4250906E-1,-2.334454E-1,8.836323E-1,-2.3427846E-1,3.1269568E-3,-9.985643E-2,1.5225402E-1,-9.9545E-2,4.0089968E-1,1.0386809E-1,-1.0755798E-2,2.3462734E-1,4.0459726E-2,-4.0711874E-1,2.7609023E-1,-1.5154849E-1,2.578088E-1,1.447074E0,-2.4863394E-1,3.3449724E-1,1.8644655E-2,-2.1512872E-1,-2.2029291E-1,-4.4207206E-1,6.4651534E-2,-1.9182932E-1],"split_indices":[1,3,19,19,1,1,10,12,1,0,0,1,0,10,0,15,0,0,1,0,0,1,19,0,6,0,19,13,14,0,1,1,10,10,10,0,3,0,10,1,0,0,6,0,10,1,1,0,0,0,0,1,14,0,0,0,0,0,0,0,0,0,0,0,0,0,0,0,0,0,0,0,0,0,0],"split_type":[0,0,0,0,0,0,0,0,0,0,0,0,0,0,0,0,0,0,0,0,0,0,0,0,0,0,0,0,0,0,0,0,0,0,0,0,0,0,0,0,0,0,0,0,0,0,0,0,0,0,0,0,0,0,0,0,0,0,0,0,0,0,0,0,0,0,0,0,0,0,0,0,0,0,0],"sum_hessian":[1.23E2,4.3E1,8E1,3.9E1,4E0,3E0,7.7E1,1.5E1,2.4E1,3E0,1E0,2E0,1E0,4.2E1,3.5E1,1.2E1,3E0,3E0,2.1E1,1E0,1E0,3.3E1,9E0,2E0,3.3E1,6E0,6E0,1.2E1,9E0,5E0,2.8E1,5E0,4E0,1E1,2.3E1,3E0,3E0,1E0,1.1E1,5E0,4E0,1E0,4E0,2.1E1,7E0,3E0,2E0,2E0,2E0,8E0,2E0,1E1,1.3E1,1E0,2E0,1E0,1E1,3E0,2E0,1E0,3E0,2E0,1.9E1,3E0,4E0,1E0,2E0,1E0,1E0,1E0,1E0,5E0,5E0,9E0,4E0],"tree_param":{"num_deleted":"0","num_feature":"20","num_nodes":"75","size_leaf_vector":"1"}},{"base_weights":[-2.3780128E1,1.2149367E2,-4.302412E1,6.790273E-1,5.515198E1,-7.252536E1,6.816898E1,-1.0043438E1,5.082763E-1,1.4319228E2,-9.559861E1,3.561551E2,2.579956E1,-5.3234562E1,3.8870835E-1,3.422555E2,-8.450939E1,-1.517155E2,-2.1238184E1,2.8314475E-2,9.561678E-1,-1.0261238E2,8.036731E1,1.5296301E-1,-7.759527E1,5.804787E1,9.442085E-1,-1.4648682E2,1.5055682E-1,-9.062717E1,-1.994046E2,2.9931546E2,-1.0893442E2,-4.5582813E-1,6.7785E1,-4.691015E1,1.614248E2,-1.7790085E1,-1.04532845E2,1.7307074E-1,-1.2615073E-2,-3.168814E-1,-6.456887E-2,-1.2936406E2,1.1602984E2,-2.0696815E2,-1.6473992E-2,-1.4159978E2,4.6988715E2,9.9343376E1,-1.462326E2,-1.6919796E-1,1.5159056E2,2.3234089E1,-2.7306658E-1,2.170898E2,2.3654846E1,-8.854187E-2,6.724578E-2,-2.2681667E-1,-1.0856773E-2,9.152469E-2,-2.825892E-1,2.7290154E-1,1.828659E-2,-4.8214725E-1,-3.0089262E-1,-9.235777E-3,-3.821737E-1,-2.462737E-2,1.3173305E0,-5.6024056E-2,3.611402E-1,-3.0597484E-1,-1.3697254E-3,8.483694E-2,3.3418903E-1,-4.4306707E-2,1.1566622E-1,-7.763851E-2,4.9260736E-1,1.1927505E-1,-9.1730416E-2],"categories":[],"categories_nodes":[],"categories_segments":[],"categories_sizes":[],"default_left":[0,0,0,0,0,0,0,0,0,0,0,0,0,0,0,0,0,0,0,0,0,0,0,0,0,0,0,0,0,0,0,0,0,0,0,0,0,0,0,0,0,0,0,0,0,0,0,0,0,0,0,0,0,0,0,0,0,0,0,0,0,0,0,0,0,0,0,0,0,0,0,0,0,0,0,0,0,0,0,0,0,0,0],"id":10,"left_children":[1,3,5,-1,7,9,11,13,-1,15,17,19,21,23,-1,25,27,29,31,-1,-1,33,35,-1,37,39,-1,41,-1,43,45,47,49,-1,51,53,55,57,59,-1,-1,-1,-1,61,63,65,-1,67,69,71,73,-1,75,77,-1,79,81,-1,-1,-1,-1,-1,-1,-1,-1,-1,-1,-1,-1,-1,-1,-1,-1,-1,-1,-1,-1,-1,-1,-1,-1,-1,-1],"loss_changes":[3.5747875E5,2.254566E5,3.7234144E5,0E0,1.897934E5,4.566693E5,2.836547E5,1.1621583E5,0E0,4.36867E5,3.3478075E5,1.5838016E5,1.62404E5,3.9629996E4,0E0,2.1200806E5,6.3474203E4,1.15937875E5,1.0446142E6,0E0,0E0,1.894154E5,1.7264112E5,0E0,1.2639414E4,7.6260215E3,0E0,5.3292188E3,0E0,1.9112555E5,3.41645E4,6.6819725E5,2.398104E5,0E0,6.742017E4,5.316756E4,7.155445E4,8.32296E3,1.0253633E4,0E0,0E0,0E0,0E0,8.919931E4,1.2138023E4,1.46020625E4,0E0,2.591818E4,7.198361E5,6.864459E4,7.1914375E4,0E0,1.0744922E3,1.0854071E4,0E0,1.0239806E5,1.5285434E4,0E0,0E0,0E0,0E0,0E0,0E0,0E0,0E0,0E0,0E0,0E0,0E0,0E0,0E0,0E0,0E0,0E0,0E0,0E0,0E0,0E0,0E0,0E0,0E0,0E0,0E0],"parents":[2147483647,0,0,1,1,2,2,4,4,5,5,6,6,7,7,9,9,10,10,11,11,12,12,13,13,15,15,16,16,17,17,18,18,21,21,22,22,24,24,25,25,27,27,29,29,30,30,31,31,32,32,34,34,35,35,36,36,37,37,38,38,43,43,44,44,45,45,47,47,48,48,49,49,50,50,52,52,53,53,55,55,56,56],"right_children":[2,4,6,-1,8,10,12,14,-1,16,18,20,22,24,-1,26,28,30,32,-1,-1,34,36,-1,38,40,-1,42,-1,44,46,48,50,-1,52,54,56,58,60,-1,-1,-1,-1,62,64,66,-1,68,70,72,74,-1,76,78,-1,80,82,-1,-1,-1,-1,-1,-1,-1,-1,-1,-1,-1,-1,-1,-1,-1,-1,-1,-1,-1,-1,-1,-1,-1,-1,-1,-1],"split_conditions":[-8.176433E-1,-2.653008E-1,4.8512274E-1,6.790273E-1,3.8971496E0,-7.3011714E-1,5.9945416E-1,2.1669683E0,5.082763E-1,-2.654311E-1,-2.3428985E-1,9.507123E-1,-2.3427823E-1,-9.285447E-1,3.8870835E-1,1.4530672E-1,6.989449E-1,2.1089016E-1,-2.3428616E-1,2.8314475E-2,9.561678E-1,-4.3688583E-1,-5.179636E-1,1.5296301E-1,-2.3345469E-1,1.01051055E-1,9.442085E-1,-2.334448E-1,1.5055682E-1,1.7797503E-1,8.897041E-1,-4.680231E-1,2.3014101E-1,-4.5582813E-1,-1.3738592E0,3.2802224E0,1.6749753E-1,-2.3346819E-1,3.565403E0,1.7307074E-1,-1.2615073E-2,-3.168814E-1,-6.456887E-2,-5.173198E-1,2.076863E-1,-2.0338082E-1,-1.6473992E-2,-2.3344779E-1,-8.7379545E-2,-5.7735708E-2,1.9198222E-1,-1.6919796E-1,8.374575E-1,-1.3121939E-1,-2.7306658E-1,-2.1748035E0,1.294048E0,-8.854187E-2,6.724578E-2,-2.2681667E-1,-1.0856773E-2,9.152469E-2,-2.825892E-1,2.7290154E-1,1.828659E-2,-4.8214725E-1,-3.0089262E-1,-9.235777E-3,-3.821737E-1,-2.462737E-2,1.3173305E0,-5.6024056E-2,3.611402E-1,-3.0597484E-1,-1.3697254E-3,8.483694E-2,3.3418903E-1,-4.4306707E-2,1.1566622E-1,-7.763851E-2,4.9260736E-1,1.1927505E-1,-9.1730416E-2],"split_indices":[12,15,12,0,0,19,12,7,0,15,14,1,14,19,0,1,1,1,14,0,0,10,19,0,0,1,0,0,0,1,1,10,3,0,1,12,19,0,0,0,0,0,0,10,1,12,0,0,1,1,19,0,1,0,0,3,1,0,0,0,0,0,0,0,0,0,0,0,0,0,0,0,0,0,0,0,0,0,0,0,0,0,0],"split_type":[0,0,0,0,0,0,0,0,0,0,0,0,0,0,0,0,0,0,0,0,0,0,0,0,0,0,0,0,0,0,0,0,0,0,0,0,0,0,0,0,0,0,0,0,0,0,0,0,0,0,0,0,0,0,0,0,0,0,0,0,0,0,0,0,0,0,0,0,0,0,0,0,0,0,0,0,0,0,0,0,0,0,0],"sum_hessian":[1.25E2,1.4E1,1.11E2,2E0,1.2E1,8.8E1,2.3E1,1E1,2E0,8E0,8E1,2E0,2.1E1,9E0,1E0,4E0,4E0,4.5E1,3.5E1,1E0,1E0,6E0,1.5E1,1E0,8E0,2E0,2E0,3E0,1E0,2.1E1,2.4E1,7E0,2.8E1,3E0,3E0,6E0,9E0,3E0,5E0,1E0,1E0,2E0,1E0,1.8E1,3E0,2.3E1,1E0,2E0,5E0,4E0,2.4E1,1E0,2E0,4E0,2E0,6E0,3E0,2E0,1E0,4E0,1E0,2E0,1.6E1,2E0,1E0,8E0,1.5E1,1E0,1E0,2E0,3E0,2E0,2E0,2.1E1,3E0,1E0,1E0,2E0,2E0,1E0,5E0,2E0,1E0],"tree_param":{"num_deleted":"0","num_feature":"20","num_nodes":"83","size_leaf_vector":"1"}}]},"name":"gbtree"},"learner_model_param":{"base_score":"4.4653192E2","boost_from_average":"1","num_class":"0","num_feature":"20","num_target":"1"},"objective":{"name":"reg:squarederror","reg_loss_param":{"scale_pos_weight":"1"}}},"version":[2,0,3]}