{"learner":{"attributes":{"best_iteration":"9","best_score":"406.2070491661042","scikit_learn":"{\"_estimator_type\": \"regressor\"}"},"feature_names":[],"feature_types":[],"gradient_booster":{"model":{"gbtree_model_param":{"num_parallel_tree":"1","num_trees":"20"},"iteration_indptr":[0,1,2,3,4,5,6,7,8,9,10,11,12,13,14,15,16,17,18,19,20],"tree_info":[0,0,0,0,0,0,0,0,0,0,0,0,0,0,0,0,0,0,0,0],"trees":[{"base_weights":[-4.5100946E0,3.7975266E1,-7.7519554E1,-3.474021E0,2.1586322E2,-1.2060048E2,1.2603457E2,4.001533E1,-1.01714455E2,1.1007249E0,1.02512405E2,-4.0769598E-1,-6.747064E1,3.4660107E2,-7.5625534E1,1.0691161E2,-5.8835705E1,-2.2496542E2,-1.1070928E1,-1.12025536E2,2.2378458E2,3.4097873E2,-1.1781314E2,7.444508E-1,1.6075464E-1,-1.4302129E2,1.697872E1,-4.2237595E1,2.1910355E2,-2.062766E2,1.3739765E1,-7.788759E-2,-4.515357E-1,1.7210106E2,-9.1250595E1,-3.1769624E-1,1.1929169E-1,2.5774464E1,4.1535107E2,1.7181142E-1,7.707204E-1,-3.0208212E1,-4.2140847E-1,-5.9459615E-2,-3.3587918E-1,-1.983948E-2,6.677198E-2,4.9974464E1,-9.459043E1,2.487918E2,-1.8108422E-1,-4.8402835E-2,-4.3678996E-1,7.553457E1,-7.094327E1,4.4658415E-2,3.930908E-1,-1.308845E2,3.1645386E1,-9.355136E-2,5.760106E1,8.660754E-1,2.3170231E-1,-7.38472E1,9.735106E1,-8.782698E-3,1.1950734E-1,-2.425304E-1,2.023155E-2,6.8163234E-1,2.5875834E-1,3.419629E-2,3.0279377E-1,-2.6517653E-1,9.2100635E-2,-9.7093195E-2,-2.7941507E-1,1.3526855E-3,8.612135E-2,1.4062762E-1,1.3526855E-3,1.1796132E-2,-3.1590247E-1,2.4387648E-2,2.2293922E-1],"categories":[],"categories_nodes":[],"categories_segments":[],"categories_sizes":[],"default_left":[0,0,0,0,0,0,0,0,0,0,0,0,0,0,0,0,0,0,0,0,0,0,0,0,0,0,0,0,0,0,0,0,0,0,0,0,0,0,0,0,0,0,0,0,0,0,0,0,0,0,0,0,0,0,0,0,0,0,0,0,0,0,0,0,0,0,0,0,0,0,0,0,0,0,0,0,0,0,0,0,0,0,0,0,0],"id":0,"left_children":[1,3,5,7,9,11,13,15,17,-1,19,-1,21,23,25,27,29,31,33,35,37,39,41,-1,-1,43,45,47,49,51,53,-1,-1,55,57,-1,-1,59,61,-1,-1,63,-1,-1,-1,-1,-1,65,67,69,-1,-1,-1,71,73,-1,-1,75,77,-1,79,-1,-1,81,83,-1,-1,-1,-1,-1,-1,-1,-1,-1,-1,-1,-1,-1,-1,-1,-1,-1,-1,-1,-1],"loss_changes":[3.6275644E5,5.4637625E5,3.9227975E5,2.6468734E5,5.440936E5,1.7755894E5,3.8204762E5,2.9063922E5,2.0977558E5,0E0,3.3727934E5,0E0,5.542308E5,2.4286781E4,3.3633984E4,4.4432112E5,1.9544484E5,1.8966094E4,1.9194436E5,6.4517965E4,2.9275134E5,1.8425156E4,2.164766E5,0E0,0E0,7.1586836E3,1.9927922E3,6.265786E4,1.6577994E5,2.698514E4,7.33873E4,0E0,0E0,1.920557E4,4.7979523E4,0E0,0E0,1.5104279E4,4.192125E3,0E0,0E0,8.512091E4,0E0,0E0,0E0,0E0,0E0,4.380834E3,3.2709852E4,1.3179912E5,0E0,0E0,0E0,3.74177E4,6.0123555E4,0E0,0E0,3.3643047E3,1.364927E3,0E0,4.2001377E3,0E0,0E0,8.723291E4,6.348918E3,0E0,0E0,0E0,0E0,0E0,0E0,0E0,0E0,0E0,0E0,0E0,0E0,0E0,0E0,0E0,0E0,0E0,0E0,0E0,0E0],"parents":[2147483647,0,0,1,1,2,2,3,3,4,4,5,5,6,6,7,7,8,8,10,10,12,12,13,13,14,14,15,15,16,16,17,17,18,18,19,19,20,20,21,21,22,22,25,25,26,26,27,27,28,28,29,29,30,30,33,33,34,34,37,37,38,38,41,41,47,47,48,48,49,49,53,53,54,54,57,57,58,58,60,60,63,63,64,64],"right_children":[2,4,6,8,10,12,14,16,18,-1,20,-1,22,24,26,28,30,32,34,36,38,40,42,-1,-1,44,46,48,50,52,54,-1,-1,56,58,-1,-1,60,62,-1,-1,64,-1,-1,-1,-1,-1,66,68,70,-1,-1,-1,72,74,-1,-1,76,78,-1,80,-1,-1,82,84,-1,-1,-1,-1,-1,-1,-1,-1,-1,-1,-1,-1,-1,-1,-1,-1,-1,-1,-1,-1],"split_conditions":[3.2573932E-1,-5.942262E-2,9.737526E-1,-1.4170703E-1,4.336936E-2,5.236263E-1,1.2872362E0,-1.522928E-1,1.4349029E0,1.1007249E0,3.246293E-1,-4.0769598E-1,5.30459E-1,1.1018634E0,1.4909092E0,-5.746199E-1,7.29329E-3,-2.340996E0,-3.8046423E-1,8.6540155E-2,-3.245653E-1,4.060477E-1,1.7978995E-1,7.444508E-1,1.6075464E-1,1.0720176E0,1.5699922E0,-1.0483071E0,3.04626E0,-4.5252126E-1,-3.160152E-1,-7.788759E-2,-4.515357E-1,-1.3434842E0,-3.0079332E-1,-3.1769624E-1,1.1929169E-1,-5.188526E-1,3.5509592E-1,1.7181142E-1,7.707204E-1,1.2921305E-1,-4.2140847E-1,-5.9459615E-2,-3.3587918E-1,-1.983948E-2,6.677198E-2,-2.6409638E0,-6.696277E-2,-3.2453176E-1,-1.8108422E-1,-4.8402835E-2,-4.3678996E-1,-3.567127E-1,-1.8643926E-1,4.4658415E-2,3.930908E-1,3.298788E-1,-2.0969222E0,-9.355136E-2,-3.328983E-1,8.660754E-1,2.3170231E-1,2.7550811E-2,6.02981E-1,-8.782698E-3,1.1950734E-1,-2.425304E-1,2.023155E-2,6.8163234E-1,2.5875834E-1,3.419629E-2,3.0279377E-1,-2.6517653E-1,9.2100635E-2,-9.7093195E-2,-2.7941507E-1,1.3526855E-3,8.612135E-2,1.4062762E-1,1.3526855E-3,1.1796132E-2,-3.1590247E-1,2.4387648E-2,2.2293922E-1],"split_indices":[1,18,0,17,3,2,1,1,17,0,0,0,0,0,0,10,1,0,9,3,7,0,9,0,0,0,0,9,4,3,7,0,0,2,13,0,0,7,0,0,0,7,0,0,0,0,0,0,0,0,0,0,0,7,7,0,0,9,0,0,7,0,0,7,0,0,0,0,0,0,0,0,0,0,0,0,0,0,0,0,0,0,0,0,0],"split_type":[0,0,0,0,0,0,0,0,0,0,0,0,0,0,0,0,0,0,0,0,0,0,0,0,0,0,0,0,0,0,0,0,0,0,0,0,0,0,0,0,0,0,0,0,0,0,0,0,0,0,0,0,0,0,0,0,0,0,0,0,0,0,0,0,0,0,0,0,0,0,0,0,0,0,0,0,0,0,0,0,0,0,0,0,0],"sum_hessian":[1.15E2,7.3E1,4.2E1,6E1,1.3E1,3.5E1,7E0,4.2E1,1.8E1,2E0,1.1E1,1.1E1,2.4E1,3E0,4E0,2.5E1,1.7E1,7E0,1.1E1,4E0,7E0,2E0,2.2E1,2E0,1E0,2E0,2E0,1.1E1,1.4E1,5E0,1.2E1,1E0,6E0,3E0,8E0,3E0,1E0,4E0,3E0,1E0,1E0,1.3E1,9E0,1E0,1E0,1E0,1E0,4E0,7E0,1.3E1,1E0,1E0,4E0,7E0,5E0,1E0,2E0,6E0,2E0,1E0,3E0,2E0,1E0,1E1,3E0,1E0,3E0,5E0,2E0,5E0,8E0,5E0,2E0,3E0,2E0,2E0,4E0,1E0,1E0,2E0,1E0,6E0,4E0,1E0,2E0],"tree_param":{"num_deleted":"0","num_feature":"20","num_nodes":"85","size_leaf_vector":"1"}},{"base_weights":[-4.682313E0,5.9033966E1,-5.36228E1,2.2847942E1,4.6946124E2,-1.3118547E2,7.572489E1,-7.109933E1,1.0146301E2,1.6218448E-2,1.1426834E0,-1.6700494E2,-4.1189316E1,1.6019371E2,-1.6436543E2,2.0660847E2,-1.0920053E2,3.4774805E2,2.6264294E1,-6.055209E1,-2.0467497E2,7.4871346E1,-8.349465E1,-1.5918198E0,2.5470125E2,-3.5998598E-1,1.9835431E-2,-8.7746E-3,5.7988083E-1,-3.0260118E1,-1.5930579E2,8.076165E-1,-9.6553974E-2,-1.5402928E2,1.7432025E2,-3.0111945E-1,1.8107513E1,-1.5004099E2,-5.3903383E-1,2.6333657E-1,-1.19059466E-1,-2.6658976E-1,4.442859E1,1.0860855E2,-1.3894434E2,1.4098976E0,7.6115814E1,-1.06738686E2,9.202276E1,-1.8307288E2,-2.6980276E1,-1.1201553E-1,-3.1280005E-1,4.0458286E2,-4.7950592E1,6.3171864E1,-1.909269E-1,-1.8984354E2,-3.2467186E1,-7.781583E-2,1.6104105E-1,-3.836568E0,3.4064254E-1,2.4365181E-2,-3.576384E-1,2.5753052E0,1.247136E2,-2.1669398E-1,-4.835824E-2,1.9634584E-1,4.4639774E-2,-4.2491612E-1,-9.981215E-2,-7.0292935E-2,-4.285819E-3,2.3372363E-1,9.430534E-1,2.067759E-2,-2.4064346E-1,1.9833589E-1,-1.0563946E-1,-1.3331379E-1,-4.1437736E-1,-1.0079741E-1,5.201872E-2,-4.8608243E-2,3.8003217E-2,1.2543109E-1,-1.1752148E-1,2.837147E-1,-1.9821202E-2],"categories":[],"categories_nodes":[],"categories_segments":[],"categories_sizes":[],"default_left":[0,0,0,0,0,0,0,0,0,0,0,0,0,0,0,0,0,0,0,0,0,0,0,0,0,0,0,0,0,0,0,0,0,0,0,0,0,0,0,0,0,0,0,0,0,0,0,0,0,0,0,0,0,0,0,0,0,0,0,0,0,0,0,0,0,0,0,0,0,0,0,0,0,0,0,0,0,0,0,0,0,0,0,0,0,0,0,0,0,0,0],"id":1,"left_children":[1,3,5,7,9,11,13,15,17,-1,-1,19,21,23,25,27,29,31,33,35,37,39,41,43,45,-1,-1,-1,-1,47,49,-1,-1,51,53,-1,55,57,-1,-1,-1,-1,59,61,63,-1,65,67,69,71,73,-1,-1,75,77,79,-1,81,83,-1,-1,85,-1,-1,-1,87,89,-1,-1,-1,-1,-1,-1,-1,-1,-1,-1,-1,-1,-1,-1,-1,-1,-1,-1,-1,-1,-1,-1,-1,-1],"loss_changes":[3.586524E5,7.318604E5,6.6204994E5,3.5434047E5,2.7208075E5,1.2528931E5,5.333339E5,2.5534381E5,4.7239494E5,0E0,0E0,1.0389894E5,7.0081164E4,2.9091453E5,4.0083844E4,7.002397E4,7.428597E4,2.4025906E5,5.8741475E5,7.577107E4,5.6884375E4,4.7187156E4,8.4679445E4,1.3618092E5,1.03553144E6,0E0,0E0,0E0,0E0,9.399057E4,3.280053E4,0E0,0E0,4.33325E3,6.33568E5,0E0,3.9454996E4,6.4032344E4,0E0,0E0,0E0,0E0,1.85814E4,4.3574547E4,3.6121297E4,0E0,3.541788E4,2.1550781E3,1.3580977E3,4.8754875E4,7.370481E2,0E0,0E0,1.1369125E5,3.5692812E4,3.2953855E4,0E0,2.8995844E4,8.290572E3,0E0,0E0,2.1979607E3,0E0,0E0,0E0,2.6066768E4,2.542696E4,0E0,0E0,0E0,0E0,0E0,0E0,0E0,0E0,0E0,0E0,0E0,0E0,0E0,0E0,0E0,0E0,0E0,0E0,0E0,0E0,0E0,0E0,0E0,0E0],"parents":[2147483647,0,0,1,1,2,2,3,3,4,4,5,5,6,6,7,7,8,8,11,11,12,12,13,13,14,14,15,15,16,16,17,17,18,18,19,19,20,20,21,21,22,22,23,23,24,24,29,29,30,30,33,33,34,34,36,36,37,37,42,42,43,43,44,44,46,46,47,47,48,48,49,49,50,50,53,53,54,54,55,55,57,57,58,58,61,61,65,65,66,66],"right_children":[2,4,6,8,10,12,14,16,18,-1,-1,20,22,24,26,28,30,32,34,36,38,40,42,44,46,-1,-1,-1,-1,48,50,-1,-1,52,54,-1,56,58,-1,-1,-1,-1,60,62,64,-1,66,68,70,72,74,-1,-1,76,78,80,-1,82,84,-1,-1,86,-1,-1,-1,88,90,-1,-1,-1,-1,-1,-1,-1,-1,-1,-1,-1,-1,-1,-1,-1,-1,-1,-1,-1,-1,-1,-1,-1,-1],"split_conditions":[-3.0666637E-1,-3.2638866E-1,2.0570672E-1,-5.1710844E-1,-2.97345E-1,2.6952028E-1,2.8604808E0,-2.6373236E0,-6.617018E-1,1.6218448E-2,1.1426834E0,2.4288127E-1,3.173465E-1,2.4504556E-1,2.897235E0,-2.6409638E0,-8.122388E-1,-3.2453176E-1,-4.1064444E-1,-1.8643926E-1,6.2361354E-4,9.383521E-1,-3.0079332E-1,-1.01195425E-1,3.6397794E-1,-3.5998598E-1,1.9835431E-2,-8.7746E-3,5.7988083E-1,-6.763634E-1,3.7909022E-1,8.076165E-1,-9.6553974E-2,-5.582841E-1,-3.8046423E-1,-3.0111945E-1,-2.828837E-1,-1.18935004E-1,-5.3903383E-1,2.6333657E-1,-1.19059466E-1,-2.6658976E-1,-2.340996E0,7.254939E-1,6.02981E-1,1.4098976E0,1.8183634E-1,-6.696277E-2,-8.18896E-1,-6.2030405E-1,-2.338368E0,-1.1201553E-1,-3.1280005E-1,-3.3404315E-1,-3.245653E-1,2.4127088E-1,-1.909269E-1,-1.4298178E-1,5.9614724E-1,-7.781583E-2,1.6104105E-1,6.260364E-1,3.4064254E-1,2.4365181E-2,-3.576384E-1,2.3319565E-2,1.438574E0,-2.1669398E-1,-4.835824E-2,1.9634584E-1,4.4639774E-2,-4.2491612E-1,-9.981215E-2,-7.0292935E-2,-4.285819E-3,2.3372363E-1,9.430534E-1,2.067759E-2,-2.4064346E-1,1.9833589E-1,-1.0563946E-1,-1.3331379E-1,-4.1437736E-1,-1.0079741E-1,5.201872E-2,-4.8608243E-2,3.8003217E-2,1.2543109E-1,-1.1752148E-1,2.837147E-1,-1.9821202E-2],"split_indices":[9,9,7,10,7,16,7,0,9,0,0,0,16,9,7,0,7,0,9,7,7,0,13,10,7,0,0,0,0,16,7,0,0,9,9,0,17,9,0,0,0,0,0,0,0,0,10,0,7,9,0,0,0,16,7,0,0,7,0,0,0,0,0,0,0,10,0,0,0,0,0,0,0,0,0,0,0,0,0,0,0,0,0,0,0,0,0,0,0,0,0],"split_type":[0,0,0,0,0,0,0,0,0,0,0,0,0,0,0,0,0,0,0,0,0,0,0,0,0,0,0,0,0,0,0,0,0,0,0,0,0,0,0,0,0,0,0,0,0,0,0,0,0,0,0,0,0,0,0,0,0,0,0,0,0,0,0,0,0,0,0,0,0,0,0,0,0,0,0,0,0,0,0,0,0,0,0,0,0,0,0,0,0,0,0],"sum_hessian":[1.13E2,4.9E1,6.4E1,4.6E1,3E0,4E1,2.4E1,2.1E1,2.5E1,1E0,2E0,2.8E1,1.2E1,1.8E1,6E0,2E0,1.9E1,5E0,2E1,8E0,2E1,3E0,9E0,7E0,1.1E1,5E0,1E0,1E0,1E0,8E0,1.1E1,4E0,1E0,9E0,1.1E1,3E0,5E0,1.4E1,6E0,2E0,1E0,6E0,3E0,4E0,3E0,2E0,9E0,5E0,3E0,9E0,2E0,2E0,7E0,5E0,6E0,4E0,1E0,1E1,4E0,1E0,2E0,2E0,2E0,1E0,2E0,4E0,5E0,4E0,1E0,2E0,1E0,6E0,3E0,1E0,1E0,2E0,3E0,4E0,2E0,3E0,1E0,3E0,7E0,3E0,1E0,1E0,1E0,2E0,2E0,4E0,1E0],"tree_param":{"num_deleted":"0","num_feature":"20","num_nodes":"91","size_leaf_vector":"1"}},{"base_weights":[5.1516712E1,1.08294785E2,-6.2153683E0,7.171324E0,2.6686157E2,-1.5538419E2,8.610112E1,7.45962E1,-6.464156E1,3.6545547E2,9.4796906E1,-1.0110447E2,-4.255952E-1,3.6245734E2,3.7171715E1,-5.627047E0,2.8430206E2,7.2547975E0,-1.4643182E2,4.0815182E2,-1.3535415E-1,-2.8320122E1,9.948645E-1,-1.2787069E2,3.9661877E1,4.839909E2,-1.139558E-1,-2.3451323E1,2.068165E2,1.4922038E2,-8.248806E1,7.70345E-1,5.5806477E1,-4.4367897E1,1.765046E-1,-1.8245583E2,-4.7126237E-2,2.5942773E2,1.040222E0,-3.9029694E-1,6.813781E1,-1.8525023E2,-6.0420986E1,6.428194E-3,1.0320499E-1,5.197078E-2,1.1545488E0,1.5720796E2,-9.6460945E1,7.4339914E-1,7.405129E1,-6.524695E1,5.785417E-1,3.1139536E1,-2.0234357E2,1.6897324E-1,-1.4713217E-2,-1.2353175E-1,8.4431656E-2,-7.8944184E-2,-3.7189716E-1,1.217368E0,1.0774346E2,3.1529203E-1,1.3327655E1,-3.6911607E-1,-1.0134549E-1,4.9785095E1,-1.14460434E2,1.5249715E1,9.2965186E-1,-1.5015917E1,-1.671881E2,-1.1183174E1,3.0040076E-1,-8.766502E-3,-1.7158882E-1,1.8286586E-1,-1.2905344E-1,-4.8803422E-1,4.3873142E-2,-1.6332096E-1,2.860812E-1,-4.1733016E-3,6.974701E-2,1.5827455E-2,1.21788286E-1,-2.3646714E-1,-5.438411E-2,-1.8487665E-1,1.8081068E-1,-3.57205E-1,5.8171056E-2,-3.5155973E-1,1.9817155E-2,1.6049093E-1,-1.3447171E-1],"categories":[],"categories_nodes":[],"categories_segments":[],"categories_sizes":[],"default_left":[0,0,0,0,0,0,0,0,0,0,0,0,0,0,0,0,0,0,0,0,0,0,0,0,0,0,0,0,0,0,0,0,0,0,0,0,0,0,0,0,0,0,0,0,0,0,0,0,0,0,0,0,0,0,0,0,0,0,0,0,0,0,0,0,0,0,0,0,0,0,0,0,0,0,0,0,0,0,0,0,0,0,0,0,0,0,0,0,0,0,0,0,0,0,0,0,0],"id":2,"left_children":[1,3,5,7,9,11,13,15,17,19,21,23,-1,25,27,29,31,33,35,37,-1,39,-1,41,43,45,-1,47,49,51,53,-1,55,57,-1,59,-1,61,-1,-1,63,65,67,-1,-1,-1,-1,69,71,-1,73,75,-1,77,79,-1,-1,-1,-1,-1,-1,-1,81,-1,83,-1,-1,85,87,89,-1,91,93,95,-1,-1,-1,-1,-1,-1,-1,-1,-1,-1,-1,-1,-1,-1,-1,-1,-1,-1,-1,-1,-1,-1,-1],"loss_changes":[3.5141016E5,8.6396656E5,7.569988E5,1.6944917E5,3.21611E5,6.2786125E4,4.46273E5,3.0441888E5,1.0102951E5,2.7359475E5,5.0844997E5,5.7820547E4,0E0,2.8776025E5,3.133816E5,1.7893311E5,1.2945272E5,4.994911E4,3.01645E4,1.3255538E5,0E0,1.5601289E5,0E0,3.5249797E4,1.5781587E3,2.4218306E5,0E0,3.1853134E5,1.7893122E5,1.9712717E5,1.4248983E5,0E0,7.5999463E3,1.7380932E4,0E0,7.568578E3,0E0,4.1564662E5,0E0,0E0,3.1578076E4,7.4775E2,4.7386758E4,0E0,0E0,0E0,0E0,3.3739244E5,9.541591E4,0E0,4.731888E4,4.613924E3,0E0,4.8283695E4,7.696597E4,0E0,0E0,0E0,0E0,0E0,0E0,0E0,7.905101E4,0E0,1.997393E3,0E0,0E0,1.4473335E3,2.0996914E3,6.730755E4,0E0,8.108909E4,3.9825562E4,3.0643941E4,0E0,0E0,0E0,0E0,0E0,0E0,0E0,0E0,0E0,0E0,0E0,0E0,0E0,0E0,0E0,0E0,0E0,0E0,0E0,0E0,0E0,0E0,0E0],"parents":[2147483647,0,0,1,1,2,2,3,3,4,4,5,5,6,6,7,7,8,8,9,9,10,10,11,11,13,13,14,14,15,15,16,16,17,17,18,18,19,19,21,21,23,23,24,24,25,25,27,27,28,28,29,29,30,30,32,32,33,33,35,35,37,37,40,40,41,41,42,42,47,47,48,48,50,50,51,51,53,53,54,54,62,62,64,64,67,67,68,68,69,69,71,71,72,72,73,73],"right_children":[2,4,6,8,10,12,14,16,18,20,22,24,-1,26,28,30,32,34,36,38,-1,40,-1,42,44,46,-1,48,50,52,54,-1,56,58,-1,60,-1,62,-1,-1,64,66,68,-1,-1,-1,-1,70,72,-1,74,76,-1,78,80,-1,-1,-1,-1,-1,-1,-1,82,-1,84,-1,-1,86,88,90,-1,92,94,96,-1,-1,-1,-1,-1,-1,-1,-1,-1,-1,-1,-1,-1,-1,-1,-1,-1,-1,-1,-1,-1,-1,-1],"split_conditions":[-2.894222E-1,-4.8891753E-1,1.0970304E-1,-5.590715E-1,-4.0605478E-2,-4.2071264E-2,1.7454435E-1,-6.963015E-1,-6.691555E-1,-2.7453342E-1,-2.522144E-1,4.0817338E-1,-4.255952E-1,6.0719095E-2,9.73994E-1,-2.503687E0,-6.6300565E-1,-6.69497E-1,-5.765132E-1,-3.3404315E-1,-1.3535415E-1,3.2840425E-1,9.948645E-1,-1.2641078E-1,4.4218677E-1,6.2361354E-4,-1.139558E-1,-3.0340022E-1,1.1018634E0,-2.4517093E0,-2.7751273E-1,7.70345E-1,-8.073569E-1,-8.158618E-1,1.765046E-1,-2.605453E-1,-4.7126237E-2,-4.5577383E-1,1.040222E0,-3.9029694E-1,-4.698669E-1,2.628868E-1,1.1768085E-1,6.428194E-3,1.0320499E-1,5.197078E-2,1.1545488E0,-1.7892692E0,2.937317E-1,7.4339914E-1,1.525541E0,-2.6409638E0,5.785417E-1,-2.380812E-1,-7.218307E-1,1.6897324E-1,-1.4713217E-2,-1.2353175E-1,8.4431656E-2,-7.8944184E-2,-3.7189716E-1,1.217368E0,-4.1064444E-1,3.1529203E-1,5.7140434E-1,-3.6911607E-1,-1.0134549E-1,8.682444E-2,4.163789E-1,-2.3152097E-1,9.2965186E-1,2.0859179E-1,9.527301E-1,1.2872362E0,3.0040076E-1,-8.766502E-3,-1.7158882E-1,1.8286586E-1,-1.2905344E-1,-4.8803422E-1,4.3873142E-2,-1.6332096E-1,2.860812E-1,-4.1733016E-3,6.974701E-2,1.5827455E-2,1.21788286E-1,-2.3646714E-1,-5.438411E-2,-1.8487665E-1,1.8081068E-1,-3.57205E-1,5.8171056E-2,-3.5155973E-1,1.9817155E-2,1.6049093E-1,-1.3447171E-1],"split_indices":[9,9,16,2,18,16,16,9,9,7,7,1,0,9,0,0,9,18,7,16,0,0,0,7,0,7,0,0,0,1,11,0,0,7,0,0,0,9,0,0,7,0,0,0,0,0,0,0,7,0,1,0,0,17,9,0,0,0,0,0,0,0,9,0,0,0,0,0,0,4,0,16,0,1,0,0,0,0,0,0,0,0,0,0,0,0,0,0,0,0,0,0,0,0,0,0,0],"split_type":[0,0,0,0,0,0,0,0,0,0,0,0,0,0,0,0,0,0,0,0,0,0,0,0,0,0,0,0,0,0,0,0,0,0,0,0,0,0,0,0,0,0,0,0,0,0,0,0,0,0,0,0,0,0,0,0,0,0,0,0,0,0,0,0,0,0,0,0,0,0,0,0,0,0,0,0,0,0,0,0,0,0,0,0,0,0,0,0,0,0,0,0,0,0,0,0,0],"sum_hessian":[1.06E2,5.3E1,5.3E1,3.3E1,2E1,2E1,3.3E1,1.7E1,1.6E1,1.2E1,8E0,1.3E1,7E0,4E0,2.9E1,1.3E1,4E0,9E0,7E0,1.1E1,1E0,7E0,1E0,1.1E1,2E0,3E0,1E0,2.2E1,7E0,4E0,9E0,2E0,2E0,6E0,3E0,5E0,2E0,7E0,4E0,2E0,5E0,5E0,6E0,1E0,1E0,1E0,2E0,6E0,1.6E1,2E0,5E0,2E0,2E0,5E0,4E0,1E0,1E0,5E0,1E0,1E0,4E0,1E0,6E0,1E0,4E0,4E0,1E0,2E0,4E0,5E0,1E0,8E0,8E0,3E0,2E0,1E0,1E0,3E0,2E0,3E0,1E0,1E0,5E0,3E0,1E0,1E0,1E0,3E0,1E0,2E0,3E0,1E0,7E0,7E0,1E0,1E0,2E0],"tree_param":{"num_deleted":"0","num_feature":"20","num_nodes":"97","size_leaf_vector":"1"}},{"base_weights":[4.257066E1,2.2586668E1,3.448136E2,4.293846E1,-1.2944093E2,4.2206613E2,-1.09371476E-1,2.987643E1,1.1829201E0,-4.765833E-1,1.8229252E1,8.639685E-1,1.7342547E-1,9.584933E1,-1.9846571E1,-2.107931E-1,9.41535E1,5.152917E1,2.7222882E2,-4.553871E1,1.6283363E2,2.629416E-1,2.6234739E-2,1.5200023E2,-1.0182323E1,4.0778036E2,-1.651464E-1,2.623692E1,-1.27817116E2,9.6025246E-1,1.6277832E1,7.7580184E-2,7.1639264E-1,2.6624867E-1,-6.057765E-2,1.5369631E-1,8.402692E-1,-2.7506828E-1,1.5385284E-1,-3.360998E-1,4.232193E-2,-2.270338E-1,1.2680961E-1],"categories":[],"categories_nodes":[],"categories_segments":[],"categories_sizes":[],"default_left":[0,0,0,0,0,0,0,0,0,0,0,0,0,0,0,0,0,0,0,0,0,0,0,0,0,0,0,0,0,0,0,0,0,0,0,0,0,0,0,0,0,0,0],"id":3,"left_children":[1,3,5,7,9,11,-1,13,-1,-1,15,-1,-1,17,19,-1,21,23,25,27,29,-1,-1,31,33,35,-1,37,39,-1,41,-1,-1,-1,-1,-1,-1,-1,-1,-1,-1,-1,-1],"loss_changes":[6.807742E5,3.397137E5,2.4360894E5,7.3191206E5,2.5270022E5,4.790775E4,0E0,3.1353747E5,0E0,0E0,8.125183E4,0E0,0E0,3.0647606E5,2.6555475E5,0E0,1.736161E4,2.1235516E5,4.2893456E5,2.927272E5,3.590438E5,0E0,0E0,3.2188562E5,8.195535E4,5.5769E4,0E0,2.8375553E5,1.9343328E5,0E0,5.244359E4,0E0,0E0,0E0,0E0,0E0,0E0,0E0,0E0,0E0,0E0,0E0,0E0],"parents":[2147483647,0,0,1,1,2,2,3,3,4,4,5,5,7,7,10,10,13,13,14,14,16,16,17,17,18,18,19,19,20,20,23,23,24,24,25,25,27,27,28,28,30,30],"right_children":[2,4,6,8,10,12,-1,14,-1,-1,16,-1,-1,18,20,-1,22,24,26,28,30,-1,-1,32,34,36,-1,38,40,-1,42,-1,-1,-1,-1,-1,-1,-1,-1,-1,-1,-1,-1],"split_conditions":[9.73994E-1,7.8208125E-1,2.8604808E0,7.705655E-1,8.422253E-1,1.198514E0,-1.09371476E-1,-3.5906494E-1,1.1829201E0,-4.765833E-1,-3.499053E-1,8.639685E-1,1.7342547E-1,-4.0781927E-1,6.3901335E-1,-2.107931E-1,8.424262E-1,-5.590715E-1,-2.2744475E-1,-1.0786678E-1,6.7039025E-1,2.629416E-1,2.6234739E-2,-7.63851E-1,-8.741616E-1,3.323781E-1,-1.651464E-1,-3.097E-1,5.2947974E-1,9.6025246E-1,6.8448037E-1,7.7580184E-2,7.1639264E-1,2.6624867E-1,-6.057765E-2,1.5369631E-1,8.402692E-1,-2.7506828E-1,1.5385284E-1,-3.360998E-1,4.232193E-2,-2.270338E-1,1.2680961E-1],"split_indices":[0,0,7,0,0,0,0,10,0,0,10,0,0,10,0,0,1,2,7,7,0,0,0,9,7,0,0,10,0,0,0,0,0,0,0,0,0,0,0,0,0,0,0],"split_type":[0,0,0,0,0,0,0,0,0,0,0,0,0,0,0,0,0,0,0,0,0,0,0,0,0,0,0,0,0,0,0,0,0,0,0,0,0,0,0,0,0,0,0],"sum_hessian":[1.13E2,1.07E2,6E0,9.5E1,1.2E1,5E0,1E0,9.4E1,1E0,6E0,6E0,4E0,1E0,4E1,5.4E1,2E0,4E0,3.3E1,7E0,4.8E1,6E0,2E0,2E0,1.2E1,2.1E1,5E0,2E0,2.6E1,2.2E1,1E0,5E0,9E0,3E0,2E0,1.9E1,1E0,4E0,6E0,2E1,1.6E1,6E0,1E0,4E0],"tree_param":{"num_deleted":"0","num_feature":"20","num_nodes":"43","size_leaf_vector":"1"}},{"base_weights":[1.3277342E1,1.2283287E2,-2.5661879E1,7.71939E1,1.0480064E0,-7.1268936E1,1.6291772E2,1.2023707E2,-2.3839527E-1,-2.262244E1,-1.4429355E2,3.862176E2,3.0147205E1,2.0557196E2,-4.5389442E1,-6.866854E1,3.1114502E2,-2.4601009E2,-8.414233E1,-3.0767775E-1,5.062413E2,1.19961205E2,-1.3754744E2,-2.3486916E1,2.5294952E2,-1.01059494E2,2.1780723E-1,-1.8259659E2,-7.372365E0,1.096884E0,2.0296707E1,-1.3907614E2,-5.293383E-1,2.4824016E2,-1.3219524E2,1.3061892E0,4.1970804E-1,-4.03512E1,3.304395E2,-3.267274E-1,1.9774722E-2,-1.7150219E-1,3.0728271E1,2.4188309E1,3.0812415E2,-1.20789345E2,-2.7913279E1,-3.742301E1,-5.0717616E-1,4.671073E1,-1.0011841E2,-5.0918307E-2,1.5118289E-1,-2.0651846E1,-3.8909134E-1,-8.321985E-2,7.6940423E-1,-2.0750149E1,-1.8203526E2,2.450857E1,-3.3598801E-1,6.9640017E-1,1.7326567E-1,8.94608E-2,-4.5218486E-3,1.3128266E-1,-1.077757E-1,6.427893E-1,1.2861016E-1,-2.5153604E-1,-3.8930662E-2,-7.8052476E-2,8.9471374E-4,-1.5381028E-1,9.543675E-2,-1.8271143E-2,6.4869964E-1,-2.9627857E-1,8.518791E-2,6.7319344E-3,-6.381767E-2,-1.4004211E-1,7.312507E-2,-4.0297765E-1,-1.8951356E-1,-9.224811E-2,1.0257945E-1],"categories":[],"categories_nodes":[],"categories_segments":[],"categories_sizes":[],"default_left":[0,0,0,0,0,0,0,0,0,0,0,0,0,0,0,0,0,0,0,0,0,0,0,0,0,0,0,0,0,0,0,0,0,0,0,0,0,0,0,0,0,0,0,0,0,0,0,0,0,0,0,0,0,0,0,0,0,0,0,0,0,0,0,0,0,0,0,0,0,0,0,0,0,0,0,0,0,0,0,0,0,0,0,0,0,0,0],"id":4,"left_children":[1,3,5,7,-1,9,11,13,-1,15,17,19,21,23,25,27,29,31,33,-1,35,37,39,41,43,45,-1,47,49,-1,51,53,-1,55,57,-1,-1,59,61,-1,-1,-1,63,65,67,69,71,73,-1,75,77,-1,-1,79,-1,-1,-1,81,83,85,-1,-1,-1,-1,-1,-1,-1,-1,-1,-1,-1,-1,-1,-1,-1,-1,-1,-1,-1,-1,-1,-1,-1,-1,-1,-1,-1],"loss_changes":[5.53467E5,6.479692E5,8.372648E5,3.0006634E5,0E0,2.7382225E5,5.5166175E5,3.9094122E5,0E0,7.5906306E5,1.6896969E5,5.4928625E5,2.122976E5,2.0128162E5,1.03011484E5,2.98938E5,4.8366888E5,8.5569375E3,3.68227E5,0E0,1.7703575E5,3.170142E5,3.1374562E4,1.794879E4,1.8187412E5,8.1736875E3,0E0,1.9139938E5,1.5014039E5,0E0,1.4103681E4,3.8311125E4,0E0,1.6785477E5,1.0175681E5,0E0,0E0,5.9718863E4,9.353656E3,0E0,0E0,0E0,1.8928298E3,1.9726488E4,9.202275E4,6.5091875E3,1.2509844E3,3.307554E4,0E0,3.3196744E5,1.0508012E5,0E0,0E0,1.1457892E3,0E0,0E0,0E0,2.6385074E4,1.5235375E4,1.44028125E4,0E0,0E0,0E0,0E0,0E0,0E0,0E0,0E0,0E0,0E0,0E0,0E0,0E0,0E0,0E0,0E0,0E0,0E0,0E0,0E0,0E0,0E0,0E0,0E0,0E0,0E0,0E0],"parents":[2147483647,0,0,1,1,2,2,3,3,5,5,6,6,7,7,9,9,10,10,11,11,12,12,13,13,14,14,15,15,16,16,17,17,18,18,20,20,21,21,22,22,23,23,24,24,25,25,27,27,28,28,30,30,31,31,33,33,34,34,37,37,38,38,42,42,43,43,44,44,45,45,46,46,47,47,49,49,50,50,53,53,57,57,58,58,59,59],"right_children":[2,4,6,8,-1,10,12,14,-1,16,18,20,22,24,26,28,30,32,34,-1,36,38,40,42,44,46,-1,48,50,-1,52,54,-1,56,58,-1,-1,60,62,-1,-1,-1,64,66,68,70,72,74,-1,76,78,-1,-1,80,-1,-1,-1,82,84,86,-1,-1,-1,-1,-1,-1,-1,-1,-1,-1,-1,-1,-1,-1,-1,-1,-1,-1,-1,-1,-1,-1,-1,-1,-1,-1,-1],"split_conditions":[-1.5074623E-1,-3.161631E-1,3.928307E-1,-7.68952E-1,1.0480064E0,-6.77226E-2,1.1718563E0,7.962373E-1,-2.3839527E-1,1.6843218E-1,4.9729788E-1,3.5537085E-1,2.8604808E0,-1.2420586E0,5.866334E0,-4.931654E-2,2.2841783E-1,8.586353E-3,5.30459E-1,-3.0767775E-1,1.0524154E0,2.7242804E0,2.897235E0,-2.5633547E0,-1.0192393E0,2.3849168E0,2.1780723E-1,-4.2207843E-1,-2.7453342E-1,1.096884E0,6.9345856E-1,4.470789E-1,-5.293383E-1,4.3643013E-1,6.276349E-1,1.3061892E0,4.1970804E-1,2.6431515E0,1.198514E0,-3.267274E-1,1.9774722E-2,-1.7150219E-1,-2.0122285E0,-1.0933596E0,-3.2453176E-1,-1.6170226E0,-2.340996E0,-8.671326E-1,-5.0717616E-1,-3.162768E-1,-1.0032895E-1,-5.0918307E-2,1.5118289E-1,4.4218677E-1,-3.8909134E-1,-8.321985E-2,7.6940423E-1,5.8023024E-1,1.6041191E-1,1.0437018E0,-3.3598801E-1,6.9640017E-1,1.7326567E-1,8.94608E-2,-4.5218486E-3,1.3128266E-1,-1.077757E-1,6.427893E-1,1.2861016E-1,-2.5153604E-1,-3.8930662E-2,-7.8052476E-2,8.9471374E-4,-1.5381028E-1,9.543675E-2,-1.8271143E-2,6.4869964E-1,-2.9627857E-1,8.518791E-2,6.7319344E-3,-6.381767E-2,-1.4004211E-1,7.312507E-2,-4.0297765E-1,-1.8951356E-1,-9.224811E-2,1.0257945E-1],"split_indices":[0,1,16,18,0,16,7,11,0,18,3,7,7,9,11,8,18,16,0,0,0,7,7,0,7,9,0,6,7,0,0,0,0,0,1,0,0,7,0,0,0,0,0,7,0,0,0,7,0,9,7,0,0,0,0,0,0,1,7,9,0,0,0,0,0,0,0,0,0,0,0,0,0,0,0,0,0,0,0,0,0,0,0,0,0,0,0],"split_type":[0,0,0,0,0,0,0,0,0,0,0,0,0,0,0,0,0,0,0,0,0,0,0,0,0,0,0,0,0,0,0,0,0,0,0,0,0,0,0,0,0,0,0,0,0,0,0,0,0,0,0,0,0,0,0,0,0,0,0,0,0,0,0,0,0,0,0,0,0,0,0,0,0,0,0,0,0,0,0,0,0,0,0,0,0,0,0],"sum_hessian":[1.28E2,3.3E1,9.5E1,3.1E1,2E0,7.7E1,1.8E1,2.6E1,5E0,4.7E1,3E1,6E0,1.2E1,1.7E1,9E0,4.2E1,5E0,1E1,2E1,1E0,5E0,8E0,4E0,3E0,1.4E1,7E0,2E0,1.4E1,2.8E1,2E0,3E0,4E0,6E0,2E0,1.8E1,2E0,3E0,5E0,3E0,3E0,1E0,1E0,2E0,3E0,1.1E1,5E0,2E0,6E0,8E0,1.8E1,1E1,2E0,1E0,2E0,2E0,1E0,1E0,6E0,1.2E1,4E0,1E0,2E0,1E0,1E0,1E0,2E0,1E0,9E0,2E0,4E0,1E0,1E0,1E0,4E0,2E0,1.6E1,2E0,7E0,3E0,1E0,1E0,3E0,3E0,7E0,5E0,1E0,3E0],"tree_param":{"num_deleted":"0","num_feature":"20","num_nodes":"87","size_leaf_vector":"1"}},{"base_weights":[1.7353828E1,-2.1857426E1,1.3856902E2,1.0091747E1,-2.6887524E2,3.1485437E2,5.9811816E0,-1.11924164E2,5.409593E1,-5.660186E-1,6.9671206E-2,1.4895946E2,1.4058441E0,-1.3648572E2,4.625878E1,-6.116773E1,-1.8675742E2,2.594251E2,2.0826721E1,3.845537E2,-7.219568E1,-8.1358634E-2,-3.8099298E-1,1.7258139E2,-4.3096157E1,2.6612404E1,-1.5274963E2,-8.598154E-3,-3.9086452E-1,8.231461E-1,5.7733776E1,7.18495E1,-1.7124243E2,9.1797715E-1,2.6311362E-1,-3.9063072E-1,1.3824474E2,8.615397E-2,3.471774E-1,-1.2690722E2,9.339448E1,4.8519142E1,-1.1677323E-1,-2.0552934E2,1.510436E-1,1.810274E-1,-9.6075706E-2,2.922104E2,1.788666E1,1.2874092E1,-4.4576412E-1,3.7972398E-2,3.4416306E-1,-2.885397E-1,1.9756502E-2,-7.798055E-2,2.8146312E-1,1.1865212E-1,1.0871985E-2,-8.0615625E-2,-4.222524E-1,1.5571984E-2,1.0575039E0,-1.5619147E-1,2.5552052E-1,-8.0423236E-2,1.6808353E-1],"categories":[],"categories_nodes":[],"categories_segments":[],"categories_sizes":[],"default_left":[0,0,0,0,0,0,0,0,0,0,0,0,0,0,0,0,0,0,0,0,0,0,0,0,0,0,0,0,0,0,0,0,0,0,0,0,0,0,0,0,0,0,0,0,0,0,0,0,0,0,0,0,0,0,0,0,0,0,0,0,0,0,0,0,0,0,0],"id":5,"left_children":[1,3,5,7,9,11,13,15,17,-1,-1,19,-1,21,23,25,27,29,31,33,35,-1,-1,37,39,41,43,-1,-1,-1,45,47,49,-1,-1,-1,51,-1,-1,53,55,57,-1,59,-1,-1,-1,61,63,65,-1,-1,-1,-1,-1,-1,-1,-1,-1,-1,-1,-1,-1,-1,-1,-1,-1],"loss_changes":[5.4487075E5,6.8931875E5,6.5256894E5,4.2485303E5,1.2900044E5,7.782749E5,1.0386348E5,6.834009E4,3.908031E5,0E0,0E0,5.4879194E5,0E0,1.682289E4,1.6546328E5,1.1661205E5,3.59335E4,2.763577E5,5.1209875E5,6.619056E4,2.0579862E5,0E0,0E0,3.1325312E3,1.1480726E5,1.8843844E4,1.03563E5,0E0,0E0,0E0,2.7370898E4,4.8231662E5,1.4620631E5,0E0,0E0,0E0,1.327391E4,0E0,0E0,2.617907E4,3.8676934E4,4.354078E3,0E0,1.2891672E4,0E0,0E0,0E0,6.3451394E5,4.3323762E5,2.1689812E4,0E0,0E0,0E0,0E0,0E0,0E0,0E0,0E0,0E0,0E0,0E0,0E0,0E0,0E0,0E0,0E0,0E0],"parents":[2147483647,0,0,1,1,2,2,3,3,4,4,5,5,6,6,7,7,8,8,11,11,13,13,14,14,15,15,16,16,17,17,18,18,19,19,20,20,23,23,24,24,25,25,26,26,30,30,31,31,32,32,36,36,39,39,40,40,41,41,43,43,47,47,48,48,49,49],"right_children":[2,4,6,8,10,12,14,16,18,-1,-1,20,-1,22,24,26,28,30,32,34,36,-1,-1,38,40,42,44,-1,-1,-1,46,48,50,-1,-1,-1,52,-1,-1,54,56,58,-1,60,-1,-1,-1,62,64,66,-1,-1,-1,-1,-1,-1,-1,-1,-1,-1,-1,-1,-1,-1,-1,-1,-1],"split_conditions":[1.462931E-1,-4.2071264E-2,2.7293402E-1,-5.746199E-1,6.2595946E-1,2.436131E-1,4.690619E-1,-2.7950522E-1,-6.6300565E-1,-5.660186E-1,6.9671206E-2,1.5284966E-1,1.4058441E0,4.3643013E-1,1.7941755E0,-1.3831205E-2,-2.6409638E0,-3.2453176E-1,-2.782664E-1,6.7039025E-1,6.8448037E-1,-8.1358634E-2,-3.8099298E-1,-1.847049E0,-2.3152097E-1,-5.9675807E-1,4.9465993E-1,-8.598154E-3,-3.9086452E-1,8.231461E-1,-5.27675E-1,7.472167E-2,-8.201281E-1,9.1797715E-1,2.6311362E-1,-3.9063072E-1,7.254939E-1,8.615397E-2,3.471774E-1,2.897235E0,-2.340996E0,-7.125328E-1,-1.1677323E-1,4.419247E-2,1.510436E-1,1.810274E-1,-9.6075706E-2,-5.1024634E-1,3.2591006E-1,-8.392447E-1,-4.4576412E-1,3.7972398E-2,3.4416306E-1,-2.885397E-1,1.9756502E-2,-7.798055E-2,2.8146312E-1,1.1865212E-1,1.0871985E-2,-8.0615625E-2,-4.222524E-1,1.5571984E-2,1.0575039E0,-1.5619147E-1,2.5552052E-1,-8.0423236E-2,1.6808353E-1],"split_indices":[16,16,9,10,0,9,9,11,9,0,0,7,0,0,16,0,0,0,17,0,0,0,0,0,4,10,0,0,0,0,10,0,7,0,0,0,0,0,0,7,0,16,0,0,0,0,0,18,0,7,0,0,0,0,0,0,0,0,0,0,0,0,0,0,0,0,0],"split_type":[0,0,0,0,0,0,0,0,0,0,0,0,0,0,0,0,0,0,0,0,0,0,0,0,0,0,0,0,0,0,0,0,0,0,0,0,0,0,0,0,0,0,0,0,0,0,0,0,0,0,0,0,0,0,0,0,0,0,0,0,0,0,0,0,0,0,0],"sum_hessian":[1.13E2,8.6E1,2.7E1,7.7E1,9E0,1.1E1,1.6E1,2E1,5.7E1,8E0,1E0,9E0,2E0,3E0,1.3E1,1.3E1,7E0,7E0,5E1,4E0,5E0,2E0,1E0,5E0,8E0,7E0,6E0,1E0,6E0,3E0,4E0,4E1,1E1,2E0,2E0,3E0,2E0,1E0,4E0,5E0,3E0,6E0,1E0,5E0,1E0,3E0,1E0,7E0,3.3E1,3E0,7E0,1E0,1E0,4E0,1E0,1E0,2E0,4E0,2E0,1E0,4E0,4E0,3E0,1.8E1,1.5E1,2E0,1E0],"tree_param":{"num_deleted":"0","num_feature":"20","num_nodes":"67","size_leaf_vector":"1"}},{"base_weights":[-8.149135E0,5.7668036E-1,-1.6454447E1,-1.6550401E2,9.30613E0,-1.8190329E2,8.926906E-2,1.3032451E2,-3.115741E1,-4.7914382E-2,-3.5116965E-1,3.075211E2,2.8848402E1,-1.350648E2,5.830396E1,5.0150253E2,5.203544E1,-1.2277174E2,8.494473E1,-6.450991E1,-2.2483733E2,9.168493E-1,2.302226E1,2.2186677E-1,1.3184122E0,-1.7787938E-1,5.954856E-1,-2.657717E-1,-3.4065172E-2,3.6664432E2,3.9532748E-1,-1.1436983E2,2.7277286E2,-1.4332422E2,-5.4826945E-1,1.18177536E2,-5.587852E1,1.9595037E-1,8.1752616E-1,1.7641164E-1,-1.2486351E-1,1.2230196E-1,-3.0773047E-1,6.509063E-1,1.0309122E-1,-3.886493E-1,-1.1290281E-2,-8.082633E-2,8.284554E-1,-1.8234284E-1,2.0335406E-1],"categories":[],"categories_nodes":[],"categories_segments":[],"categories_sizes":[],"default_left":[0,0,0,0,0,0,0,0,0,0,0,0,0,0,0,0,0,0,0,0,0,0,0,0,0,0,0,0,0,0,0,0,0,0,0,0,0,0,0,0,0,0,0,0,0,0,0,0,0,0,0],"id":6,"left_children":[1,-1,3,5,7,9,-1,11,13,-1,-1,15,17,19,21,23,25,27,29,31,33,-1,35,-1,-1,-1,-1,-1,-1,37,39,41,43,45,-1,47,49,-1,-1,-1,-1,-1,-1,-1,-1,-1,-1,-1,-1,-1,-1],"loss_changes":[3.1715606E5,0E0,4.4309453E5,6.845734E4,4.888469E5,1.664725E4,0E0,4.4065903E5,7.050521E5,0E0,0E0,4.1993925E5,1.5501947E5,2.0718194E5,6.2390994E5,3.2152888E5,2.3257314E5,8.518742E3,3.0948294E5,3.8435172E5,4.6227375E4,0E0,2.9940875E5,0E0,0E0,0E0,0E0,0E0,0E0,1.2950406E4,7.795745E4,1.9178438E5,3.256786E4,8.2151234E4,0E0,9.8626925E5,1.684296E5,0E0,0E0,0E0,0E0,0E0,0E0,0E0,0E0,0E0,0E0,0E0,0E0,0E0,0E0],"parents":[2147483647,0,0,2,2,3,3,4,4,5,5,7,7,8,8,11,11,12,12,13,13,14,14,15,15,16,16,17,17,18,18,19,19,20,20,22,22,29,29,30,30,31,31,32,32,33,33,35,35,36,36],"right_children":[2,-1,4,6,8,10,-1,12,14,-1,-1,16,18,20,22,24,26,28,30,32,34,-1,36,-1,-1,-1,-1,-1,-1,38,40,42,44,46,-1,48,50,-1,-1,-1,-1,-1,-1,-1,-1,-1,-1,-1,-1,-1,-1],"split_conditions":[-2.503687E0,5.7668036E-1,-5.320683E-1,1.7548511E0,-3.5906494E-1,-1.0280852E0,8.926906E-2,1.8657243E-2,1.462931E-1,-4.7914382E-2,-3.5116965E-1,-2.7950522E-1,2.838467E-1,-1.2495749E-1,2.2013243E-1,-5.969751E-1,2.7411046E-2,-2.8288642E-1,3.3698228E-1,-1.4475259E-1,-1.6240877E-1,9.168493E-1,5.1833546E-1,2.2186677E-1,1.3184122E0,-1.7787938E-1,5.954856E-1,-2.657717E-1,-3.4065172E-2,2.9331335E-1,4.6273607E-1,-8.906453E-1,3.4697983E-1,-1.1930571E-1,-5.4826945E-1,3.5537085E-1,-3.0079332E-1,1.9595037E-1,8.1752616E-1,1.7641164E-1,-1.2486351E-1,1.2230196E-1,-3.0773047E-1,6.509063E-1,1.0309122E-1,-3.886493E-1,-1.1290281E-2,-8.082633E-2,8.284554E-1,-1.8234284E-1,2.0335406E-1],"split_indices":[0,0,10,7,10,7,0,0,16,0,0,11,0,7,16,16,7,17,0,7,10,0,9,0,0,0,0,0,0,0,0,18,0,9,0,7,13,0,0,0,0,0,0,0,0,0,0,0,0,0,0],"split_type":[0,0,0,0,0,0,0,0,0,0,0,0,0,0,0,0,0,0,0,0,0,0,0,0,0,0,0,0,0,0,0,0,0,0,0,0,0,0,0,0,0,0,0,0,0,0,0,0,0,0,0],"sum_hessian":[1.16E2,2E0,1.14E2,1.6E1,9.8E1,1.5E1,1E0,2.4E1,7.4E1,1E0,1.4E1,8E0,1.6E1,3.4E1,4E1,4E0,4E0,4E0,1.2E1,2E1,1.4E1,2E0,3.8E1,2E0,2E0,3E0,1E0,3E0,1E0,2E0,1E1,1.8E1,2E0,8E0,6E0,1.7E1,2.1E1,1E0,1E0,4E0,6E0,4E0,1.4E1,1E0,1E0,5E0,3E0,1.2E1,5E0,1.7E1,4E0],"tree_param":{"num_deleted":"0","num_feature":"20","num_nodes":"51","size_leaf_vector":"1"}},{"base_weights":[-6.1469975E1,-8.606051E1,1.18567406E2,-4.4232483E1,-1.6247734E2,2.2932057E2,-1.2665239E2,-7.02317E1,1.8493684E2,-1.9782375E2,9.576098E-1,3.0936865E2,-1.11638814E-1,-4.1936433E-1,1.6482138E1,-9.291111E0,-1.3505469E2,8.167729E-1,6.801813E1,-1.1071038E2,-2.2475613E2,8.6474043E-1,3.216942E1,-2.0485904E-2,6.604575E-2,-8.564015E1,4.080032E1,-6.895239E1,-5.0545585E-1,1.823761E0,2.462061E-1,-3.7645978E-1,-4.142217E1,-4.3305066E-1,1.935893E-2,1.405856E-1,-9.231497E-2,-1.09546E2,3.056135E1,2.2697762E2,-3.6390617E1,-1.11601776E2,5.6271366E1,1.6525758E-2,-3.5468242E0,1.954657E1,-1.696025E-1,-2.7337748E-1,-8.390412E-3,8.918681E-2,-4.709261E-3,6.5397274E-1,-3.5416294E-2,1.8244319E-1,-2.536678E-1,-2.534775E-1,2.5580606E-1,1.6621362E-1,-1.0444393E-1,1.2594434E-3,-1.1063559E-2,-1.0067758E-1,1.15145534E-1],"categories":[],"categories_nodes":[],"categories_segments":[],"categories_sizes":[],"default_left":[0,0,0,0,0,0,0,0,0,0,0,0,0,0,0,0,0,0,0,0,0,0,0,0,0,0,0,0,0,0,0,0,0,0,0,0,0,0,0,0,0,0,0,0,0,0,0,0,0,0,0,0,0,0,0,0,0,0,0,0,0,0,0],"id":7,"left_children":[1,3,5,7,9,11,13,15,17,19,-1,21,-1,-1,23,25,27,-1,29,31,33,-1,35,-1,-1,37,39,41,-1,43,-1,-1,45,-1,-1,-1,-1,47,49,51,53,55,57,-1,59,61,-1,-1,-1,-1,-1,-1,-1,-1,-1,-1,-1,-1,-1,-1,-1,-1,-1],"loss_changes":[5.1047925E5,3.124498E5,4.092681E5,4.0623106E5,9.466755E5,2.5080275E5,7.597442E4,2.3576625E5,1.8124336E5,5.4887E4,0E0,3.394658E5,0E0,0E0,2.0011858E3,1.25875984E5,2.479915E5,0E0,2.5805057E4,5.637567E4,6.269725E4,0E0,1.8339686E4,0E0,0E0,3.9460508E4,2.9568388E5,1.18435016E5,0E0,1.8527684E2,0E0,0E0,2.3399734E4,0E0,0E0,0E0,0E0,4.4139234E4,1.8957129E3,1.9575572E5,2.192844E5,1.2306117E5,2.8102664E4,0E0,3.5282585E1,1.6154055E4,0E0,0E0,0E0,0E0,0E0,0E0,0E0,0E0,0E0,0E0,0E0,0E0,0E0,0E0,0E0,0E0,0E0],"parents":[2147483647,0,0,1,1,2,2,3,3,4,4,5,5,6,6,7,7,8,8,9,9,11,11,14,14,15,15,16,16,18,18,19,19,20,20,22,22,25,25,26,26,27,27,29,29,32,32,37,37,38,38,39,39,40,40,41,41,42,42,44,44,45,45],"right_children":[2,4,6,8,10,12,14,16,18,20,-1,22,-1,-1,24,26,28,-1,30,32,34,-1,36,-1,-1,38,40,42,-1,44,-1,-1,46,-1,-1,-1,-1,48,50,52,54,56,58,-1,60,62,-1,-1,-1,-1,-1,-1,-1,-1,-1,-1,-1,-1,-1,-1,-1,-1,-1],"split_conditions":[9.527301E-1,1.7289792E-1,2.3804023E0,3.2840425E-1,-2.8305224E-1,2.8604808E0,1.4909092E0,-6.477469E-1,3.3698228E-1,-7.836003E-2,9.576098E-1,1.198514E0,-1.11638814E-1,-4.1936433E-1,1.5699922E0,-5.746199E-1,-2.816379E-1,8.167729E-1,3.6047885E-1,3.784784E-1,2.897235E0,8.6474043E-1,1.2827169E0,-2.0485904E-2,6.604575E-2,1.1047038E0,-6.6300565E-1,-1.2641078E-1,-5.0545585E-1,3.384836E-1,2.462061E-1,-3.7645978E-1,-1.4298178E-1,-4.3305066E-1,1.935893E-2,1.405856E-1,-9.231497E-2,-6.696277E-2,-2.0122285E0,-5.1005805E-1,-1.1384585E0,-2.8236976E-1,2.4127088E-1,1.6525758E-2,3.437013E-1,4.551862E-1,-1.696025E-1,-2.7337748E-1,-8.390412E-3,8.918681E-2,-4.709261E-3,6.5397274E-1,-3.5416294E-2,1.8244319E-1,-2.536678E-1,-2.534775E-1,2.5580606E-1,1.6621362E-1,-1.0444393E-1,1.2594434E-3,-1.1063559E-2,-1.0067758E-1,1.15145534E-1],"split_indices":[0,3,18,0,17,7,0,18,0,7,0,0,0,0,0,10,17,0,0,1,7,0,0,0,0,7,9,7,0,0,0,0,7,0,0,0,0,0,0,10,18,17,0,0,0,0,0,0,0,0,0,0,0,0,0,0,0,0,0,0,0,0,0],"split_type":[0,0,0,0,0,0,0,0,0,0,0,0,0,0,0,0,0,0,0,0,0,0,0,0,0,0,0,0,0,0,0,0,0,0,0,0,0,0,0,0,0,0,0,0,0,0,0,0,0,0,0,0,0,0,0,0,0,0,0,0,0,0,0],"sum_hessian":[1.12E2,9.9E1,1.3E1,6.5E1,3.4E1,9E0,4E0,5.9E1,6E0,3.3E1,1E0,7E0,2E0,2E0,2E0,3.1E1,2.8E1,1E0,5E0,9E0,2.4E1,4E0,3E0,1E0,1E0,1.2E1,1.9E1,2E1,8E0,3E0,2E0,3E0,6E0,2.3E1,1E0,2E0,1E0,1E1,2E0,5E0,1.4E1,1.5E1,5E0,1E0,2E0,3E0,3E0,7E0,3E0,1E0,1E0,3E0,2E0,6E0,8E0,1.4E1,1E0,4E0,1E0,1E0,1E0,1E0,2E0],"tree_param":{"num_deleted":"0","num_feature":"20","num_nodes":"63","size_leaf_vector":"1"}},{"base_weights":[-1.1252577E1,-5.889806E1,1.3386528E2,5.54162E0,-1.5003471E2,3.601496E2,1.9632427E1,-5.8607407E1,1.2974022E2,-1.1386933E2,-2.3784195E2,1.9146215E1,1.4403621E0,9.2799995E1,-3.7555605E-1,2.0487164E2,-1.02013885E2,5.53376E2,3.6363716E1,-1.7652734E2,-3.7632282E1,-5.3636605E-1,-9.855318E1,2.8006774E-1,-3.0285847E-1,-2.798345E1,2.7863907E2,2.902651E1,5.7573813E-1,-1.18043144E2,7.625407E1,1.2146164E0,3.150231E-1,-8.0247116E1,6.949285E-1,-1.9869617E2,1.0289014E-1,7.943505E1,-8.0695984E1,-2.590805E-1,2.5393713E-2,2.9829987E1,-3.1848103E-1,2.4921018E-1,6.9467026E-1,-8.869698E-3,8.9104645E-2,-1.2836559E2,1.3852328E-1,4.2731486E-2,1.6804968E-1,-7.6588135E0,-4.1188174E-1,-8.222412E1,-4.1539478E-1,1.6540015E-2,1.8415023E-1,-6.6434426E0,-2.8272164E-1,6.0158443E1,-4.0770252E1,-1.7306694E-1,-3.3723772E-1,6.253152E-2,-3.1363747E-1,-2.8346726E-1,1.22156166E-1,-8.986861E-2,4.9037687E-2,-8.064505E-3,1.7233808E-1,-9.222992E-2,-2.0467037E-2],"categories":[],"categories_nodes":[],"categories_segments":[],"categories_sizes":[],"default_left":[0,0,0,0,0,0,0,0,0,0,0,0,0,0,0,0,0,0,0,0,0,0,0,0,0,0,0,0,0,0,0,0,0,0,0,0,0,0,0,0,0,0,0,0,0,0,0,0,0,0,0,0,0,0,0,0,0,0,0,0,0,0,0,0,0,0,0,0,0,0,0,0,0],"id":8,"left_children":[1,3,5,7,9,11,13,15,17,19,21,23,-1,25,-1,27,29,31,33,35,37,-1,39,-1,-1,41,43,45,-1,47,49,-1,-1,51,-1,53,-1,55,57,-1,-1,59,-1,-1,-1,-1,-1,61,-1,-1,-1,63,-1,65,-1,-1,-1,67,-1,69,71,-1,-1,-1,-1,-1,-1,-1,-1,-1,-1,-1,-1],"loss_changes":[7.546191E5,4.8240234E5,6.9085525E5,3.9799747E5,8.088694E4,1.2785321E6,3.2951997E5,3.9831075E5,6.523569E5,1.1755528E5,3.8030156E4,1.7122181E5,0E0,3.4449153E5,0E0,8.549611E4,9.1868875E4,8.638625E3,6.2627394E5,8.321031E4,7.194768E4,0E0,2.0826258E4,0E0,0E0,8.889312E4,3.362353E4,2.194731E3,0E0,6.3498938E4,2.6357812E2,0E0,0E0,1.2307785E5,0E0,2.1922E4,0E0,4.8792676E3,5.283462E4,0E0,0E0,1.9582244E4,0E0,0E0,0E0,0E0,0E0,3.1752375E4,0E0,0E0,0E0,6.661729E4,0E0,5.2730992E4,0E0,0E0,0E0,9.702465E3,0E0,1.3327064E4,2.6984814E2,0E0,0E0,0E0,0E0,0E0,0E0,0E0,0E0,0E0,0E0,0E0,0E0],"parents":[2147483647,0,0,1,1,2,2,3,3,4,4,5,5,6,6,7,7,8,8,9,9,10,10,11,11,13,13,15,15,16,16,17,17,18,18,19,19,20,20,22,22,25,25,26,26,27,27,29,29,30,30,33,33,35,35,37,37,38,38,41,41,47,47,51,51,53,53,57,57,59,59,60,60],"right_children":[2,4,6,8,10,12,14,16,18,20,22,24,-1,26,-1,28,30,32,34,36,38,-1,40,-1,-1,42,44,46,-1,48,50,-1,-1,52,-1,54,-1,56,58,-1,-1,60,-1,-1,-1,-1,-1,62,-1,-1,-1,64,-1,66,-1,-1,-1,68,-1,70,72,-1,-1,-1,-1,-1,-1,-1,-1,-1,-1,-1,-1],"split_conditions":[2.6952028E-1,-3.0666637E-1,2.7293402E-1,-4.8145524E-1,1.2741375E-1,1.7286979E-1,2.8604808E0,-2.3525074E0,-4.5577383E-1,-1.18935004E-1,-2.7272327E-2,8.4310526E-1,1.4403621E0,2.2465672E0,-3.7555605E-1,-2.4736795E0,1.4011074E0,1.8657243E-2,-3.097E-1,5.050649E-1,2.4127088E-1,-5.3636605E-1,4.3643013E-1,2.8006774E-1,-3.0285847E-1,2.1036804E0,2.8237321E0,-2.6409638E0,5.7573813E-1,3.1031385E-1,-9.9788475E-1,1.2146164E0,3.150231E-1,-2.8305224E-1,6.949285E-1,-2.531355E-1,1.0289014E-1,8.682444E-2,-1.1680279E-1,-2.590805E-1,2.5393713E-2,7.479455E-1,-3.1848103E-1,2.4921018E-1,6.9467026E-1,-8.869698E-3,8.9104645E-2,-1.8122667E-1,1.3852328E-1,4.2731486E-2,1.6804968E-1,6.9345856E-1,-4.1188174E-1,-1.8643926E-1,-4.1539478E-1,1.6540015E-2,1.8415023E-1,-3.8460445E-2,-2.8272164E-1,3.298788E-1,1.394926E0,-1.7306694E-1,-3.3723772E-1,6.253152E-2,-3.1363747E-1,-2.8346726E-1,1.22156166E-1,-8.986861E-2,4.9037687E-2,-8.064505E-3,1.7233808E-1,-9.222992E-2,-2.0467037E-2],"split_indices":[16,9,9,9,7,9,7,1,9,9,10,6,0,9,0,1,17,0,10,0,0,0,0,0,0,9,7,0,0,0,0,0,0,17,0,16,0,0,10,0,0,0,0,0,0,0,0,1,0,0,0,0,0,7,0,0,0,7,0,9,0,0,0,0,0,0,0,0,0,0,0,0,0],"split_type":[0,0,0,0,0,0,0,0,0,0,0,0,0,0,0,0,0,0,0,0,0,0,0,0,0,0,0,0,0,0,0,0,0,0,0,0,0,0,0,0,0,0,0,0,0,0,0,0,0,0,0,0,0,0,0,0,0,0,0,0,0,0,0,0,0,0,0,0,0,0,0,0,0],"sum_hessian":[1.07E2,8.1E1,2.6E1,4.8E1,3.3E1,8E0,1.8E1,3.2E1,1.6E1,2.5E1,8E0,5E0,3E0,1.4E1,4E0,4E0,2.8E1,2E0,1.4E1,1.3E1,1.2E1,5E0,3E0,3E0,2E0,9E0,5E0,2E0,2E0,2.6E1,2E0,1E0,1E0,1.1E1,3E0,1.2E1,1E0,3E0,9E0,2E0,1E0,7E0,2E0,3E0,2E0,1E0,1E0,2.5E1,1E0,1E0,1E0,8E0,3E0,3E0,9E0,1E0,2E0,5E0,4E0,5E0,2E0,1.7E1,8E0,7E0,1E0,2E0,1E0,2E0,3E0,2E0,3E0,1E0,1E0],"tree_param":{"num_deleted":"0","num_feature":"20","num_nodes":"73","size_leaf_vector":"1"}},{"base_weights":[4.527221E0,9.4136665E1,-4.087186E1,4.0791683E1,1.4263695E0,-2.4943047E2,-2.1381186E1,5.750308E-1,1.8303686E1,-8.032999E-2,-5.094814E-1,8.984939E1,-6.1985764E1,5.5631107E1,-1.2862802E2,-6.3751434E1,2.3528209E2,-1.3296985E2,1.1135769E1,3.4301826E1,6.408414E-1,-3.4420615E-1,3.0561178E1,1.3839564E-1,-8.514675E1,3.301672E2,-1.3308685E1,-2.627694E1,-1.8774103E2,1.7184589E2,-8.249303E1,7.755587E1,-3.7042225E1,8.902254E-2,-4.5454684E-3,-5.0080466E0,-1.0455542E2,9.224644E1,4.544704E2,2.5335592E1,-1.1908294E-1,-7.768408E1,2.5191677E-1,-2.1173439E2,1.0801768E1,6.122044E1,1.1776397E0,-1.9508437E2,3.8347626E1,-2.0446537E-2,3.2670963E-1,8.5079364E-2,-2.3578186E-1,1.9646276E-2,-3.3489496E-2,-2.1714967E-1,-1.0673831E-2,-7.735496E-3,2.3181227E-1,9.317336E-1,2.3027456E-1,4.741682E-4,6.955836E-2,-2.724615E-1,8.6591244E-2,-2.6464754E-1,-5.317138E-1,2.2596885E-1,-1.9611065E-1,3.1543255E-1,-4.650973E-1,3.4528393E-2,-4.6232426E-1,1.8847628E-1,-2.6704708E-1],"categories":[],"categories_nodes":[],"categories_segments":[],"categories_sizes":[],"default_left":[0,0,0,0,0,0,0,0,0,0,0,0,0,0,0,0,0,0,0,0,0,0,0,0,0,0,0,0,0,0,0,0,0,0,0,0,0,0,0,0,0,0,0,0,0,0,0,0,0,0,0,0,0,0,0,0,0,0,0,0,0,0,0,0,0,0,0,0,0,0,0,0,0,0,0],"id":9,"left_children":[1,3,5,7,-1,9,11,-1,13,-1,-1,15,17,19,21,23,25,27,29,31,-1,-1,33,-1,35,37,39,41,43,45,47,49,51,-1,-1,53,55,57,59,61,-1,63,-1,65,67,69,-1,71,73,-1,-1,-1,-1,-1,-1,-1,-1,-1,-1,-1,-1,-1,-1,-1,-1,-1,-1,-1,-1,-1,-1,-1,-1,-1,-1],"loss_changes":[5.0830266E5,1.4917071E6,3.320576E5,2.3828386E5,0E0,2.6911281E4,3.5333762E5,0E0,2.1556981E5,0E0,0E0,4.8410975E5,2.9733725E5,1.8122577E5,7.977156E4,3.907327E4,2.6385738E5,1.645339E5,4.505418E5,9.545041E4,0E0,0E0,1.8776111E3,0E0,1.5030242E4,1.9467112E5,9.568877E3,1.0278163E5,9.2797625E4,5.294086E5,2.6598766E5,1.6995675E5,9.667913E4,0E0,0E0,8.1260675E2,9.8113125E3,1.3469793E4,2.1072188E4,9.2398865E2,0E0,8.568006E4,0E0,4.7505812E4,5.237312E4,3.8801238E5,0E0,1.2400759E5,1.3197994E5,0E0,0E0,0E0,0E0,0E0,0E0,0E0,0E0,0E0,0E0,0E0,0E0,0E0,0E0,0E0,0E0,0E0,0E0,0E0,0E0,0E0,0E0,0E0,0E0,0E0,0E0],"parents":[2147483647,0,0,1,1,2,2,3,3,5,5,6,6,8,8,11,11,12,12,13,13,14,14,15,15,16,16,17,17,18,18,19,19,22,22,24,24,25,25,26,26,27,27,28,28,29,29,30,30,31,31,32,32,35,35,36,36,37,37,38,38,39,39,41,41,43,43,44,44,45,45,47,47,48,48],"right_children":[2,4,6,8,-1,10,12,-1,14,-1,-1,16,18,20,22,24,26,28,30,32,-1,-1,34,-1,36,38,40,42,44,46,48,50,52,-1,-1,54,56,58,60,62,-1,64,-1,66,68,70,-1,72,74,-1,-1,-1,-1,-1,-1,-1,-1,-1,-1,-1,-1,-1,-1,-1,-1,-1,-1,-1,-1,-1,-1,-1,-1,-1,-1],"split_conditions":[1.8657243E-2,-2.9193223E-1,-4.931654E-2,-2.503687E0,1.4263695E0,4.419247E-2,-3.5906494E-1,5.750308E-1,-3.9894894E-1,-8.032999E-2,-5.094814E-1,-4.1064444E-1,5.8964144E-2,-5.1114786E-1,1.7548511E0,-8.741616E-1,5.128257E-1,-2.030123E-1,-1.6173963E-2,-8.4057814E-1,6.408414E-1,-3.4420615E-1,-2.0122285E0,1.3839564E-1,1.8485038E-1,3.323781E-1,6.7802197E-1,-2.8305224E-1,8.40303E-1,-3.879269E-2,9.442684E-1,-1.0175756E0,-2.8305224E-1,8.902254E-2,-4.5454684E-3,1.8105939E-1,-2.8305224E-1,2.8066123E-1,-3.6257964E-1,5.7140434E-1,-1.1908294E-1,9.264567E-2,2.5191677E-1,6.2361354E-4,9.383521E-1,-5.6139346E-2,1.1776397E0,2.3319565E-2,1.8079056E0,-2.0446537E-2,3.2670963E-1,8.5079364E-2,-2.3578186E-1,1.9646276E-2,-3.3489496E-2,-2.1714967E-1,-1.0673831E-2,-7.735496E-3,2.3181227E-1,9.317336E-1,2.3027456E-1,4.741682E-4,6.955836E-2,-2.724615E-1,8.6591244E-2,-2.6464754E-1,-5.317138E-1,2.2596885E-1,-1.9611065E-1,3.1543255E-1,-4.650973E-1,3.4528393E-2,-4.6232426E-1,1.8847628E-1,-2.6704708E-1],"split_indices":[0,2,8,0,0,0,10,0,7,0,0,9,9,7,7,7,0,16,10,18,0,0,0,0,0,0,0,17,0,10,0,7,17,0,0,0,17,0,10,0,0,6,0,7,0,10,0,10,16,0,0,0,0,0,0,0,0,0,0,0,0,0,0,0,0,0,0,0,0,0,0,0,0,0,0],"split_type":[0,0,0,0,0,0,0,0,0,0,0,0,0,0,0,0,0,0,0,0,0,0,0,0,0,0,0,0,0,0,0,0,0,0,0,0,0,0,0,0,0,0,0,0,0,0,0,0,0,0,0,0,0,0,0,0,0,0,0,0,0,0,0,0,0,0,0,0,0,0,0,0,0,0,0],"sum_hessian":[1.23E2,4.1E1,8.2E1,3.9E1,2E0,6E0,7.6E1,2E0,3.7E1,1E0,5E0,2E1,5.6E1,3E1,7E0,1E1,1E1,2.8E1,2.8E1,2.9E1,1E0,5E0,2E0,1E0,9E0,7E0,3E0,1E1,1.8E1,1E1,1.8E1,1.8E1,1.1E1,1E0,1E0,2E0,7E0,3E0,4E0,2E0,1E0,8E0,2E0,1.6E1,2E0,9E0,1E0,9E0,9E0,1E1,8E0,6E0,5E0,1E0,1E0,6E0,1E0,1E0,2E0,3E0,1E0,1E0,1E0,5E0,3E0,1E1,6E0,1E0,1E0,7E0,2E0,2E0,7E0,7E0,2E0],"tree_param":{"num_deleted":"0","num_feature":"20","num_nodes":"75","size_leaf_vector":"1"}},{"base_weights":[-2.3923061E1,5.494644E1,-4.7017883E1,1.7903383E1,6.81869E-1,-1.3033406E2,1.3376789E0,-1.0361541E1,2.4747661E2,-8.567128E1,-2.2405211E2,4.1178192E2,-4.1145134E1,-8.64278E1,4.6111156E1,8.8940516E-2,5.9513324E-1,-5.0726532E1,-4.8868352E-1,-2.0913562E-1,-4.9943286E-1,1.5155905E-1,8.4997296E-1,-6.095838E1,3.424172E2,3.2280457E1,-1.9073143E2,1.1252152E2,-7.225799E1,-7.948783E1,6.8711716E1,-1.0345163E2,3.44969E1,-1.066399E-2,9.571721E-1,1.16236946E2,-1.6662881E-1,-4.3043184E-1,-1.2904951E-1,1.8021283E2,-3.406864E1,-1.0528551E2,8.5579164E-2,-4.6862724E1,-4.3834147E-1,-4.057104E-2,2.516073E-1,-1.3649389E1,-1.5900931E2,1.1765547E0,-3.8586975E1,-9.391359E-3,2.9186237E-1,-5.2271105E-2,4.962966E-1,-1.9543798E-1,1.6759378E-1,-2.2312216E-1,-3.8805224E-2,-1.1614402E-1,9.13553E-2,-2.8780186E-1,3.2925483E-2,-5.089575E-1,-1.5324423E-1,1.5658095E-1,-3.468306E-1],"categories":[],"categories_nodes":[],"categories_segments":[],"categories_sizes":[],"default_left":[0,0,0,0,0,0,0,0,0,0,0,0,0,0,0,0,0,0,0,0,0,0,0,0,0,0,0,0,0,0,0,0,0,0,0,0,0,0,0,0,0,0,0,0,0,0,0,0,0,0,0,0,0,0,0,0,0,0,0,0,0,0,0,0,0,0,0],"id":10,"left_children":[1,3,5,7,-1,9,11,13,15,17,19,21,23,25,27,-1,-1,29,-1,-1,-1,-1,-1,31,33,35,37,39,41,43,45,47,49,-1,-1,51,-1,-1,-1,53,55,57,-1,59,-1,-1,-1,61,63,-1,65,-1,-1,-1,-1,-1,-1,-1,-1,-1,-1,-1,-1,-1,-1,-1,-1],"loss_changes":[2.3208956E5,3.3184112E5,3.9499684E5,1.777637E5,0E0,1.3149062E5,1.1154628E6,1.1137696E5,2.9519547E4,1.4964836E5,2.6363812E4,5.9856938E4,4.616509E5,1.4235562E5,1.2604466E5,0E0,0E0,8.447132E4,0E0,0E0,0E0,0E0,0E0,2.3071623E5,1.8789738E5,7.232019E4,1.4671016E4,1.0536839E5,2.8411209E4,8.702878E4,3.3773473E4,1.9240853E5,8.1915744E5,0E0,0E0,2.1260602E4,0E0,0E0,0E0,1.3773539E5,4.5642453E4,4.1011875E3,0E0,2.9622902E4,0E0,0E0,0E0,7.4661836E4,1.9034612E5,0E0,3.302658E5,0E0,0E0,0E0,0E0,0E0,0E0,0E0,0E0,0E0,0E0,0E0,0E0,0E0,0E0,0E0,0E0],"parents":[2147483647,0,0,1,1,2,2,3,3,5,5,6,6,7,7,8,8,9,9,10,10,11,11,12,12,13,13,14,14,17,17,23,23,24,24,25,25,26,26,27,27,28,28,29,29,30,30,31,31,32,32,35,35,39,39,40,40,41,41,43,43,47,47,48,48,50,50],"right_children":[2,4,6,8,-1,10,12,14,16,18,20,22,24,26,28,-1,-1,30,-1,-1,-1,-1,-1,32,34,36,38,40,42,44,46,48,50,-1,-1,52,-1,-1,-1,54,56,58,-1,60,-1,-1,-1,62,64,-1,66,-1,-1,-1,-1,-1,-1,-1,-1,-1,-1,-1,-1,-1,-1,-1,-1],"split_conditions":[-8.120313E-1,-8.5614E-1,3.246293E-1,1.7548511E0,6.81869E-1,-2.816379E-1,3.5509592E-1,-7.218307E-1,-2.0122285E0,2.0687877E-1,-7.126581E-1,3.323781E-1,-2.8305224E-1,-2.8239992E-1,2.9565942E0,8.8940516E-2,5.9513324E-1,-2.8288642E-1,-4.8868352E-1,-2.0913562E-1,-4.9943286E-1,1.5155905E-1,8.4997296E-1,3.928307E-1,3.6047885E-1,-9.5281124E-2,-6.6410136E-1,-1.138377E0,-3.0079332E-1,-2.8305224E-1,-4.8511624E-1,-4.2071264E-2,3.9915034E-1,-1.066399E-2,9.571721E-1,-2.6409638E0,-1.6662881E-1,-4.3043184E-1,-1.2904951E-1,-1.6515696E0,-8.130053E-1,-1.6170226E0,8.5579164E-2,-1.2641078E-1,-4.3834147E-1,-4.057104E-2,2.516073E-1,1.6467029E-1,5.130157E-1,1.1765547E0,2.8237321E0,-9.391359E-3,2.9186237E-1,-5.2271105E-2,4.962966E-1,-1.9543798E-1,1.6759378E-1,-2.2312216E-1,-3.8805224E-2,-1.1614402E-1,9.13553E-2,-2.8780186E-1,3.2925483E-2,-5.089575E-1,-1.5324423E-1,1.5658095E-1,-3.468306E-1],"split_indices":[18,18,0,7,0,17,0,9,0,1,18,0,17,17,17,0,0,17,0,0,0,0,0,16,0,7,0,6,13,17,7,16,16,0,0,0,0,0,0,3,0,0,0,7,0,0,0,6,6,0,7,0,0,0,0,0,0,0,0,0,0,0,0,0,0,0,0],"split_type":[0,0,0,0,0,0,0,0,0,0,0,0,0,0,0,0,0,0,0,0,0,0,0,0,0,0,0,0,0,0,0,0,0,0,0,0,0,0,0,0,0,0,0,0,0,0,0,0,0,0,0,0,0,0,0,0,0,0,0,0,0,0,0,0,0,0,0],"sum_hessian":[1.25E2,2.8E1,9.7E1,2.6E1,2E0,3.5E1,6.2E1,2.4E1,2E0,2.5E1,1E1,5E0,5.7E1,1E1,1.4E1,1E0,1E0,2.2E1,3E0,4E0,6E0,1E0,4E0,5.5E1,2E0,5E0,5E0,9E0,5E0,1.8E1,4E0,3.8E1,1.7E1,1E0,1E0,3E0,2E0,3E0,2E0,6E0,3E0,4E0,1E0,1.6E1,2E0,2E0,2E0,1.5E1,2.3E1,1E0,1.6E1,1E0,2E0,2E0,4E0,2E0,1E0,3E0,1E0,1.4E1,2E0,2E0,1.3E1,8E0,1.5E1,9E0,7E0],"tree_param":{"num_deleted":"0","num_feature":"20","num_nodes":"67","size_leaf_vector":"1"}},{"base_weights":[-1.1953918E1,-3.152218E1,1.9862189E2,4.9185516E1,-1.14680695E2,3.809433E2,-5.9888176E1,3.0179173E1,9.9099E-1,-1.3619627E2,9.25203E-1,8.854099E-1,-1.0752126E-1,-1.2174357E2,1.7279299E-1,1.1366094E2,-3.5425396E1,-1.5610435E2,2.4100398E2,-2.852875E-1,-2.076611E-2,-3.149737E1,2.8807507E2,4.7578285E1,-1.5401344E2,-1.9646268E2,-1.0018534E2,5.7732356E-1,8.885858E-2,-5.6746174E1,1.4741819E-1,1.351074E0,1.0770346E2,-2.3186388E1,3.187424E2,-2.1094943E2,-2.0725971E1,-1.4874432E2,-5.866886E-1,5.794565E1,-2.0597995E2,-1.51563985E-2,-1.3269274E-1,7.157359E-1,4.4351097E-2,1.05355665E-1,-2.4817164E-1,6.8103135E-1,1.5320815E-1,-9.989998E-2,-5.165055E-1,2.5536758E-1,-1.7542599E-1,-3.080466E-1,-4.4359457E-2,-1.0028771E-1,6.233741E-1,-4.9613705E-1,-2.5969857E-1],"categories":[],"categories_nodes":[],"categories_segments":[],"categories_sizes":[],"default_left":[0,0,0,0,0,0,0,0,0,0,0,0,0,0,0,0,0,0,0,0,0,0,0,0,0,0,0,0,0,0,0,0,0,0,0,0,0,0,0,0,0,0,0,0,0,0,0,0,0,0,0,0,0,0,0,0,0,0,0],"id":11,"left_children":[1,3,5,7,9,11,13,15,-1,17,-1,-1,-1,19,-1,21,23,25,27,-1,-1,29,31,33,35,37,39,-1,-1,41,-1,-1,43,45,47,49,51,53,-1,55,57,-1,-1,-1,-1,-1,-1,-1,-1,-1,-1,-1,-1,-1,-1,-1,-1,-1,-1],"loss_changes":[4.842509E5,7.237746E5,4.9413322E5,4.9450575E5,7.716694E5,2.9036225E5,5.89374E4,2.997729E5,0E0,4.2810725E5,0E0,0E0,0E0,1.2868461E4,0E0,6.166975E5,3.1246828E5,9.315725E4,2.6698406E4,0E0,0E0,4.39509E4,8.0413275E5,3.719785E5,9.428297E4,1.155245E5,3.96712E5,0E0,0E0,8.293023E3,0E0,0E0,2.0193722E5,1.5103848E5,1.716975E4,8.261125E4,7.250756E4,4.6493406E4,0E0,3.334087E5,1.966375E4,0E0,0E0,0E0,0E0,0E0,0E0,0E0,0E0,0E0,0E0,0E0,0E0,0E0,0E0,0E0,0E0,0E0,0E0],"parents":[2147483647,0,0,1,1,2,2,3,3,4,4,5,5,6,6,7,7,9,9,13,13,15,15,16,16,17,17,18,18,21,21,22,22,23,23,24,24,25,25,26,26,29,29,32,32,33,33,34,34,35,35,36,36,37,37,39,39,40,40],"right_children":[2,4,6,8,10,12,14,16,-1,18,-1,-1,-1,20,-1,22,24,26,28,-1,-1,30,32,34,36,38,40,-1,-1,42,-1,-1,44,46,48,50,52,54,-1,56,58,-1,-1,-1,-1,-1,-1,-1,-1,-1,-1,-1,-1,-1,-1,-1,-1,-1,-1],"split_conditions":[9.737526E-1,-2.2744475E-1,1.198514E0,-2.4798888E-1,1.9137548E-1,2.8262846E0,2.7242804E0,-2.8305224E-1,9.9099E-1,3.4459727E0,9.25203E-1,8.854099E-1,-1.0752126E-1,1.4909092E0,1.7279299E-1,-4.0781927E-1,-7.384397E-1,-1.4289865E-1,-2.6373236E0,-2.852875E-1,-2.076611E-2,6.774044E-1,-3.9521462E-1,-3.9185846E-1,-4.2331453E-2,-1.7385325E-1,1.7286979E-1,5.7732356E-1,8.885858E-2,-7.125328E-1,1.4741819E-1,1.351074E0,2.6751828E-1,-1.1791143E0,-3.2453176E-1,-6.97647E-1,7.472167E-2,8.422253E-1,-5.866886E-1,1.2741375E-1,3.6401865E-1,-1.51563985E-2,-1.3269274E-1,7.157359E-1,4.4351097E-2,1.05355665E-1,-2.4817164E-1,6.8103135E-1,1.5320815E-1,-9.989998E-2,-5.165055E-1,2.5536758E-1,-1.7542599E-1,-3.080466E-1,-4.4359457E-2,-1.0028771E-1,6.233741E-1,-4.9613705E-1,-2.5969857E-1],"split_indices":[0,7,0,7,17,7,7,17,0,4,0,0,0,0,0,10,6,10,0,0,0,0,7,0,1,10,9,0,0,16,0,0,0,0,0,18,0,0,0,7,7,0,0,0,0,0,0,0,0,0,0,0,0,0,0,0,0,0,0],"split_type":[0,0,0,0,0,0,0,0,0,0,0,0,0,0,0,0,0,0,0,0,0,0,0,0,0,0,0,0,0,0,0,0,0,0,0,0,0,0,0,0,0,0,0,0,0,0,0,0,0,0,0,0,0,0,0,0,0,0,0],"sum_hessian":[1.15E2,1.06E2,9E0,5.4E1,5.2E1,5E0,4E0,5.3E1,1E0,5.1E1,1E0,4E0,1E0,3E0,1E0,2.3E1,3E1,4.9E1,2E0,2E0,1E0,1.3E1,1E1,1.8E1,1.2E1,2.7E1,2.2E1,1E0,1E0,1.1E1,2E0,2E0,8E0,1.5E1,3E0,8E0,4E0,2.1E1,6E0,9E0,1.3E1,3E0,8E0,1E0,7E0,9E0,6E0,2E0,1E0,3E0,5E0,1E0,3E0,1.8E1,3E0,7E0,2E0,5E0,8E0],"tree_param":{"num_deleted":"0","num_feature":"20","num_nodes":"59","size_leaf_vector":"1"}},{"base_weights":[1.508761E1,-2.3560167E1,8.893498E1,4.0243E1,-1.7329674E2,4.5066E2,4.5053978E1,-3.1747566E1,1.3239404E2,1.0817569E2,-2.0685277E2,1.1509769E0,-6.5515436E-2,1.2889267E2,-5.1298325E1,4.7046486E1,-1.9404033E2,6.221776E-1,8.47278E1,2.5653642E-1,4.2482328E-2,-2.3905406E2,-9.187407E1,-3.9798733E1,4.2376346E2,-1.188884E2,9.243153E1,8.193825E0,7.5932425E-1,-1.1716555E2,-4.560591E-1,-9.958553E1,1.5280461E2,-2.626873E2,-1.9974242E-1,-2.931173E1,-2.6658976E-1,3.5266907E2,-1.9280598E2,1.2984818E0,1.7049355E2,6.9379196E0,-1.6160138E2,-2.8400473E1,2.9475108E-1,-4.473754E1,2.3110367E2,-2.9014066E-1,-2.440335E1,7.080405E-2,-1.3487146E2,3.6988718E2,4.0239395E1,-1.3543116E-1,-5.034627E-1,7.608596E-3,-7.7093154E-2,-3.8866524E-2,8.92441E-1,-2.4776762E2,1.8027079E1,7.563709E-2,4.4800457E-1,-9.2200026E-2,7.851359E-2,-1.8460599E2,2.0671967E-2,-7.852386E-2,1.9402007E-5,-2.108656E-1,8.839231E-2,-9.368723E-3,5.74082E-1,-8.7313086E-2,1.9857448E-2,-3.0171752E-1,-1.7916827E-2,2.3145127E-1,9.0459377E-1,1.6472723E-1,-6.748144E-2,2.5936857E-2,-5.292225E-1,1.686215E-1,-1.18791126E-1,-4.4181603E-1,-1.9085334E-1],"categories":[],"categories_nodes":[],"categories_segments":[],"categories_sizes":[],"default_left":[0,0,0,0,0,0,0,0,0,0,0,0,0,0,0,0,0,0,0,0,0,0,0,0,0,0,0,0,0,0,0,0,0,0,0,0,0,0,0,0,0,0,0,0,0,0,0,0,0,0,0,0,0,0,0,0,0,0,0,0,0,0,0,0,0,0,0,0,0,0,0,0,0,0,0,0,0,0,0,0,0,0,0,0,0,0,0],"id":12,"left_children":[1,3,5,7,9,11,13,15,17,19,21,-1,-1,23,25,27,29,-1,31,-1,-1,33,35,37,39,41,43,45,-1,47,-1,49,51,53,-1,55,-1,57,59,-1,61,63,65,67,-1,69,71,-1,73,-1,75,77,79,-1,-1,-1,-1,-1,-1,81,83,-1,-1,-1,-1,85,-1,-1,-1,-1,-1,-1,-1,-1,-1,-1,-1,-1,-1,-1,-1,-1,-1,-1,-1,-1,-1],"loss_changes":[3.1603934E5,7.0439175E5,5.8286456E5,3.491715E5,2.301685E5,3.6045606E5,2.8934378E5,3.9276003E5,1.9639516E5,4.716004E3,5.2086438E4,0E0,0E0,9.619665E5,1.7613912E5,2.9443216E5,1.20868125E4,0E0,2.6616644E5,0E0,0E0,1.7846938E4,1.5576254E4,8.486521E5,3.7780325E5,6.561419E4,5.3491234E4,2.4631745E5,0E0,1.8576703E4,0E0,3.44004E4,3.5165516E5,3.802E3,0E0,1.8478506E3,0E0,2.0698688E5,1.20343875E5,0E0,3.7022906E4,1.0259721E4,3.7851562E4,1.2116748E3,0E0,1.153168E5,7.756428E4,0E0,2.9355298E3,0E0,1.646496E4,8.613375E4,4.48272E4,0E0,0E0,0E0,0E0,0E0,0E0,8.660975E4,2.408148E4,0E0,0E0,0E0,0E0,1.09218125E4,0E0,0E0,0E0,0E0,0E0,0E0,0E0,0E0,0E0,0E0,0E0,0E0,0E0,0E0,0E0,0E0,0E0,0E0,0E0,0E0,0E0],"parents":[2147483647,0,0,1,1,2,2,3,3,4,4,5,5,6,6,7,7,8,8,9,9,10,10,13,13,14,14,15,15,16,16,18,18,21,21,22,22,23,23,24,24,25,25,26,26,27,27,29,29,31,31,32,32,33,33,35,35,37,37,38,38,40,40,41,41,42,42,43,43,45,45,46,46,48,48,50,50,51,51,52,52,59,59,60,60,65,65],"right_children":[2,4,6,8,10,12,14,16,18,20,22,-1,-1,24,26,28,30,-1,32,-1,-1,34,36,38,40,42,44,46,-1,48,-1,50,52,54,-1,56,-1,58,60,-1,62,64,66,68,-1,70,72,-1,74,-1,76,78,80,-1,-1,-1,-1,-1,-1,82,84,-1,-1,-1,-1,86,-1,-1,-1,-1,-1,-1,-1,-1,-1,-1,-1,-1,-1,-1,-1,-1,-1,-1,-1,-1,-1],"split_conditions":[1.0792792E-1,-2.7479932E-1,1.7454435E-1,-4.7034702E-1,-1.1952995E0,6.7039025E-1,1.0682566E0,-1.3831205E-2,-3.7012625E-1,-2.40142E0,4.2417738E-1,1.1509769E0,-6.5515436E-2,3.5537085E-1,-2.3152097E-1,-5.27675E-1,-6.158293E-1,6.221776E-1,1.9070743E-1,2.5653642E-1,4.2482328E-2,1.2736324E0,4.470789E-1,-3.0340022E-1,3.8933378E-1,2.977907E-1,-1.6515696E0,3.604914E0,7.5932425E-1,-7.610006E-1,-4.560591E-1,-2.9016584E-1,2.4852811E-1,-2.111134E0,-1.9974242E-1,4.4218677E-1,-2.6658976E-1,-1.2075408E0,8.40303E-1,1.2984818E0,7.479455E-1,1.4141495E0,2.897235E0,-2.340996E0,2.9475108E-1,-1.971371E-1,-2.6409638E0,-2.9014066E-1,1.5179974E-1,7.080405E-2,-4.2146334E-1,-3.5342887E-1,-3.3037853E-1,-1.3543116E-1,-5.034627E-1,7.608596E-3,-7.7093154E-2,-3.8866524E-2,8.92441E-1,6.02981E-1,8.6603785E-1,7.563709E-2,4.4800457E-1,-9.2200026E-2,7.851359E-2,1.7958156E0,2.0671967E-2,-7.852386E-2,1.9402007E-5,-2.108656E-1,8.839231E-2,-9.368723E-3,5.74082E-1,-8.7313086E-2,1.9857448E-2,-3.0171752E-1,-1.7916827E-2,2.3145127E-1,9.0459377E-1,1.6472723E-1,-6.748144E-2,2.5936857E-2,-5.292225E-1,1.686215E-1,-1.18791126E-1,-4.4181603E-1,-1.9085334E-1],"split_indices":[16,10,16,10,18,0,16,0,0,0,0,0,0,7,4,10,7,0,1,0,0,17,0,0,7,10,3,13,0,7,0,0,1,0,0,0,0,0,0,0,0,7,7,0,0,0,0,0,0,0,7,7,9,0,0,0,0,0,0,0,0,0,0,0,0,16,0,0,0,0,0,0,0,0,0,0,0,0,0,0,0,0,0,0,0,0,0],"split_type":[0,0,0,0,0,0,0,0,0,0,0,0,0,0,0,0,0,0,0,0,0,0,0,0,0,0,0,0,0,0,0,0,0,0,0,0,0,0,0,0,0,0,0,0,0,0,0,0,0,0,0,0,0,0,0,0,0,0,0,0,0,0,0,0,0,0,0,0,0,0,0,0,0,0,0,0,0,0,0,0,0,0,0,0,0,0,0],"sum_hessian":[1.09E2,7.2E1,3.7E1,5.1E1,2.1E1,3E0,3.4E1,2.9E1,2.2E1,2E0,1.9E1,2E0,1E0,1.8E1,1.6E1,2E1,9E0,3E0,1.9E1,1E0,1E0,1.4E1,5E0,1.2E1,6E0,1.1E1,5E0,1.9E1,1E0,5E0,4E0,5E0,1.4E1,1.1E1,3E0,3E0,2E0,3E0,9E0,2E0,4E0,3E0,8E0,2E0,3E0,1.6E1,3E0,3E0,2E0,1E0,4E0,4E0,1E1,1E0,1E1,1E0,2E0,1E0,2E0,7E0,2E0,2E0,2E0,1E0,2E0,7E0,1E0,1E0,1E0,9E0,7E0,1E0,2E0,1E0,1E0,3E0,1E0,2E0,2E0,6E0,4E0,1E0,6E0,1E0,1E0,3E0,4E0],"tree_param":{"num_deleted":"0","num_feature":"20","num_nodes":"87","size_leaf_vector":"1"}},{"base_weights":[-2.8994125E1,-4.9485878E1,1.3717021E2,-8.212535E0,-1.0784544E2,2.2786798E2,-1.2386674E2,6.570128E1,-9.4586914E1,-1.6835703E2,1.63333E1,8.5734713E-1,-7.9219613E0,-5.7632986E-2,-2.6592636E-1,1.2617968E2,-9.2064865E1,3.523256E1,-1.374946E2,-1.8107259E2,1.7292711E-1,3.3953363E2,-1.7922023E2,6.3165447E1,-3.3479846E-1,2.0551098E1,2.5874777E2,-3.502375E-1,-2.2916922E1,-5.5530354E1,3.7779957E-1,-1.7566873E2,-3.0597324E1,-1.0084431E2,-2.200414E2,4.564163E2,-2.2563179E-1,-2.2961923E2,2.7489383E-2,3.200621E1,1.7304085E-1,1.3565959E2,-7.126118E1,4.354817E2,1.3803734E2,1.2403534E1,-2.1638091E-1,-8.526253E1,8.5810326E-2,-7.960296E1,-5.303755E-1,2.51949E-1,-1.2486884E2,-3.5548055E-1,-4.2209568E1,-8.807268E1,-2.4056363E2,-6.5455064E-2,1.0840807E0,-4.496814E-1,-1.18681654E-1,1.4005132E-1,-9.211508E-2,3.082578E-1,6.955421E-2,-6.193762E-2,-2.4943855E-1,1.511653E-1,9.6922904E-1,-3.916194E-2,4.3832925E-1,-5.222943E-2,1.1535363E-1,-1.7698658E-1,-3.88307E-2,6.8607844E-2,-2.4876463E-1,-2.8231275E-1,-1.0644335E-2,-1.2259143E-1,3.7759736E-2,-3.3013704E-1,3.691274E-3,7.601594E-3,-4.7606087E-1],"categories":[],"categories_nodes":[],"categories_segments":[],"categories_sizes":[],"default_left":[0,0,0,0,0,0,0,0,0,0,0,0,0,0,0,0,0,0,0,0,0,0,0,0,0,0,0,0,0,0,0,0,0,0,0,0,0,0,0,0,0,0,0,0,0,0,0,0,0,0,0,0,0,0,0,0,0,0,0,0,0,0,0,0,0,0,0,0,0,0,0,0,0,0,0,0,0,0,0,0,0,0,0,0,0],"id":13,"left_children":[1,3,5,7,9,11,13,15,17,19,21,-1,23,-1,-1,25,27,29,31,33,-1,35,37,39,-1,41,43,-1,45,47,-1,49,51,53,55,57,-1,59,-1,61,-1,63,65,67,69,71,-1,73,-1,75,-1,-1,77,-1,79,81,83,-1,-1,-1,-1,-1,-1,-1,-1,-1,-1,-1,-1,-1,-1,-1,-1,-1,-1,-1,-1,-1,-1,-1,-1,-1,-1,-1,-1],"loss_changes":[4.0176784E5,2.4961855E5,3.360063E5,4.020386E5,3.2586266E5,5.633904E5,3.0568594E3,3.360258E5,1.663816E5,1.1367706E5,1.0088957E6,0E0,8.55877E4,0E0,0E0,3.4475694E5,6.340439E4,1.3466352E5,8.440066E4,6.534925E4,0E0,3.798637E5,1.01268625E5,1.7830918E3,0E0,1.6819284E5,1.7455719E5,0E0,2.4821623E4,2.2183424E4,0E0,1.494565E5,1.2748564E5,5.1233688E4,2.756225E4,3.4523788E5,0E0,3.3197188E3,0E0,1.822741E4,0E0,1.5357305E4,1.7170242E4,8.4767875E4,1.3226088E5,1.4045265E4,0E0,1.4360703E3,0E0,6.973975E4,0E0,0E0,1.5984047E4,0E0,1.3559567E4,3.317428E4,6.629625E4,0E0,0E0,0E0,0E0,0E0,0E0,0E0,0E0,0E0,0E0,0E0,0E0,0E0,0E0,0E0,0E0,0E0,0E0,0E0,0E0,0E0,0E0,0E0,0E0,0E0,0E0,0E0,0E0],"parents":[2147483647,0,0,1,1,2,2,3,3,4,4,5,5,6,6,7,7,8,8,9,9,10,10,12,12,15,15,16,16,17,17,18,18,19,19,21,21,22,22,23,23,25,25,26,26,28,28,29,29,31,31,32,32,33,33,34,34,35,35,37,37,39,39,41,41,42,42,43,43,44,44,45,45,47,47,49,49,52,52,54,54,55,55,56,56],"right_children":[2,4,6,8,10,12,14,16,18,20,22,-1,24,-1,-1,26,28,30,32,34,-1,36,38,40,-1,42,44,-1,46,48,-1,50,52,54,56,58,-1,60,-1,62,-1,64,66,68,70,72,-1,74,-1,76,-1,-1,78,-1,80,82,84,-1,-1,-1,-1,-1,-1,-1,-1,-1,-1,-1,-1,-1,-1,-1,-1,-1,-1,-1,-1,-1,-1,-1,-1,-1,-1,-1,-1],"split_conditions":[9.73994E-1,-9.5281124E-2,2.8604808E0,-2.8305224E-1,6.395908E-1,1.198514E0,1.0720176E0,4.6273607E-1,-1.1791143E0,2.9181632E-1,7.8208125E-1,8.5734713E-1,1.438574E0,-5.7632986E-2,-2.6592636E-1,3.246293E-1,4.9465993E-1,-1.4347612E0,-4.931654E-2,-6.316473E-2,1.7292711E-1,-1.6173963E-2,1.2943672E0,1.394926E0,-3.3479846E-1,-1.3831205E-2,2.4852811E-1,-3.502375E-1,5.0962526E-1,5.8906183E0,3.7779957E-1,-6.97647E-1,1.1768085E-1,-2.4316158E0,-1.7385325E-1,-7.936553E-2,-2.2563179E-1,9.4287694E-1,2.7489383E-2,1.2827169E0,1.7304085E-1,-2.0590189E-1,3.7761312E-2,3.323781E-1,3.0914575E-1,-2.6273614E-1,-2.1638091E-1,-1.7892692E0,8.5810326E-2,-2.5290176E-1,-5.303755E-1,2.51949E-1,1.9064553E-1,-3.5548055E-1,-8.908908E-2,4.6590552E-1,-8.0078624E-2,-6.5455064E-2,1.0840807E0,-4.496814E-1,-1.18681654E-1,1.4005132E-1,-9.211508E-2,3.082578E-1,6.955421E-2,-6.193762E-2,-2.4943855E-1,1.511653E-1,9.6922904E-1,-3.916194E-2,4.3832925E-1,-5.222943E-2,1.1535363E-1,-1.7698658E-1,-3.88307E-2,6.8607844E-2,-2.4876463E-1,-2.8231275E-1,-1.0644335E-2,-1.2259143E-1,3.7759736E-2,-3.3013704E-1,3.691274E-3,7.601594E-3,-4.7606087E-1],"split_indices":[0,7,7,17,0,0,0,0,0,9,0,0,0,0,0,0,0,3,8,16,0,10,1,0,0,0,1,0,6,17,0,18,0,0,10,7,0,0,0,0,0,1,6,0,1,7,0,0,0,17,0,0,0,0,9,0,9,0,0,0,0,0,0,0,0,0,0,0,0,0,0,0,0,0,0,0,0,0,0,0,0,0,0,0,0],"split_type":[0,0,0,0,0,0,0,0,0,0,0,0,0,0,0,0,0,0,0,0,0,0,0,0,0,0,0,0,0,0,0,0,0,0,0,0,0,0,0,0,0,0,0,0,0,0,0,0,0,0,0,0,0,0,0,0,0,0,0,0,0,0,0,0,0,0,0,0,0,0,0,0,0,0,0,0,0,0,0,0,0,0,0,0,0],"sum_hessian":[1.15E2,1.03E2,1.2E1,6.1E1,4.2E1,9E0,3E0,3.3E1,2.8E1,2.8E1,1.4E1,4E0,5E0,1E0,2E0,2.4E1,9E0,7E0,2.1E1,2.7E1,1E0,5E0,9E0,4E0,1E0,1.4E1,1E1,3E0,6E0,5E0,2E0,1.5E1,6E0,1E1,1.7E1,4E0,1E0,7E0,2E0,3E0,1E0,6E0,8E0,3E0,7E0,5E0,1E0,4E0,1E0,9E0,6E0,2E0,4E0,3E0,7E0,3E0,1.4E1,1E0,3E0,6E0,1E0,2E0,1E0,4E0,2E0,6E0,2E0,1E0,2E0,3E0,4E0,3E0,2E0,3E0,1E0,3E0,6E0,3E0,1E0,5E0,2E0,1E0,2E0,1E0,1.3E1],"tree_param":{"num_deleted":"0","num_feature":"20","num_nodes":"85","size_leaf_vector":"1"}},{"base_weights":[1.1913686E1,1.0771221E2,-8.599684E1,-1.7646967E1,2.9360657E2,-1.7801653E2,9.330414E0,5.4413166E1,-1.2715125E2,5.229634E2,1.8924734E2,-8.140761E1,-2.0292882E2,1.792439E2,-1.0806825E2,-1.2278234E2,1.21663826E2,-1.5146255E2,1.5164775E-1,8.188583E1,1.3323988E0,7.365964E1,4.2880838E2,-3.2166427E-1,1.8606585E-1,-4.281274E-1,-1.2979428E2,-3.3884926E1,1.3984662E0,-1.6056824E2,6.1931E0,4.2263794E0,-4.6291035E-1,2.0782466E2,-9.222277E1,-1.7911237E-1,-4.3434137E-1,4.131406E-1,-1.8679215E-1,1.4984232E2,-1.1616629E2,9.804349E1,1.1363372E0,-2.5271282E1,-4.2015672E-1,7.692695E-1,-1.4248221E2,-1.8592953E2,8.573125E-2,8.003656E1,-3.3448997E-1,8.8360675E-2,-2.6330973E1,9.087106E1,3.897757E2,-2.9647544E-1,1.6808128E-1,5.784023E1,5.7968205E-1,-1.7843239E-2,-2.7353236E-1,2.5536403E-1,1.5647354E-2,1.69882E1,-1.0892221E-1,5.2307248E-2,-1.7094673E2,-7.828845E-2,-1.971476E2,-5.757987E-2,1.15668655E2,-6.828542E-2,-4.498538E-3,-1.0940733E-1,2.2263858E-1,9.021747E-1,8.329285E-2,2.3111214E-1,1.0555637E-2,3.9364114E-2,7.5945924E-3,-3.7630737E-1,2.635161E-2,-8.261634E-2,-3.880618E-1,2.975594E-1,-2.003142E-2],"categories":[],"categories_nodes":[],"categories_segments":[],"categories_sizes":[],"default_left":[0,0,0,0,0,0,0,0,0,0,0,0,0,0,0,0,0,0,0,0,0,0,0,0,0,0,0,0,0,0,0,0,0,0,0,0,0,0,0,0,0,0,0,0,0,0,0,0,0,0,0,0,0,0,0,0,0,0,0,0,0,0,0,0,0,0,0,0,0,0,0,0,0,0,0,0,0,0,0,0,0,0,0,0,0,0,0],"id":14,"left_children":[1,3,5,7,9,11,13,15,17,19,21,23,25,27,29,31,33,35,-1,37,-1,39,41,-1,-1,-1,43,45,-1,47,49,51,-1,53,55,-1,-1,-1,-1,57,59,61,-1,63,-1,-1,65,67,-1,69,-1,-1,71,73,75,-1,-1,77,-1,-1,-1,-1,-1,79,-1,-1,81,-1,83,-1,85,-1,-1,-1,-1,-1,-1,-1,-1,-1,-1,-1,-1,-1,-1,-1,-1],"loss_changes":[9.659907E5,1.2169665E6,4.4903222E5,2.594273E5,4.0367588E5,4.60555E4,5.380086E5,2.5326845E5,7.865811E4,4.7026538E5,4.1145912E5,1.3653634E5,1.284275E4,1.3846291E6,9.697394E4,9.892254E4,2.9559588E5,3.1944531E4,0E0,1.0095743E5,0E0,1.9094397E5,2.501785E5,0E0,0E0,0E0,7.6355766E4,5.0059925E5,0E0,6.642281E4,9.7692414E4,6.6067666E3,0E0,1.9865875E5,7.764716E4,0E0,0E0,0E0,0E0,1.1820005E5,1.2306375E4,9.712205E3,0E0,8.1535225E3,0E0,0E0,4.376142E4,7.7163438E3,0E0,2.344031E4,0E0,0E0,6.781504E2,4.316408E4,1.154165E5,0E0,0E0,2.3931459E4,0E0,0E0,0E0,0E0,0E0,8.076282E1,0E0,0E0,4.604622E4,0E0,8.976969E3,0E0,2.4938617E4,0E0,0E0,0E0,0E0,0E0,0E0,0E0,0E0,0E0,0E0,0E0,0E0,0E0,0E0,0E0,0E0],"parents":[2147483647,0,0,1,1,2,2,3,3,4,4,5,5,6,6,7,7,8,8,9,9,10,10,11,11,12,12,13,13,14,14,15,15,16,16,17,17,19,19,21,21,22,22,26,26,27,27,29,29,30,30,31,31,33,33,34,34,39,39,40,40,41,41,43,43,46,46,47,47,49,49,52,52,53,53,54,54,57,57,63,63,66,66,68,68,70,70],"right_children":[2,4,6,8,10,12,14,16,18,20,22,24,26,28,30,32,34,36,-1,38,-1,40,42,-1,-1,-1,44,46,-1,48,50,52,-1,54,56,-1,-1,-1,-1,58,60,62,-1,64,-1,-1,66,68,-1,70,-1,-1,72,74,76,-1,-1,78,-1,-1,-1,-1,-1,80,-1,-1,82,-1,84,-1,86,-1,-1,-1,-1,-1,-1,-1,-1,-1,-1,-1,-1,-1,-1,-1,-1],"split_conditions":[-2.894222E-1,-4.8145524E-1,1.0970304E-1,-1.3831205E-2,-3.9521462E-1,-2.030123E-1,2.7293402E-1,-1.4111893E0,3.6579603E-1,-8.130053E-1,-3.3037853E-1,-1.4475259E-1,-3.5218704E-2,2.4504556E-1,9.527301E-1,-1.5859623E0,-6.6300565E-1,-2.8305224E-1,1.5164775E-1,-1.1791143E0,1.3323988E0,-3.1805605E-1,-2.97345E-1,-3.2166427E-1,1.8606585E-1,-4.281274E-1,8.586353E-3,5.30459E-1,1.3984662E0,5.5724626E0,2.1668239E0,-2.4736795E0,-4.6291035E-1,-8.0442554E-1,-2.1848726E-1,-1.7911237E-1,-4.3434137E-1,4.131406E-1,-1.8679215E-1,-3.2863885E-1,-3.0757636E-1,7.472167E-2,1.1363372E0,-1.1680279E-1,-4.2015672E-1,7.692695E-1,6.2361354E-4,-2.340996E0,8.573125E-2,1.0720176E0,-3.3448997E-1,8.8360675E-2,-2.338368E0,-1.0192393E0,-3.2453176E-1,-2.9647544E-1,1.6808128E-1,-3.9425632E-1,5.7968205E-1,-1.7843239E-2,-2.7353236E-1,2.5536403E-1,1.5647354E-2,3.8640225E-1,-1.0892221E-1,5.2307248E-2,-2.7272327E-2,-7.828845E-2,2.407472E-1,-5.757987E-2,1.438574E0,-6.828542E-2,-4.498538E-3,-1.0940733E-1,2.2263858E-1,9.021747E-1,8.329285E-2,2.3111214E-1,1.0555637E-2,3.9364114E-2,7.5945924E-3,-3.7630737E-1,2.635161E-2,-8.261634E-2,-3.880618E-1,2.975594E-1,-2.003142E-2],"split_indices":[9,9,16,0,7,16,9,3,0,0,9,7,7,9,0,3,9,17,0,0,0,7,7,0,0,0,16,0,0,17,6,1,0,7,11,0,0,0,0,7,7,0,0,10,0,0,7,0,0,0,0,0,0,7,0,0,0,9,0,0,0,0,0,0,0,0,10,0,16,0,0,0,0,0,0,0,0,0,0,0,0,0,0,0,0,0,0],"split_type":[0,0,0,0,0,0,0,0,0,0,0,0,0,0,0,0,0,0,0,0,0,0,0,0,0,0,0,0,0,0,0,0,0,0,0,0,0,0,0,0,0,0,0,0,0,0,0,0,0,0,0,0,0,0,0,0,0,0,0,0,0,0,0,0,0,0,0,0,0,0,0,0,0,0,0,0,0,0,0,0,0,0,0,0,0,0,0],"sum_hessian":[1.01E2,5.1E1,5E1,3.1E1,2E1,2.5E1,2.5E1,1.9E1,1.2E1,5E0,1.5E1,6E0,1.9E1,1E1,1.5E1,5E0,1.4E1,1.1E1,1E0,2E0,3E0,1.1E1,4E0,4E0,2E0,1.2E1,7E0,8E0,2E0,1E1,5E0,3E0,2E0,1E1,4E0,8E0,3E0,1E0,1E0,8E0,3E0,2E0,2E0,4E0,3E0,1E0,7E0,9E0,1E0,4E0,1E0,1E0,2E0,7E0,3E0,3E0,1E0,6E0,2E0,1E0,2E0,1E0,1E0,2E0,2E0,1E0,6E0,1E0,8E0,1E0,3E0,1E0,1E0,1E0,6E0,2E0,1E0,2E0,4E0,1E0,1E0,5E0,1E0,1E0,7E0,2E0,1E0],"tree_param":{"num_deleted":"0","num_feature":"20","num_nodes":"87","size_leaf_vector":"1"}},{"base_weights":[-2.0453007E1,-5.9083304E0,-1.7694469E2,-1.2916777E2,1.8271868E1,-1.9909042E2,2.0608868E-2,-1.4643839E2,1.5150803E-1,5.5721086E-1,1.92216E0,-2.0942339E2,-1.0727547E-1,-1.6157892E2,8.827928E-2,-1.6528595E1,1.3258005E2,-4.3149638E-1,-9.015644E1,-9.725523E-3,-1.7164716E2,2.1161375E1,-1.6389981E2,1.172444E0,1.8591923E1,-2.701952E-1,2.0985154E-2,-8.716396E-2,-3.4485933E-1,4.7878914E0,9.548613E-1,-2.0282672E2,7.239236E1,-3.076693E-1,8.584907E1,6.397939E-2,-2.2632632E-1,-4.758146E-1,3.0037962E-4,1.7312534E-1,2.6981276E-2,3.0024737E-1,-1.7862163E-1],"categories":[],"categories_nodes":[],"categories_segments":[],"categories_sizes":[],"default_left":[0,0,0,0,0,0,0,0,0,0,0,0,0,0,0,0,0,0,0,0,0,0,0,0,0,0,0,0,0,0,0,0,0,0,0,0,0,0,0,0,0,0,0],"id":15,"left_children":[1,3,5,7,9,11,-1,13,-1,-1,15,17,-1,19,-1,21,23,-1,25,-1,27,29,31,-1,33,-1,-1,-1,-1,35,-1,37,39,-1,41,-1,-1,-1,-1,-1,-1,-1,-1],"loss_changes":[2.675368E5,3.2722784E5,4.3888875E4,7.775281E4,4.267551E5,9.0984375E2,0E0,5.7762312E4,0E0,0E0,2.1433619E5,2.485E3,0E0,2.4273E4,0E0,4.367129E5,6.196834E5,0E0,1.8871021E4,0E0,2.0044062E4,5.1018656E5,1.618531E5,0E0,1.391286E5,0E0,0E0,0E0,0E0,2.4106066E5,0E0,1.5741169E5,2.3588857E3,0E0,1.2850314E5,0E0,0E0,0E0,0E0,0E0,0E0,0E0,0E0],"parents":[2147483647,0,0,1,1,2,2,3,3,4,4,5,5,7,7,10,10,11,11,13,13,15,15,16,16,18,18,20,20,21,21,22,22,24,24,29,29,31,31,32,32,34,34],"right_children":[2,4,6,8,10,12,-1,14,-1,-1,16,18,-1,20,-1,22,24,-1,26,-1,28,30,32,-1,34,-1,-1,-1,-1,36,-1,38,40,-1,42,-1,-1,-1,-1,-1,-1,-1,-1],"split_conditions":[2.8604808E0,-5.746199E-1,2.9030902E0,4.9465993E-1,-6.8680537E-1,1.811619E0,2.0608868E-2,1.7548511E0,1.5150803E-1,5.5721086E-1,8.299422E-1,2.8987126E0,-1.0727547E-1,-2.6409638E0,8.827928E-2,9.664233E-2,8.2130635E-1,-4.3149638E-1,8.373172E-1,-9.725523E-3,-1.0280852E0,7.662605E-2,3.6401865E-1,1.172444E0,9.9302244E-1,-2.701952E-1,2.0985154E-2,-8.716396E-2,-3.4485933E-1,-9.107324E-2,9.548613E-1,7.951549E-1,4.060477E-1,-3.076693E-1,1.2827169E0,6.397939E-2,-2.2632632E-1,-4.758146E-1,3.0037962E-4,1.7312534E-1,2.6981276E-2,3.0024737E-1,-1.7862163E-1],"split_indices":[7,10,7,0,16,16,0,7,0,0,18,7,0,0,0,7,1,0,0,0,7,7,7,0,2,0,0,0,0,7,0,6,0,0,0,0,0,0,0,0,0,0,0],"split_type":[0,0,0,0,0,0,0,0,0,0,0,0,0,0,0,0,0,0,0,0,0,0,0,0,0,0,0,0,0,0,0,0,0,0,0,0,0,0,0,0,0,0,0],"sum_hessian":[1.17E2,1.08E2,9E0,1.7E1,9.1E1,8E0,1E0,1.6E1,1E0,4E0,8.7E1,7E0,1E0,1.5E1,1E0,7.7E1,1E1,5E0,2E0,1E0,1.4E1,6.2E1,1.5E1,1E0,9E0,1E0,1E0,2E0,1.2E1,6.1E1,1E0,1.3E1,2E0,2E0,7E0,5E1,1.1E1,1E1,3E0,1E0,1E0,5E0,2E0],"tree_param":{"num_deleted":"0","num_feature":"20","num_nodes":"43","size_leaf_vector":"1"}},{"base_weights":[1.9459219E1,-1.1404265E2,5.7126923E1,-6.35249E1,-4.0622032E-1,2.71399E2,4.3166213E0,-1.9063334E1,-3.7456536E-1,1.39698E2,1.4660137E0,-9.823251E1,1.098425E2,-1.213268E2,3.397473E1,2.4612927E2,-4.323192E1,-4.85457E1,-2.5364642E2,1.9128503E2,-9.6603836E1,-9.716554E-3,-1.4902213E2,9.5650635E1,-6.1221747E0,8.1081696E1,3.1513943E2,2.092518E1,-1.4842212E-1,-1.0683421E2,1.3325496E2,-1.11454185E2,-5.205315E-1,1.4125323E2,9.1112167E-1,-1.3921469E2,2.1161118E0,-3.208869E-1,-6.790475E-2,-4.6391577E-2,2.6594734E-1,3.231022E1,-1.2555978E-1,2.2080965E-1,-3.2380264E-2,7.9955864E-1,5.1767994E1,-1.1921127E-2,6.976242E-2,-4.9382236E1,-1.7794995E2,6.038285E-1,-1.0044806E1,-6.0448892E-2,-2.4763227E-1,-5.9310305E-1,2.3950015E2,-5.7803947E1,-4.2106876E-1,-2.8143524E1,8.5593335E-2,7.6714344E-2,-4.5757527E-3,-7.6572974E-3,1.5075415E-1,-1.4109652E-1,2.550698E-1,1.0188461E-1,-4.652835E-1,-1.0450658E-1,2.9115116E-2,6.279766E-1,-2.3685746E-1,6.282532E-1,1.18587725E-1,-1.4344613E-1,2.0589888E-2,-7.827526E-2,4.810573E-4],"categories":[],"categories_nodes":[],"categories_segments":[],"categories_sizes":[],"default_left":[0,0,0,0,0,0,0,0,0,0,0,0,0,0,0,0,0,0,0,0,0,0,0,0,0,0,0,0,0,0,0,0,0,0,0,0,0,0,0,0,0,0,0,0,0,0,0,0,0,0,0,0,0,0,0,0,0,0,0,0,0,0,0,0,0,0,0,0,0,0,0,0,0,0,0,0,0,0,0],"id":16,"left_children":[1,3,5,7,-1,9,11,13,-1,15,-1,17,19,21,23,25,27,29,31,33,35,-1,37,39,41,43,45,47,-1,49,51,53,-1,55,-1,57,59,-1,-1,-1,-1,61,-1,-1,-1,-1,63,-1,-1,65,67,-1,69,-1,-1,71,73,75,-1,77,-1,-1,-1,-1,-1,-1,-1,-1,-1,-1,-1,-1,-1,-1,-1,-1,-1,-1,-1],"loss_changes":[5.244719E5,1.0961706E5,9.15406E5,1.01742875E5,0E0,9.933375E5,7.250148E5,8.005602E4,0E0,2.8321316E5,0E0,2.5023528E5,5.7332475E5,1.5285031E4,2.5315719E4,7.695756E4,1.60475E4,3.0035222E5,1.3035312E3,2.9415844E5,4.236E4,0E0,4.8494062E3,2.715371E4,1.8884697E4,1.7393262E4,1.6518094E5,1.6363838E3,0E0,7.701295E4,1.9830834E5,1.00109375E3,0E0,3.0673328E5,0E0,3.767039E4,6.6730044E3,0E0,0E0,0E0,0E0,1.7245732E3,0E0,0E0,0E0,0E0,5.379609E3,0E0,0E0,7.6964414E4,1.7042475E5,0E0,6.926236E3,0E0,0E0,4.8053922E5,2.0899481E5,7.780408E3,0E0,1.2324402E3,0E0,0E0,0E0,0E0,0E0,0E0,0E0,0E0,0E0,0E0,0E0,0E0,0E0,0E0,0E0,0E0,0E0,0E0,0E0],"parents":[2147483647,0,0,1,1,2,2,3,3,5,5,6,6,7,7,9,9,11,11,12,12,13,13,14,14,15,15,16,16,17,17,18,18,19,19,20,20,22,22,23,23,24,24,25,25,26,26,27,27,29,29,30,30,31,31,33,33,35,35,36,36,41,41,46,46,49,49,50,50,52,52,55,55,56,56,57,57,59,59],"right_children":[2,4,6,8,-1,10,12,14,-1,16,-1,18,20,22,24,26,28,30,32,34,36,-1,38,40,42,44,46,48,-1,50,52,54,-1,56,-1,58,60,-1,-1,-1,-1,62,-1,-1,-1,-1,64,-1,-1,66,68,-1,70,-1,-1,72,74,76,-1,78,-1,-1,-1,-1,-1,-1,-1,-1,-1,-1,-1,-1,-1,-1,-1,-1,-1,-1,-1],"split_conditions":[-4.7034702E-1,-5.546555E-1,-3.6257964E-1,-2.8255045E-1,-4.0622032E-1,-3.771183E-1,8.232366E-2,-2.338368E0,-3.7456536E-1,3.3698228E-1,1.4660137E0,-4.2071264E-2,1.0998486E0,-2.6409638E0,-8.741616E-1,-4.8511624E-1,-4.5558292E-1,-1.5091804E-1,8.586353E-3,-2.8305224E-1,-3.0079332E-1,-9.716554E-3,-2.4761355E0,-1.0280852E0,1.4600379E-2,-2.9016584E-1,-3.9642912E-1,3.6047885E-1,-1.4842212E-1,-2.816379E-1,-1.2850814E-1,4.470789E-1,-5.205315E-1,7.432695E-1,9.1112167E-1,2.5150573E0,-2.0969222E0,-3.208869E-1,-6.790475E-2,-4.6391577E-2,2.6594734E-1,1.9065058E0,-1.2555978E-1,2.2080965E-1,-3.2380264E-2,7.9955864E-1,2.8066123E-1,-1.1921127E-2,6.976242E-2,-2.8236976E-1,-8.201281E-1,6.038285E-1,-8.9699334E-1,-6.0448892E-2,-2.4763227E-1,5.30459E-1,1.198514E0,2.8894272E0,-4.2106876E-1,-2.340996E0,8.5593335E-2,7.6714344E-2,-4.5757527E-3,-7.6572974E-3,1.5075415E-1,-1.4109652E-1,2.550698E-1,1.0188461E-1,-4.652835E-1,-1.0450658E-1,2.9115116E-2,6.279766E-1,-2.3685746E-1,6.282532E-1,1.18587725E-1,-1.4344613E-1,2.0589888E-2,-7.827526E-2,4.810573E-4],"split_indices":[10,16,10,17,0,10,16,0,0,0,0,16,10,0,7,7,10,10,16,17,13,0,0,7,1,0,9,0,0,17,10,0,0,1,0,9,0,0,0,0,0,7,0,0,0,0,0,0,0,17,7,0,0,0,0,0,0,7,0,0,0,0,0,0,0,0,0,0,0,0,0,0,0,0,0,0,0,0,0],"split_type":[0,0,0,0,0,0,0,0,0,0,0,0,0,0,0,0,0,0,0,0,0,0,0,0,0,0,0,0,0,0,0,0,0,0,0,0,0,0,0,0,0,0,0,0,0,0,0,0,0,0,0,0,0,0,0,0,0,0,0,0,0,0,0,0,0,0,0,0,0,0,0,0,0,0,0,0,0,0,0],"sum_hessian":[1.02E2,2.2E1,8E1,1.6E1,6E0,1.5E1,6.5E1,1.3E1,3E0,1.3E1,2E0,3.3E1,3.2E1,4E0,9E0,8E0,5E0,2.6E1,7E0,2.3E1,9E0,1E0,3E0,3E0,6E0,3E0,5E0,2E0,3E0,2E1,6E0,2E0,5E0,2.1E1,2E0,6E0,3E0,2E0,1E0,1E0,2E0,4E0,2E0,2E0,1E0,3E0,2E0,1E0,1E0,1.2E1,8E0,2E0,4E0,1E0,1E0,9E0,1.2E1,4E0,2E0,2E0,1E0,3E0,1E0,1E0,1E0,1.1E1,1E0,2E0,6E0,1E0,3E0,2E0,7E0,7E0,5E0,3E0,1E0,1E0,1E0],"tree_param":{"num_deleted":"0","num_feature":"20","num_nodes":"79","size_leaf_vector":"1"}},{"base_weights":[5.9846478E0,-1.5123881E1,1.7787225E2,2.0239859E1,-1.6322784E2,2.5124693E2,-1.26000786E2,-6.9175863E0,4.2898505E2,-1.9015288E2,-4.980719E1,8.5480845E-1,3.2190994E1,-5.714822E-2,-2.9114258E-1,1.1167E2,-3.7909122E1,9.21673E1,1.1477084E0,-2.0548393E2,-9.662148E1,2.8464745E1,-3.3437085E-1,-1.6551682E1,1.5931146E-1,-4.5769176E1,2.1071042E2,-8.799639E0,-1.69425E2,5.772665E-1,-3.2249808E-1,-1.4170822E2,-4.9097326E-1,2.6377534E-2,-2.5499007E-1,8.812723E-2,6.071299E0,5.120395E-2,-4.0592907E1,-1.3062987E2,2.0440617E-1,2.748207E2,-3.0487162E1,2.3482089E2,-2.8918022E1,-1.8507489E2,-1.1910133E-2,-3.4556845E-1,-2.8408203E0,-4.5715347E-3,2.1353792E-2,-9.2249066E-2,-1.9957663E-2,-3.493922E-1,-5.1815018E-2,1.1018254E-1,6.2016046E-1,8.551446E-2,-1.6978694E-1,1.50109E-1,6.40291E-1,-1.0019857E-1,1.9377738E-1,-1.7036656E-1,-3.8986975E-1,-4.5773778E-2,3.7921194E-2],"categories":[],"categories_nodes":[],"categories_segments":[],"categories_sizes":[],"default_left":[0,0,0,0,0,0,0,0,0,0,0,0,0,0,0,0,0,0,0,0,0,0,0,0,0,0,0,0,0,0,0,0,0,0,0,0,0,0,0,0,0,0,0,0,0,0,0,0,0,0,0,0,0,0,0,0,0,0,0,0,0,0,0,0,0,0,0],"id":17,"left_children":[1,3,5,7,9,11,13,15,17,19,21,-1,23,-1,-1,25,27,29,-1,31,33,35,-1,37,-1,39,41,43,45,-1,-1,47,-1,-1,-1,-1,49,-1,51,53,-1,55,57,59,61,63,-1,-1,65,-1,-1,-1,-1,-1,-1,-1,-1,-1,-1,-1,-1,-1,-1,-1,-1,-1,-1],"loss_changes":[3.9817425E5,5.1657966E5,2.9921628E5,8.9100556E5,4.855225E4,4.5081956E5,4.2162227E3,2.8354938E5,2.6901212E5,1.654875E3,5.6683555E4,0E0,1.7299545E4,0E0,0E0,2.5912952E5,2.3203905E5,2.3202698E5,0E0,8.8861875E3,2.050671E4,1.443606E3,0E0,5.3916426E3,0E0,1.0756796E5,1.6301094E5,2.5675438E5,2.6857531E4,0E0,0E0,5.0365688E4,0E0,0E0,0E0,0E0,1.7027621E2,0E0,3.0308984E2,2.4894164E4,0E0,8.603681E4,1.8496275E4,4.079383E4,1.6953247E5,4.9765625E3,0E0,0E0,2.0566838E3,0E0,0E0,0E0,0E0,0E0,0E0,0E0,0E0,0E0,0E0,0E0,0E0,0E0,0E0,0E0,0E0,0E0,0E0],"parents":[2147483647,0,0,1,1,2,2,3,3,4,4,5,5,6,6,7,7,8,8,9,9,10,10,12,12,15,15,16,16,17,17,19,19,20,20,21,21,23,23,25,25,26,26,27,27,28,28,31,31,36,36,38,38,39,39,41,41,42,42,43,43,44,44,45,45,48,48],"right_children":[2,4,6,8,10,12,14,16,18,20,22,-1,24,-1,-1,26,28,30,-1,32,34,36,-1,38,-1,40,42,44,46,-1,-1,48,-1,-1,-1,-1,50,-1,52,54,-1,56,58,60,62,64,-1,-1,66,-1,-1,-1,-1,-1,-1,-1,-1,-1,-1,-1,-1,-1,-1,-1,-1,-1,-1],"split_conditions":[9.4287694E-1,1.532391E-1,2.8604808E0,7.662605E-2,1.7548511E0,1.198514E0,1.0720176E0,-8.120313E-1,5.2947974E-1,2.6810417E-1,2.5556097E0,8.5480845E-1,2.1665885E0,-5.714822E-2,-2.9114258E-1,-1.1687135E0,-2.8253177E-1,-2.6373236E0,1.1477084E0,-1.0239204E-1,2.9305807E-1,-2.0122285E0,-3.3437085E-1,1.208048E0,1.5931146E-1,-1.4111893E0,2.9565942E0,-7.140016E-2,2.0750968E-1,5.772665E-1,-3.2249808E-1,5.8964144E-2,-4.9097326E-1,2.6377534E-2,-2.5499007E-1,8.812723E-2,-1.8992062E0,5.120395E-2,1.394926E0,-2.3152097E-1,2.0440617E-1,-6.963015E-1,-1.847049E0,-3.8213354E-1,-1.4289865E-1,-7.340547E-1,-1.1910133E-2,-3.4556845E-1,6.260364E-1,-4.5715347E-3,2.1353792E-2,-9.2249066E-2,-1.9957663E-2,-3.493922E-1,-5.1815018E-2,1.1018254E-1,6.2016046E-1,8.551446E-2,-1.6978694E-1,1.50109E-1,6.40291E-1,-1.0019857E-1,1.9377738E-1,-1.7036656E-1,-3.8986975E-1,-4.5773778E-2,3.7921194E-2],"split_indices":[0,7,7,7,7,0,0,18,0,9,9,0,6,0,0,7,17,0,0,10,9,0,0,0,0,3,17,0,0,0,0,9,0,0,0,0,0,0,0,4,0,9,0,2,10,18,0,0,0,0,0,0,0,0,0,0,0,0,0,0,0,0,0,0,0,0,0],"split_type":[0,0,0,0,0,0,0,0,0,0,0,0,0,0,0,0,0,0,0,0,0,0,0,0,0,0,0,0,0,0,0,0,0,0,0,0,0,0,0,0,0,0,0,0,0,0,0,0,0,0,0,0,0,0,0,0,0,0,0,0,0,0,0,0,0,0,0],"sum_hessian":[1.08E2,9.7E1,1.1E1,7.9E1,1.8E1,9E0,2E0,7.5E1,4E0,1.4E1,4E0,4E0,5E0,1E0,1E0,1.5E1,6E1,2E0,2E0,1.1E1,3E0,3E0,1E0,3E0,2E0,6E0,9E0,5E1,1E1,1E0,1E0,7E0,4E0,1E0,2E0,1E0,2E0,1E0,2E0,4E0,2E0,7E0,2E0,3E0,4.7E1,9E0,1E0,5E0,2E0,1E0,1E0,1E0,1E0,2E0,2E0,2E0,5E0,1E0,1E0,2E0,1E0,4E1,7E0,3E0,6E0,1E0,1E0],"tree_param":{"num_deleted":"0","num_feature":"20","num_nodes":"67","size_leaf_vector":"1"}},{"base_weights":[2.5260164E1,4.61165E1,-1.3390762E2,8.161066E0,2.555925E2,1.6917445E-1,-1.603671E2,3.031042E1,-1.797847E2,4.234825E2,3.2207074E0,-8.630883E1,-3.7028432E-1,3.6161869E0,2.9292267E2,-2.3950021E2,-4.526525E1,8.107649E1,5.811728E2,6.2706474E1,-9.699581E1,-6.1043396E0,-2.3013769E-1,6.201792E1,-9.169095E1,1.0653689E0,-1.20723955E-1,-4.821532E-1,-1.1866791E-1,-2.3215194E-1,4.3548398E-2,-3.1313142E-1,7.685122E-1,1.39566E0,3.0373944E2,3.1574959E1,1.725158E-1,-3.3427322E-1,6.615783E-2,-3.82077E-2,2.133411E-2,3.0418207E1,3.0241208E2,-4.1988495E-1,-5.0388348E1,2.635324E-2,7.2873807E-1,1.3902436E-1,-9.216406E-2,-2.0660749E-3,4.633124E-1,8.0424213E-1,-2.1527407E-1,1.22078136E-1,-2.2439457E-1],"categories":[],"categories_nodes":[],"categories_segments":[],"categories_sizes":[],"default_left":[0,0,0,0,0,0,0,0,0,0,0,0,0,0,0,0,0,0,0,0,0,0,0,0,0,0,0,0,0,0,0,0,0,0,0,0,0,0,0,0,0,0,0,0,0,0,0,0,0,0,0,0,0,0,0],"id":18,"left_children":[1,3,5,7,9,-1,11,13,15,17,19,21,-1,23,25,27,29,31,33,35,37,39,-1,41,43,-1,-1,-1,-1,-1,-1,-1,-1,-1,45,47,-1,-1,-1,-1,-1,49,51,-1,53,-1,-1,-1,-1,-1,-1,-1,-1,-1,-1],"loss_changes":[3.7133762E5,7.770879E5,9.236066E4,3.5513106E5,6.341967E5,0E0,1.8711031E4,5.3171844E5,6.145503E4,4.388275E5,4.781246E4,1.780155E4,0E0,3.9531362E5,7.534595E5,6.41425E3,2.5220525E4,4.0816425E5,6.3240625E4,1.8554141E3,4.0161094E4,1.0160252E3,0E0,3.250422E5,1.4036166E5,0E0,0E0,0E0,0E0,0E0,0E0,0E0,0E0,0E0,1.00525625E5,1.8089217E4,0E0,0E0,0E0,0E0,0E0,2.790897E5,3.3189412E5,0E0,1.912251E5,0E0,0E0,0E0,0E0,0E0,0E0,0E0,0E0,0E0,0E0],"parents":[2147483647,0,0,1,1,2,2,3,3,4,4,6,6,7,7,8,8,9,9,10,10,11,11,13,13,14,14,15,15,16,16,17,17,18,18,19,19,20,20,21,21,23,23,24,24,34,34,35,35,41,41,42,42,44,44],"right_children":[2,4,6,8,10,-1,12,14,16,18,20,22,-1,24,26,28,30,32,34,36,38,40,-1,42,44,-1,-1,-1,-1,-1,-1,-1,-1,-1,46,48,-1,-1,-1,-1,-1,50,52,-1,54,-1,-1,-1,-1,-1,-1,-1,-1,-1,-1],"split_conditions":[1.0998486E0,3.113761E-1,-2.2742798E0,6.4023346E-1,1.198514E0,1.6917445E-1,1.5476419E0,1.1696675E-1,-1.1038252E-1,2.4504556E-1,1.438574E0,8.5181624E-1,-3.7028432E-1,-2.6032424E-1,6.0719095E-2,8.422253E-1,6.0008657E-1,8.3578783E-1,3.6397794E-1,1.394926E0,1.4909092E0,-1.2075408E0,-2.3013769E-1,-2.9655382E-1,-2.2890358E-1,1.0653689E0,-1.20723955E-1,-4.821532E-1,-1.1866791E-1,-2.3215194E-1,4.3548398E-2,-3.1313142E-1,7.685122E-1,1.39566E0,7.479455E-1,1.2827169E0,1.725158E-1,-3.3427322E-1,6.615783E-2,-3.82077E-2,2.133411E-2,3.3820996E-1,2.6751828E-1,-4.1988495E-1,-1.2495749E-1,2.635324E-2,7.2873807E-1,1.3902436E-1,-9.216406E-2,-2.0660749E-3,4.633124E-1,8.0424213E-1,-2.1527407E-1,1.22078136E-1,-2.2439457E-1],"split_indices":[10,16,0,2,0,0,10,16,10,9,0,0,0,10,9,0,0,0,7,0,0,0,0,10,10,0,0,0,0,0,0,0,0,0,0,0,0,0,0,0,0,3,0,0,7,0,0,0,0,0,0,0,0,0,0],"split_type":[0,0,0,0,0,0,0,0,0,0,0,0,0,0,0,0,0,0,0,0,0,0,0,0,0,0,0,0,0,0,0,0,0,0,0,0,0,0,0,0,0,0,0,0,0,0,0,0,0,0,0,0,0,0,0],"sum_hessian":[1.09E2,9.7E1,1.2E1,8.3E1,1.4E1,1E0,1.1E1,7.5E1,8E0,8E0,6E0,5E0,6E0,6.9E1,6E0,5E0,3E0,3E0,5E0,4E0,2E0,2E0,3E0,4.3E1,2.6E1,3E0,3E0,4E0,1E0,1E0,2E0,2E0,1E0,2E0,3E0,3E0,1E0,1E0,1E0,1E0,1E0,3.9E1,4E0,5E0,2.1E1,1E0,2E0,2E0,1E0,3.5E1,4E0,3E0,1E0,8E0,1.3E1],"tree_param":{"num_deleted":"0","num_feature":"20","num_nodes":"55","size_leaf_vector":"1"}},{"base_weights":[-5.593232E0,-2.9872915E1,2.0681065E2,5.929463E1,-1.20275764E2,2.9467902E2,-1.2573126E2,3.8655983E1,3.6286853E2,-1.6437227E2,8.907269E1,8.5600996E-1,6.590552E1,-5.6883506E-2,-2.906623E-1,1.33296E2,-4.9959084E1,1.5798211E-2,9.872414E-1,-6.8897964E1,-1.8253658E2,-2.8823025E1,9.511029E-1,2.3577393E1,1.5896913E-1,1.7873747E1,5.452414E2,-9.982758E0,-2.0786784E2,-2.7333242E-1,4.7610016E1,-2.3874898E2,-1.285512E2,-8.7009415E1,5.1115723E1,1.5725167E-1,-9.207914E-2,1.5505975E2,-7.507307E1,2.5381762E-1,1.1290528E0,5.7937176E1,-7.699517E1,-4.7287416E-1,-1.1897255E-2,1.8519098E-1,-1.0231528E-1,-1.4029495E2,-2.7394647E2,1.3285187E1,-2.1239618E2,-2.615728E-1,1.2229389E-1,-2.8016022E1,2.6583356E-1,-5.5954713E-2,5.019536E-1,1.823045E-1,-2.2070466E-1,-5.494172E-2,5.563022E-1,1.5140812E-1,-1.8635672E-1,-4.4166684E-1,-5.6552563E-2,-1.9579971E-1,-5.576098E-1,-5.596504E-2,1.189201E-1,-4.3077344E-1,2.083562E-2,-7.831128E-2,8.6951925E-4],"categories":[],"categories_nodes":[],"categories_segments":[],"categories_sizes":[],"default_left":[0,0,0,0,0,0,0,0,0,0,0,0,0,0,0,0,0,0,0,0,0,0,0,0,0,0,0,0,0,0,0,0,0,0,0,0,0,0,0,0,0,0,0,0,0,0,0,0,0,0,0,0,0,0,0,0,0,0,0,0,0,0,0,0,0,0,0,0,0,0,0,0,0],"id":19,"left_children":[1,3,5,7,9,11,13,15,17,19,21,-1,23,-1,-1,25,27,-1,-1,29,31,33,-1,35,-1,37,39,41,43,-1,45,47,49,51,53,-1,-1,55,57,-1,-1,59,61,-1,-1,-1,-1,63,65,67,69,-1,-1,71,-1,-1,-1,-1,-1,-1,-1,-1,-1,-1,-1,-1,-1,-1,-1,-1,-1,-1,-1],"loss_changes":[5.5283056E5,7.809877E5,3.5846938E5,2.929753E5,4.577548E5,3.1907494E5,4.23741E3,4.0082638E5,1.7913919E5,5.67925E4,4.679987E5,0E0,2.2750156E3,0E0,0E0,1.083851E6,1.5574022E5,0E0,0E0,8.109258E4,6.9451875E4,4.1658332E4,0E0,1.7889225E4,0E0,2.5390983E5,5.3029E4,1.0004192E5,4.7426297E4,0E0,2.7395906E4,1.354675E4,2.2877488E5,5.1546633E4,3.3522707E4,0E0,0E0,1.8231255E5,1.05168E5,0E0,0E0,2.4446938E5,5.0557336E4,0E0,0E0,0E0,0E0,5.799907E4,1.5881375E4,1.9857318E4,5.99945E4,0E0,0E0,1.2575525E3,0E0,0E0,0E0,0E0,0E0,0E0,0E0,0E0,0E0,0E0,0E0,0E0,0E0,0E0,0E0,0E0,0E0,0E0,0E0],"parents":[2147483647,0,0,1,1,2,2,3,3,4,4,5,5,6,6,7,7,8,8,9,9,10,10,12,12,15,15,16,16,19,19,20,20,21,21,23,23,25,25,26,26,27,27,28,28,30,30,31,31,32,32,33,33,34,34,37,37,38,38,41,41,42,42,47,47,48,48,49,49,50,50,53,53],"right_children":[2,4,6,8,10,12,14,16,18,20,22,-1,24,-1,-1,26,28,-1,-1,30,32,34,-1,36,-1,38,40,42,44,-1,46,48,50,52,54,-1,-1,56,58,-1,-1,60,62,-1,-1,-1,-1,64,66,68,70,-1,-1,72,-1,-1,-1,-1,-1,-1,-1,-1,-1,-1,-1,-1,-1,-1,-1,-1,-1,-1,-1],"split_conditions":[9.73994E-1,-3.162768E-1,2.8604808E0,-3.2107452E-1,-2.8305224E-1,1.198514E0,1.0720176E0,-3.4782654E-1,3.384836E-1,2.4493104E-1,1.1768085E-1,8.5600996E-1,1.394926E0,-5.6883506E-2,-2.906623E-1,-4.8145524E-1,-2.8305224E-1,1.5798211E-2,9.872414E-1,2.0555963E-1,1.0970304E-1,-2.3152097E-1,9.511029E-1,1.2827169E0,1.5896913E-1,-2.7950522E-1,-2.40142E0,-4.0605478E-2,3.2840425E-1,-2.7333242E-1,2.4127088E-1,-6.316473E-2,7.2295356E-1,-5.249408E-1,-2.0969222E0,1.5725167E-1,-9.207914E-2,-7.681473E-1,-2.503687E0,2.5381762E-1,1.1290528E0,-3.567127E-1,-6.5786594E-1,-4.7287416E-1,-1.1897255E-2,1.8519098E-1,-1.0231528E-1,3.4680268E-1,-4.519089E-2,2.4339496E-1,9.737526E-1,-2.615728E-1,1.2229389E-1,-2.340996E0,2.6583356E-1,-5.5954713E-2,5.019536E-1,1.823045E-1,-2.2070466E-1,-5.494172E-2,5.563022E-1,1.5140812E-1,-1.8635672E-1,-4.4166684E-1,-5.6552563E-2,-1.9579971E-1,-5.576098E-1,-5.596504E-2,1.189201E-1,-4.3077344E-1,2.083562E-2,-7.831128E-2,8.6951925E-4],"split_indices":[0,9,7,9,17,0,0,3,0,1,0,0,0,0,0,9,17,0,0,1,16,4,0,0,0,11,0,18,0,0,0,16,6,0,0,0,0,9,0,0,0,7,10,0,0,0,0,1,7,16,0,0,0,0,0,0,0,0,0,0,0,0,0,0,0,0,0,0,0,0,0,0,0],"split_type":[0,0,0,0,0,0,0,0,0,0,0,0,0,0,0,0,0,0,0,0,0,0,0,0,0,0,0,0,0,0,0,0,0,0,0,0,0,0,0,0,0,0,0,0,0,0,0,0,0,0,0,0,0,0,0,0,0,0,0,0,0,0,0,0,0,0,0,0,0,0,0,0,0],"sum_hessian":[1.05E2,9.5E1,1E1,4.8E1,4.7E1,8E0,2E0,4.6E1,2E0,3.9E1,8E0,4E0,4E0,1E0,1E0,2.2E1,2.4E1,1E0,1E0,7E0,3.2E1,7E0,1E0,2E0,2E0,1.8E1,4E0,2E1,4E0,4E0,3E0,1.4E1,1.8E1,4E0,3E0,1E0,1E0,7E0,1.1E1,1E0,3E0,1E1,1E1,3E0,1E0,2E0,1E0,5E0,9E0,7E0,1.1E1,3E0,1E0,2E0,1E0,3E0,4E0,2E0,9E0,8E0,2E0,1E0,9E0,2E0,3E0,2E0,7E0,4E0,3E0,1E1,1E0,1E0,1E0],"tree_param":{"num_deleted":"0","num_feature":"20","num_nodes":"73","size_leaf_vector":"1"}}]},"name":"gbtree"},"learner_model_param":{"base_score":"4.4653192E2","boost_from_average":"1","num_class":"0","num_feature":"20","num_target":"1"},"objective":{"name":"reg:squarederror","reg_loss_param":{"scale_pos_weight":"1"}}},"version":[2,0,3]}