{"learner":{"attributes":{"best_iteration":"0","best_score":"406.54448173642766","scikit_learn":"{\"_estimator_type\": \"regressor\"}"},"feature_names":[],"feature_types":[],"gradient_booster":{"model":{"gbtree_model_param":{"num_parallel_tree":"1","num_trees":"11"},"iteration_indptr":[0,1,2,3,4,5,6,7,8,9,10,11],"tree_info":[0,0,0,0,0,0,0,0,0,0,0],"trees":[{"base_weights":[-7.7504965E-6,-2.663934E1,8.3392685E1,-5.1643227E1,1.00531906E2,3.60935E0,1.1926029E0,-3.5238948E-1,-2.111854E0,-4.065875E-1,3.999195E0,-9.676704E-1,5.574295E-1],"categories":[],"categories_nodes":[],"categories_segments":[],"categories_sizes":[],"default_left":[0,0,0,0,0,0,0,0,0,0,0,0,0],"id":0,"left_children":[1,3,5,7,9,-1,11,-1,-1,-1,-1,-1,-1],"loss_changes":[4.2208988E5,4.630795E5,1.2767926E6,2.3785572E5,1.3225385E6,0E0,2.8425228E5,0E0,0E0,0E0,0E0,0E0,0E0],"parents":[2147483647,0,0,1,1,2,2,3,3,4,4,6,6],"right_children":[2,4,6,8,10,-1,12,-1,-1,-1,-1,-1,-1],"split_conditions":[-1.4617485E-1,8.651309E-1,8.479814E-1,8.3108974E-1,-8.494038E-1,3.60935E0,1.6739795E0,-3.5238948E-1,-2.111854E0,-4.065875E-1,3.999195E0,-9.676704E-1,5.574295E-1],"split_indices":[7,14,7,14,3,0,7,0,0,0,0,0,0],"split_type":[0,0,0,0,0,0,0,0,0,0,0,0,0],"sum_hessian":[1.88E2,1.43E2,4.5E1,1.2E2,2.3E1,8E0,3.7E1,1.15E2,5E0,1.7E1,6E0,1.3E1,2.4E1],"tree_param":{"num_deleted":"0","num_feature":"20","num_nodes":"13","size_leaf_vector":"1"}},{"base_weights":[2.28877E-2,-2.6403227E1,8.274762E1,-5.122105E1,9.982011E1,1.2355947E1,4.0547047E0,-3.4939578E-1,-2.0967731E0,-4.032969E-1,3.9698205E0,5.1743263E-1,-1.0261537E0],"categories":[],"categories_nodes":[],"categories_segments":[],"categories_sizes":[],"default_left":[0,0,0,0,0,0,0,0,0,0,0,0,0],"id":1,"left_children":[1,3,5,7,9,11,-1,-1,-1,-1,-1,-1,-1],"loss_changes":[4.153564E5,4.562056E5,1.2583304E6,2.3460572E5,1.3029938E6,2.6100584E5,0E0,0E0,0E0,0E0,0E0,0E0,0E0],"parents":[2147483647,0,0,1,1,2,2,3,3,4,4,5,5],"right_children":[2,4,6,8,10,12,-1,-1,-1,-1,-1,-1,-1],"split_conditions":[-1.4617485E-1,8.651309E-1,-7.4711347E-1,8.3108974E-1,-8.494038E-1,-1.2759908E0,4.0547047E0,-3.4939578E-1,-2.0967731E0,-4.032969E-1,3.9698205E0,5.1743263E-1,-1.0261537E0],"split_indices":[7,14,14,14,3,14,0,0,0,0,0,0,0],"split_type":[0,0,0,0,0,0,0,0,0,0,0,0,0],"sum_hessian":[1.88E2,1.43E2,4.5E1,1.2E2,2.3E1,3.9E1,6E0,1.15E2,5E0,1.7E1,6E0,2.9E1,1E1],"tree_param":{"num_deleted":"0","num_feature":"20","num_nodes":"13","size_leaf_vector":"1"}},{"base_weights":[4.738088E-2,-2.6169188E1,8.211561E1,-5.0802334E1,9.911331E1,3.5591772E0,1.0333622E0,-3.464275E-1,-2.0818E0,-4.0003297E-1,3.9406614E0,-9.5558417E-1,5.485871E-1],"categories":[],"categories_nodes":[],"categories_segments":[],"categories_sizes":[],"default_left":[0,0,0,0,0,0,0,0,0,0,0,0,0],"id":2,"left_children":[1,3,5,7,9,-1,11,-1,-1,-1,-1,-1,-1],"loss_changes":[4.087913E5,4.4943388E5,1.2424216E6,2.3139984E5,1.2837378E6,0E0,2.765047E5,0E0,0E0,0E0,0E0,0E0,0E0],"parents":[2147483647,0,0,1,1,2,2,3,3,4,4,6,6],"right_children":[2,4,6,8,10,-1,12,-1,-1,-1,-1,-1,-1],"split_conditions":[-1.4617485E-1,8.651309E-1,8.479814E-1,8.3108974E-1,-8.494038E-1,3.5591772E0,1.6739795E0,-3.464275E-1,-2.0818E0,-4.0003297E-1,3.9406614E0,-9.5558417E-1,5.485871E-1],"split_indices":[7,14,7,14,3,0,7,0,0,0,0,0,0],"split_type":[0,0,0,0,0,0,0,0,0,0,0,0,0],"sum_hessian":[1.88E2,1.43E2,4.5E1,1.2E2,2.3E1,8E0,3.7E1,1.15E2,5E0,1.7E1,6E0,1.3E1,2.4E1],"tree_param":{"num_deleted":"0","num_feature":"20","num_nodes":"13","size_leaf_vector":"1"}},{"base_weights":[6.954423E-2,-2.5937206E1,8.148047E1,-5.0387054E1,9.841149E1,1.2040808E1,3.9987798E0,-3.4348437E-1,-2.0669336E0,-3.9679545E-1,3.9117167E0,5.0946075E-1,-1.0142324E0],"categories":[],"categories_nodes":[],"categories_segments":[],"categories_sizes":[],"default_left":[0,0,0,0,0,0,0,0,0,0,0,0,0],"id":3,"left_children":[1,3,5,7,9,11,-1,-1,-1,-1,-1,-1,-1],"loss_changes":[4.0227053E5,4.427628E5,1.2246622E6,2.2823766E5,1.2647665E6,2.5432538E5,0E0,0E0,0E0,0E0,0E0,0E0,0E0],"parents":[2147483647,0,0,1,1,2,2,3,3,4,4,5,5],"right_children":[2,4,6,8,10,12,-1,-1,-1,-1,-1,-1,-1],"split_conditions":[-1.4617485E-1,8.651309E-1,-7.4711347E-1,8.3108974E-1,-8.494038E-1,-1.2759908E0,3.9987798E0,-3.4348437E-1,-2.0669336E0,-3.9679545E-1,3.9117167E0,5.0946075E-1,-1.0142324E0],"split_indices":[7,14,14,14,3,14,0,0,0,0,0,0,0],"split_type":[0,0,0,0,0,0,0,0,0,0,0,0,0],"sum_hessian":[1.88E2,1.43E2,4.5E1,1.2E2,2.3E1,3.9E1,6E0,1.15E2,5E0,1.7E1,6E0,2.9E1,1E1],"tree_param":{"num_deleted":"0","num_feature":"20","num_nodes":"13","size_leaf_vector":"1"}},{"base_weights":[9.327302E-2,-2.570728E1,8.085819E1,-4.99752E1,9.771463E1,3.5097024E0,8.786244E-1,-3.4056643E-1,-2.0521734E0,-3.9358416E-1,3.8829849E0,-9.436405E-1,5.398831E-1],"categories":[],"categories_nodes":[],"categories_segments":[],"categories_sizes":[],"default_left":[0,0,0,0,0,0,0,0,0,0,0,0,0],"id":4,"left_children":[1,3,5,7,9,-1,11,-1,-1,-1,-1,-1,-1],"loss_changes":[3.9591297E5,4.3619112E5,1.208974E6,2.251185E5,1.2460761E6,0E0,2.6896584E5,0E0,0E0,0E0,0E0,0E0,0E0],"parents":[2147483647,0,0,1,1,2,2,3,3,4,4,6,6],"right_children":[2,4,6,8,10,-1,12,-1,-1,-1,-1,-1,-1],"split_conditions":[-1.4617485E-1,8.651309E-1,8.479814E-1,8.3108974E-1,-8.494038E-1,3.5097024E0,1.6739795E0,-3.4056643E-1,-2.0521734E0,-3.9358416E-1,3.8829849E0,-9.436405E-1,5.398831E-1],"split_indices":[7,14,7,14,3,0,7,0,0,0,0,0,0],"split_type":[0,0,0,0,0,0,0,0,0,0,0,0,0],"sum_hessian":[1.88E2,1.43E2,4.5E1,1.2E2,2.3E1,8E0,3.7E1,1.15E2,5E0,1.7E1,6E0,1.3E1,2.4E1],"tree_param":{"num_deleted":"0","num_feature":"20","num_nodes":"13","size_leaf_vector":"1"}},{"base_weights":[1.1471251E-1,-2.5479362E1,8.02328E1,-4.956671E1,9.702267E1,1.173227E1,3.9436285E0,-3.3767307E-1,-2.0375187E0,-3.9039877E-1,3.8544633E0,5.0161505E-1,-1.0024494E0],"categories":[],"categories_nodes":[],"categories_segments":[],"categories_sizes":[],"default_left":[0,0,0,0,0,0,0,0,0,0,0,0,0],"id":5,"left_children":[1,3,5,7,9,11,-1,-1,-1,-1,-1,-1,-1],"loss_changes":[3.895979E5,4.29717E5,1.1918949E6,2.2204162E5,1.2276615E6,2.4781853E5,0E0,0E0,0E0,0E0,0E0,0E0,0E0],"parents":[2147483647,0,0,1,1,2,2,3,3,4,4,5,5],"right_children":[2,4,6,8,10,12,-1,-1,-1,-1,-1,-1,-1],"split_conditions":[-1.4617485E-1,8.651309E-1,-7.4711347E-1,8.3108974E-1,-8.494038E-1,-1.2759908E0,3.9436285E0,-3.3767307E-1,-2.0375187E0,-3.9039877E-1,3.8544633E0,5.0161505E-1,-1.0024494E0],"split_indices":[7,14,14,14,3,14,0,0,0,0,0,0,0],"split_type":[0,0,0,0,0,0,0,0,0,0,0,0,0],"sum_hessian":[1.88E2,1.43E2,4.5E1,1.2E2,2.3E1,3.9E1,6E0,1.15E2,5E0,1.7E1,6E0,2.9E1,1E1],"tree_param":{"num_deleted":"0","num_feature":"20","num_nodes":"13","size_leaf_vector":"1"}},{"base_weights":[1.3771081E-1,-2.5253454E1,7.96201E1,-4.9161583E1,9.633559E1,3.4609153E0,7.282731E-1,-3.3480433E-1,-2.0229685E0,-3.8723907E-1,3.8261518E0,-9.3183756E-1,5.313151E-1],"categories":[],"categories_nodes":[],"categories_segments":[],"categories_sizes":[],"default_left":[0,0,0,0,0,0,0,0,0,0,0,0,0],"id":6,"left_children":[1,3,5,7,9,-1,11,-1,-1,-1,-1,-1,-1],"loss_changes":[3.8344112E5,4.233392E5,1.1764248E6,2.1900669E5,1.2095194E6,0E0,2.6163023E5,0E0,0E0,0E0,0E0,0E0,0E0],"parents":[2147483647,0,0,1,1,2,2,3,3,4,4,6,6],"right_children":[2,4,6,8,10,-1,12,-1,-1,-1,-1,-1,-1],"split_conditions":[-1.4617485E-1,8.651309E-1,8.479814E-1,8.3108974E-1,-8.494038E-1,3.4609153E0,1.6739795E0,-3.3480433E-1,-2.0229685E0,-3.8723907E-1,3.8261518E0,-9.3183756E-1,5.313151E-1],"split_indices":[7,14,7,14,3,0,7,0,0,0,0,0,0],"split_type":[0,0,0,0,0,0,0,0,0,0,0,0,0],"sum_hessian":[1.88E2,1.43E2,4.5E1,1.2E2,2.3E1,8E0,3.7E1,1.15E2,5E0,1.7E1,6E0,1.3E1,2.4E1],"tree_param":{"num_deleted":"0","num_feature":"20","num_nodes":"13","size_leaf_vector":"1"}},{"base_weights":[1.5844387E-1,-8.005856E1,2.5052284E1,-1.23513084E2,3.6407413E1,2.0895742E-1,3.4314976E0,-5.541493E-1,-1.5004396E0,8.3919424E-1,-4.4295326E-1,-3.358407E-1,6.7701435E-1],"categories":[],"categories_nodes":[],"categories_segments":[],"categories_sizes":[],"default_left":[0,0,0,0,0,0,0,0,0,0,0,0,0],"id":7,"left_children":[1,3,5,7,9,11,-1,-1,-1,-1,-1,-1,-1],"loss_changes":[3.794215E5,2.3224056E5,1.3521665E6,8.884425E4,7.552215E4,4.2841756E5,0E0,0E0,0E0,0E0,0E0,0E0,0E0],"parents":[2147483647,0,0,1,1,2,2,3,3,4,4,5,5],"right_children":[2,4,6,8,10,12,-1,-1,-1,-1,-1,-1,-1],"split_conditions":[-5.8453715E-1,-1.274511E-1,8.179481E-1,-6.9191754E-3,-1.1716901E-1,-1.4617485E-1,3.4314976E0,-5.541493E-1,-1.5004396E0,8.3919424E-1,-4.4295326E-1,-3.358407E-1,6.7701435E-1],"split_indices":[7,11,14,6,11,7,0,0,0,0,0,0,0],"split_type":[0,0,0,0,0,0,0,0,0,0,0,0,0],"sum_hessian":[1.88E2,4.4E1,1.44E2,3.2E1,1.2E1,1.36E2,8E0,1.6E1,1.6E1,7E0,5E0,9.1E1,4.5E1],"tree_param":{"num_deleted":"0","num_feature":"20","num_nodes":"13","size_leaf_vector":"1"}},{"base_weights":[1.682791E-1,-7.940937E1,2.4863632E1,-1.2251693E2,3.6125908E1,2.0966579E-1,3.4053595E0,-5.496801E-1,-1.4883382E0,8.329018E-1,-4.3979004E-1,-3.32994E-1,6.7133904E-1],"categories":[],"categories_nodes":[],"categories_segments":[],"categories_sizes":[],"default_left":[0,0,0,0,0,0,0,0,0,0,0,0,0],"id":8,"left_children":[1,3,5,7,9,11,-1,-1,-1,-1,-1,-1,-1],"loss_changes":[3.7339688E5,2.28546E5,1.3316302E6,8.741694E4,7.44132E4,4.2123856E5,0E0,0E0,0E0,0E0,0E0,0E0,0E0],"parents":[2147483647,0,0,1,1,2,2,3,3,4,4,5,5],"right_children":[2,4,6,8,10,12,-1,-1,-1,-1,-1,-1,-1],"split_conditions":[-5.8453715E-1,-1.274511E-1,8.179481E-1,-6.9191754E-3,-1.1716901E-1,-1.4617485E-1,3.4053595E0,-5.496801E-1,-1.4883382E0,8.329018E-1,-4.3979004E-1,-3.32994E-1,6.7133904E-1],"split_indices":[7,11,14,6,11,7,0,0,0,0,0,0,0],"split_type":[0,0,0,0,0,0,0,0,0,0,0,0,0],"sum_hessian":[1.88E2,4.4E1,1.44E2,3.2E1,1.2E1,1.36E2,8E0,1.6E1,1.6E1,7E0,5E0,9.1E1,4.5E1],"tree_param":{"num_deleted":"0","num_feature":"20","num_nodes":"13","size_leaf_vector":"1"}},{"base_weights":[1.7795251E-1,-7.876544E1,2.46764E1,-1.2152879E2,3.584656E1,2.10355E-1,3.37942E0,-2.3356363E-1,-1.2905923E0,8.266564E-1,-4.3664944E-1,-3.3017138E-1,6.6571134E-1],"categories":[],"categories_nodes":[],"categories_segments":[],"categories_sizes":[],"default_left":[0,0,0,0,0,0,0,0,0,0,0,0,0],"id":9,"left_children":[1,3,5,7,9,11,-1,-1,-1,-1,-1,-1,-1],"loss_changes":[3.6746788E5,2.249101E5,1.3114054E6,8.635444E4,7.332053E4,4.1417988E5,0E0,0E0,0E0,0E0,0E0,0E0,0E0],"parents":[2147483647,0,0,1,1,2,2,3,3,4,4,5,5],"right_children":[2,4,6,8,10,12,-1,-1,-1,-1,-1,-1,-1],"split_conditions":[-5.8453715E-1,-1.274511E-1,8.179481E-1,6.8101346E-1,-1.1716901E-1,-1.4617485E-1,3.37942E0,-2.3356363E-1,-1.2905923E0,8.266564E-1,-4.3664944E-1,-3.3017138E-1,6.6571134E-1],"split_indices":[7,11,14,14,11,7,0,0,0,0,0,0,0],"split_type":[0,0,0,0,0,0,0,0,0,0,0,0,0],"sum_hessian":[1.88E2,4.4E1,1.44E2,3.2E1,1.2E1,1.36E2,8E0,8E0,2.4E1,7E0,5E0,9.1E1,4.5E1],"tree_param":{"num_deleted":"0","num_feature":"20","num_nodes":"13","size_leaf_vector":"1"}},{"base_weights":[1.9007784E-1,-7.8115685E1,2.4490555E1,-1.2053357E2,3.5569378E1,2.1099697E-1,3.3536785E0,-5.385676E-1,-1.4664583E0,8.2045794E-1,-4.335313E-1,-3.273728E-1,6.601306E-1],"categories":[],"categories_nodes":[],"categories_segments":[],"categories_sizes":[],"default_left":[0,0,0,0,0,0,0,0,0,0,0,0,0],"id":10,"left_children":[1,3,5,7,9,11,-1,-1,-1,-1,-1,-1,-1],"loss_changes":[3.6155503E5,2.2128988E5,1.2914882E6,8.5558375E4,7.224392E4,4.0723944E5,0E0,0E0,0E0,0E0,0E0,0E0,0E0],"parents":[2147483647,0,0,1,1,2,2,3,3,4,4,5,5],"right_children":[2,4,6,8,10,12,-1,-1,-1,-1,-1,-1,-1],"split_conditions":[-5.8453715E-1,-1.274511E-1,8.179481E-1,-6.9191754E-3,-1.1716901E-1,-1.4617485E-1,3.3536785E0,-5.385676E-1,-1.4664583E0,8.2045794E-1,-4.335313E-1,-3.273728E-1,6.601306E-1],"split_indices":[7,11,14,6,11,7,0,0,0,0,0,0,0],"split_type":[0,0,0,0,0,0,0,0,0,0,0,0,0],"sum_hessian":[1.88E2,4.4E1,1.44E2,3.2E1,1.2E1,1.36E2,8E0,1.6E1,1.6E1,7E0,5E0,9.1E1,4.5E1],"tree_param":{"num_deleted":"0","num_feature":"20","num_nodes":"13","size_leaf_vector":"1"}}]},"name":"gbtree"},"learner_model_param":{"base_score":"4.4653192E2","boost_from_average":"1","num_class":"0","num_feature":"20","num_target":"1"},"objective":{"name":"reg:squarederror","reg_loss_param":{"scale_pos_weight":"1"}}},"version":[2,0,3]}