tree
version=v4
num_class=1
num_tree_per_iteration=1
label_index=0
max_feature_idx=19
objective=regression
feature_names=Column_0 Column_1 Column_2 Column_3 Column_4 Column_5 Column_6 Column_7 Column_8 Column_9 Column_10 Column_11 Column_12 Column_13 Column_14 Column_15 Column_16 Column_17 Column_18 Column_19
feature_infos=[-0.12934362888336182:11.530960083007812] [-0.15760420262813568:9.9389553070068359] [-0.12520541250705719:13.93647289276123] [-0.90633219480514526:2.6618049144744873] none [-0.15753756463527679:10.216580390930176] [-0.64628815650939941:12.197320938110352] [-0.58769351243972778:2.878382682800293] none [-0.89467006921768188:2.7335147857666016] [-0.15285339951515198:9.6904067993164062] [-0.13176007568836212:10.601140022277832] [-0.16312748193740845:9.7121429443359375] [-0.12833714485168457:10.463809013366699] [-2.9227349758148193:1.0409246683120728] none [-0.15522538125514984:9.92376708984375] none [-0.12034463137388229:11.451425552368164] [-0.18593384325504303:10.12990665435791]
tree_sizes=751 762 762 763 763 762 763 758 758 763 763 761 763 750 769 768 769 771 771 768 771 768 769 769 769 770 768 764 770 766 770 767 766 761 761 781 775 765 777 753 759 754 746 768 755 744 769 756 741 765

Tree=0
num_leaves=7
num_cat=0
split_feature=7 14 7 3 3 11
split_gain=665276 1.86649e+06 553120 1.55607e+06 470158 456704
threshold=-0.58754360675811756 0.81708878278732311 -0.14717877656221387 1.1743326187133791 2.0358101129531865 -0.13080950826406476
decision_type=2 2 2 2 2 2
left_child=5 2 -2 -4 -5 -1
right_child=1 -3 3 4 -6 -7
leaf_value=443.31158314144113 445.02008543481327 448.96635598293801 448.97952265842616 444.55052258268853 446.82731751910711 445.45941148061087
leaf_weight=22 122 15.999999999999998 14.999999999999998 30 12.999999999999998 18
leaf_count=22 122 16 15 30 13 18
internal_value=445.453 445.693 445.402 446.206 445.239 444.278
internal_weight=0 196 180 58 43 40
internal_count=236 196 180 58 43 40
is_linear=0
shrinkage=1


Tree=1
num_leaves=7
num_cat=0
split_feature=7 14 7 3 3 11
split_gain=652036 1.82935e+06 542113 1.52511e+06 460802 447615
threshold=-0.58754360675811756 0.81708878278732311 -0.14717877656221387 1.1743326187133791 2.0358101129531865 -0.13080950826406476
decision_type=2 2 2 2 2 2
left_child=5 2 -2 -4 -5 -1
right_child=1 -3 3 4 -6 -7
leaf_value=-2.1203885704820804 -0.42897132193455934 3.477836502790451 3.490871541341146 -0.89383860866228748 1.3601883286696212 0.0059614393446180561
leaf_weight=22 122 15.999999999999998 14.999999999999998 30 12.999999999999998 18
leaf_count=22 122 16 15 30 13 18
internal_value=0 0.237455 -0.0505785 0.745351 -0.212389 -1.16353
internal_weight=0 196 180 58 43 40
internal_count=236 196 180 58 43 40
is_linear=0
shrinkage=0.01


Tree=2
num_leaves=7
num_cat=0
split_feature=7 14 7 3 3 11
split_gain=639061 1.79294e+06 531325 1.49476e+06 451632 438708
threshold=-0.58754360675811756 0.81708878278732311 -0.14717877656221387 1.1743326187133791 2.0358101129531865 -0.13080950826406476
decision_type=2 2 2 2 2 2
left_child=5 2 -2 -4 -5 -1
right_child=1 -3 3 4 -6 -7
leaf_value=-2.099184660478072 -0.42468166945410557 3.4430580174922945 3.4559627761840819 -0.88490012264251705 1.3465865091177134 0.0059018389383951823
leaf_weight=22 122 15.999999999999998 14.999999999999998 30 12.999999999999998 18
leaf_count=22 122 16 15 30 13 18
internal_value=0 0.235081 -0.0500728 0.737898 -0.210265 -1.1519
internal_weight=0 196 180 58 43 40
internal_count=236 196 180 58 43 40
is_linear=0
shrinkage=0.01


Tree=3
num_leaves=7
num_cat=0
split_feature=7 14 7 3 3 11
split_gain=626344 1.75726e+06 520752 1.46501e+06 442645 429977
threshold=-0.58754360675811756 0.81708878278732311 -0.14717877656221387 1.1743326187133791 2.0358101129531865 -0.13080950826406476
decision_type=2 2 2 2 2 2
left_child=5 2 -2 -4 -5 -1
right_child=1 -3 3 4 -6 -7
leaf_value=-2.0781928318197078 -0.42043484492380112 3.4086276161670686 3.4214030888875331 -0.87605121294657395 1.3331205573448768 0.0058428149753146702
leaf_weight=22 122 15.999999999999998 14.999999999999998 30 12.999999999999998 18
leaf_count=22 122 16 15 30 13 18
internal_value=0 0.23273 -0.0495721 0.730519 -0.208162 -1.14038
internal_weight=0 196 180 58 43 40
internal_count=236 196 180 58 43 40
is_linear=0
shrinkage=0.01


Tree=4
num_leaves=7
num_cat=0
split_feature=7 14 7 3 3 11
split_gain=613879 1.72229e+06 510389 1.43586e+06 433836 421421
threshold=-0.58754360675811756 0.81708878278732311 -0.14717877656221387 1.1743326187133791 2.0358101129531865 -0.13080950826406476
decision_type=2 2 2 2 2 2
left_child=5 2 -2 -4 -5 -1
right_child=1 -3 3 4 -6 -7
leaf_value=-2.0574109510941936 -0.41623047289301141 3.3745411658287048 3.3871890226999923 -0.86729063510894777 1.3197894580547627 0.0057844098409016928
leaf_weight=22 122 15.999999999999998 14.999999999999998 30 12.999999999999998 18
leaf_count=22 122 16 15 30 13 18
internal_value=0 0.230403 -0.0490763 0.723213 -0.20608 -1.12897
internal_weight=0 196 180 58 43 40
internal_count=236 196 180 58 43 40
is_linear=0
shrinkage=0.01


Tree=5
num_leaves=7
num_cat=0
split_feature=7 14 7 3 3 11
split_gain=601663 1.68802e+06 500232 1.40728e+06 425203 413034
threshold=-0.58754360675811756 0.81708878278732311 -0.14717877656221387 1.1743326187133791 2.0358101129531865 -0.13080950826406476
decision_type=2 2 2 2 2 2
left_child=5 2 -2 -4 -5 -1
right_child=1 -3 3 4 -6 -7
leaf_value=-2.0368368881398982 -0.4120681922162166 3.3407958602905272 3.3533171564737958 -0.85861775684356689 1.3065914975679838 0.0057265260484483504
leaf_weight=22 122 15.999999999999998 14.999999999999998 30 12.999999999999998 18
leaf_count=22 122 16 15 30 13 18
internal_value=0 0.228099 -0.0485856 0.715981 -0.20402 -1.11768
internal_weight=0 196 180 58 43 40
internal_count=236 196 180 58 43 40
is_linear=0
shrinkage=0.01


Tree=6
num_leaves=7
num_cat=0
split_feature=7 14 7 3 3 11
split_gain=589690 1.65443e+06 490278 1.37928e+06 416741 404815
threshold=-0.58754360675811756 0.81708878278732311 -0.14717877656221387 1.1743326187133791 2.0358101129531865 -0.13080950826406476
decision_type=2 2 2 2 2 2
left_child=5 2 -2 -4 -5 -1
right_child=1 -3 3 4 -6 -7
leaf_value=-2.0164683315970682 -0.40794747462038133 3.3073878479003906 3.319784055233002 -0.85003162042299907 1.2935256253756009 0.0056692716810438368
leaf_weight=22 122 15.999999999999998 14.999999999999998 30 12.999999999999998 18
leaf_count=22 122 16 15 30 13 18
internal_value=0 0.225818 -0.0480997 0.708821 -0.201979 -1.10651
internal_weight=0 196 180 58 43 40
internal_count=236 196 180 58 43 40
is_linear=0
shrinkage=0.01


Tree=7
num_leaves=7
num_cat=0
split_feature=7 14 7 3 3 11
split_gain=577955 1.6215e+06 480521 1.35183e+06 408448 396759
threshold=-0.58754360675811756 0.81708878278732311 -0.14717877656221387 1.1743326187133791 2.0358101129531865 -0.13080950826406476
decision_type=2 2 2 2 2 2
left_child=5 2 -2 -4 -5 -1
right_child=1 -3 3 4 -6 -7
leaf_value=-1.9963037742267955 -0.40386804957858852 3.27431396484375 3.286586181640625 -0.84153126899401343 1.2805903684175932 0.005612581041124132
leaf_weight=22 122 15.999999999999998 14.999999999999998 30 12.999999999999998 18
leaf_count=22 122 16 15 30 13 18
internal_value=0 0.223559 -0.0476187 0.701733 -0.19996 -1.09544
internal_weight=0 196 180 58 43 40
internal_count=236 196 180 58 43 40
is_linear=0
shrinkage=0.01


Tree=8
num_leaves=7
num_cat=0
split_feature=7 14 7 3 3 11
split_gain=566454 1.58924e+06 470959 1.32493e+06 400320 388864
threshold=-0.58754360675811756 0.81708878278732311 -0.14717877656221387 1.1743326187133791 2.0358101129531865 -0.13080950826406476
decision_type=2 2 2 2 2 2
left_child=5 2 -2 -4 -5 -1
right_child=1 -3 3 4 -6 -7
leaf_value=-1.976340712634 -0.39982935856600277 3.2415708827972414 3.2537203528086343 -0.8331159592866898 1.2677845001220704 0.0055564520094129781
leaf_weight=22 122 15.999999999999998 14.999999999999998 30 12.999999999999998 18
leaf_count=22 122 16 15 30 13 18
internal_value=0 0.221324 -0.0471425 0.694716 -0.19796 -1.08449
internal_weight=0 196 180 58 43 40
internal_count=236 196 180 58 43 40
is_linear=0
shrinkage=0.01


Tree=9
num_leaves=7
num_cat=0
split_feature=7 14 7 3 3 11
split_gain=555182 1.55761e+06 461587 1.29856e+06 392353 381125
threshold=-0.58754360675811756 0.81708878278732311 -0.14717877656221387 1.1743326187133791 2.0358101129531865 -0.13080950826406476
decision_type=2 2 2 2 2 2
left_child=5 2 -2 -4 -5 -1
right_child=1 -3 3 4 -6 -7
leaf_value=-1.9565772516077216 -0.39583103820925858 3.2091552352905275 3.2211830444335936 -0.82478475316365563 1.2551065650353066 0.0055008867051866321
leaf_weight=22 122 15.999999999999998 14.999999999999998 30 12.999999999999998 18
leaf_count=22 122 16 15 30 13 18
internal_value=0 0.219111 -0.0466711 0.687769 -0.19598 -1.07364
internal_weight=0 196 180 58 43 40
internal_count=236 196 180 58 43 40
is_linear=0
shrinkage=0.01


Tree=10
num_leaves=7
num_cat=0
split_feature=7 14 7 3 3 11
split_gain=544133 1.52661e+06 452401 1.27272e+06 384546 373541
threshold=-0.58754360675811756 0.81708878278732311 -0.14717877656221387 1.1743326187133791 2.0358101129531865 -0.13080950826406476
decision_type=2 2 2 2 2 2
left_child=5 2 -2 -4 -5 -1
right_child=1 -3 3 4 -6 -7
leaf_value=-1.9370115046067671 -0.39187271168974586 3.1770634818077088 3.1889712429046631 -0.81653696393469977 1.2425555654672475 0.005445883009168837
leaf_weight=22 122 15.999999999999998 14.999999999999998 30 12.999999999999998 18
leaf_count=22 122 16 15 30 13 18
internal_value=0 0.21692 -0.0462044 0.680891 -0.194021 -1.06291
internal_weight=0 196 180 58 43 40
internal_count=236 196 180 58 43 40
is_linear=0
shrinkage=0.01


Tree=11
num_leaves=7
num_cat=0
split_feature=7 14 7 3 3 11
split_gain=533305 1.49623e+06 443398 1.2474e+06 376893 366107
threshold=-0.58754360675811756 0.81708878278732311 -0.14717877656221387 1.1743326187133791 2.0358101129531865 -0.13080950826406476
decision_type=2 2 2 2 2 2
left_child=5 2 -2 -4 -5 -1
right_child=1 -3 3 4 -6 -7
leaf_value=-1.917641387419267 -0.38795403028120762 3.1452929663658145 3.1570815137227379 -0.80837156818310418 1.2301300254234901 0.0053913985358344189
leaf_weight=22 122 15.999999999999998 14.999999999999998 30 12.999999999999998 18
leaf_count=22 122 16 15 30 13 18
internal_value=0 0.21475 -0.0457424 0.674082 -0.19208 -1.05228
internal_weight=0 196 180 58 43 40
internal_count=236 196 180 58 43 40
is_linear=0
shrinkage=0.01


Tree=12
num_leaves=7
num_cat=0
split_feature=7 14 7 3 3 11
split_gain=522692 1.46646e+06 434575 1.22257e+06 369393 358822
threshold=-0.58754360675811756 0.81708878278732311 -0.14717877656221387 1.1743326187133791 2.0358101129531865 -0.13080950826406476
decision_type=2 2 2 2 2 2
left_child=5 2 -2 -4 -5 -1
right_child=1 -3 3 4 -6 -7
leaf_value=-1.8984650291096079 -0.38407444754584896 3.1138400244712829 3.1255107434590657 -0.80028787942727408 1.2178286214975211 0.005337473551432291
leaf_weight=22 122 15.999999999999998 14.999999999999998 30 12.999999999999998 18
leaf_count=22 122 16 15 30 13 18
internal_value=0 0.212603 -0.0452849 0.667341 -0.19016 -1.04175
internal_weight=0 196 180 58 43 40
internal_count=236 196 180 58 43 40
is_linear=0
shrinkage=0.01


Tree=13
num_leaves=7
num_cat=0
split_feature=7 14 7 3 9 11
split_gain=512291 1.43728e+06 425927 1.19824e+06 363055 351681
threshold=-0.58754360675811756 0.81708878278732311 -0.14717877656221387 1.1743326187133791 1.8765241503715517 -0.13080950826406476
decision_type=2 2 2 2 2 2
left_child=5 2 -2 -4 -5 -1
right_child=1 -3 3 4 -6 -7
leaf_value=-1.8794803602045231 -0.38023371817635709 3.0827015686035155 3.0942555910746257 -0.93125932831030622 0.94809695299933938 0.0052841398451063375
leaf_weight=22 122 15.999999999999998 14.999999999999998 26 17 18
leaf_count=22 122 16 15 26 17 18
internal_value=0 0.210477 -0.0448321 0.660668 -0.188258 -1.03134
internal_weight=0 196 180 58 43 40
internal_count=236 196 180 58 43 40
is_linear=0
shrinkage=0.01


Tree=14
num_leaves=7
num_cat=0
split_feature=7 14 14 11 7 3
split_gain=502096 1.40868e+06 419959 344683 292180 1.1744e+06
threshold=-0.58754360675811756 0.81708878278732311 0.73114848136901867 -0.13080950826406476 -0.14717877656221387 1.1743326187133791
decision_type=2 2 2 2 2 2
left_child=3 2 4 -1 -2 -6
right_child=1 -3 -4 -5 5 -7
leaf_value=-1.8606855149702595 -0.22171492590560568 3.0518746614456176 -1.9376608481190423 0.0052312702602810334 3.0633131306966148 -0.18637538166933282
leaf_weight=22 111 15.999999999999998 10.999999999999998 18 14.999999999999998 43
leaf_count=22 111 16 11 18 15 43
internal_value=0 0.208372 -0.0443837 -1.02102 0.0788473 0.654061
internal_weight=0 196 180 40 169 58
internal_count=236 196 180 40 169 58
is_linear=0
shrinkage=0.01


Tree=15
num_leaves=7
num_cat=0
split_feature=7 14 14 11 7 3
split_gain=492104 1.38064e+06 411602 337824 286366 1.15103e+06
threshold=-0.58754360675811756 0.81708878278732311 0.73114848136901867 -0.13080950826406476 -0.14717877656221387 1.1743326187133791
decision_type=2 2 2 2 2 2
left_child=3 2 4 -1 -2 -6
right_child=1 -3 -4 -5 5 -7
leaf_value=-1.8420786476135254 -0.2194977801447516 3.0213558912277221 -1.9182842930338602 0.0051789686414930557 3.0326799392700194 -0.1845116592562476
leaf_weight=22 111 15.999999999999998 10.999999999999998 18 14.999999999999998 43
leaf_count=22 111 16 11 18 15 43
internal_value=0 0.206288 -0.0439399 -1.01081 0.0780588 0.647521
internal_weight=0 196 180 40 169 58
internal_count=236 196 180 40 169 58
is_linear=0
shrinkage=0.01


Tree=16
num_leaves=7
num_cat=0
split_feature=7 14 14 11 7 3
split_gain=482312 1.35317e+06 403411 331101 280667 1.12812e+06
threshold=-0.58754360675811756 0.81708878278732311 0.73114848136901867 -0.13080950826406476 -0.14717877656221387 1.1743326187133791
decision_type=2 2 2 2 2 2
left_child=3 2 4 -1 -2 -6
right_child=1 -3 -4 -5 5 -7
leaf_value=-1.8236579140749845 -0.21730285554587306 2.9911423873901368 -1.8991014879400081 0.0051271629333496096 3.0023532002766928 -0.18266656127086905
leaf_weight=22 111 15.999999999999998 10.999999999999998 18 14.999999999999998 43
leaf_count=22 111 16 11 18 15 43
internal_value=0 0.204225 -0.0435005 -1.0007 0.0772782 0.641045
internal_weight=0 196 180 40 169 58
internal_count=236 196 180 40 169 58
is_linear=0
shrinkage=0.01


Tree=17
num_leaves=7
num_cat=0
split_feature=7 14 14 11 7 3
split_gain=472714 1.32624e+06 395383 324512 275082 1.10567e+06
threshold=-0.58754360675811756 0.81708878278732311 0.73114848136901867 -0.13080950826406476 -0.14717877656221387 1.1743326187133791
decision_type=2 2 2 2 2 2
left_child=3 2 4 -1 -2 -6
right_child=1 -3 -4 -5 5 -7
leaf_value=-1.8054212561520664 -0.21512977290663635 2.9612308073043825 -1.8801104508746755 0.0050758934020996094 2.9723296076456704 -0.18083987845930943
leaf_weight=22 111 15.999999999999998 10.999999999999998 18 14.999999999999998 43
leaf_count=22 111 16 11 18 15 43
internal_value=0 0.202183 -0.0430655 -0.990698 0.0765055 0.634635
internal_weight=0 196 180 40 169 58
internal_count=236 196 180 40 169 58
is_linear=0
shrinkage=0.01


Tree=18
num_leaves=7
num_cat=0
split_feature=7 14 14 11 7 3
split_gain=463307 1.29985e+06 387515 318054 269608 1.08367e+06
threshold=-0.58754360675811756 0.81708878278732311 0.73114848136901867 -0.13080950826406476 -0.14717877656221387 1.1743326187133791
decision_type=2 2 2 2 2 2
left_child=3 2 4 -1 -2 -6
right_child=1 -3 -4 -5 5 -7
leaf_value=-1.7873670473965733 -0.21297852044237089 2.9316186189651492 -1.8613092725927181 0.0050251600477430559 2.9426063461303711 -0.17903149360834167
leaf_weight=22 111 15.999999999999998 10.999999999999998 18 14.999999999999998 43
leaf_count=22 111 16 11 18 15 43
internal_value=0 0.200161 -0.0426349 -0.980791 0.0757404 0.628289
internal_weight=0 196 180 40 169 58
internal_count=236 196 180 40 169 58
is_linear=0
shrinkage=0.01


Tree=19
num_leaves=7
num_cat=0
split_feature=7 14 14 11 7 3
split_gain=454087 1.27398e+06 379803 311725 264242 1.0621e+06
threshold=-0.58754360675811756 0.81708878278732311 0.73114848136901867 -0.13080950826406476 -0.14717877656221387 1.1743326187133791
decision_type=2 2 2 2 2 2
left_child=3 2 4 -1 -2 -6
right_child=1 -3 -4 -5 5 -7
leaf_value=-1.7694934732263738 -0.21084869865093148 2.9023022842407227 -1.8426962236924604 0.0049748971727159291 2.9131802266438802 -0.17724115859630499
leaf_weight=22 111 15.999999999999998 10.999999999999998 18 14.999999999999998 43
leaf_count=22 111 16 11 18 15 43
internal_value=0 0.19816 -0.0422085 -0.970983 0.074983 0.622006
internal_weight=0 196 180 40 169 58
internal_count=236 196 180 40 169 58
is_linear=0
shrinkage=0.01


Tree=20
num_leaves=7
num_cat=0
split_feature=7 14 14 11 7 7
split_gain=445050 1.24863e+06 372245 305522 262687 374491
threshold=-0.58754360675811756 0.81708878278732311 0.73114848136901867 -0.13080950826406476 -0.58390411734580983 -0.14717877656221387
decision_type=2 2 2 2 2 2
left_child=3 2 4 -1 -2 -6
right_child=1 -3 -4 -5 5 -7
leaf_value=-1.7517984867095948 1.6463138093948366 2.8732793092727662 -1.8242691872336647 0.0049251365661621095 -0.39240895847282786 0.61578567241800242
leaf_weight=22 9.9999999999999982 15.999999999999998 10.999999999999998 18 101 58
leaf_count=22 10 16 11 18 101 58
internal_value=0 0.196178 -0.0417864 -0.961273 0.0742331 -0.0246398
internal_weight=0 196 180 40 169 159
internal_count=236 196 180 40 169 159
is_linear=0
shrinkage=0.01


Tree=21
num_leaves=7
num_cat=0
split_feature=7 14 14 11 7 7
split_gain=436194 1.22378e+06 364838 299442 257460 367038
threshold=-0.58754360675811756 0.81708878278732311 0.73114848136901867 -0.13080950826406476 -0.58390411734580983 -0.14717877656221387
decision_type=2 2 2 2 2 2
left_child=3 2 4 -1 -2 -6
right_child=1 -3 -4 -5 5 -7
leaf_value=-1.7342804874073374 1.6298507080078124 2.8445465898513795 -1.8060265931216153 0.0048759100172254778 -0.38848483518798754 0.609627848247002
leaf_weight=22 9.9999999999999982 15.999999999999998 10.999999999999998 18 101 58
leaf_count=22 10 16 11 18 101 58
internal_value=0 0.194216 -0.0413685 -0.95166 0.0734909 -0.0243934
internal_weight=0 196 180 40 169 159
internal_count=236 196 180 40 169 159
is_linear=0
shrinkage=0.01


Tree=22
num_leaves=7
num_cat=0
split_feature=7 14 14 11 7 7
split_gain=427514 1.19943e+06 357577 293483 252336 359734
threshold=-0.58754360675811756 0.81708878278732311 0.73114848136901867 -0.13080950826406476 -0.58390411734580983 -0.14717877656221387
decision_type=2 2 2 2 2 2
left_child=3 2 4 -1 -2 -6
right_child=1 -3 -4 -5 5 -7
leaf_value=-1.7169376629049129 1.6135522513389589 2.81610107421875 -1.7879663042588667 0.0048271433512369795 -0.38459999278040213 0.60353157364088916
leaf_weight=22 9.9999999999999982 15.999999999999998 10.999999999999998 18 101 58
leaf_count=22 10 16 11 18 101 58
internal_value=0 0.192274 -0.0409549 -0.942144 0.0727559 -0.0241495
internal_weight=0 196 180 40 169 159
internal_count=236 196 180 40 169 159
is_linear=0
shrinkage=0.01


Tree=23
num_leaves=7
num_cat=0
split_feature=7 14 14 11 7 7
split_gain=419006 1.17556e+06 350462 287643 247315 352576
threshold=-0.58754360675811756 0.81708878278732311 0.73114848136901867 -0.13080950826406476 -0.58390411734580983 -0.14717877656221387
decision_type=2 2 2 2 2 2
left_child=3 2 4 -1 -2 -6
right_child=1 -3 -4 -5 5 -7
leaf_value=-1.699768405827609 1.5974166502952576 2.7879401397705079 -1.7700866560502484 0.0047788662380642364 -0.38075399781217673 0.59749628260217857
leaf_weight=22 9.9999999999999982 15.999999999999998 10.999999999999998 18 101 58
leaf_count=22 10 16 11 18 101 58
internal_value=0 0.190351 -0.0405453 -0.932722 0.0720284 -0.023908
internal_weight=0 196 180 40 169 159
internal_count=236 196 180 40 169 159
is_linear=0
shrinkage=0.01


Tree=24
num_leaves=7
num_cat=0
split_feature=7 14 14 11 6 6
split_gain=410668 1.15216e+06 343487 281919 244949 693112
threshold=-0.58754360675811756 0.81708878278732311 0.73114848136901867 -0.13080950826406476 -0.47154408693313593 -0.24630272388458249
decision_type=2 2 2 2 2 2
left_child=3 2 4 -1 -2 -6
right_child=1 -3 -4 -5 5 -7
leaf_value=-1.6827707238630816 -1.1485492080052695 2.7600606870651245 -1.7523857723582876 0.0047310680813259553 1.4747520108656451 -0.16022734910003411
leaf_weight=22 14.999999999999998 15.999999999999998 10.999999999999998 18 33 121
leaf_count=22 15 16 11 18 33 121
internal_value=0 0.188448 -0.0401399 -0.923395 0.0713081 0.190125
internal_weight=0 196 180 40 169 154
internal_count=236 196 180 40 169 154
is_linear=0
shrinkage=0.01


Tree=25
num_leaves=7
num_cat=0
split_feature=7 14 14 11 7 7
split_gain=402496 1.12924e+06 336652 276308 243137 341830
threshold=-0.58754360675811756 0.81708878278732311 0.73114848136901867 -0.13080950826406476 -0.58390411734580983 -0.14717877656221387
decision_type=2 2 2 2 2 2
left_child=3 2 4 -1 -2 -6
right_child=1 -3 -4 -5 5 -7
leaf_value=-1.6659430235082453 1.5830447797775271 2.7324600648880004 -1.7348619495738637 0.0046837615966796873 -0.37589386652011686 0.58733427356029377
leaf_weight=22 9.9999999999999982 15.999999999999998 10.999999999999998 18 101 58
leaf_count=22 10 16 11 18 101 58
internal_value=0 0.186563 -0.0397385 -0.914161 0.070595 -0.0245276
internal_weight=0 196 180 40 169 159
internal_count=236 196 180 40 169 159
is_linear=0
shrinkage=0.01


Tree=26
num_leaves=7
num_cat=0
split_feature=7 14 14 11 6 6
split_gain=394486 1.10677e+06 329953 270810 241877 674583
threshold=-0.58754360675811756 0.81708878278732311 0.73114848136901867 -0.13080950826406476 -0.47154408693313593 -0.24630272388458249
decision_type=2 2 2 2 2 2
left_child=3 2 4 -1 -2 -6
right_child=1 -3 -4 -5 5 -7
leaf_value=-1.6492835261605003 -1.1422948792775471 2.7051354980468751 -1.7175133202292703 0.0046369510226779518 1.4552987061124858 -0.15767922633935599
leaf_weight=22 14.999999999999998 15.999999999999998 10.999999999999998 18 33 121
leaf_count=22 15 16 11 18 33 121
internal_value=0 0.184698 -0.0393411 -0.905019 0.069889 0.187959
internal_weight=0 196 180 40 169 154
internal_count=236 196 180 40 169 154
is_linear=0
shrinkage=0.01


Tree=27
num_leaves=7
num_cat=0
split_feature=7 14 7 3 3 11
split_gain=386636 1.08474e+06 325028 1.04157e+06 357093 265421
threshold=-0.58754360675811756 0.81708878278732311 -0.14717877656221387 1.1743326187133791 2.0358101129531865 -0.13080950826406476
decision_type=2 2 2 2 2 2
left_child=5 2 -2 -4 -5 -1
right_child=1 -3 3 4 -6 -7
leaf_value=-1.6327906298637391 -0.3319414135276294 2.6780841827392581 2.846263308207194 -0.81401650206247966 1.1702165603637695 0.0045905876159667968
leaf_weight=22 122 15.999999999999998 14.999999999999998 30 12.999999999999998 18
leaf_count=22 122 16 15 30 13 18
internal_value=0 0.182851 -0.0389477 0.577349 -0.214132 -0.895969
internal_weight=0 196 180 58 43 40
internal_count=236 196 180 58 43 40
is_linear=0
shrinkage=0.01


Tree=28
num_leaves=7
num_cat=0
split_feature=7 14 14 11 7 7
split_gain=378942 1.06315e+06 322247 260139 240020 325097
threshold=-0.58754360675811756 0.81708878278732311 0.73114848136901867 -0.13080950826406476 -0.58390411734580983 -0.14717877656221387
decision_type=2 2 2 2 2 2
left_child=3 2 4 -1 -2 -6
right_child=1 -3 -4 -5 5 -7
leaf_value=-1.6164627842469648 1.5721105966567992 2.6513033294677735 -1.6970187386599456 0.0045447116427951391 -0.36778003176840224 0.5715759644837215
leaf_weight=22 9.9999999999999982 15.999999999999998 10.999999999999998 18 101 58
leaf_count=22 10 16 11 18 101 58
internal_value=0 0.181022 -0.0385582 -0.887009 0.0693889 -0.0251219
internal_weight=0 196 180 40 169 159
internal_count=236 196 180 40 169 159
is_linear=0
shrinkage=0.01


Tree=29
num_leaves=7
num_cat=0
split_feature=7 14 14 11 6 6
split_gain=371401 1.042e+06 315834 254962 238405 654210
threshold=-0.58754360675811756 0.81708878278732311 0.73114848136901867 -0.13080950826406476 -0.47154408693313593 -0.24630272388458249
decision_type=2 2 2 2 2 2
left_child=3 2 4 -1 -2 -6
right_child=1 -3 -4 -5 5 -7
leaf_value=-1.6002981987866489 -1.1347567904790243 2.6247901964187621 -1.680048536387357 0.0044992256164550779 1.4339695765755394 -0.15446427007352026
leaf_weight=22 14.999999999999998 15.999999999999998 10.999999999999998 18 33 121
leaf_count=22 15 16 11 18 33 121
internal_value=0 0.179212 -0.0381726 -0.878139 0.0686951 0.185914
internal_weight=0 196 180 40 169 154
internal_count=236 196 180 40 169 154
is_linear=0
shrinkage=0.01


Tree=30
num_leaves=7
num_cat=0
split_feature=7 14 14 11 7 7
split_gain=364010 1.02126e+06 309549 249888 235949 315180
threshold=-0.58754360675811756 0.81708878278732311 0.73114848136901867 -0.13080950826406476 -0.58390411734580983 -0.14717877656221387
decision_type=2 2 2 2 2 2
left_child=3 2 4 -1 -2 -6
right_child=1 -3 -4 -5 5 -7
leaf_value=-1.5842951350862331 1.5579340982437133 2.5985424423217776 -1.6632480699365788 0.0044542185465494795 -0.36308960136800705 0.56182893103566667
leaf_weight=22 9.9999999999999982 15.999999999999998 10.999999999999998 18 101 58
leaf_count=22 10 16 11 18 101 58
internal_value=0 0.17742 -0.0377909 -0.869358 0.0680081 -0.0256979
internal_weight=0 196 180 40 169 159
internal_count=236 196 180 40 169 159
is_linear=0
shrinkage=0.01


Tree=31
num_leaves=7
num_cat=0
split_feature=7 14 14 11 6 6
split_gain=356766 1.00094e+06 303389 244916 235359 636800
threshold=-0.58754360675811756 0.81708878278732311 0.73114848136901867 -0.13080950826406476 -0.47154408693313593 -0.24630272388458249
decision_type=2 2 2 2 2 2
left_child=3 2 4 -1 -2 -6
right_child=1 -3 -4 -5 5 -7
leaf_value=-1.5684522248940036 -1.1284108797709147 2.5725568389892577 -1.6466155979850075 0.0044096650017632381 1.4151326907764781 -0.15202296710211383
leaf_weight=22 14.999999999999998 15.999999999999998 10.999999999999998 18 33 121
leaf_count=22 15 16 11 18 33 121
internal_value=0 0.175646 -0.037413 -0.860664 0.067328 0.183796
internal_weight=0 196 180 40 169 154
internal_count=236 196 180 40 169 154
is_linear=0
shrinkage=0.01


Tree=32
num_leaves=7
num_cat=0
split_feature=7 14 14 11 7 7
split_gain=349666 981020 297352 240042 231942 305574
threshold=-0.58754360675811756 0.81708878278732311 0.73114848136901867 -0.13080950826406476 -0.58390411734580983 -0.14717877656221387
decision_type=2 2 2 2 2 2
left_child=3 2 4 -1 -2 -6
right_child=1 -3 -4 -5 5 -7
leaf_value=-1.5527677137472413 1.5438749122619628 2.5468312454223634 -1.6301494418491018 0.0043655840555826822 -0.35846248125085739 0.55225184054210263
leaf_weight=22 9.9999999999999982 15.999999999999998 10.999999999999998 18 101 58
leaf_count=22 10 16 11 18 101 58
internal_value=0 0.173889 -0.0370389 -0.852058 0.0666547 -0.0262522
internal_weight=0 196 180 40 169 159
internal_count=236 196 180 40 169 159
is_linear=0
shrinkage=0.01


Tree=33
num_leaves=7
num_cat=0
split_feature=7 14 14 11 6 6
split_gain=342708 961498 291434 235265 232334 619869
threshold=-0.58754360675811756 0.81708878278732311 0.73114848136901867 -0.13080950826406476 -0.47154408693313593 -0.24630272388458249
decision_type=2 2 2 2 2 2
left_child=3 2 4 -1 -2 -6
right_child=1 -3 -4 -5 5 -7
leaf_value=-1.5372400539972695 -1.1220421724319458 2.5213629865646361 -1.6138479507511312 0.0043219587537977437 1.39656268900091 -0.14961924941086571
leaf_weight=22 14.999999999999998 15.999999999999998 10.999999999999998 18 33 121
leaf_count=22 15 16 11 18 33 121
internal_value=0 0.17215 -0.0366684 -0.843537 0.0659882 0.181705
internal_weight=0 196 180 40 169 154
internal_count=236 196 180 40 169 154
is_linear=0
shrinkage=0.01


Tree=34
num_leaves=7
num_cat=0
split_feature=7 14 7 3 3 11
split_gain=335888 942364 287021 1.02154e+06 351344 230583
threshold=-0.58754360675811756 0.81708878278732311 -0.14717877656221387 1.1743326187133791 2.0358101129531865 -0.13080950826406476
decision_type=2 2 2 2 2 2
left_child=5 2 -2 -4 -5 -1
right_child=1 -3 3 4 -6 -7
leaf_value=-1.5218677036328749 -0.31163237341847577 2.4961493635177612 2.7898325449625649 -0.83602788074811307 1.1321675021831805 0.0042787000868055557
leaf_weight=22 122 15.999999999999998 14.999999999999998 30 12.999999999999998 18
leaf_count=22 122 16 15 30 13 18
internal_value=0 0.170429 -0.0363018 0.542842 -0.240992 -0.835102
internal_weight=0 196 180 58 43 40
internal_count=236 196 180 58 43 40
is_linear=0
shrinkage=0.01


Tree=35
num_leaves=7
num_cat=0
split_feature=7 14 14 7 7 3
split_gain=329204 923611 284628 228911 290649 1.00121e+06
threshold=-0.58754360675811756 0.81708878278732311 0.73114848136901867 -0.58390411734580983 -0.14717877656221387 1.1743326187133791
decision_type=2 2 2 2 2 2
left_child=-1 2 3 -2 -5 -6
right_child=1 -3 -4 4 5 -7
leaf_value=-0.82675074341706933 1.5330487928390504 2.4711878967285155 -1.594593174024062 -0.35078136046186531 2.7619341532389323 -0.23858216529668763
leaf_weight=40 9.9999999999999982 15.999999999999998 10.999999999999998 101 14.999999999999998 43
leaf_count=40 10 16 11 101 15 43
internal_value=0 0.168725 -0.0359388 0.0655121 -0.0267858 0.537413
internal_weight=0 196 180 169 159 58
internal_count=236 196 180 169 159 58
is_linear=0
shrinkage=0.01


Tree=36
num_leaves=7
num_cat=0
split_feature=7 14 14 6 6 12
split_gain=322653 905231 278964 226017 604436 808837
threshold=-0.58754360675811756 0.81708878278732311 0.73114848136901867 -0.47154408693313593 -0.24630272388458249 -0.12293127924203871
decision_type=2 2 2 2 2 2
left_child=-1 2 3 -2 5 -5
right_child=1 -3 -4 4 -6 -7
leaf_value=-0.81848323473334317 -1.1069111067454021 2.4464759826660156 -1.578647172234275 2.8077955521477596 -0.14818386211375559 -0.33637173843383794
leaf_weight=40 14.999999999999998 15.999999999999998 10.999999999999998 18 121 14.999999999999998
leaf_count=40 15 16 11 18 121 15
internal_value=0 0.167037 -0.0355794 0.064857 0.17899 1.37863
internal_weight=0 196 180 169 154 33
internal_count=236 196 180 169 154 33
is_linear=0
shrinkage=0.01


Tree=37
num_leaves=7
num_cat=0
split_feature=7 14 14 11 7 7
split_gain=316232 887217 273413 225995 225015 282758
threshold=-0.58754360675811756 0.81708878278732311 0.73114848136901867 -0.13080950826406476 -0.58390411734580983 -0.14717877656221387
decision_type=2 2 2 2 2 2
left_child=3 2 4 -1 -2 -6
right_child=1 -3 -4 -5 5 -7
leaf_value=-1.4901966113393956 1.5192000751495363 2.4220112991333007 -1.5628607208078558 0.020688264634874134 -0.34686747682271618 0.52918688923120505
leaf_weight=22 9.9999999999999982 15.999999999999998 10.999999999999998 18 101 58
leaf_count=22 10 16 11 18 101 58
internal_value=0 0.165367 -0.0352236 -0.810298 0.0642084 -0.0273005
internal_weight=0 196 180 40 169 159
internal_count=236 196 180 40 169 159
is_linear=0
shrinkage=0.01


Tree=38
num_leaves=7
num_cat=0
split_feature=7 14 14 6 6 12
split_gain=309939 869561 267972 223074 588440 793733
threshold=-0.58754360675811756 0.81708878278732311 0.73114848136901867 -0.47154408693313593 -0.24630272388458249 -0.12293127924203871
decision_type=2 2 2 2 2 2
left_child=-1 2 3 -2 5 -5
right_child=1 -3 -4 4 -6 -7
leaf_value=-0.80219540566205982 -1.1005498091379802 2.3977911758422854 -1.5472320829738271 2.7763725833925936 -0.14586158886428707 -0.3382999013264974
leaf_weight=40 14.999999999999998 15.999999999999998 10.999999999999998 18 121 14.999999999999998
leaf_count=40 15 16 11 18 121 15
internal_value=0 0.163713 -0.0348714 0.0635663 0.176954 1.36061
internal_weight=0 196 180 169 154 33
internal_count=236 196 180 169 154 33
is_linear=0
shrinkage=0.01


Tree=39
num_leaves=7
num_cat=0
split_feature=7 14 7 3 3 11
split_gain=303771 852257 264182 982628 341546 221497
threshold=-0.58754360675811756 0.81708878278732311 -0.14717877656221387 1.1743326187133791 2.0358101129531865 -0.13080950826406476
decision_type=2 2 2 2 2 2
left_child=5 2 -2 -4 -5 -1
right_child=1 -3 3 4 -6 -7
leaf_value=-1.4672727108001709 -0.29867206456231293 2.3738132858276368 2.7248870989481606 -0.83434003011385605 1.1062165509737454 0.02850333743625217
leaf_weight=22 122 15.999999999999998 14.999999999999998 30 12.999999999999998 18
leaf_count=22 122 16 15 30 13 18
internal_value=0 0.162076 -0.0345226 0.521102 -0.24766 -0.794173
internal_weight=0 196 180 58 43 40
internal_count=236 196 180 58 43 40
is_linear=0
shrinkage=0.01


Tree=40
num_leaves=7
num_cat=0
split_feature=7 14 14 7 12 12
split_gain=297726 835297 261713 222042 270066 736972
threshold=-0.58754360675811756 0.81708878278732311 0.73114848136901867 -0.58390411734580983 -0.16305672377347943 -0.12293127924203871
decision_type=2 2 2 2 2 2
left_child=-1 2 3 -2 -5 -6
right_child=1 -3 -4 4 5 -7
leaf_value=-0.78623170590400693 1.5084534721374514 2.35007511138916 -1.5287730971249667 -0.39330071612690271 1.4629803408214026 -0.5891574118477958
leaf_weight=40 9.9999999999999982 15.999999999999998 10.999999999999998 89 35 35
leaf_count=40 10 16 11 89 35 35
internal_value=0 0.160455 -0.0341774 0.063104 -0.0277985 0.436911
internal_weight=0 196 180 169 159 70
internal_count=236 196 180 169 159 70
is_linear=0
shrinkage=0.01


Tree=41
num_leaves=7
num_cat=0
split_feature=7 14 7 3 3 11
split_gain=291801 818675 259772 962980 334462 217089
threshold=-0.58754360675811756 0.81708878278732311 -0.14717877656221387 1.1743326187133791 2.0358101129531865 -0.13080950826406476
decision_type=2 2 2 2 2 2
left_child=5 2 -2 -4 -5 -1
right_child=1 -3 3 4 -6 -7
leaf_value=-1.4447376309741629 -0.2957708780296513 2.3265743255615234 2.6987726891835528 -0.82447046709060678 1.0958582570002628 0.036080644395616319
leaf_weight=22 122 15.999999999999998 14.999999999999998 30 12.999999999999998 18
leaf_count=22 122 16 15 30 13 18
internal_value=0 0.158851 -0.0338356 0.517132 -0.243906 -0.778369
internal_weight=0 196 180 58 43 40
internal_count=236 196 180 58 43 40
is_linear=0
shrinkage=0.01


Tree=42
num_leaves=7
num_cat=0
split_feature=7 14 14 7 12 12
split_gain=285995 802383 255598 220486 317505 724368
threshold=-0.58754360675811756 0.81708878278732311 0.73114848136901867 -0.5761185586452483 -0.16305672377347943 -0.12293127924203871
decision_type=2 2 2 2 2 2
left_child=-1 2 3 -2 -5 -6
right_child=1 -3 -4 4 5 -7
leaf_value=-0.77058576250076305 1.1088031212488811 2.3033086395263673 -1.5105276489257813 -0.48834581060174076 1.4484550117765154 -0.58605932153974261
leaf_weight=40 18 15.999999999999998 10.999999999999998 81 35 35
leaf_count=40 18 16 11 81 35 35
internal_value=0 0.157262 -0.0334973 0.0626408 -0.0620673 0.431198
internal_weight=0 196 180 169 151 70
internal_count=236 196 180 169 151 70
is_linear=0
shrinkage=0.01


Tree=43
num_leaves=7
num_cat=0
split_feature=7 14 7 3 3 9
split_gain=280303 786416 255644 943832 327558 213693
threshold=-0.58754360675811756 0.81708878278732311 -0.14717877656221387 1.1743326187133791 2.0358101129531865 -0.83090451359748829
decision_type=2 2 2 2 2 2
left_child=5 2 -2 -4 -5 -1
right_child=1 -3 3 4 -6 -7
leaf_value=-0.34088741429646813 -0.29300787895429331 2.2802754974365236 2.6732508049011234 -0.81456451972325639 1.0858397557185246 -2.0288571090698242
leaf_weight=30 122 15.999999999999998 14.999999999999998 30 12.999999999999998 9.9999999999999982
leaf_count=30 122 16 15 30 13 10
internal_value=0 0.15569 -0.0331623 0.513409 -0.240024 -0.76288
internal_weight=0 196 180 58 43 40
internal_count=236 196 180 58 43 40
is_linear=0
shrinkage=0.01


Tree=44
num_leaves=7
num_cat=0
split_feature=7 14 7 3 3 11
split_gain=274725 770766 250556 925049 321040 212028
threshold=-0.58754360675811756 0.81708878278732311 -0.14717877656221387 1.1743326187133791 2.0358101129531865 -0.13080950826406476
decision_type=2 2 2 2 2 2
left_child=5 2 -2 -4 -5 -1
right_child=1 -3 3 4 -6 -7
leaf_value=-1.4138047036257657 -0.29007779075474038 2.2574727630615237 2.6465183178583782 -0.80641883905728662 1.0749813842773437 0.049647793240017356
leaf_weight=22 122 15.999999999999998 14.999999999999998 30 12.999999999999998 18
leaf_count=22 122 16 15 30 13 18
internal_value=0 0.154133 -0.0328307 0.508275 -0.237623 -0.755251
internal_weight=0 196 180 58 43 40
internal_count=236 196 180 58 43 40
is_linear=0
shrinkage=0.01


Tree=45
num_leaves=7
num_cat=0
split_feature=7 14 14 7 12 12
split_gain=269258 755428 248743 218402 308220 713999
threshold=-0.58754360675811756 0.81708878278732311 0.73114848136901867 -0.5761185586452483 -0.16305672377347943 -0.12293127924203871
decision_type=2 2 2 2 2 2
left_child=-1 2 3 -2 -5 -6
right_child=1 -3 -4 4 5 -7
leaf_value=-0.74769857978820797 1.1035459873411391 2.2348980331420898 -1.4895914780009878 -0.481778908232112 1.4341689943926677 -0.58573054231916155
leaf_weight=40 18 15.999999999999998 10.999999999999998 81 35 35
leaf_count=40 18 16 11 81 35 35
internal_value=0 0.152592 -0.0325024 0.0623378 -0.0617798 0.424219
internal_weight=0 196 180 169 151 70
internal_count=236 196 180 169 151 70
is_linear=0
shrinkage=0.01


Tree=46
num_leaves=7
num_cat=0
split_feature=7 14 6 12 12 6
split_gain=263900 740395 246860 1.30321e+06 249040 370875
threshold=-0.58754360675811756 0.81708878278732311 -0.24630272388458249 -0.12293127924203871 -0.16118034720420835 -0.20456843078136441
decision_type=2 2 2 2 2 2
left_child=-1 2 3 -2 5 -4
right_child=1 -3 4 -5 -6 -7
leaf_value=-0.74022159624099726 2.7091547412342494 2.2125490188598635 -1.9931808060866134 -0.69438010597229016 1.0586676599429203 -0.20355314165916086
leaf_weight=40 18 15.999999999999998 12.999999999999998 30 12.999999999999998 106
leaf_count=40 18 16 13 30 13 106
internal_value=0 0.151066 -0.0321773 0.581945 -0.255495 -0.399059
internal_weight=0 196 180 48 132 119
internal_count=236 196 180 48 132 119
is_linear=0
shrinkage=0.01


Tree=47
num_leaves=7
num_cat=0
split_feature=7 14 7 3 3 7
split_gain=258648 725661 243727 906770 313310 208924
threshold=-0.58754360675811756 0.81708878278732311 -0.14717877656221387 1.1743326187133791 2.0358101129531865 -0.58077567815780629
decision_type=2 2 2 2 2 2
left_child=-1 2 5 -4 -5 -2
right_child=1 -3 3 4 -6 -7
leaf_value=-0.73281933021545409 0.74288112696479347 2.1904235839843751 2.6188364394505816 -0.79857293669382734 1.0600400279118465 -0.45208440486873896
leaf_weight=40 17 15.999999999999998 14.999999999999998 30 12.999999999999998 105
leaf_count=40 17 16 15 30 13 105
internal_value=0 0.149555 -0.0318556 0.501825 -0.236667 -0.285573
internal_weight=0 196 180 58 43 122
internal_count=236 196 180 58 43 122
is_linear=0
shrinkage=0.01


Tree=48
num_leaves=7
num_cat=0
split_feature=7 14 14 7 12 12
split_gain=253501 711220 242529 212893 295854 691371
threshold=-0.58754360675811756 0.81708878278732311 0.73114848136901867 -0.5761185586452483 -0.16305672377347943 -0.12293127924203871
decision_type=2 2 2 2 2 2
left_child=-1 2 3 -2 -5 -6
right_child=1 -3 -4 4 5 -7
leaf_value=-0.72549113988876346 1.090103095902337 2.1685192871093752 -1.4703119026530873 -0.4719183007048236 1.409536160809653 -0.57809909261975967
leaf_weight=40 18 15.999999999999998 10.999999999999998 81 35 35
leaf_count=40 18 16 11 81 35 35
internal_value=0 0.148059 -0.031537 0.0621111 -0.060431 0.415719
internal_weight=0 196 180 169 151 70
internal_count=236 196 180 169 151 70
is_linear=0
shrinkage=0.01


Tree=49
num_leaves=7
num_cat=0
split_feature=7 14 6 12 12 6
split_gain=248457 697067 240898 1.264e+06 238739 365374
threshold=-0.58754360675811756 0.81708878278732311 -0.24630272388458249 -0.12293127924203871 -0.16118034720420835 -0.20456843078136441
decision_type=2 2 2 2 2 2
left_child=-1 2 3 -2 5 -4
right_child=1 -3 4 -5 -6 -7
leaf_value=-0.71823622941970822 2.6704046967294484 2.1468341445922854 -1.9746454209547777 -0.68153924711545322 1.0348730292687049 -0.19833926166003604
leaf_weight=40 18 15.999999999999998 12.999999999999998 30 12.999999999999998 106
leaf_count=40 18 16 13 30 13 106
internal_value=0 0.146579 -0.0312216 0.57544 -0.251826 -0.39239
internal_weight=0 196 180 48 132 119
internal_count=236 196 180 48 132 119
is_linear=0
shrinkage=0.01


end of trees

feature_importances:
Column_7=102
Column_14=77
Column_3=48
Column_11=39
Column_6=18
Column_12=14
Column_9=2

parameters:
[boosting: gbdt]
[objective: regression]
[metric: l2]
[tree_learner: serial]
[device_type: cpu]
[data_sample_strategy: bagging]
[data: ]
[valid: ]
[num_iterations: 50]
[learning_rate: 0.01]
[num_leaves: 7]
[num_threads: 2]
[seed: 42]
[deterministic: 0]
[force_col_wise: 0]
[force_row_wise: 0]
[histogram_pool_size: -1]
[max_depth: 7]
[min_data_in_leaf: 10]
[min_sum_hessian_in_leaf: 0.001]
[bagging_fraction: 1]
[pos_bagging_fraction: 1]
[neg_bagging_fraction: 1]
[bagging_freq: 0]
[bagging_seed: 400]
[feature_fraction: 1]
[feature_fraction_bynode: 1]
[feature_fraction_seed: 30056]
[extra_trees: 0]
[extra_seed: 12879]
[early_stopping_round: 0]
[early_stopping_min_delta: 0]
[first_metric_only: 0]
[max_delta_step: 0]
[lambda_l1: 0]
[lambda_l2: 0]
[linear_lambda: 0]
[min_gain_to_split: 0]
[drop_rate: 0.1]
[max_drop: 50]
[skip_drop: 0.5]
[xgboost_dart_mode: 0]
[uniform_drop: 0]
[drop_seed: 17869]
[top_rate: 0.2]
[other_rate: 0.1]
[min_data_per_group: 100]
[max_cat_threshold: 32]
[cat_l2: 10]
[cat_smooth: 10]
[max_cat_to_onehot: 4]
[top_k: 20]
[monotone_constraints: ]
[monotone_constraints_method: basic]
[monotone_penalty: 0]
[feature_contri: ]
[forcedsplits_filename: ]
[refit_decay_rate: 0.9]
[cegb_tradeoff: 1]
[cegb_penalty_split: 0]
[cegb_penalty_feature_lazy: ]
[cegb_penalty_feature_coupled: ]
[path_smooth: 0]
[interaction_constraints: ]
[verbosity: -1]
[saved_feature_importance_type: 0]
[use_quantized_grad: 0]
[num_grad_quant_bins: 4]
[quant_train_renew_leaf: 0]
[stochastic_rounding: 1]
[linear_tree: 0]
[max_bin: 255]
[max_bin_by_feature: ]
[min_data_in_bin: 3]
[bin_construct_sample_cnt: 200000]
[data_random_seed: 175]
[is_enable_sparse: 1]
[enable_bundle: 1]
[use_missing: 1]
[zero_as_missing: 0]
[feature_pre_filter: 1]
[pre_partition: 0]
[two_round: 0]
[header: 0]
[label_column: ]
[weight_column: ]
[group_column: ]
[ignore_column: ]
[categorical_feature: ]
[forcedbins_filename: ]
[precise_float_parser: 0]
[parser_config_file: ]
[objective_seed: 16083]
[num_class: 1]
[is_unbalance: 0]
[scale_pos_weight: 1]
[sigmoid: 1]
[boost_from_average: 1]
[reg_sqrt: 0]
[alpha: 0.9]
[fair_c: 1]
[poisson_max_delta_step: 0.7]
[tweedie_variance_power: 1.5]
[lambdarank_truncation_level: 30]
[lambdarank_norm: 1]
[label_gain: ]
[lambdarank_position_bias_regularization: 0]
[eval_at: ]
[multi_error_top_k: 1]
[auc_mu_weights: ]
[num_machines: 1]
[local_listen_port: 12400]
[time_out: 120]
[machine_list_filename: ]
[machines: ]
[gpu_platform_id: -1]
[gpu_device_id: -1]
[gpu_use_dp: 0]
[num_gpu: 1]

end of parameters

pandas_categorical:null
