tree
version=v4
num_class=1
num_tree_per_iteration=1
label_index=0
max_feature_idx=39
objective=regression
feature_names=Column_0 Column_1 Column_2 Column_3 Column_4 Column_5 Column_6 Column_7 Column_8 Column_9 Column_10 Column_11 Column_12 Column_13 Column_14 Column_15 Column_16 Column_17 Column_18 Column_19 Column_20 Column_21 Column_22 Column_23 Column_24 Column_25 Column_26 Column_27 Column_28 Column_29 Column_30 Column_31 Column_32 Column_33 Column_34 Column_35 Column_36 Column_37 Column_38 Column_39
feature_infos=[-3.4854013919830322:0.7585986852645874] [-1.7367491722106934:2.4986910820007324] [-0.12934362888336182:11.530960083007812] [-3.3586874008178711:0.78402227163314819] [-3.194098949432373:0.82759249210357666] [-0.15760420262813568:9.9389553070068359] [-0.12520541250705719:13.93647289276123] [-0.90633219480514526:2.6618049144744873] [-2.9815382957458496:0.88004320859909058] [-0.11765293776988983:11.586573600769043] [-0.15753756463527679:10.216580390930176] [-3.0471069812774658:0.91468006372451782] [-2.7732155323028564:1.4459575414657593] [-3.2308847904205322:0.79387599229812622] [-0.64628815650939941:12.197320938110352] [-0.58769351243972778:2.878382682800293] [-0.23293821513652802:8.939244270324707] [-3.1112504005432129:0.83315163850784302] none [-0.55808615684509277:3.052631139755249] [-3.2511923313140869:4.4951419830322266] [-3.4333693981170654:0.74660295248031616] [-0.89467006921768188:2.7335147857666016] [-3.0932819843292236:0.8930213451385498] [-0.15285339951515198:9.6904067993164062] [-0.56093353033065796:2.9823663234710693] [-0.13176007568836212:10.601140022277832] [-0.16312748193740845:9.7121429443359375] [-0.12833714485168457:10.463809013366699] [-2.9227349758148193:1.0409246683120728] [-3.4110832214355469:0.75208413600921631] none [-0.15522538125514984:9.92376708984375] none [-0.12034463137388229:11.451425552368164] [-0.18593384325504303:10.12990665435791] [-1.7197753190994263:4.8036537170410156] [-2.7837109565734863:2.1823694705963135] [-0.28310015797615051:5.8906183242797852] [-2.4801826477050781:2.4427065849304199]
tree_sizes=735 750 744 747 747 749 747 780 745 759 749 744 780 763 748 766 762 763 750 763 747 747 743 766 765 750 764 761 748 762 743 759 781 774 744 761 745 760 751 782 744 772 762 765 767 778 767 770 749 746

Tree=0
num_leaves=7
num_cat=0
split_feature=19 1 20 36 36 14
split_gain=724116 4.705e+06 877720 518747 403794 499939
threshold=-0.55807766318321217 -1.1003835201263426 0.84000706672668468 -0.16446166485548017 -0.52006602287292469 -0.46867030858993525
decision_type=2 2 2 2 2 2
left_child=3 -2 4 -1 -3 -6
right_child=1 2 -4 -5 5 -7
leaf_value=445.61062062297481 453.76028462333772 444.8568994072956 443.48361779886062 443.34645587817693 443.92703772493428 446.16390181878955
leaf_weight=17 6.9999999999999991 46 21 25 10.999999999999998 109
leaf_count=17 7 46 21 25 11 109
internal_value=445.453 445.711 445.41 444.263 445.653 445.959
internal_weight=0 194 187 42 166 120
internal_count=236 194 187 42 166 120
is_linear=0
shrinkage=1


Tree=1
num_leaves=7
num_cat=0
split_feature=19 1 36 19 15 3
split_gain=709706 4.61137e+06 508424 449591 2.32691e+06 494132
threshold=-0.55807766318321217 -1.1003835201263426 -0.16446166485548017 -0.20333615690469739 0.60556522011756908 0.65669220685958873
decision_type=2 2 2 2 2 2
left_child=2 -2 -1 5 -5 -3
right_child=1 3 -4 4 -6 -7
leaf_value=0.15565848616992725 8.2238257707868314 -0.60276088580750586 -2.0858646163940429 6.1026466696602961 -0.069002762585878369 1.1801104272736445
leaf_weight=17 6.9999999999999991 114 25 6.9999999999999991 48 18
leaf_count=17 7 114 25 7 48 18
internal_value=0 0.255157 -1.17858 -0.0431356 0.71648 -0.359642
internal_weight=0 194 42 187 55 132
internal_count=236 194 42 187 55 132
is_linear=0
shrinkage=0.01


Tree=2
num_leaves=7
num_cat=0
split_feature=19 1 20 26 8 14
split_gain=695583 4.5196e+06 855440 498463 1.85572e+06 936348
threshold=-0.55807766318321217 -1.1003835201263426 0.84000706672668468 -0.13107478618621823 0.61134144663810741 -0.14466012269258496
decision_type=2 2 2 2 2 2
left_child=-1 -2 3 4 5 -3
right_child=1 2 -4 -5 -6 -7
leaf_value=-1.1667955798194523 8.1415873500279012 1.1113333608783209 -1.9443008545466833 -0.40574538955688477 5.6421518175942564 -1.062777285128832
leaf_weight=42 6.9999999999999991 52 21 75 6.9999999999999991 32
leaf_count=42 7 52 21 75 7 32
internal_value=0 0.252605 -0.0427043 0.197859 0.695335 0.283101
internal_weight=0 194 187 166 91 84
internal_count=236 194 187 166 91 84
is_linear=0
shrinkage=0.01


Tree=3
num_leaves=7
num_cat=0
split_feature=19 12 20 36 36 3
split_gain=681741 2.88161e+06 874653 498306 437601 656226
threshold=-0.55807766318321217 1.0707004666328432 0.84000706672668468 -0.16446166485548017 -0.52006602287292469 0.65669220685958873
decision_type=2 2 2 2 2 2
left_child=3 2 4 -1 -2 -6
right_child=1 -3 -4 -5 5 -7
leaf_value=0.16576984181123622 -0.58634562808534374 6.1267115640640259 -1.9248578126089912 -2.0533378662109376 0.34973620931668714 3.1582886291874779
leaf_weight=17 46 7.9999999999999991 21 25 110 8.9999999999999982
leaf_count=17 46 8 21 25 110 9
internal_value=0 0.250079 -0.00267921 -1.15513 0.241962 0.562148
internal_weight=0 194 186 42 165 119
internal_count=236 194 186 42 165 119
is_linear=0
shrinkage=0.01


Tree=4
num_leaves=7
num_cat=0
split_feature=19 1 20 26 12 14
split_gain=668175 4.37255e+06 820822 489228 2.27019e+06 827583
threshold=-0.55807766318321217 -1.1003835201263426 0.84000706672668468 -0.13107478618621823 0.7339884638786317 -0.14466012269258496
decision_type=2 2 2 2 2 2
left_child=-1 -2 3 4 5 -3
right_child=1 2 -4 -5 -6 -7
leaf_value=-1.1435764086246492 8.0071572440011174 1.0979827812371346 -1.9056092062450591 -0.40522838133176164 7.2361040248870845 -0.90839993582052347
leaf_weight=42 6.9999999999999991 52 21 75 4.9999999999999991 34
leaf_count=42 7 52 21 75 5 34
internal_value=0 0.247578 -0.0428871 0.192758 0.685605 0.304762
internal_weight=0 194 187 166 91 86
internal_count=236 194 187 166 91 86
is_linear=0
shrinkage=0.01


Tree=5
num_leaves=7
num_cat=0
split_feature=19 1 36 19 15 3
split_gain=654878 4.28553e+06 488390 430734 2.27458e+06 464672
threshold=-0.55807766318321217 -1.1003835201263426 -0.16446166485548017 -0.20333615690469739 0.60556522011756908 0.65669220685958873
decision_type=2 2 2 2 2 2
left_child=2 -2 -1 5 -5 -3
right_child=1 3 -4 4 -6 -7
leaf_value=0.1755479433957268 7.927085832868304 -0.58801568395213077 -2.0213688110351562 6.0263165773664209 -0.075544605975349746 1.1408901113933987
leaf_weight=17 6.9999999999999991 114 25 6.9999999999999991 48 18
leaf_count=17 7 114 25 7 48 18
internal_value=0 0.245103 -1.13214 -0.0424582 0.701056 -0.352256
internal_weight=0 194 42 187 55 132
internal_count=236 194 42 187 55 132
is_linear=0
shrinkage=0.01


Tree=6
num_leaves=7
num_cat=0
split_feature=19 1 20 26 11 14
split_gain=641846 4.20025e+06 799947 479093 1.85846e+06 826070
threshold=-0.55807766318321217 -1.1003835201263426 0.84000706672668468 -0.13107478618621823 0.62304347753524791 -0.14466012269258496
decision_type=2 2 2 2 2 2
left_child=-1 -2 3 4 5 -3
right_child=1 2 -4 -5 -6 -7
leaf_value=-1.1208192091896421 7.8478149414062504 1.0839608376759748 -1.880916980561756 -0.40116442872683211 6.0571619002024333 -0.93886794213092684
leaf_weight=42 6.9999999999999991 52 21 75 5.9999999999999991 33
leaf_count=42 7 52 21 75 6 33
internal_value=0 0.242652 -0.0420337 0.190596 0.678311 0.298627
internal_weight=0 194 187 166 91 85
internal_count=236 194 187 166 91 85
is_linear=0
shrinkage=0.01


Tree=7
num_leaves=7
num_cat=0
split_feature=19 1 36 26 19 15
split_gain=629073 4.11667e+06 478671 417656 417339 2.2276e+06
threshold=-0.55807766318321217 -1.1003835201263426 -0.16446166485548017 -0.1275178715586662 -0.20333615690469739 0.60556522011756908
decision_type=2 2 2 2 2 2
left_child=2 -2 3 -1 -3 -6
right_child=1 4 -4 -5 5 -7
leaf_value=-0.82676401535669941 7.7693368094308042 -0.34655582055901035 -1.9899469757080079 2.6132360229492191 5.9602250943865087 -0.078289631108442947
leaf_weight=12.000000000000002 6.9999999999999991 132 25 4.9999999999999991 6.9999999999999991 48
leaf_count=12 7 132 25 5 7 48
internal_value=0 0.240225 -1.10961 0.185001 -0.0416133 0.690249
internal_weight=0 194 42 17 187 55
internal_count=236 194 42 17 187 55
is_linear=0
shrinkage=0.01


Tree=8
num_leaves=7
num_cat=0
split_feature=19 1 20 36 26 12
split_gain=616554 4.03474e+06 781513 469146 466521 2.19124e+06
threshold=-0.55807766318321217 -1.1003835201263426 0.84000706672668468 -0.16446166485548017 -0.13107478618621823 0.7339884638786317
decision_type=2 2 2 2 2 2
left_child=3 -2 4 -1 5 -3
right_child=1 2 -4 -5 -6 -7
leaf_value=0.1831506684247185 7.6916431535993306 0.29584727210360906 -1.8587699999128069 -1.9700474212646484 -0.39520774207115172 7.1056013565063472
leaf_weight=17 6.9999999999999991 86 21 25 75 4.9999999999999991
leaf_count=17 7 86 21 25 75 5
internal_value=0 0.237823 -0.0411972 -1.09851 0.188737 0.67001
internal_weight=0 194 187 42 166 91
internal_count=236 194 187 42 166 91
is_linear=0
shrinkage=0.01


Tree=9
num_leaves=7
num_cat=0
split_feature=25 7 39 17 0 25
split_gain=391914 1.58066e+06 2.0724e+06 611659 1.29515e+06 707338
threshold=-0.21542463451623914 1.1743326187133791 -0.63108408451080311 0.64082071185112011 0.49050462245941168 -0.56086546182632435
decision_type=2 2 2 2 2 2
left_child=3 2 -2 -1 -5 -6
right_child=1 -3 -4 4 5 -7
leaf_value=-0.69840957935796966 0.77288031866153073 -0.22804008417351301 8.802487335205079 5.4038483276367186 -0.8738623253036949 1.2147124203943438
leaf_weight=109 8.9999999999999982 43 4.9999999999999991 4.9999999999999991 34 31
leaf_count=109 9 43 5 5 34 31
internal_value=0 0.722152 3.6406 -0.229959 0.499486 0.122227
internal_weight=0 57 14 179 70 65
internal_count=236 57 14 179 70 65
is_linear=0
shrinkage=0.01


Tree=10
num_leaves=7
num_cat=0
split_feature=19 1 20 36 26 11
split_gain=598328 3.92417e+06 761604 462177 457364 1.78532e+06
threshold=-0.55807766318321217 -1.1003835201263426 0.84000706672668468 -0.16446166485548017 -0.13107478618621823 0.62304347753524791
decision_type=2 2 2 2 2 2
left_child=3 -2 4 -1 5 -3
right_child=1 2 -4 -5 -6 -7
leaf_value=0.18995452656465417 7.5852576119559147 0.29048538311439404 -1.8351607359023323 -1.9471919708251955 -0.39208783321380614 5.9345793406168621
leaf_weight=17 6.9999999999999991 85 21 25 75 5.9999999999999991
leaf_count=17 7 85 21 25 75 6
internal_value=0 0.234281 -0.0408889 -1.08216 0.186097 0.662623
internal_weight=0 194 187 42 166 91
internal_count=236 194 187 42 166 91
is_linear=0
shrinkage=0.01


Tree=11
num_leaves=7
num_cat=0
split_feature=19 1 20 36 26 12
split_gain=586422 3.84608e+06 746448 452980 448262 2.10714e+06
threshold=-0.55807766318321217 -1.1003835201263426 0.84000706672668468 -0.16446166485548017 -0.13107478618621823 0.7339884638786317
decision_type=2 2 2 2 2 2
left_child=3 -2 4 -1 5 -3
right_child=1 2 -4 -5 -6 -7
leaf_value=0.18805504742790671 7.5094051688058041 0.28908546627260917 -1.8168090620495025 -1.927720053100586 -0.3881669551372528 6.9668787994384767
leaf_weight=17 6.9999999999999991 86 21 25 75 4.9999999999999991
leaf_count=17 7 86 21 25 75 5
internal_value=0 0.231938 -0.04048 -1.07133 0.184236 0.655997
internal_weight=0 194 187 42 166 91
internal_count=236 194 187 42 166 91
is_linear=0
shrinkage=0.01


Tree=12
num_leaves=7
num_cat=0
split_feature=19 1 36 26 19 15
split_gain=574752 3.76955e+06 443965 409261 399537 2.13157e+06
threshold=-0.55807766318321217 -1.1003835201263426 -0.16446166485548017 -0.1275178715586662 -0.20333615690469739 0.60556522011756908
decision_type=2 2 2 2 2 2
left_child=2 -2 3 -1 -3 -6
right_child=1 4 -4 -5 5 -7
leaf_value=-0.81536935488382956 7.4343108258928572 -0.33844315451202972 -1.90844287109375 2.5898797149658201 5.8311452920096256 -0.075783136952668431
leaf_weight=12.000000000000002 6.9999999999999991 132 25 4.9999999999999991 6.9999999999999991 48
leaf_count=12 7 132 25 5 7 48
internal_value=0 0.229619 -1.06062 0.186174 -0.0400752 0.676008
internal_weight=0 194 42 17 187 55
internal_count=236 194 42 17 187 55
is_linear=0
shrinkage=0.01


Tree=13
num_leaves=7
num_cat=0
split_feature=19 12 20 36 26 36
split_gain=563314 2.38899e+06 760672 435130 401116 395551
threshold=-0.55807766318321217 1.0707004666328432 0.84000706672668468 -0.16446166485548017 -0.1275178715586662 -0.52006602287292469
decision_type=2 2 2 2 2 2
left_child=3 2 5 4 -1 -2
right_child=1 -3 -4 -5 -6 -7
leaf_value=-0.80721566756566343 -0.56217984481350236 5.5781129407882695 -1.7953816795349122 -1.8893584136962893 2.5639808349609376 0.52973973361383975
leaf_weight=12.000000000000002 46 7.9999999999999991 21 25 4.9999999999999991 119
leaf_count=12 46 8 21 25 5 119
internal_value=0 0.227323 -0.0028186 -1.05002 0.184313 0.225326
internal_weight=0 194 186 42 17 165
internal_count=236 194 186 42 17 165
is_linear=0
shrinkage=0.01


Tree=14
num_leaves=7
num_cat=0
split_feature=19 1 20 26 29 14
split_gain=552104 3.64673e+06 713936 434860 1.71732e+06 795267
threshold=-0.55807766318321217 -1.1003835201263426 0.84000706672668468 -0.13107478618621823 0.66321116685867321 -0.14466012269258496
decision_type=2 2 2 2 2 2
left_child=-1 -2 3 4 5 -3
right_child=1 2 -4 -5 -6 -7
leaf_value=-1.0395152473449707 7.3113986206054689 1.0497793099971917 -1.7774278749738421 -0.38422805483142536 5.8147814305623378 -0.93497807938492661
leaf_weight=42 6.9999999999999991 52 21 75 5.9999999999999991 33
leaf_count=42 7 52 21 75 6 33
internal_value=0 0.22505 -0.0402147 0.179553 0.644208 0.279226
internal_weight=0 194 187 166 91 85
internal_count=236 194 187 166 91 85
is_linear=0
shrinkage=0.01


Tree=15
num_leaves=7
num_cat=0
split_feature=15 1 20 36 36 14
split_gain=494980 3.58901e+06 687689 542813 389870 492578
threshold=-0.58754360675811756 -1.1003835201263426 0.84000706672668468 -0.16446166485548017 -0.52006602287292469 -0.46867030858993525
decision_type=2 2 2 2 2 2
left_child=3 -2 4 -1 -3 -6
right_child=1 2 -4 -5 5 -7
leaf_value=0.41296555042266847 7.2382846505301339 -0.61321295791483943 -1.7596535510108584 -1.9649126227696738 -1.5576761419122869 0.66173303631219005
leaf_weight=15.999999999999998 6.9999999999999991 47 21 24 10.999999999999998 110
leaf_count=16 7 47 21 24 11 110
internal_value=0 0.20689 -0.0535319 -1.01376 0.159733 0.459969
internal_weight=0 196 189 40 168 121
internal_count=236 196 189 40 168 121
is_linear=0
shrinkage=0.01


Tree=16
num_leaves=7
num_cat=0
split_feature=19 1 20 26 12 19
split_gain=531024 3.50289e+06 685921 424830 2.03055e+06 620657
threshold=-0.55807766318321217 -1.1003835201263426 0.84000706672668468 -0.13107478618621823 0.7339884638786317 -0.54848325252532948
decision_type=2 2 2 2 2 2
left_child=-1 -2 3 4 5 -3
right_child=1 2 -4 -5 -6 -7
leaf_value=-1.0194767322994414 7.1659017944335943 3.1291425268990651 -1.7420570400782995 -0.3810974186897278 6.8305319061279297 0.022348845865153059
leaf_weight=42 6.9999999999999991 6.9999999999999991 21 75 4.9999999999999991 79
leaf_count=42 7 7 21 75 5 79
internal_value=0 0.220711 -0.0392689 0.176144 0.635409 0.275227
internal_weight=0 194 187 166 91 86
internal_count=236 194 187 166 91 86
is_linear=0
shrinkage=0.01


Tree=17
num_leaves=7
num_cat=0
split_feature=19 1 20 37 26 12
split_gain=520457 3.43318e+06 672271 417792 416376 1.99014e+06
threshold=-0.55807766318321217 -1.1003835201263426 0.84000706672668468 0.32340463995933538 -0.13107478618621823 0.7339884638786317
decision_type=2 2 2 2 2 2
left_child=3 -2 4 -1 5 -3
right_child=1 2 -4 -5 -6 -7
leaf_value=0.77486314773559573 7.0942428588867186 0.27247513481350832 -1.7246364584423248 -1.5668272829055787 -0.37728645485242213 6.7622266769409185
leaf_weight=9.9999999999999982 6.9999999999999991 86 21 32 75 4.9999999999999991
leaf_count=10 7 86 21 32 75 5
internal_value=0 0.218504 -0.0388762 -1.00928 0.174383 0.629055
internal_weight=0 194 187 42 166 91
internal_count=236 194 187 42 166 91
is_linear=0
shrinkage=0.01


Tree=18
num_leaves=7
num_cat=0
split_feature=19 1 20 36 26 29
split_gain=510100 3.36486e+06 658893 414525 408090 1.61122e+06
threshold=-0.55807766318321217 -1.1003835201263426 0.84000706672668468 -0.16446166485548017 -0.13107478618621823 0.66321116685867321
decision_type=2 2 2 2 2 2
left_child=3 -2 4 -1 5 -3
right_child=1 2 -4 -5 -6 -7
leaf_value=0.20555947976953842 7.0233004324776793 0.26923655913857852 -1.7073900640578499 -1.8184182083129883 -0.37351358292897546 5.6310739167531336
leaf_weight=17 6.9999999999999991 85 21 25 75 5.9999999999999991
leaf_count=17 7 85 21 25 75 6
internal_value=0 0.216319 -0.0384875 -0.999189 0.172639 0.622764
internal_weight=0 194 187 42 166 91
internal_count=236 194 187 42 166 91
is_linear=0
shrinkage=0.01


Tree=19
num_leaves=7
num_cat=0
split_feature=15 1 20 36 26 12
split_gain=455920 3.31192e+06 634418 519193 437634 1.91691e+06
threshold=-0.58754360675811756 -1.1003835201263426 0.84000706672668468 -0.16446166485548017 -0.13107478618621823 0.7339884638786317
decision_type=2 2 2 2 2 2
left_child=3 -2 4 -1 5 -3
right_child=1 2 -4 -5 -6 -7
leaf_value=0.42239842176437381 6.9530673435756141 0.27107520904349186 -1.690316162109375 -1.9031676101684571 -0.40831831177598554 6.6382935943603512
leaf_weight=15.999999999999998 6.9999999999999991 87 21 24 76 4.9999999999999991
leaf_count=16 7 87 21 24 76 5
internal_value=0 0.198559 -0.0516075 -0.972941 0.153231 0.61712
internal_weight=0 196 189 40 168 92
internal_count=236 196 189 40 168 92
is_linear=0
shrinkage=0.01


Tree=20
num_leaves=7
num_cat=0
split_feature=19 1 20 13 26 12
split_gain=490593 3.23495e+06 500842 403073 391665 1.88034e+06
threshold=-0.55807766318321217 -1.1375570297241209 0.84000706672668468 0.6684761941432954 -0.13107478618621823 0.7339884638786317
decision_type=2 2 2 2 2 2
left_child=3 -2 4 -1 5 -3
right_child=1 2 -4 -5 -6 -7
leaf_value=-1.959540408452352 7.4404470062255861 0.26372375965811484 -1.43634540904652 -0.0002565175011044457 -0.36569526858329776 6.5719105682373051
leaf_weight=21 5.9999999999999991 86 22 21 75 4.9999999999999991
leaf_count=21 6 86 22 21 75 5
internal_value=0 0.212143 -0.0185476 -0.979898 0.169353 0.610327
internal_weight=0 194 188 42 166 91
internal_count=236 194 188 42 166 91
is_linear=0
shrinkage=0.01


Tree=21
num_leaves=7
num_cat=0
split_feature=19 1 20 13 26 12
split_gain=480831 3.17465e+06 622049 395052 383871 1.84292e+06
threshold=-0.55807766318321217 -1.1003835201263426 0.84000706672668468 0.6684761941432954 -0.13107478618621823 0.7339884638786317
decision_type=2 2 2 2 2 2
left_child=3 -2 4 -1 5 -3
right_child=1 2 -4 -5 -6 -7
leaf_value=-1.9399449375697546 6.8218133108956476 0.2610865293200626 -1.6590495863414947 -0.0002539589291527158 -0.3620383122523626 6.5061915435791011
leaf_weight=21 6.9999999999999991 86 21 21 75 4.9999999999999991
leaf_count=21 7 86 21 21 75 5
internal_value=0 0.210022 -0.0374787 -0.970099 0.16766 0.604224
internal_weight=0 194 187 42 166 91
internal_count=236 194 187 42 166 91
is_linear=0
shrinkage=0.01


Tree=22
num_leaves=7
num_cat=0
split_feature=19 1 20 19 14 7
split_gain=471262 3.11226e+06 488574 440219 406437 724122
threshold=-0.55807766318321217 -1.1375570297241209 0.59877988696098339 -0.55697926878929127 -0.14466012269258496 1.1743326187133791
decision_type=2 2 2 2 2 2
left_child=-1 -2 4 -4 5 -3
right_child=1 2 3 -5 -6 -7
leaf_value=-0.96039847328549344 7.2978245290120451 1.9665088351567588 1.2099086325509207 -1.5750937678019208 -0.24830189830543084 -0.088739227503538132
leaf_weight=42 5.9999999999999991 30 6.9999999999999991 30 81 40
leaf_count=42 6 30 7 30 81 40
internal_value=0 0.207921 -0.0183522 -1.0482 0.233995 0.792081
internal_weight=0 194 188 37 151 70
internal_count=236 194 188 37 151 70
is_linear=0
shrinkage=0.01


Tree=23
num_leaves=7
num_cat=0
split_feature=19 12 20 37 29 36
split_gain=461884 1.96938e+06 626068 404487 397378 349558
threshold=-0.55807766318321217 1.0707004666328432 0.84000706672668468 0.32340463995933538 0.85938829183578502 -0.52006602287292469
decision_type=2 2 2 2 2 2
left_child=3 2 5 -1 -5 -2
right_child=1 -3 -4 4 -6 -7
leaf_value=0.80471228313446053 -0.53644281366597046 5.0640374946594235 -1.6293605877104262 -2.9380282529195147 -0.63620766353607183 0.49003369298239213
leaf_weight=9.9999999999999982 46 7.9999999999999991 21 11.999999999999998 20 119
leaf_count=10 46 8 21 12 20 119
internal_value=0 0.205842 -0.00311254 -0.950795 -1.49939 0.203864
internal_weight=0 194 186 42 32 165
internal_count=236 194 186 42 32 165
is_linear=0
shrinkage=0.01


Tree=24
num_leaves=7
num_cat=0
split_feature=19 12 20 37 29 36
split_gain=452692 1.93019e+06 613610 396438 389470 342602
threshold=-0.55807766318321217 1.0707004666328432 0.84000706672668468 0.32340463995933538 0.85938829183578502 -0.52006602287292469
decision_type=2 2 2 2 2 2
left_child=3 2 5 -1 -5 -2
right_child=1 -3 -4 4 -6 -7
leaf_value=0.79666516017913824 -0.53107836970168609 5.0133970785140995 -1.6130669584728423 -2.9086478932698565 -0.62984560680389412 0.48513335396762658
leaf_weight=9.9999999999999982 46 7.9999999999999991 21 11.999999999999998 20 119
leaf_count=10 46 8 21 12 20 119
internal_value=0 0.203784 -0.00308141 -0.941287 -1.4844 0.201826
internal_weight=0 194 186 42 32 165
internal_count=236 194 186 42 32 165
is_linear=0
shrinkage=0.01


Tree=25
num_leaves=7
num_cat=0
split_feature=19 1 20 19 14 27
split_gain=443684 2.97989e+06 466513 422844 398688 1.06757e+06
threshold=-0.55807766318321217 -1.1375570297241209 0.59877988696098339 -0.55697926878929127 -0.14466012269258496 -0.12293127924203871
decision_type=2 2 2 2 2 2
left_child=-1 -2 4 -4 5 -3
right_child=1 2 3 -5 -6 -7
leaf_value=-0.93187369596390501 7.1392423502604165 1.8491587520837782 1.1871048954554966 -1.542383108774821 -0.25075688214949621 -0.64633472599585862
leaf_weight=42 5.9999999999999991 40 6.9999999999999991 30 81 30
leaf_count=42 6 40 7 30 81 30
internal_value=0 0.201746 -0.0196636 -1.02599 0.226921 0.779662
internal_weight=0 194 188 37 151 70
internal_count=236 194 188 37 151 70
is_linear=0
shrinkage=0.01


Tree=26
num_leaves=7
num_cat=0
split_feature=19 12 20 37 29 36
split_gain=434855 1.8574e+06 591649 388548 381720 333882
threshold=-0.55807766318321217 1.0707004666328432 0.84000706672668468 0.32340463995933538 0.85938829183578502 -0.52006602287292469
decision_type=2 2 2 2 2 2
left_child=3 2 5 -1 -5 -2
right_child=1 -3 -4 4 -6 -7
leaf_value=0.79801720333099369 -0.5255096177691998 4.9177858924865721 -1.5841119620913551 -2.8702427101135255 -0.61422837066650393 0.47768750158678586
leaf_weight=9.9999999999999982 46 7.9999999999999991 21 11.999999999999998 20 119
leaf_count=10 46 8 21 12 20 119
internal_value=0 0.199728 -0.00319882 -0.922555 -1.46023 0.198008
internal_weight=0 194 186 42 32 165
internal_count=236 194 186 42 32 165
is_linear=0
shrinkage=0.01


Tree=27
num_leaves=7
num_cat=0
split_feature=19 1 20 15 14 14
split_gain=426201 2.88686e+06 451325 509852 390914 704694
threshold=-0.55807766318321217 -1.1375570297241209 0.59877988696098339 -0.58589202165603627 -0.14466012269258496 -0.47154408693313593
decision_type=2 2 2 2 2 2
left_child=-1 -2 4 -4 5 -3
right_child=1 2 3 -5 -6 -7
leaf_value=-0.91332939034416571 7.0260722096761077 -1.1515960916678112 1.6582406743367515 -1.5264436524914158 -0.25065466346564114 1.2936486844149502
leaf_weight=42 5.9999999999999991 14.999999999999998 5.9999999999999991 31 81 55
leaf_count=42 6 15 6 31 81 55
internal_value=0 0.197731 -0.0201947 -1.01001 0.222342 0.769668
internal_weight=0 194 188 37 151 70
internal_count=236 194 188 37 151 70
is_linear=0
shrinkage=0.01


Tree=28
num_leaves=7
num_cat=0
split_feature=19 1 13 19 19 27
split_gain=417720 2.82941e+06 380982 353206 1.8857e+06 414082
threshold=-0.55807766318321217 -1.1375570297241209 0.6684761941432954 -0.20333615690469739 0.21959452331066134 -0.12293127924203871
decision_type=2 2 2 2 2 2
left_child=2 -2 -1 -3 -5 -6
right_child=1 3 -4 4 5 -7
leaf_value=-1.8566144457317535 6.9558116149902345 -0.29872703796938849 0.048222262064615891 6.5094227981567387 1.336414929558249 -0.58466978145368176
leaf_weight=21 5.9999999999999991 133 21 4.9999999999999991 17 33
leaf_count=21 6 133 21 5 17 33
internal_value=0 0.195754 -0.904196 -0.0199927 0.654038 0.068499
internal_weight=0 194 42 188 55 50
internal_count=236 194 42 188 55 50
is_linear=0
shrinkage=0.01


Tree=29
num_leaves=7
num_cat=0
split_feature=19 12 20 37 29 36
split_gain=409407 1.75572e+06 568310 381668 371258 323591
threshold=-0.55807766318321217 1.0707004666328432 0.84000706672668468 0.32340463995933538 0.85938829183578502 -0.52006602287292469
decision_type=2 2 2 2 2 2
left_child=3 2 5 -1 -5 -2
right_child=1 -3 -4 4 -6 -7
leaf_value=0.81011713218688974 -0.5185801594671996 4.7808953905105591 -1.5529159346080963 -2.8186029752095538 -0.5937205543518066 0.46903557154811731
leaf_weight=9.9999999999999982 46 7.9999999999999991 21 11.999999999999998 20 119
leaf_count=10 46 8 21 12 20 119
internal_value=0 0.193796 -0.00349833 -0.895154 -1.42805 0.1937
internal_weight=0 194 186 42 32 165
internal_count=236 194 186 42 32 165
is_linear=0
shrinkage=0.01


Tree=30
num_leaves=7
num_cat=0
split_feature=19 1 20 15 14 7
split_gain=401260 2.74114e+06 434087 495615 380811 690401
threshold=-0.55807766318321217 -1.1375570297241209 0.59877988696098339 -0.58589202165603627 -0.14466012269258496 1.1743326187133791
decision_type=2 2 2 2 2 2
left_child=-1 -2 4 -4 5 -3
right_child=1 2 3 -5 -6 -7
leaf_value=-0.88620262986137766 6.8456308746337893 1.9043261936505635 1.6395085589090983 -1.5003974754579605 -0.24948073815416408 -0.10249632823467256
leaf_weight=42 5.9999999999999991 30 5.9999999999999991 31 81 40
leaf_count=42 6 30 6 31 81 40
internal_value=0 0.191858 -0.0204962 -0.991224 0.217364 0.75757
internal_weight=0 194 188 37 151 70
internal_count=236 194 188 37 151 70
is_linear=0
shrinkage=0.01


Tree=31
num_leaves=7
num_cat=0
split_feature=19 1 20 19 37 14
split_gain=393275 2.68659e+06 425449 389955 374073 373233
threshold=-0.55807766318321217 -1.1375570297241209 0.59877988696098339 -0.55697926878929127 0.32340463995933538 -0.14466012269258496
decision_type=2 2 2 2 2 2
left_child=4 -2 5 -4 -1 -3
right_child=1 2 3 -5 -6 -7
leaf_value=0.81087803745269782 6.7771745808919279 0.74999477853093821 1.1439766584123883 -1.4772117029825846 -1.404908903837204 -0.2469859195491414
leaf_weight=9.9999999999999982 5.9999999999999991 70 6.9999999999999991 30 32 81
leaf_count=10 6 70 7 30 32 81
internal_value=0 0.18994 -0.0202912 -0.981311 -0.877341 0.215191
internal_weight=0 194 188 37 42 151
internal_count=236 194 188 37 42 151
is_linear=0
shrinkage=0.01


Tree=32
num_leaves=7
num_cat=0
split_feature=19 1 36 26 19 15
split_gain=385449 2.63494e+06 369392 388306 356478 1.99905e+06
threshold=-0.55807766318321217 -1.1003835201263426 -0.16446166485548017 -0.1275178715586662 -0.20333615690469739 0.60556522011756908
decision_type=2 2 2 2 2 2
left_child=2 -2 3 -1 -3 -6
right_child=1 4 -4 -5 5 -7
leaf_value=-0.70686110655466694 6.2116393389020654 -0.31927360846237707 -1.6419123008728027 2.6100637207031254 5.6312643105643136 -0.089091377059618629
leaf_weight=12.000000000000002 6.9999999999999991 132 25 4.9999999999999991 6.9999999999999991 48
leaf_count=12 7 132 25 5 7 48
internal_value=0 0.18804 -0.868567 0.268705 -0.037442 0.638954
internal_weight=0 194 42 17 187 55
internal_count=236 194 42 17 187 55
is_linear=0
shrinkage=0.01


Tree=33
num_leaves=7
num_cat=0
split_feature=19 7 20 39 20 20
split_gain=377778 1.36214e+06 507914 594747 691729 497847
threshold=-0.55807766318321217 -0.84357440471649159 0.59877988696098339 0.44872558116912847 1.3107584118843081 0.47361835837364202
decision_type=2 2 2 2 2 2
left_child=-1 -2 5 -4 -5 -3
right_child=1 2 3 4 -6 -7
leaf_value=-0.85988151141575397 4.8766026941935223 0.13754798194262344 -2.2473748538368628 -0.97481755574544238 3.4522566375732424 2.4460245549678805
leaf_weight=42 5.9999999999999991 142 19 12.000000000000002 4.9999999999999991 9.9999999999999982
leaf_count=42 6 142 19 12 5 10
internal_value=0 0.18616 0.0364649 -1.03157 0.327263 0.289421
internal_weight=0 194 188 36 17 152
internal_count=236 194 188 36 17 152
is_linear=0
shrinkage=0.01


Tree=34
num_leaves=7
num_cat=0
split_feature=19 1 20 15 13 26
split_gain=370260 2.55871e+06 407848 466718 368449 357241
threshold=-0.55807766318321217 -1.1375570297241209 0.59877988696098339 -0.58589202165603627 0.6684761941432954 -0.13136790692806241
decision_type=2 2 2 2 2 2
left_child=4 -2 5 -4 -1 -3
right_child=1 2 3 -5 -6 -7
leaf_value=-1.7879039641789027 6.6128437296549478 0.69287888807685749 1.5910884284973146 -1.4559059303037583 0.085338548932756705 -0.2799390776872635
leaf_weight=21 5.9999999999999991 76 5.9999999999999991 31 21 75
leaf_count=21 6 76 6 31 21 75
internal_value=0 0.184298 -0.020868 -0.961799 -0.851283 0.209691
internal_weight=0 194 188 37 42 151
internal_count=236 194 188 37 42 151
is_linear=0
shrinkage=0.01


Tree=35
num_leaves=7
num_cat=0
split_feature=19 1 20 15 37 14
split_gain=362892 2.50779e+06 399731 457430 365064 360640
threshold=-0.55807766318321217 -1.1375570297241209 0.59877988696098339 -0.58589202165603627 0.32340463995933538 -0.14466012269258496
decision_type=2 2 2 2 2 2
left_child=4 -2 5 -4 -1 -3
right_child=1 2 3 -5 -6 -7
leaf_value=0.82499403572082519 6.5467153167724614 0.73329930591157511 1.5751776186625162 -1.4413468674690493 -1.3639461022615433 -0.24671877323109428
leaf_weight=9.9999999999999982 5.9999999999999991 70 5.9999999999999991 31 32 81
leaf_count=10 6 70 6 31 32 81
internal_value=0 0.182455 -0.0206593 -0.952181 -0.84277 0.207594
internal_weight=0 194 188 37 42 151
internal_count=236 194 188 37 42 151
is_linear=0
shrinkage=0.01


Tree=36
num_leaves=7
num_cat=0
split_feature=19 1 20 15 13 14
split_gain=355671 2.45788e+06 391777 448327 361929 353464
threshold=-0.55807766318321217 -1.1375570297241209 0.59877988696098339 -0.58589202165603627 0.6684761941432954 -0.14466012269258496
decision_type=2 2 2 2 2 2
left_child=4 -2 5 -4 -1 -3
right_child=1 2 3 -5 -6 -7
leaf_value=-1.762639547075544 6.4812480926513674 0.72596632316282828 1.5594257736206054 -1.4269333808652818 0.093955223446800601 -0.24425159562482601
leaf_weight=21 5.9999999999999991 70 5.9999999999999991 31 21 81
leaf_count=21 6 70 6 31 21 81
internal_value=0 0.180631 -0.0204527 -0.942659 -0.834342 0.205518
internal_weight=0 194 188 37 42 151
internal_count=236 194 188 37 42 151
is_linear=0
shrinkage=0.01


Tree=37
num_leaves=7
num_cat=0
split_feature=19 1 20 37 19 14
split_gain=348593 2.40897e+06 383980 358604 350757 346430
threshold=-0.55807766318321217 -1.1375570297241209 0.59877988696098339 0.32340463995933538 -0.55697926878929127 -0.14466012269258496
decision_type=2 2 2 2 2 2
left_child=3 -2 5 -1 -4 -3
right_child=1 2 4 -5 -6 -7
leaf_value=0.82694409751892095 6.4164357503255216 0.71870662198747914 1.0824125453404019 -1.342543396949768 -1.403549508412679 -0.24180907002937649
leaf_weight=9.9999999999999982 5.9999999999999991 70 6.9999999999999991 32 30 81
leaf_count=10 6 70 7 32 30 81
internal_value=0 0.178824 -0.0202482 -0.825999 -0.933232 0.203463
internal_weight=0 194 188 42 37 151
internal_count=236 194 188 42 37 151
is_linear=0
shrinkage=0.01


Tree=38
num_leaves=7
num_cat=0
split_feature=19 1 13 19 15 13
split_gain=341656 2.36304e+06 355525 327326 1.95707e+06 396196
threshold=-0.55807766318321217 -1.1003835201263426 0.6684761941432954 -0.20333615690469739 0.60556522011756908 0.66514313220977794
decision_type=2 2 2 2 2 2
left_child=2 -2 -1 5 -5 -3
right_child=1 3 -4 4 -6 -7
leaf_value=-1.7377862430754163 5.8813888767787388 -0.52425451416718327 0.10230875651041667 5.5512761143275666 -0.10870812048514684 1.0721875139739778
leaf_weight=21 6.9999999999999991 114 21 6.9999999999999991 48 18
leaf_count=21 7 114 21 7 48 18
internal_value=0 0.177036 -0.817739 -0.0364957 0.611654 -0.306558
internal_weight=0 194 42 187 55 132
internal_count=236 194 42 187 55 132
is_linear=0
shrinkage=0.01


Tree=39
num_leaves=7
num_cat=0
split_feature=19 1 37 29 19 15
split_gain=334857 2.31762e+06 352259 353708 304207 1.91813e+06
threshold=-0.55807766318321217 -1.1375570297241209 0.32340463995933538 0.85938829183578502 -0.20333615690469739 0.60556522011756908
decision_type=2 2 2 2 2 2
left_child=2 -2 -1 -4 -3 -6
right_child=1 4 3 -5 5 -7
leaf_value=0.82869211196899417 6.2934574381510417 -0.27867442975366924 -2.6788021723429365 -0.5071436538696289 5.4957633863176616 -0.10762105002999306
leaf_weight=9.9999999999999982 5.9999999999999991 133 11.999999999999998 20 6.9999999999999991 48
leaf_count=10 6 133 12 20 7 48
internal_value=0 0.175266 -0.809561 -1.32152 -0.0199956 0.605537
internal_weight=0 194 42 32 188 55
internal_count=236 194 42 32 188 55
is_linear=0
shrinkage=0.01


Tree=40
num_leaves=7
num_cat=0
split_feature=19 1 20 13 26 12
split_gain=328193 2.27373e+06 471280 346565 334947 1.82624e+06
threshold=-0.55807766318321217 -1.1003835201263426 0.84000706672668468 0.6684761941432954 -0.13107478618621823 0.7339884638786317
decision_type=2 2 2 2 2 2
left_child=3 -2 4 -1 5 -3
right_child=1 2 -4 -5 -6 -7
leaf_value=-1.7098465647016252 5.769029279436384 0.2088265587008277 -1.447386127653576 0.10691502434866769 -0.35218223855098091 6.4256095581054682
leaf_weight=21 6.9999999999999991 86 21 21 75 4.9999999999999991
leaf_count=21 7 86 21 21 75 5
internal_value=0 0.173513 -0.0359446 -0.801466 0.142611 0.550408
internal_weight=0 194 187 42 166 91
internal_count=236 194 187 42 166 91
is_linear=0
shrinkage=0.01


Tree=41
num_leaves=7
num_cat=0
split_feature=13 30 4 25 7 37
split_gain=288216 562750 524630 490403 1.35386e+06 1.92546e+06
threshold=0.66514313220977794 0.72185057401657116 0.69768726825714122 -0.21542463451623914 1.1743326187133791 -0.50452116131782521
decision_type=2 2 2 2 2 2
left_child=3 2 -2 -1 5 -5
right_child=1 -3 -4 4 -6 -7
leaf_value=-0.49568856574870923 3.7202429559294665 -1.6690322828292847 0.67003139758932184 0.54726874033610029 -0.26890017442925035 8.2869782257080082
leaf_weight=135 6.9999999999999991 7.9999999999999991 29 8.9999999999999982 43 4.9999999999999991
leaf_count=135 7 8 29 9 43 5
internal_value=0 0.730008 1.26313 -0.167294 0.610484 3.31145
internal_weight=0 44 36 192 57 14
internal_count=236 44 36 192 57 14
is_linear=0
shrinkage=0.01


Tree=42
num_leaves=7
num_cat=0
split_feature=19 12 20 37 29 36
split_gain=322053 1.4016e+06 479806 345054 342105 300954
threshold=-0.55807766318321217 1.0707004666328432 0.84000706672668468 0.32340463995933538 0.85938829183578502 -0.52006602287292469
decision_type=2 2 2 2 2 2
left_child=3 2 5 -1 -5 -2
right_child=1 -3 -4 4 -6 -7
leaf_value=0.8274804515838623 -0.51011587407277981 4.270358362197876 -1.4280634198869979 -2.635465774536133 -0.49972091674804686 0.44232771842419605
leaf_weight=9.9999999999999982 46 7.9999999999999991 21 11.999999999999998 20 119
leaf_count=10 46 8 21 12 20 119
internal_value=0 0.171882 -0.00439604 -0.793933 -1.30063 0.176798
internal_weight=0 194 186 42 32 165
internal_count=236 194 186 42 32 165
is_linear=0
shrinkage=0.01


Tree=43
num_leaves=7
num_cat=0
split_feature=15 1 36 20 26 12
split_gain=285192 2.21105e+06 431914 349851 358202 1.78349e+06
threshold=-0.58754360675811756 -1.1375570297241209 -0.16446166485548017 0.84000706672668468 -0.13107478618621823 0.7339884638786317
decision_type=2 2 2 2 2 2
left_child=2 -2 -1 4 5 -3
right_child=1 3 -4 -5 -6 -7
leaf_value=0.50316086173057561 6.1338989639282229 0.20947987205680763 -1.6179473702112832 -1.2174912331321024 -0.38445783041025466 6.3511239776611328
leaf_weight=15.999999999999998 5.9999999999999991 87 24 22 76 4.9999999999999991
leaf_count=16 6 87 24 22 76 5
internal_value=0 0.157042 -0.769504 -0.0317012 0.123581 0.543265
internal_weight=0 196 40 190 168 92
internal_count=236 196 40 190 168 92
is_linear=0
shrinkage=0.01


Tree=44
num_leaves=7
num_cat=0
split_feature=3 0 37 25 25 7
split_gain=277930 588953 817761 591423 476338 1.324e+06
threshold=0.65669220685958873 0.67316326498985302 0.13753562420606616 -0.56076404452323902 -0.21542463451623914 1.1743326187133791
decision_type=2 2 2 2 2 2
left_child=4 2 -2 -4 -1 -6
right_child=1 -3 3 -5 5 -7
leaf_value=-0.48793272471427918 5.1100325927734378 -1.2870301992242987 -0.28065189763119347 2.8312810643513986 3.2732771982465469 -0.26737067272496778
leaf_weight=135 4.9999999999999991 10.999999999999998 19 9.0000000000000018 13.999999999999998 43
leaf_count=135 5 11 19 9 14 43
internal_value=0 0.716863 1.38483 0.719612 -0.164281 0.602262
internal_weight=0 44 33 28 192 57
internal_count=236 44 33 28 192 57
is_linear=0
shrinkage=0.01


Tree=45
num_leaves=7
num_cat=0
split_feature=19 12 20 37 29 14
split_gain=309456 1.34953e+06 458927 329663 333924 294581
threshold=-0.55807766318321217 1.0707004666328432 0.84000706672668468 0.32340463995933538 0.85938829183578502 -0.47154408693313593
decision_type=2 2 2 2 2 2
left_child=3 2 5 -1 -5 -2
right_child=1 -3 -4 4 -6 -7
leaf_value=0.806588098526001 -1.1634433789253236 4.1901208591461181 -1.3968335687546503 -2.5922949250539142 -0.48224382352828982 0.3063381666501363
leaf_weight=9.9999999999999982 14.999999999999998 7.9999999999999991 21 11.999999999999998 20 150
leaf_count=10 15 8 21 12 20 150
internal_value=0 0.168487 -0.00448619 -0.778251 -1.27351 0.172722
internal_weight=0 194 186 42 32 165
internal_count=236 194 186 42 32 165
is_linear=0
shrinkage=0.01


Tree=46
num_leaves=7
num_cat=0
split_feature=19 19 13 0 37 19
split_gain=309610 1.65087e+06 480799 579379 799660 573799
threshold=-0.20333615690469739 0.21959452331066134 0.66514313220977794 0.67316326498985302 0.13753562420606616 -0.55697926878929127
decision_type=2 2 2 2 2 2
left_child=2 -2 -1 4 -4 -6
right_child=1 -3 3 -5 5 -7
leaf_value=-0.4959965614448576 6.1329366607666023 0.111767702850641 5.0528673248291014 -1.2809327004172584 -0.27393929029765884 2.7912741470336901
leaf_weight=136 4.9999999999999991 51 4.9999999999999991 10.999999999999998 19 9.0000000000000018
leaf_count=136 5 51 5 11 19 9
internal_value=0 0.649372 -0.202027 0.706607 1.36912 0.711308
internal_weight=0 56 180 44 33 28
internal_count=236 56 180 44 33 28
is_linear=0
shrinkage=0.01


Tree=47
num_leaves=7
num_cat=0
split_feature=19 15 3 0 37 15
split_gain=303449 1.73465e+06 471231 567850 783747 606065
threshold=-0.20333615690469739 0.60556522011756908 0.65669220685958873 0.67316326498985302 0.13753562420606616 -0.58762323856353749
decision_type=2 2 2 2 2 2
left_child=2 -2 -1 4 -4 -6
right_child=1 -3 3 -5 5 -7
leaf_value=-0.49103658991263194 5.2993947056361606 -0.022338276882560883 5.0023387298583986 -1.268123374418779 -0.47926226952496698 2.533173950368707
leaf_weight=136 6.9999999999999991 49 4.9999999999999991 10.999999999999998 17 11.000000000000002
leaf_count=136 7 49 5 11 17 11
internal_value=0 0.642878 -0.200007 0.699541 1.35543 0.704195
internal_weight=0 56 180 44 33 28
internal_count=236 56 180 44 33 28
is_linear=0
shrinkage=0.01


Tree=48
num_leaves=7
num_cat=0
split_feature=19 1 20 26 12 14
split_gain=302505 2.11305e+06 423619 319413 1.72775e+06 667973
threshold=-0.55807766318321217 -1.1003835201263426 0.84000706672668468 -0.13107478618621823 0.7339884638786317 -0.14466012269258496
decision_type=2 2 2 2 2 2
left_child=-1 -2 3 4 5 -3
right_child=1 2 -4 -5 -6 -7
leaf_value=-0.76946088268643342 5.5607737513950894 0.91257134022047892 -1.373507463364374 -0.34923460299173992 6.2467571563720705 -0.88997950006933779
leaf_weight=42 6.9999999999999991 52 21 75 4.9999999999999991 34
leaf_count=42 7 52 21 75 5 34
internal_value=0 0.166584 -0.0353372 0.133949 0.532178 0.199935
internal_weight=0 194 187 166 91 86
internal_count=236 194 187 166 91 86
is_linear=0
shrinkage=0.01


Tree=49
num_leaves=7
num_cat=0
split_feature=19 1 20 15 14 27
split_gain=296485 2.07237e+06 345237 398234 326886 967538
threshold=-0.55807766318321217 -1.1375570297241209 0.59877988696098339 -0.58589202165603627 -0.14466012269258496 -0.12293127924203871
decision_type=2 2 2 2 2 2
left_child=-1 -2 4 -4 5 -3
right_child=1 2 3 -5 -6 -7
leaf_value=-0.76176625433422274 5.9503527704874672 1.7110599358081817 1.4727396583557129 -1.3418411334868401 -0.24012787830130553 -0.66464442841211946
leaf_weight=42 5.9999999999999991 40 5.9999999999999991 31 81 30
leaf_count=42 6 40 6 31 81 30
internal_value=0 0.164918 -0.019723 -0.885423 0.192402 0.692901
internal_weight=0 194 188 37 151 70
internal_count=236 194 188 37 151 70
is_linear=0
shrinkage=0.01


end of trees

feature_importances:
Column_19=60
Column_20=39
Column_1=36
Column_36=24
Column_26=21
Column_12=19
Column_14=18
Column_15=18
Column_37=15
Column_13=10
Column_29=9
Column_7=6
Column_3=5
Column_25=5
Column_0=4
Column_27=3
Column_11=2
Column_39=2
Column_4=1
Column_8=1
Column_17=1
Column_30=1

parameters:
[boosting: gbdt]
[objective: regression]
[metric: l2]
[tree_learner: serial]
[device_type: cpu]
[data_sample_strategy: bagging]
[data: ]
[valid: ]
[num_iterations: 50]
[learning_rate: 0.01]
[num_leaves: 7]
[num_threads: 12]
[seed: 42]
[deterministic: 0]
[force_col_wise: 0]
[force_row_wise: 0]
[histogram_pool_size: -1]
[max_depth: -1]
[min_data_in_leaf: 5]
[min_sum_hessian_in_leaf: 0.001]
[bagging_fraction: 0.6]
[pos_bagging_fraction: 1]
[neg_bagging_fraction: 1]
[bagging_freq: 0]
[bagging_seed: 400]
[feature_fraction: 0.8]
[feature_fraction_bynode: 1]
[feature_fraction_seed: 30056]
[extra_trees: 0]
[extra_seed: 12879]
[early_stopping_round: 0]
[early_stopping_min_delta: 0]
[first_metric_only: 0]
[max_delta_step: 0]
[lambda_l1: 0]
[lambda_l2: 0]
[linear_lambda: 0]
[min_gain_to_split: 0]
[drop_rate: 0.1]
[max_drop: 50]
[skip_drop: 0.5]
[xgboost_dart_mode: 0]
[uniform_drop: 0]
[drop_seed: 17869]
[top_rate: 0.2]
[other_rate: 0.1]
[min_data_per_group: 100]
[max_cat_threshold: 32]
[cat_l2: 10]
[cat_smooth: 10]
[max_cat_to_onehot: 4]
[top_k: 20]
[monotone_constraints: ]
[monotone_constraints_method: basic]
[monotone_penalty: 0]
[feature_contri: ]
[forcedsplits_filename: ]
[refit_decay_rate: 0.9]
[cegb_tradeoff: 1]
[cegb_penalty_split: 0]
[cegb_penalty_feature_lazy: ]
[cegb_penalty_feature_coupled: ]
[path_smooth: 0]
[interaction_constraints: ]
[verbosity: -1]
[saved_feature_importance_type: 0]
[use_quantized_grad: 0]
[num_grad_quant_bins: 4]
[quant_train_renew_leaf: 0]
[stochastic_rounding: 1]
[linear_tree: 0]
[max_bin: 255]
[max_bin_by_feature: ]
[min_data_in_bin: 3]
[bin_construct_sample_cnt: 200000]
[data_random_seed: 175]
[is_enable_sparse: 1]
[enable_bundle: 1]
[use_missing: 1]
[zero_as_missing: 0]
[feature_pre_filter: 1]
[pre_partition: 0]
[two_round: 0]
[header: 0]
[label_column: ]
[weight_column: ]
[group_column: ]
[ignore_column: ]
[categorical_feature: ]
[forcedbins_filename: ]
[precise_float_parser: 0]
[parser_config_file: ]
[objective_seed: 16083]
[num_class: 1]
[is_unbalance: 0]
[scale_pos_weight: 1]
[sigmoid: 1]
[boost_from_average: 1]
[reg_sqrt: 0]
[alpha: 0.9]
[fair_c: 1]
[poisson_max_delta_step: 0.7]
[tweedie_variance_power: 1.5]
[lambdarank_truncation_level: 30]
[lambdarank_norm: 1]
[label_gain: ]
[lambdarank_position_bias_regularization: 0]
[eval_at: ]
[multi_error_top_k: 1]
[auc_mu_weights: ]
[num_machines: 1]
[local_listen_port: 12400]
[time_out: 120]
[machine_list_filename: ]
[machines: ]
[gpu_platform_id: -1]
[gpu_device_id: -1]
[gpu_use_dp: 0]
[num_gpu: 1]

end of parameters

pandas_categorical:null
