tree
version=v4
num_class=1
num_tree_per_iteration=1
label_index=0
max_feature_idx=19
objective=regression
feature_names=Column_0 Column_1 Column_2 Column_3 Column_4 Column_5 Column_6 Column_7 Column_8 Column_9 Column_10 Column_11 Column_12 Column_13 Column_14 Column_15 Column_16 Column_17 Column_18 Column_19
feature_infos=[-2.8485889434814453:1.5699921846389771] [-3.0261406898498535:1.8171709775924683] [-2.6044073104858398:2.0624935626983643] [-2.5926740169525146:2.3159430027008057] [-0.31032595038414001:4.5964555740356445] none [-2.7623047828674316:2.2275784015655518] [-1.5309725999832153:2.903090238571167] [-2.7230727672576904:1.9462544918060303] [-2.4364461898803711:2.9037089347839355] [-1.7197753190994263:4.8036537170410156] [-0.27977105975151062:6.6381683349609375] [-3.0201122760772705:2.073237419128418] [-0.30099904537200928:4.0716490745544434] [-3.1087563037872314:1.6537030935287476] [-2.7837109565734863:2.1823694705963135] [-3.2516853809356689:3.260739803314209] [-0.28310015797615051:5.8906183242797852] [-2.4801826477050781:2.4427065849304199] [-3.0218586921691895:1.6961435079574585]
tree_sizes=733 749 748 745 742 769 771 775 772 744 740 778 769 746 768 741 777 741 742 738 767 718 782 773 743 768 781 754 761 769 770 750 769 753 764 767 758 759 773 754 754 755 759 749 770 805 751 804 767 747

Tree=0
num_leaves=7
num_cat=0
split_feature=0 0 16 0 7 9
split_gain=442428 921989 1.56849e+06 1.14277e+06 485799 499497
threshold=0.044756267219781883 -0.38539284467697138 -0.58750930428504933 -0.17633999884128568 -0.57593104243278492 -0.31147158145904535
decision_type=2 2 2 2 2 2
left_child=1 -1 -3 -4 -2 -6
right_child=4 2 3 -5 5 -7
leaf_value=445.21010592343271 443.64938221521828 445.44532651528522 452.8045703921191 446.85718930713199 446.42855291950929 445.01970497676575
leaf_weight=48 19 17.000000000000004 7 5.9999999999999982 33 106
leaf_count=48 19 17 7 6 33 106
internal_value=445.453 446.07 447.445 450.06 445.149 445.354
internal_weight=0 78 30 13 158 139
internal_count=236 78 30 13 158 139
is_linear=0
shrinkage=1


Tree=1
num_leaves=7
num_cat=0
split_feature=0 0 16 0 7 9
split_gain=433624 903642 1.53728e+06 1.12003e+06 476132 489557
threshold=0.044756267219781883 -0.38539284467697138 -0.58750930428504933 -0.17633999884128568 -0.57593104243278492 -0.31147158145904535
decision_type=2 2 2 2 2 2
left_child=1 -1 -3 -4 -2 -6
right_child=4 2 3 -5 5 -7
leaf_value=-0.24085109710693359 -1.7859675168991089 -0.0079826613033519064 7.2776686205182752 1.3897615051269534 0.96541142998319684 -0.42934801011715296
leaf_weight=48 19 17.000000000000004 7 5.9999999999999982 33 106
leaf_count=48 19 17 7 6 33 106
internal_value=0 0.610073 1.97155 4.56017 -0.301175 -0.0982181
internal_weight=0 78 30 13 158 139
internal_count=236 78 30 13 158 139
is_linear=0
shrinkage=0.01


Tree=2
num_leaves=7
num_cat=0
split_feature=0 0 16 0 7 9
split_gain=424995 885659 1.50669e+06 1.09774e+06 466657 479815
threshold=0.044756267219781883 -0.38539284467697138 -0.58750930428504933 -0.17633999884128568 -0.57593104243278492 -0.31147158145904535
decision_type=2 2 2 2 2 2
left_child=1 -1 -3 -4 -2 -6
right_child=4 2 3 -5 5 -7
leaf_value=-0.23844257791837056 -1.7681077856766549 -0.0079028813979204957 7.204892022269112 1.3758638509114585 0.95575734019279479 -0.42505452623907125
leaf_weight=48 19 17.000000000000004 7 5.9999999999999982 33 106
leaf_count=48 19 17 7 6 33 106
internal_value=0 0.603972 1.95184 4.51457 -0.298164 -0.0972359
internal_weight=0 78 30 13 158 139
internal_count=236 78 30 13 158 139
is_linear=0
shrinkage=0.01


Tree=3
num_leaves=7
num_cat=0
split_feature=0 0 16 0 7 16
split_gain=416537 868034 1.4767e+06 1.07589e+06 457370 415814
threshold=0.044756267219781883 -0.38539284467697138 -0.58750930428504933 -0.17633999884128568 -0.57593104243278492 -0.2866226434707641
decision_type=2 2 2 2 2 2
left_child=1 -1 -3 -4 -2 -6
right_child=4 2 3 -5 5 -7
leaf_value=-0.23605813036362333 -1.7504267484263369 -0.0078238419925465291 7.13284315926688 1.3621052551269535 1.3218101310729982 -0.30721664803579823
leaf_weight=48 19 17.000000000000004 7 5.9999999999999982 18 121
leaf_count=48 19 17 7 6 18 121
internal_value=0 0.597933 1.93232 4.46943 -0.295182 -0.0962635
internal_weight=0 78 30 13 158 139
internal_count=236 78 30 13 158 139
is_linear=0
shrinkage=0.01


Tree=4
num_leaves=7
num_cat=0
split_feature=9 10 16 11 0 10
split_gain=412842 1.19451e+06 638977 609599 1.3237e+06 449094
threshold=-0.31147158145904535 -0.44666931033134455 0.10881548002362253 -0.27790032327175135 -0.17633999884128568 1.1191184520721438
decision_type=2 2 2 2 2 2
left_child=1 -1 -2 4 -3 -4
right_child=2 3 5 -5 -6 -7
leaf_value=-0.46164824149911371 -1.2996824169158936 6.6406729125976565 0.68428040702387971 -0.039224440892537439 1.44795439913317 -0.96452948540449146
leaf_weight=63 48 5.9999999999999991 53 14.999999999999998 27 24
leaf_count=63 48 6 53 15 27 24
internal_value=0 0.443843 -0.394133 1.6323 2.39209 0.170366
internal_weight=0 111 125 48 33 77
internal_count=236 111 125 48 33 77
is_linear=0
shrinkage=0.01


Tree=5
num_leaves=7
num_cat=0
split_feature=8 6 17 14 7 16
split_gain=371684 1.47285e+06 494726 456445 464071 478383
threshold=-0.28946468234062189 -0.50937134027481068 -0.27842484414577479 1.0000000180025095e-35 -0.57593104243278492 -0.099382434040307985
decision_type=2 2 2 2 2 2
left_child=1 -1 3 -2 -5 -6
right_child=2 -3 -4 4 5 -7
leaf_value=0.088301136454597848 2.6005958175659178 4.6517512130737302 -2.2112300992012024 -1.7676558639021482 0.81087006403052286 -0.45254731510960783
leaf_weight=61 5.9999999999999991 7.9999999999999991 11.999999999999998 17 46 86
leaf_count=61 6 8 12 17 46 86
internal_value=0 0.617397 -0.255092 -0.103649 -0.212545 -0.0122655
internal_weight=0 69 167 155 149 132
internal_count=236 69 167 155 149 132
is_linear=0
shrinkage=0.01


Tree=6
num_leaves=7
num_cat=0
split_feature=0 0 16 0 0 19
split_gain=398580 831509 1.42729e+06 1.03407e+06 449115 661700
threshold=0.044756267219781883 -0.38539284467697138 -0.58750930428504933 -0.17633999884128568 0.97387331724166881 1.2184174060821535
decision_type=2 2 2 2 2 2
left_child=1 -1 -3 -4 -2 -6
right_child=4 2 3 -5 5 -7
leaf_value=-0.23135409524043402 -0.49171588215275086 -0.016493403490851904 6.9963460104806074 1.3388799540201826 3.890183156331378 -0.07904444694519043
leaf_weight=48 138 17.000000000000004 7 5.9999999999999982 6.0000000000000027 13.999999999999998
leaf_count=48 138 17 7 6 6 14
internal_value=0 0.584902 1.89091 4.38521 -0.288749 1.11172
internal_weight=0 78 30 13 158 20
internal_count=236 78 30 13 158 20
is_linear=0
shrinkage=0.01


Tree=7
num_leaves=7
num_cat=0
split_feature=9 10 16 11 18 7
split_gain=397282 1.15442e+06 622958 590746 1.63873e+06 516570
threshold=-0.31147158145904535 -0.44666931033134455 0.10881548002362253 -0.27790032327175135 -0.40946255624294275 -0.41204479336738581
decision_type=2 2 2 2 2 2
left_child=1 -1 -2 4 -3 -6
right_child=2 3 -4 -5 5 -7
leaf_value=-0.45476598601492624 -1.2807608125607173 6.291007709503174 0.17074363943818327 -0.041733942667643228 -1.4668744913736977 1.8988792962776984
leaf_weight=63 48 7.9999999999999991 77 14.999999999999998 5.9999999999999991 19.000000000000004
leaf_count=63 48 8 77 15 6 19
internal_value=0 0.435399 -0.386634 1.60374 2.35168 1.0911
internal_weight=0 111 125 48 33 25
internal_count=236 111 125 48 33 25
is_linear=0
shrinkage=0.01


Tree=8
num_leaves=7
num_cat=0
split_feature=9 10 16 11 18 7
split_gain=389376 1.13144e+06 610561 578990 1.60612e+06 506291
threshold=-0.31147158145904535 -0.44666931033134455 0.10881548002362253 -0.27790032327175135 -0.40946255624294275 -0.41204479336738581
decision_type=2 2 2 2 2 2
left_child=1 -1 -2 4 -3 -6
right_child=2 3 -4 -5 5 -7
leaf_value=-0.4502183114725446 -1.2679531967639923 6.2280976486206052 0.1690362298024165 -0.04131663386027018 -1.4522057819366456 1.879890465234455
leaf_weight=63 48 7.9999999999999991 77 14.999999999999998 5.9999999999999991 19.000000000000004
leaf_count=63 48 8 77 15 6 19
internal_value=0 0.431045 -0.382768 1.5877 2.32817 1.08019
internal_weight=0 111 125 48 33 25
internal_count=236 111 125 48 33 25
is_linear=0
shrinkage=0.01


Tree=9
num_leaves=7
num_cat=0
split_feature=9 10 16 11 0 10
split_gain=381628 1.10893e+06 598411 567468 1.2173e+06 439760
threshold=-0.31147158145904535 -0.44666931033134455 0.10881548002362253 -0.27790032327175135 -0.17633999884128568 1.1191184520721438
decision_type=2 2 2 2 2 2
left_child=1 -1 -2 4 -3 -4
right_child=2 3 5 -5 -6 -7
leaf_value=-0.44571610644696252 -1.2552736683686574 6.3791455078124999 0.67589169196362764 -0.040903482437133792 1.3994924955014829 -0.95569278875986741
leaf_weight=63 48 5.9999999999999991 53 14.999999999999998 27 24
leaf_count=63 48 6 53 15 27 24
internal_value=0 0.426734 -0.37894 1.57183 2.30488 0.167346
internal_weight=0 111 125 48 33 77
internal_count=236 111 125 48 33 77
is_linear=0
shrinkage=0.01


Tree=10
num_leaves=7
num_cat=0
split_feature=0 0 16 0 0 0
split_gain=377918 787910 1.35079e+06 987506 433363 546260
threshold=0.044756267219781883 -0.38539284467697138 -0.58750930428504933 -0.17633999884128568 0.97387331724166881 0.79484885931015026
decision_type=2 2 2 2 2 2
left_child=1 -1 -3 -4 5 -2
right_child=4 2 3 -5 -6 -7
leaf_value=-0.22502839557826521 -0.23686897842089333 -0.014732612161075366 6.8190481785365504 1.2904261906941732 1.0945288496017456 -2.1050208981831871
leaf_weight=48 120 17.000000000000004 7 5.9999999999999982 20 18
leaf_count=48 120 17 7 6 20 18
internal_value=0 0.569539 1.84085 4.26738 -0.281165 -0.480541
internal_weight=0 78 30 13 158 138
internal_count=236 78 30 13 158 138
is_linear=0
shrinkage=0.01


Tree=11
num_leaves=7
num_cat=0
split_feature=9 10 16 11 18 7
split_gain=369904 1.07921e+06 586544 554172 1.52748e+06 496982
threshold=-0.31147158145904535 -0.44666931033134455 0.10881548002362253 -0.27790032327175135 -0.40946255624294275 -0.41204479336738581
decision_type=2 2 2 2 2 2
left_child=1 -1 -2 4 -3 -6
right_child=2 3 -4 -5 5 -7
leaf_value=-0.44055225201542414 -1.2406753474473953 6.0774527549743658 0.16776797108835989 -0.043950526555379232 -1.4518554321924844 1.8494654103329304
leaf_weight=63 48 7.9999999999999991 77 14.999999999999998 5.9999999999999991 19.000000000000004
leaf_count=63 48 8 77 15 6 19
internal_value=0 0.420129 -0.373074 1.54977 2.27419 1.05715
internal_weight=0 111 125 48 33 25
internal_count=236 111 125 48 33 25
is_linear=0
shrinkage=0.01


Tree=12
num_leaves=7
num_cat=0
split_feature=0 0 16 0 0 19
split_gain=365353 763892 1.30776e+06 961037 422509 647891
threshold=0.044756267219781883 -0.38539284467697138 -0.58750930428504933 -0.17633999884128568 0.97387331724166881 1.2184174060821535
decision_type=2 2 2 2 2 2
left_child=1 -1 -3 -4 -2 -6
right_child=4 2 3 -5 5 -7
leaf_value=-0.22237224115990104 -0.47331477821737095 -0.014013867097742414 6.7165819549560535 1.2625587590535485 3.8312209574381488 -0.096372070312500002
leaf_weight=48 138 17.000000000000004 7 5.9999999999999982 6.0000000000000027 13.999999999999998
leaf_count=48 138 17 7 6 6 14
internal_value=0 0.559991 1.81177 4.19934 -0.276451 1.08191
internal_weight=0 78 30 13 158 20
internal_count=236 78 30 13 158 20
is_linear=0
shrinkage=0.01


Tree=13
num_leaves=7
num_cat=0
split_feature=9 10 16 11 0 10
split_gain=360212 1.05076e+06 570760 542016 1.12656e+06 428078
threshold=-0.31147158145904535 -0.44666931033134455 0.10881548002362253 -0.27790032327175135 -0.17633999884128568 1.1191184520721438
decision_type=2 2 2 2 2 2
left_child=1 -1 -2 4 -3 -4
right_child=2 3 5 -5 -6 -7
leaf_value=-0.43467401436397007 -1.2240016261736553 6.1651355997721353 0.6671069314344874 -0.046903188705444333 1.3746834366409868 -0.94266032675902056
leaf_weight=63 48 5.9999999999999991 53 14.999999999999998 27 24
leaf_count=63 48 6 53 15 27 24
internal_value=0 0.414588 -0.368154 1.52924 2.24567 0.165361
internal_weight=0 111 125 48 33 77
internal_count=236 111 125 48 33 77
is_linear=0
shrinkage=0.01


Tree=14
num_leaves=7
num_cat=0
split_feature=0 0 16 0 0 19
split_gain=356218 739800 1.26859e+06 930966 412034 634373
threshold=0.044756267219781883 -0.38539284467697138 -0.58750930428504933 -0.17633999884128568 0.97387331724166881 1.2184174060821535
decision_type=2 2 2 2 2 2
left_child=1 -1 -3 -4 -2 -6
right_child=4 2 3 -5 5 -7
leaf_value=-0.21698133950432141 -0.46738121381704362 -0.013409237581140852 6.613921639578682 1.2459024683634443 3.7889206695556616 -0.097480038234165733
leaf_weight=48 138 17.000000000000004 7 5.9999999999999982 6.0000000000000027 13.999999999999998
leaf_count=48 138 17 7 6 6 14
internal_value=0 0.552946 1.78483 4.13637 -0.272973 1.06844
internal_weight=0 78 30 13 158 20
internal_count=236 78 30 13 158 20
is_linear=0
shrinkage=0.01


Tree=15
num_leaves=7
num_cat=0
split_feature=0 0 16 0 7 16
split_gain=349129 725078 1.24335e+06 912440 426959 388412
threshold=0.044756267219781883 -0.38539284467697138 -0.58750930428504933 -0.17633999884128568 -0.57593104243278492 -0.2866226434707641
decision_type=2 2 2 2 2 2
left_child=1 -1 -3 -4 -2 -6
right_child=4 2 3 -5 5 -7
leaf_value=-0.21481151116391023 -1.6762755213285747 -0.013275144240435431 6.547782374790736 1.233443298339844 1.2924995295206705 -0.28193607515540003
leaf_weight=48 19 17.000000000000004 7 5.9999999999999982 18 121
leaf_count=48 19 17 7 6 18 121
internal_value=0 0.547417 1.76698 4.09501 -0.270244 -0.0780523
internal_weight=0 78 30 13 158 139
internal_count=236 78 30 13 158 139
is_linear=0
shrinkage=0.01


Tree=16
num_leaves=7
num_cat=0
split_feature=9 10 16 11 18 9
split_gain=347535 1.00853e+06 555646 525786 1.41014e+06 490717
threshold=-0.31147158145904535 -0.44666931033134455 0.10881548002362253 -0.27790032327175135 -0.40946255624294275 -0.41298811137676233
decision_type=2 2 2 2 2 2
left_child=1 -1 -2 4 -3 -6
right_child=2 3 -4 -5 5 -7
leaf_value=-0.42479133611633663 -1.206057456334432 5.8591253662109377 0.16478657059855276 -0.053119333902994788 -1.4576278575261434 1.8228209194384122
leaf_weight=63 48 7.9999999999999991 77 14.999999999999998 5.9999999999999991 19.000000000000004
leaf_count=63 48 8 77 15 6 19
internal_value=0 0.407227 -0.361618 1.49925 2.20487 1.03551
internal_weight=0 111 125 48 33 25
internal_count=236 111 125 48 33 25
is_linear=0
shrinkage=0.01


Tree=17
num_leaves=7
num_cat=0
split_feature=0 0 16 0 7 16
split_gain=337539 702941 1.20371e+06 887924 417004 378647
threshold=0.044756267219781883 -0.38539284467697138 -0.58750930428504933 -0.17633999884128568 -0.57593104243278492 -0.2866226434707641
decision_type=2 2 2 2 2 2
left_child=1 -1 -3 -4 -2 -6
right_child=4 2 3 -5 5 -7
leaf_value=-0.21224811938901741 -1.6552648474040785 -0.012590887406293081 6.4492711966378344 1.2068145624796551 1.2774304119745892 -0.2770871549007321
leaf_weight=48 19 17.000000000000004 7 5.9999999999999982 18 121
leaf_count=48 19 17 7 6 18 121
internal_value=0 0.538254 1.73906 4.02968 -0.26572 -0.0757827
internal_weight=0 78 30 13 158 139
internal_count=236 78 30 13 158 139
is_linear=0
shrinkage=0.01


Tree=18
num_leaves=7
num_cat=0
split_feature=0 0 16 0 7 16
split_gain=330822 688952 1.17975e+06 870254 408706 371112
threshold=0.044756267219781883 -0.38539284467697138 -0.58750930428504933 -0.17633999884128568 -0.57593104243278492 -0.2866226434707641
decision_type=2 2 2 2 2 2
left_child=1 -1 -3 -4 -2 -6
right_child=4 2 3 -5 5 -7
leaf_value=-0.21012565436462563 -1.6387122465434829 -0.012465004640467023 6.3847785077776225 1.1947464879353844 1.2646561447779339 -0.2743162649722139
leaf_weight=48 19 17.000000000000004 7 5.9999999999999982 18 121
leaf_count=48 19 17 7 6 18 121
internal_value=0 0.532872 1.72167 3.98938 -0.263063 -0.0750249
internal_weight=0 78 30 13 158 139
internal_count=236 78 30 13 158 139
is_linear=0
shrinkage=0.01


Tree=19
num_leaves=7
num_cat=0
split_feature=0 0 16 0 0 0
split_gain=324239 675242 1.15628e+06 852936 401936 541334
threshold=0.044756267219781883 -0.38539284467697138 -0.58750930428504933 -0.17633999884128568 0.97387331724166881 0.79484885931015026
decision_type=2 2 2 2 2 2
left_child=1 -1 -3 -4 5 -2
right_child=4 2 3 -5 -6 -7
leaf_value=-0.20802441825469334 -0.20987228763103485 -0.012340336967917047 6.320930655343191 1.1827988306681316 1.064441286087036 -2.0695834498935275
leaf_weight=48 120 17.000000000000004 7 5.9999999999999982 20 18
leaf_count=48 120 17 7 6 20 18
internal_value=0 0.527543 1.70445 3.94949 -0.260433 -0.452443
internal_weight=0 78 30 13 158 138
internal_count=236 78 30 13 158 138
is_linear=0
shrinkage=0.01


Tree=20
num_leaves=7
num_cat=0
split_feature=9 10 11 0 10 16
split_gain=330717 957336 932830 831517 901871 545269
threshold=-0.31147158145904535 -0.41148789227008814 -0.27790032327175135 -0.17633999884128568 -0.35808798670768732 0.10881548002362253
decision_type=2 2 2 2 2 2
left_child=1 -1 3 -3 -5 -2
right_child=5 2 -4 4 -6 -7
leaf_value=-0.25943084536372008 -1.1892774029572803 6.5076731567382762 -0.44680128244253303 3.9912493495941148 -0.37217789755927194 0.16870591330837895
leaf_weight=74 48 5.0000000000000027 12.999999999999998 10.000000000000002 8.9999999999999982 77
leaf_count=74 48 5 13 10 9 77
internal_value=0 0.397252 1.71062 2.87922 1.92436 -0.35276
internal_weight=0 111 37 24 19 125
internal_count=236 111 37 24 19 125
is_linear=0
shrinkage=0.01


Tree=21
num_leaves=7
num_cat=0
split_feature=9 10 16 10 9 9
split_gain=324136 938389 534418 415259 546144 886413
threshold=-0.31147158145904535 -0.44666931033134455 0.10881548002362253 1.1191184520721438 0.20599739253520968 0.25584685057401663
decision_type=2 2 2 2 2 2
left_child=1 -1 -2 4 -4 -6
right_child=2 -3 3 -5 5 -7
leaf_value=-0.40928566554236034 -1.1773846300443014 1.4466459575295449 -0.37325772432180548 -0.92428703645865129 5.0471045430501276 0.68882927485874723
leaf_weight=63 48 48 26 24 6.0000000000000027 21
leaf_count=63 48 48 26 24 6 21
internal_value=0 0.393279 -0.349232 0.167019 0.661195 1.65733
internal_weight=0 111 125 77 53 27
internal_count=236 111 125 77 53 27
is_linear=0
shrinkage=0.01


Tree=22
num_leaves=7
num_cat=0
split_feature=9 10 0 18 0 19
split_gain=317686 923143 632047 766421 460796 617014
threshold=-0.31147158145904535 -0.41148789227008814 -0.3239587396383285 -0.40946255624294275 0.97387331724166881 1.2184174060821535
decision_type=2 2 2 2 2 2
left_child=1 -1 -3 -4 -2 -6
right_child=4 2 3 -5 5 -7
leaf_value=-0.25550251831879484 -0.61072391064961751 -0.096811283551729646 5.4258270263671875 1.4942596516889683 3.7284282430012996 -0.10443056515284947
leaf_weight=74 105 12.999999999999998 6.9999999999999991 17.000000000000004 6.0000000000000027 13.999999999999998
leaf_count=74 105 13 7 17 6 14
internal_value=0 0.389347 1.67904 2.64097 -0.34574 1.04543
internal_weight=0 111 37 24 125 20
internal_count=236 111 37 24 125 20
is_linear=0
shrinkage=0.01


Tree=23
num_leaves=7
num_cat=0
split_feature=9 10 16 11 18 7
split_gain=311364 904846 520403 487548 1.29193e+06 479849
threshold=-0.31147158145904535 -0.44666931033134455 0.10881548002362253 -0.27790032327175135 -0.40946255624294275 -0.41204479336738581
decision_type=2 2 2 2 2 2
left_child=1 -1 -2 4 -3 -6
right_child=2 3 -4 -5 5 -7
leaf_value=-0.40263779490713092 -1.1595035258928936 5.5970407676696778 0.16715419459652592 -0.075034540176391606 -1.4853510268529257 1.7585670835093445
leaf_weight=63 48 7.9999999999999991 77 14.999999999999998 5.9999999999999991 19.000000000000004
leaf_count=63 48 8 77 15 6 19
internal_value=0 0.385453 -0.342282 1.41982 2.0993 0.980027
internal_weight=0 111 125 48 33 25
internal_count=236 111 125 48 33 25
is_linear=0
shrinkage=0.01


Tree=24
num_leaves=7
num_cat=0
split_feature=0 0 16 0 7 9
split_gain=307070 637407 1.08158e+06 817177 395659 370606
threshold=0.044756267219781883 -0.38539284467697138 -0.58750930428504933 -0.17633999884128568 -0.57593104243278492 -0.31147158145904535
decision_type=2 2 2 2 2 2
left_child=1 -1 -3 -4 -2 -6
right_child=4 2 3 -5 5 -7
leaf_value=-0.2012762059768041 -1.6069578072899269 -0.0035693370594697834 6.149360700334821 1.1200902430216473 0.85700205643971761 -0.35653771346470092
leaf_weight=48 19 17.000000000000004 7 5.9999999999999982 33 106
leaf_count=48 19 17 7 6 33 106
internal_value=0 0.513386 1.65685 3.82816 -0.253444 -0.0684311
internal_weight=0 78 30 13 158 139
internal_count=236 78 30 13 158 139
is_linear=0
shrinkage=0.01


Tree=25
num_leaves=7
num_cat=0
split_feature=0 0 16 0 0 19
split_gain=300960 624722 1.06006e+06 800915 379742 604735
threshold=0.044756267219781883 -0.38539284467697138 -0.58750930428504933 -0.17633999884128568 0.97387331724166881 1.2184174060821535
decision_type=2 2 2 2 2 2
left_child=1 -1 -3 -4 -2 -6
right_child=4 2 3 -5 5 -7
leaf_value=-0.1992634252955516 -0.43754362612530806 -0.0035336326150333178 6.0878670828683026 1.1088893381754559 3.6930377960205054 -0.10149243491036553
leaf_weight=48 138 17.000000000000004 7 5.9999999999999982 6.0000000000000027 13.999999999999998
leaf_count=48 138 17 7 6 6 14
internal_value=0 0.508252 1.64028 3.78988 -0.250909 1.03687
internal_weight=0 78 30 13 158 20
internal_count=236 78 30 13 158 20
is_linear=0
shrinkage=0.01


Tree=26
num_leaves=7
num_cat=0
split_feature=9 10 11 18 0 9
split_gain=298429 870236 872848 984535 441415 468344
threshold=-0.31147158145904535 -0.41148789227008814 -0.27790032327175135 -0.40946255624294275 0.97387331724166881 2.4120745658874516
decision_type=2 2 2 2 2 2
left_child=1 -1 3 -3 -2 -6
right_child=4 2 -4 -5 5 -7
leaf_value=-0.24873558440723934 -0.59444882928757437 5.9163140869140625 -0.45734667264498202 1.4602887470581951 2.0282934829166952 -1.3110248819986978
leaf_weight=74 105 6.9999999999999991 12.999999999999998 17.000000000000004 14.000000000000002 5.9999999999999991
leaf_count=74 105 7 13 17 14 6
internal_value=0 0.377362 1.62956 2.75996 -0.335097 1.0265
internal_weight=0 111 37 24 125 20
internal_count=236 111 37 24 125 20
is_linear=0
shrinkage=0.01


Tree=27
num_leaves=7
num_cat=0
split_feature=10 10 18 11 10 1
split_gain=288895 544967 483357 1.04608e+06 576941 437291
threshold=-0.17391178011894223 -0.52006602287292469 -0.40946255624294275 -0.27942067384719843 -0.37614747881889338 0.89437186717987072
decision_type=2 2 2 2 2 2
left_child=1 -1 3 4 -3 -4
right_child=-2 2 5 -5 -6 -7
leaf_value=-0.59034184537827972 -0.43772463041803117 1.8387384414672849 0.092087984031705705 -0.14406314929326378 6.2240979258219378 3.1577838745117184
leaf_weight=48 92 6 67 11.999999999999998 6.0000000000000018 4.9999999999999991
leaf_count=48 92 6 67 12 6 5
internal_value=0 0.279657 0.714657 1.94368 4.03142 0.304984
internal_weight=0 144 96 24 12 72
internal_count=236 144 96 24 12 72
is_linear=0
shrinkage=0.01


Tree=28
num_leaves=7
num_cat=0
split_feature=0 0 10 0 9 0
split_gain=290051 593169 810193 417106 798297 363387
threshold=0.044756267219781883 -0.38539284467697138 -0.52006602287292469 -0.17633999884128568 -0.52454200387001026 0.97387331724166881
decision_type=2 2 2 2 2 2
left_child=1 -1 -3 4 -4 -2
right_child=5 2 3 -5 -6 -7
leaf_value=-0.19046081201483805 -0.42889096393965292 -0.15480612754821774 1.5644910888671877 1.0548177846272786 7.2153222045898442 1.0134192304611207
leaf_weight=48 138 14.000000000000002 4.9999999999999991 5.9999999999999991 4.9999999999999991 20
leaf_count=48 138 14 5 6 5 20
internal_value=0 0.498956 1.60202 3.13925 4.38991 -0.24632
internal_weight=0 78 30 16 10 158
internal_count=236 78 30 16 10 158
is_linear=0
shrinkage=0.01


Tree=29
num_leaves=7
num_cat=0
split_feature=0 17 16 0 0 7
split_gain=284279 585496 1.32263e+06 433309 954954 421686
threshold=0.044756267219781883 -0.27842484414577479 -0.58750930428504933 -0.17633999884128568 -0.38539284467697138 -0.80833217501640309
decision_type=2 2 2 2 2 2
left_child=1 2 -1 4 5 -3
right_child=-2 3 -4 -5 -6 -7
leaf_value=0.56194833431185953 -0.24385684048450448 0.11818221998214722 5.7525567118326819 -2.7497486750284832 2.9938420274522572 -2.3968293533325187
leaf_weight=27 158 20 5.9999999999999991 5.9999999999999991 8.9999999999999982 10.000000000000002
leaf_count=27 158 20 6 6 9 10
internal_value=0 0.493966 1.5057 -0.247968 0.136921 -0.720155
internal_weight=0 78 33 45 39 30
internal_count=236 78 33 45 39 30
is_linear=0
shrinkage=0.01


Tree=30
num_leaves=7
num_cat=0
split_feature=9 10 11 18 7 9
split_gain=283547 834759 447729 1.13714e+06 468403 430498
threshold=-0.31147158145904535 -0.44666931033134455 -0.27790032327175135 -0.40946255624294275 -0.41204479336738581 0.20599739253520968
decision_type=2 2 2 2 2 2
left_child=1 -1 3 -3 -5 -2
right_child=5 2 -4 4 -6 -7
leaf_value=-0.38912126793747859 -0.82193795191098562 5.2939967918396 -0.071178058624267584 -1.4734071254730225 1.7315884668576087 0.36869361675702605
leaf_weight=63 73 7.9999999999999991 14.999999999999998 5.9999999999999991 19.000000000000004 52
leaf_count=63 73 8 15 6 19 52
internal_value=0 0.367832 1.36133 2.01248 0.96239 -0.326635
internal_weight=0 111 48 33 25 125
internal_count=236 111 48 33 25 125
is_linear=0
shrinkage=0.01


Tree=31
num_leaves=7
num_cat=0
split_feature=9 9 16 16 14 7
split_gain=277904 756708 822609 491125 372678 339251
threshold=-0.31147158145904535 -0.41298811137676233 -0.2866226434707641 0.10881548002362253 1.0000000180025095e-35 2.8877940177917485
decision_type=2 2 2 2 2 2
left_child=1 4 -3 -2 -1 -5
right_child=3 2 -4 5 -6 -7
leaf_value=0.36703772715159821 -1.1172689270973206 3.9256146066839035 0.3732109156250954 0.38143127196175713 -1.0459335638050522 -1.9274836022513253
leaf_weight=56 48 11.000000000000002 15.999999999999998 70 28 6.9999999999999991
leaf_count=56 48 11 16 70 28 7
internal_value=0 0.364154 1.82049 -0.323369 -0.103953 0.17153
internal_weight=0 111 27 125 84 77
internal_count=236 111 27 125 84 77
is_linear=0
shrinkage=0.01


Tree=32
num_leaves=7
num_cat=0
split_feature=10 10 7 0 11 10
split_gain=274918 521005 558739 559174 1.1428e+06 404617
threshold=-0.17391178011894223 -0.52006602287292469 0.363998293876648 0.072021786123514189 -0.27942067384719843 -0.1481613293290138
decision_type=2 2 2 2 2 2
left_child=1 -1 3 4 -3 -2
right_child=5 2 -4 -5 -6 -7
leaf_value=-0.57784849472343924 -2.4409425078497993 3.8014891932560837 3.6528447214762374 0.03933037053293257 -0.69503811740875254 -0.20862614643142885
leaf_weight=48 8.9999999999999982 13.000000000000002 5.9999999999999991 67 9.9999999999999982 83
leaf_count=48 9 13 6 67 10 83
internal_value=0 0.272809 0.698137 0.501157 1.84648 -0.427005
internal_weight=0 144 96 90 23 92
internal_count=236 144 96 90 23 92
is_linear=0
shrinkage=0.01


Tree=33
num_leaves=7
num_cat=0
split_feature=9 10 16 11 0 10
split_gain=270160 799408 479393 431788 819520 402319
threshold=-0.31147158145904535 -0.44666931033134455 0.10881548002362253 -0.27790032327175135 -0.17633999884128568 -0.35808798670768732
decision_type=2 2 2 2 2 2
left_child=1 -1 -2 4 -3 -6
right_child=2 3 -4 -5 5 -7
leaf_value=-0.38170799622578278 -1.1031914881865184 5.3136704254150393 0.17012050789672059 -0.075497269312540694 2.0910043573379515 -0.49845833182334881
leaf_weight=63 48 5.9999999999999991 77 14.999999999999998 18 9.0000000000000018
leaf_count=63 48 6 77 15 18 9
internal_value=0 0.359044 -0.318831 1.33128 1.97073 1.22785
internal_weight=0 111 125 48 33 27
internal_count=236 111 125 48 33 27
is_linear=0
shrinkage=0.01


Tree=34
num_leaves=7
num_cat=0
split_feature=10 10 7 18 9 10
split_gain=267040 504560 548684 479571 763274 394512
threshold=-0.17391178011894223 -0.52006602287292469 0.363998293876648 -0.40946255624294275 -0.48276126384735102 -0.1481613293290138
decision_type=2 2 2 2 2 2
left_child=1 -1 3 4 -3 -2
right_child=5 2 -4 -5 -6 -7
leaf_value=-0.56825293412432076 -2.4094726392957897 0.76543528388528248 3.6154337565104169 0.077029279126402214 5.2101316528320307 -0.20520793305822169
leaf_weight=48 8.9999999999999982 17.000000000000004 5.9999999999999991 68 4.9999999999999991 83
leaf_count=48 9 17 6 68 5 83
internal_value=0 0.268872 0.687434 0.492234 1.77559 -0.420843
internal_weight=0 144 96 90 22 92
internal_count=236 144 96 90 22 92
is_linear=0
shrinkage=0.01


Tree=35
num_leaves=7
num_cat=0
split_feature=9 10 11 0 10 9
split_gain=262319 777838 791293 658651 876550 409142
threshold=-0.31147158145904535 -0.41148789227008814 -0.27790032327175135 -0.17633999884128568 -0.35808798670768732 0.20599739253520968
decision_type=2 2 2 2 2 2
left_child=1 -1 3 -3 -5 -2
right_child=5 2 -4 4 -6 -7
leaf_value=-0.23813142703997123 -0.79703139083026198 5.8432927856445271 -0.44936848126924955 3.8017887840270981 -0.49994744936625163 0.36369192765309261
leaf_weight=74 73 5.0000000000000027 12.999999999999998 10.000000000000002 8.9999999999999982 52
leaf_count=74 73 5 13 10 9 52
internal_value=0 0.353796 1.53765 2.61395 1.76412 -0.31417
internal_weight=0 111 37 24 19 125
internal_count=236 111 37 24 19 125
is_linear=0
shrinkage=0.01


Tree=36
num_leaves=7
num_cat=0
split_feature=7 9 9 9 10 11
split_gain=263010 240069 1.23575e+06 585006 730828 700469
threshold=2.8877940177917485 0.20599739253520968 0.25584685057401663 -0.28679086267948145 -0.41148789227008814 -0.27790032327175135
decision_type=2 2 2 2 2 2
left_child=1 3 -3 4 -1 -6
right_child=-2 2 -4 -5 5 -7
leaf_value=-0.23728537165323893 -1.9094086020333427 4.9379835764567064 0.063097966022980526 -0.82132733617510112 2.3980702796005287 -0.44487482584439791
leaf_weight=75 6.9999999999999991 5.9999999999999991 39 70 26 12.999999999999998
leaf_count=75 7 6 39 70 26 13
internal_value=0 0.0583662 0.713083 -0.101755 0.340088 1.45042
internal_weight=0 229 45 184 114 39
internal_count=236 229 45 184 114 39
is_linear=0
shrinkage=0.01


Tree=37
num_leaves=7
num_cat=0
split_feature=7 10 16 7 10 11
split_gain=257776 230141 628958 467249 750312 332220
threshold=2.8877940177917485 -0.52006602287292469 -0.2866226434707641 0.32094654440879827 1.0000000180025095e-35 -0.27698203921318049
decision_type=2 2 2 2 2 2
left_child=1 -1 5 -4 -5 -3
right_child=-2 2 3 4 -6 -7
leaf_value=-0.55781623691320426 -1.8903145599365234 1.7018378317696707 -0.42885639460581654 3.2213679275512686 -0.10669938132876443 -0.45235090785556364
leaf_weight=48 6.9999999999999991 35 106 10.000000000000002 21 8.9999999999999982
leaf_count=48 7 35 106 10 21 9
internal_value=0 0.0577825 0.221035 -0.113035 0.966871 1.26121
internal_weight=0 229 181 137 31 44
internal_count=236 229 181 137 31 44
is_linear=0
shrinkage=0.01


Tree=38
num_leaves=7
num_cat=0
split_feature=0 3 11 16 2 1
split_gain=258827 546219 408826 1.07376e+06 358895 344783
threshold=0.044756267219781883 -0.42612363398075098 -0.27976721525192255 -0.58750930428504933 -0.98561486601829518 0.18875560164451602
decision_type=2 2 2 2 2 2
left_child=1 2 3 -1 -4 -2
right_child=5 -3 4 -5 -6 -7
leaf_value=0.10042495754030015 -1.1418486126263936 3.6688505249023438 0.24287590470578935 4.9852405293782551 -1.6955922104762153 0.0073346179580688481
leaf_weight=18.000000000000004 33 4.9999999999999991 36 5.9999999999999991 12.999999999999998 125
leaf_count=18 33 5 36 6 13 125
internal_value=0 0.471336 0.252328 1.32163 -0.271412 -0.232685
internal_weight=0 78 73 24 49 158
internal_count=236 78 73 24 49 158
is_linear=0
shrinkage=0.01


Tree=39
num_leaves=7
num_cat=0
split_feature=0 17 16 0 0 16
split_gain=253677 565893 1.18354e+06 415513 741810 705234
threshold=0.044756267219781883 -0.27842484414577479 -0.58750930428504933 -0.14157832413911817 -0.38539284467697138 -0.58750930428504933
decision_type=2 2 2 2 2 2
left_child=1 2 -1 4 -3 -6
right_child=-2 3 -4 -5 5 -7
leaf_value=0.56852340005062252 -0.23035782028602647 -0.70929126866658532 5.4786265563964847 -2.9806702423095706 -0.21995176696777338 5.0912983398437506
leaf_weight=27 158 30 5.9999999999999991 4.9999999999999991 5 4.9999999999999982
leaf_count=27 158 30 6 5 5 5
internal_value=0 0.466622 1.46127 -0.262786 0.0769499 2.43567
internal_weight=0 78 33 45 40 10
internal_count=236 78 33 45 40 10
is_linear=0
shrinkage=0.01


Tree=40
num_leaves=7
num_cat=0
split_feature=10 10 0 11 9 9
split_gain=250464 472165 434403 888489 528962 468533
threshold=-0.17391178011894223 -0.52006602287292469 0.072021786123514189 -0.27942067384719843 -0.10561431199312209 -0.31147158145904535
decision_type=2 2 2 2 2 2
left_child=1 -1 3 -3 5 -4
right_child=-2 2 4 -5 -6 -7
leaf_value=-0.54941246402760346 -0.40757153391838075 3.6101574178842388 0.55519232644754302 -0.16325047492980957 1.9338837560017905 -1.3177025084062055
leaf_weight=48 92 13.000000000000002 34 11.999999999999998 14.999999999999998 22
leaf_count=48 92 13 34 12 15 22
internal_value=0 0.260393 0.665296 1.79892 0.266132 -0.180588
internal_weight=0 144 96 25 71 56
internal_count=236 144 96 25 71 56
is_linear=0
shrinkage=0.01


Tree=41
num_leaves=7
num_cat=0
split_feature=7 9 9 9 10 11
split_gain=250947 235924 1.19516e+06 556864 695516 657720
threshold=2.8877940177917485 0.20599739253520968 0.25584685057401663 -0.28679086267948145 -0.41148789227008814 -0.27790032327175135
decision_type=2 2 2 2 2 2
left_child=1 3 -3 4 -1 -6
right_child=-2 2 -4 -5 5 -7
leaf_value=-0.23388791515032453 -1.865105367388044 4.8609750620524093 0.066832289818005694 -0.80377239370346076 2.3308170681274856 -0.42401172051062952
leaf_weight=75 6.9999999999999991 5.9999999999999991 39 70 26 12.999999999999998
leaf_count=75 7 6 39 70 26 13
internal_value=0 0.057012 0.706051 -0.10172 0.329364 1.41254
internal_weight=0 229 45 184 114 39
internal_count=236 229 45 184 114 39
is_linear=0
shrinkage=0.01


Tree=42
num_leaves=7
num_cat=0
split_feature=7 9 10 9 10 11
split_gain=245953 231229 1.1752e+06 545783 681675 644632
threshold=2.8877940177917485 0.20599739253520968 1.0000000180025095e-35 -0.28679086267948145 -0.41148789227008814 -0.27790032327175135
decision_type=2 2 2 2 2 2
left_child=1 3 -3 4 -1 -6
right_child=-2 2 -4 -5 5 -7
leaf_value=-0.23154903459548951 -1.8464544078281946 4.4642275129045759 0.0053945124776739826 -0.7957346812656948 2.3075089307931753 -0.4197715928004338
leaf_weight=75 6.9999999999999991 6.9999999999999991 38 70 26 12.999999999999998
leaf_count=75 7 7 38 70 26 13
internal_value=0 0.0564418 0.698991 -0.100703 0.32607 1.39842
internal_weight=0 229 45 184 114 39
internal_count=236 229 45 184 114 39
is_linear=0
shrinkage=0.01


Tree=43
num_leaves=7
num_cat=0
split_feature=0 17 18 0 0 0
split_gain=246118 552922 1.01302e+06 408815 716146 498507
threshold=0.044756267219781883 -0.27842484414577479 -0.63108408451080311 -0.14157832413911817 -0.38539284467697138 -0.28468868136405939
decision_type=2 2 2 2 2 2
left_child=1 2 -1 4 -3 -6
right_child=-2 3 -4 -5 5 -7
leaf_value=0.70241556848798481 -0.22690014036395884 -0.69691636228561404 5.5889530029296877 -2.9572729034423828 4.62589468383789 0.16044041442871099
leaf_weight=28 158 30 4.9999999999999991 4.9999999999999991 5 4.9999999999999982
leaf_count=28 158 30 5 5 5 5
internal_value=0 0.459618 1.4428 -0.261382 0.0756046 2.39317
internal_weight=0 78 33 45 40 10
internal_count=236 78 33 45 40 10
is_linear=0
shrinkage=0.01


Tree=44
num_leaves=7
num_cat=0
split_feature=0 3 11 16 18 7
split_gain=241221 514269 373281 980365 397503 363664
threshold=0.044756267219781883 -0.42612363398075098 -0.27976721525192255 -0.58750930428504933 -0.89879485964775074 -0.57593104243278492
decision_type=2 2 2 2 2 2
left_child=1 2 3 -1 -4 -2
right_child=5 -3 4 -5 -6 -7
leaf_value=0.09739151212904186 -1.5222642780605116 3.5576104736328125 0.28330553279982673 4.7649280293782548 -1.7567652482252853 -0.047256823923948005
leaf_weight=18.000000000000004 19 4.9999999999999991 36 5.9999999999999991 12.999999999999998 139
leaf_count=18 19 5 36 6 13 139
internal_value=0 0.455022 0.242516 1.26428 -0.257938 -0.224631
internal_weight=0 78 73 24 49 158
internal_count=236 78 73 24 49 158
is_linear=0
shrinkage=0.01


Tree=45
num_leaves=7
num_cat=0
split_feature=7 0 0 2 15 19
split_gain=240336 319748 592404 1.43974e+06 473370 425267
threshold=2.8877940177917485 0.97387331724166881 0.79484885931015026 0.74852657318115245 0.61858418583869945 1.2184174060821535
decision_type=2 2 2 2 2 2
left_child=1 2 3 4 -1 -3
right_child=-2 5 -4 -5 -6 -7
leaf_value=0.066928142590837167 -1.8252483204432899 3.5088986460367817 -2.1212412379338188 5.380310546875001 -2.0692974610762165 0.24827320257822674
leaf_weight=182 6.9999999999999991 6.0000000000000027 12.999999999999998 4.9999999999999991 10.999999999999998 11.999999999999998
leaf_count=182 7 6 13 5 11 12
internal_value=0 0.0557936 -0.0533457 0.0824253 -0.0548256 1.33515
internal_weight=0 229 211 198 193 18
internal_count=236 229 211 198 193 18
is_linear=0
shrinkage=0.01


Tree=46
num_leaves=7
num_cat=0
split_feature=0 17 16 0 0 16
split_gain=235718 537845 1.0927e+06 402344 694639 668877
threshold=0.044756267219781883 -0.27842484414577479 -0.58750930428504933 -0.14157832413911817 -0.38539284467697138 -0.58750930428504933
decision_type=2 2 2 2 2 2
left_child=1 2 -1 4 -3 -6
right_child=-2 3 -4 -5 5 -7
leaf_value=0.56168469089048878 -0.22205441652973995 -0.68782341655095425 5.2795981343587242 -2.935767593383789 -0.23075987243652341 4.9417726135253917
leaf_weight=27 158 30 5.9999999999999991 4.9999999999999991 5 4.9999999999999982
leaf_count=27 158 30 6 5 5 5
internal_value=0 0.449803 1.41949 -0.261299 0.073009 2.35551
internal_weight=0 78 33 45 40 10
internal_count=236 78 33 45 40 10
is_linear=0
shrinkage=0.01


Tree=47
num_leaves=7
num_cat=0
split_feature=7 0 0 2 6 14
split_gain=234975 314518 579207 1.41251e+06 462688 400187
threshold=2.8877940177917485 0.97387331724166881 0.79484885931015026 0.74852657318115245 0.61095717549324047 1.2205455303192141
decision_type=2 2 2 2 2 2
left_child=1 2 3 4 -1 -3
right_child=-2 5 -4 -5 -6 -7
leaf_value=0.065600015190276473 -1.8047752979823524 3.1931595066615497 -2.0978082979642427 5.328728206634521 -2.0463839478926227 0.13456335587935014
leaf_weight=182 6.9999999999999991 7.0000000000000027 12.999999999999998 4.9999999999999991 10.999999999999998 10.999999999999998
leaf_count=182 7 7 13 5 11 11
internal_value=0 0.0551678 -0.0530753 0.0811749 -0.0547721 1.32402
internal_weight=0 229 211 198 193 18
internal_count=236 229 211 198 193 18
is_linear=0
shrinkage=0.01


Tree=48
num_leaves=7
num_cat=0
split_feature=0 3 11 16 18 7
split_gain=230347 499202 358782 940012 387506 357526
threshold=0.044756267219781883 -0.42612363398075098 -0.27976721525192255 -0.58750930428504933 -0.89879485964775074 -0.57593104243278492
decision_type=2 2 2 2 2 2
left_child=1 2 3 -1 -4 -2
right_child=5 -3 4 -5 -6 -7
leaf_value=0.094381510946485711 -1.5061463664707384 3.5014502563476562 0.27903458547261023 4.6648465983072915 -1.7352199026254507 -0.04363887440386436
leaf_weight=18.000000000000004 19 4.9999999999999991 36 5.9999999999999991 12.999999999999998 139
leaf_count=18 19 5 36 6 13 139
internal_value=0 0.444649 0.235279 1.237 -0.255359 -0.21951
internal_weight=0 78 73 24 49 158
internal_count=236 78 73 24 49 158
is_linear=0
shrinkage=0.01


Tree=49
num_leaves=7
num_cat=0
split_feature=10 10 7 18 11 10
split_gain=232284 441728 506782 389745 951834 435224
threshold=-0.17391178011894223 -0.52006602287292469 0.363998293876648 -0.40946255624294275 -0.27942067384719843 -0.37614747881889338
decision_type=2 2 2 2 2 2
left_child=1 -1 3 4 5 -3
right_child=-2 2 -4 -5 -6 -7
leaf_value=-0.53250505472843845 -0.39250108288682029 1.6061100769042966 3.4563769022623703 0.080495495936449835 -0.66681264305114751 5.4149750264485661
leaf_weight=48 92 6 5.9999999999999991 68 9.9999999999999982 6.0000000000000018
leaf_count=48 92 6 6 68 10 6
internal_value=0 0.250765 0.642399 0.454801 1.61174 3.51054
internal_weight=0 144 96 90 22 12
internal_count=236 144 96 90 22 12
is_linear=0
shrinkage=0.01


end of trees

feature_importances:
Column_0=85
Column_10=43
Column_16=41
Column_9=39
Column_7=28
Column_11=24
Column_18=14
Column_19=6
Column_17=5
Column_2=3
Column_3=3
Column_14=3
Column_1=2
Column_6=2
Column_8=1
Column_15=1

parameters:
[boosting: gbdt]
[objective: regression]
[metric: l2]
[tree_learner: serial]
[device_type: cpu]
[data_sample_strategy: bagging]
[data: ]
[valid: ]
[num_iterations: 50]
[learning_rate: 0.01]
[num_leaves: 7]
[num_threads: 2]
[seed: 42]
[deterministic: 0]
[force_col_wise: 0]
[force_row_wise: 0]
[histogram_pool_size: -1]
[max_depth: -1]
[min_data_in_leaf: 5]
[min_sum_hessian_in_leaf: 0.001]
[bagging_fraction: 0.6]
[pos_bagging_fraction: 1]
[neg_bagging_fraction: 1]
[bagging_freq: 0]
[bagging_seed: 400]
[feature_fraction: 0.8]
[feature_fraction_bynode: 1]
[feature_fraction_seed: 30056]
[extra_trees: 0]
[extra_seed: 12879]
[early_stopping_round: 0]
[early_stopping_min_delta: 0]
[first_metric_only: 0]
[max_delta_step: 0]
[lambda_l1: 0]
[lambda_l2: 0]
[linear_lambda: 0]
[min_gain_to_split: 0]
[drop_rate: 0.1]
[max_drop: 50]
[skip_drop: 0.5]
[xgboost_dart_mode: 0]
[uniform_drop: 0]
[drop_seed: 17869]
[top_rate: 0.2]
[other_rate: 0.1]
[min_data_per_group: 100]
[max_cat_threshold: 32]
[cat_l2: 10]
[cat_smooth: 10]
[max_cat_to_onehot: 4]
[top_k: 20]
[monotone_constraints: ]
[monotone_constraints_method: basic]
[monotone_penalty: 0]
[feature_contri: ]
[forcedsplits_filename: ]
[refit_decay_rate: 0.9]
[cegb_tradeoff: 1]
[cegb_penalty_split: 0]
[cegb_penalty_feature_lazy: ]
[cegb_penalty_feature_coupled: ]
[path_smooth: 0]
[interaction_constraints: ]
[verbosity: -1]
[saved_feature_importance_type: 0]
[use_quantized_grad: 0]
[num_grad_quant_bins: 4]
[quant_train_renew_leaf: 0]
[stochastic_rounding: 1]
[linear_tree: 0]
[max_bin: 255]
[max_bin_by_feature: ]
[min_data_in_bin: 3]
[bin_construct_sample_cnt: 200000]
[data_random_seed: 175]
[is_enable_sparse: 1]
[enable_bundle: 1]
[use_missing: 1]
[zero_as_missing: 0]
[feature_pre_filter: 1]
[pre_partition: 0]
[two_round: 0]
[header: 0]
[label_column: ]
[weight_column: ]
[group_column: ]
[ignore_column: ]
[categorical_feature: ]
[forcedbins_filename: ]
[precise_float_parser: 0]
[parser_config_file: ]
[objective_seed: 16083]
[num_class: 1]
[is_unbalance: 0]
[scale_pos_weight: 1]
[sigmoid: 1]
[boost_from_average: 1]
[reg_sqrt: 0]
[alpha: 0.9]
[fair_c: 1]
[poisson_max_delta_step: 0.7]
[tweedie_variance_power: 1.5]
[lambdarank_truncation_level: 30]
[lambdarank_norm: 1]
[label_gain: ]
[lambdarank_position_bias_regularization: 0]
[eval_at: ]
[multi_error_top_k: 1]
[auc_mu_weights: ]
[num_machines: 1]
[local_listen_port: 12400]
[time_out: 120]
[machine_list_filename: ]
[machines: ]
[gpu_platform_id: -1]
[gpu_device_id: -1]
[gpu_use_dp: 0]
[num_gpu: 1]

end of parameters

pandas_categorical:null
